0.11272496
-0.35791016
-0.45980474
-0.17619288
-0.18576509
0.0017270554
-0.22620001
0.25019115
-0.20246811
-0.3395616
-0.151649
-0.17429827
-0.02988719
-0.2545176
-0.5832363
-0.0001609236
0.113120675
-0.22195272
-0.11898697
-0.00046744
-0.512784
0.042930827
0.06531232
-0.09770214
-0.1307978
-0.1972769
0.09312146
-0.04612486
-0.4811904
0.007319855
0.10895372
-0.06799358
-0.26759318
-0.109502375
-0.09580192
-0.03464983
-0.20854275
-0.3633213
-0.30973226
-0.09462034
-0.053211838
-0.31625742
-0.23113297
-0.039759573
-0.003176638
-0.047578663
-0.18655284
-0.28232643
-0.06074168
0.085661165
-0.17677243
-0.04098777
-0.46920362
0.016442632
-0.19660152
0.13841943
-0.087331966
-0.048056472
-0.06536307
0.31539452
0.17639472
0.08536235
-0.16471323
-0.09058386
-0.09334274
-0.27109766
-0.183561
-0.42665774
-0.27955005
-0.2715407
-0.039534844
-0.08210178
-0.05042922
-0.03187314
-0.5099971
-0.006297202
0.040319636
0.076469086
-0.056160484
-0.05722767
-0.325974
0.033291116
0.018257705
-0.1399112
-0.2482923
-0.044978224
-0.092457876
-0.15994313
-0.31773078
-0.45444348
0.0948678
0.079363
0.13481732
-0.09326583
-0.10310732
-0.17672694
0.01639429
-0.073878914
-0.13719232
-0.20287353
0.010808366
-0.19225563
-0.39521304
0.104644574
-0.09594858
-0.2699619
-0.020956324
-0.51776373
-0.45635316
0.051042106
0.13405553
-0.61557657
0.0781048
-0.054482356
-0.030748656
-0.09433272
0.2752195
0.07348301
0.029957036
-0.017495397
-0.031955205
-0.2575951
-0.37882072
-0.12070088
0.008201356
0.16871075
-0.60938543
0.08710263
-0.20663904
0.12779287
-0.31818184
0.09103658
-0.026808644
-0.1318422
0.12754029
-0.16589709
-0.10598391
-0.42574435
-0.39747176
0.085832834
0.037824363
-0.10123877
-0.16021581
-0.28295755
0.10662994
-0.35997447
-0.16542429
-0.07921522
0.4042682
-0.17834763
0.023104316
0.014529015
-0.10742558
0.023929875
0.06825326
0.0759029
-0.098998934
-0.3526522
-0.0035119033
0.036110636
0.035361655
0.010606348
0.037479814
-0.2037283
-0.09706256
-0.06614206
0.047880236
-0.09680908
-0.15860434
-0.20875156
0.1089153
-0.42342338
-0.6344046
0.1289077
-0.114649475
-0.1350369
0.14705874
0.0591876
0.015104426
-0.054970104
-0.042044245
-0.21433014
-0.32006133
-0.11531478
-0.30823588
0.07851242
-0.11479629
0.05890593
-0.03663671
0.098476514
-0.22722675
-0.15294154
-0.11908414
-0.005317364
-0.44137567
-0.15250082
-0.2844584
-0.19962099
0.17503916
-0.1547764
-0.11290329
-0.08311307
-0.19707489
0.114050224
0.20237848
0.12535773
-0.15224347
-0.03397378
-0.104999654
-0.16320913
-0.3505839
-0.2867952
-0.06539422
-0.0012712484
-0.18697114
-0.04514975
0.12131754
0.03978106
-0.21700437
-0.11481702
0.14810884
-0.08408893
-0.6980208
-0.12843592
-0.0044489
-0.37208748
-0.39976528
-0.048602726
-0.783632
0.059442148
-0.0059476173
-0.043106195
0.026539728
-0.07562511
-0.021958103
0.12412292
-0.0119267935
-0.0082017165
-0.10291284
-0.16192976
-0.033266533
-0.16818532
-0.4009941
-0.04001359
0.03467999
0.17278828
-0.0442369
-0.2761516
-0.22320297
0.103065915
-0.17223907
-0.16445947
0.07708574
0.15058911
-0.120428264
0.009623342
