0.027991062
-0.08408813
0.031195067
-0.022439746
-0.28624687
0.060960945
0.4060664
-0.4675681
-0.05173792
0.21142474
0.20326956
-0.07612186
0.23015754
-0.23290806
-0.27385506
-0.07540818
0.15287305
-0.03136931
-0.10563171
0.063829735
0.059939273
-0.13209327
-0.21544108
-0.06713236
0.08960438
-0.08122998
-0.1709254
-0.018613562
-0.06384773
-0.063557416
-0.13938409
0.25201988
0.001389079
-0.08778584
0.113220125
0.040971752
-0.05527331
0.23661058
0.19895427
0.0555308
-0.03301984
-0.10600123
0.17955513
-0.017156227
0.009405564
-0.09711546
0.08918764
0.089038804
-0.084232375
0.17904323
-0.07809299
0.25996917
0.009406075
0.23555985
-0.0379928
0.17910953
0.18893099
-0.16318204
-0.18767184
-0.14030099
0.018800827
0.08454253
0.060931846
0.35007906
-0.14889334
0.20601816
0.037823007
-0.015471157
-0.1626312
-0.009473072
0.0038548952
0.0025388
-0.279945
0.1505193
-0.1571366
0.35646144
-0.17403895
-0.2542296
0.16023791
-0.032835495
-0.11251019
-0.061025143
0.2209497
0.12824371
-0.0523234
0.1254985
0.15451416
0.08009798
0.26123944
-0.0767269
0.14124802
-0.1677466
-0.046222277
-0.034193132
-0.029151589
0.093365364
-0.22518913
0.030401215
0.00062942656
0.06830235
-0.11500722
0.19709787
0.2171159
0.14799699
0.23423114
0.060194664
0.005859851
-0.029024625
-0.13210323
-0.03182615
-0.031696398
0.17379557
0.1441805
0.21835029
0.021008963
0.011036467
-0.3935048
-0.09337142
0.109152965
0.0044432865
0.059479497
-0.0878849
0.04809871
-0.3081102
0.04293984
-0.15942891
-0.17251778
-0.32421863
