-0.07375509 -0.014217747 -0.2852029 0.015189345 0.0011991606 -0.0023840766 0.0005654866 -0.02654299 0.00075457 -0.011573659 0.0030090562 -0.10932749 -0.28992727 -0.27281862 -0.017602528 -0.0008165425 0.003685156 -0.004233336 0.04071458 0.0005879128 0.017369436 0.00035578004 0.16330726 -0.25925404 -0.092836484 0.012321039 -1.0726344e-05 0.010313754 0.00071783364 -0.012975839 -0.0011708749 0.00036117213 0.11610803
-0.051469434 -0.09414319 0.16222784 0.023028638 6.3302774e-05 0.041460376 -7.670423e-05 0.008980469 0.00072423305 -0.0034528403 -0.088620685 0.30491108 0.059977513 0.3746241 -0.03246645 0.0021315613 -0.05326488 0.0008736537 -0.014085289 -0.0012577398 0.004291277 0.09663168 -0.0054199067 0.28185365 0.07652641 -0.0007105981 -0.00036712023 -0.010460887 0.0003668175 -0.0012471537 -0.00025611525 -0.0010002021 -0.031747013
0.01630105 -0.018186098 0.013859454 0.07342922 0.047923055 0.046283495 -0.06665329 0.06749063 -0.0024038 -0.007880377 -0.0028632618 -0.011181032 0.026796233 0.029155107 0.18663111 -0.41964284 -0.07125947 -0.32213378 0.2586663 0.0022390475 0.005100011 0.013543539 -0.033312634 -0.22103667 -0.0929301 0.023340693 0.28453916 -0.2162927 0.25087863 0.04940784 -0.013039458 0.109790884 -0.29203042
-0.1431612 -0.1343303 -0.03390837 0.039335236 -0.0038878394 -0.016927665 -0.0015631075 -0.021885598 -0.0012627506 0.013772571 -0.013263008 0.18661623 0.054183993 0.3723449 -0.060414426 0.008569952 0.029549826 0.010610526 0.029633323 0.0014835265 -0.014219989 0.01253322 0.07175635 0.1221982 0.21739121 0.024174955 0.010508016 -0.030912612 0.006604884 0.011090121 -0.0015075427 -0.004341173 -0.048248746
0.04203157 -0.05807124 0.017043438 0.017169995 -0.0015027465 0.02071971 -0.000948958 -0.01034039 7.694178e-05 -0.00080411666 0.09694428 0.17090233 0.21351133 0.0937269 -0.017777545 0.004687685 -0.027014691 0.00070693885 0.015298208 0.0015371189 0.0024821865 -0.10535326 -0.18311195 0.6606793 -0.5067511 -0.014482035 -3.8352046e-05 -0.010022133 0.0001227617 -0.0037518789 0.002376798 -0.0020807746 -0.060993053
0.13780536 -0.052598167 0.034479167 -0.059901275 0.0017260859 0.047921352 0.0012344021 0.019612398 -0.00013059548 0.051048405 0.09613834 -0.16996337 0.22761601 0.038358353 0.06743892 -0.006738144 -0.068244055 -0.006217016 -0.033184618 0.0016924664 -0.07428046 -0.10698579 0.113509424 0.1904126 -0.3122798 -0.0044890433 0.0014653713 -0.00033904193 -0.0008927883 0.011526067 -0.0037396497 -0.0016996292 -0.01122656
0.002570904 0.043599203 0.0010807381 0.06399033 0.06560119 -0.15677978 0.05667798 0.028325198 -0.0033983006 -0.019253125 0.03258268 0.010689019 -0.21316095 0.09374842 0.23867264 0.40393165 -0.07051097 -0.088468835 0.014830062 0.010057857 0.02776649 -0.033954885 -0.007083121 -0.36758822 -0.052981347 -0.09599611 0.004541288 -0.030979944 0.1002253 -0.08350779 -0.0028259235 0.054849993 -0.15649551
-0.441365 -0.09248734 -0.36044407 -0.0072027375 -1.6422955e-05 0.013698843 0.00022689908 0.000568214 0.0002644608 -0.0010114264 -0.03417914 0.5365755 -0.005740673 -0.37400168 0.007833021 0.0022020894 -0.017610095 -0.00051542424 -0.0018178278 0.00073737424 0.0031682625 0.0384047 0.13170013 0.02134016 0.06471346 -0.008235323 0.0015348056 -0.0076802033 0.00017249171 -0.0017724669 -0.00084093824 -0.0022580994 -0.031449206
0.00875912 -0.09164593 0.05806031 -0.013369169 -0.0022864388 0.067594014 -0.009886833 0.023141192 0.0012713762 0.047671773 0.082367286 0.0031873814 0.086406164 -0.0036767216 0.017456604 0.013845738 -0.05977269 0.014163359 -0.041860316 -0.0049394337 -0.06762632 -0.08755412 0.023253132 0.054537974 0.16575783 0.11275992 0.034755327 0.09121612 -0.045595925 0.013192091 0.0022853937 -0.00022929908 0.0010236284
0.0030321556 -0.17444539 0.2615888 0.036391176 7.9957616e-05 0.009418271 0.0006717119 -0.010059198 -0.00058391865 0.001384884 0.02242797 0.3908387 -0.3053234 0.91002315 -0.04217963 0.001204477 -0.012348748 0.0018150035 0.015938029 0.0011908289 -0.0013276923 -0.02698938 -0.52333534 0.2350578 -0.040732574 -0.020429177 0.0025594241 -0.008248958 0.0016825233 -0.0015457157 -0.00080594275 -0.0030459315 -0.07146074
0.2040929 0.012866449 -0.01693719 -0.03358216 0.003313355 -0.01726134 0.009984611 -0.035398375 -0.0038572934 0.021955539 -0.10983757 -0.21183445 -0.05672152 0.013935938 0.042059068 -0.00504193 0.025055818 -0.010342524 0.0506778 0.008395875 -0.028724376 0.12948601 0.16805597 0.06758195 0.10698558 -0.011425512 0.00031819288 -0.03370447 0.0051870914 -0.050463606 0.0028771802 0.021567341 0.09097745
0.03219486 -0.28421947 -0.16032822 0.24607033 -0.115916274 0.049393874 -0.027082955 -0.1652326 -0.009197063 -0.009609638 -0.11041959 -0.08991616 -0.5813235 -0.19814529 0.20955643 0.42891437 -0.014081564 0.0922735 0.21184517 0.014539341 0.017216785 0.10488257 0.22789223 -0.023251977 -0.12388003 -0.2005745 0.10694491 -0.2842967 -0.04457027 0.107100405 -0.0038584622 -0.030237991 -0.08587192
-0.05437352 -0.08280582 0.07938046 0.0012993146 -0.00066236063 0.0365684 0.0046196873 -0.08288627 0.005921976 0.0075422595 0.043165576 0.032544564 0.1673618 -0.08378087 -0.07800992 -0.04718577 0.01923545 -0.002525847 0.13263382 -0.014775257 -0.0077449745 -0.048737645 -0.03194478 0.040797614 -0.012847129 0.05131743 0.067625105 0.25333524 -0.040141124 0.051226534 -0.0073462534 -0.06303323 -0.09739891
-0.12411599 -0.020252261 -0.17067006 0.026803555 -0.001026103 0.058771074 5.5475444e-05 0.00025144112 5.519008e-06 0.011681847 0.022730226 0.1363452 0.13341571 0.14259438 -0.032832194 0.00083722285 -0.07723269 -0.0008346325 -0.0012888744 -0.0008297776 -0.016739381 -0.023905726 -0.16251308 0.22709136 0.2316203 0.0057974197 5.9719485e-05 0.0045316694 -0.00043088477 0.00055901444 -0.00032110643 -0.0019695724 0.01898486
0.005067655 -0.10200488 0.024639271 0.10238935 0.009509596 -0.08089086 0.058095835 0.13043973 -0.00034421196 -0.021440802 0.10771975 -0.028077163 -0.05333495 -0.04466963 -0.11745126 -0.04609182 -0.2340953 -0.04280968 -0.08521135 -0.025869349 -0.067198366 -0.12441633 -0.023287972 -0.24498075 -0.08740705 -0.03611966 0.07524228 -0.16739818 0.6005642 -0.3065286 -0.061726786 0.2078781 -0.22085872
-0.032099053 0.1722917 -0.3249086 0.042730097 -0.0010256924 0.04290534 -0.0002000457 -0.009857176 -0.00025801655 -0.00956955 0.071500145 0.0512914 0.16608402 -0.23442265 -0.059274375 0.0038059824 -0.055714313 0.0005615759 0.013849253 0.0015706033 0.013238327 -0.082194686 -0.016547471 -0.23819946 -0.20758669 -0.024242055 0.00093338755 -0.03372023 0.00053625 0.00016016325 0.0011013132 -0.00978264 -0.09430954
0.058538634 -0.06647765 0.053358488 -0.0056716097 -0.005096076 -0.055267036 0.011928902 -0.068784736 0.0006940087 -0.053917456 0.061946515 0.1296137 -0.00904974 0.12612627 0.022619477 0.01704975 0.10131134 -0.022891946 0.12674807 0.0008122039 0.05627588 -0.070865504 -0.042151038 -0.032221843 0.27547246 -0.104522 -0.002254248 -0.03550948 -0.0028119385 -0.011034529 -0.0045360457 -0.007310496 0.09787841
0.08274813 -0.02194288 0.22343151 -0.007907156 -0.0007885748 0.007379772 0.0011828747 -0.0009140611 -0.0002806381 -0.005348593 0.04966331 0.27188012 0.3147536 0.40842757 0.007264113 -0.0008026033 -0.008343476 0.00154999 0.00047071095 0.0002788644 0.0078039668 -0.055724215 -0.49056512 -0.02856937 -0.10861808 -0.004355724 0.001524291 -0.008477314 0.00034122888 -0.0037684015 0.0008130839 -0.002151101 -0.021463284
0.06812316 -0.18255287 -0.042039208 -0.1016911 -0.26579764 -0.14256135 -0.00875476 -0.011765059 -0.0027687412 0.034370806 0.06683943 -0.15964791 -0.27247727 -0.011706005 -0.16619459 0.26930818 0.15549749 0.019961722 0.021591978 0.012085254 -0.054334287 -0.06886088 0.07887541 -0.18949819 -0.24282546 0.16141902 0.35959187 -0.3904515 0.0004266098 0.1110615 -0.004545815 -0.057912186 -0.103054196
-0.046305805 -0.025437737 -0.08327523 -0.06728787 0.011721899 0.10461211 -0.018136827 -0.16519439 0.0003933672 0.019241942 -0.052081708 0.06440448 -0.20918071 0.15185913 -0.0106776 -0.026079766 0.04129101 -0.028169345 0.14753817 -0.011670276 -0.03802393 0.06455624 0.0019013947 -0.04603437 -0.03453597 0.12787639 -0.003472957 -0.016410334 0.15298812 -0.048751984 0.02871157 -0.022965524 -0.03260285
0.009095909 -0.17595156 -0.025914097 -0.4427257 0.03668811 0.25461888 -0.0054886946 -0.11782859 0.0041330187 -0.015919171 -0.08309303 -0.010562434 0.14195472 0.06500526 0.24645206 0.62846154 -0.0009102257 0.004915431 0.14070252 -0.0023757424 0.019330617 0.0862764 0.0008786216 -0.15746649 0.107540086 -0.9215357 -0.23411638 -0.6104446 0.06415593 -0.022905998 0.0013871022 -0.026170926 -0.08582932
-0.12294437 -0.63916546 -0.09113834 0.003296736 -0.00046974915 -0.037562024 0.0008403723 0.0004436386 0.00018847518 -0.0003929579 -0.01769636 0.14797442 -0.6736384 0.1609024 -0.0018282497 0.00045941875 0.043792915 -0.0010204233 -0.00032865175 -0.0014819 -0.0017737185 0.019311922 0.06249778 -0.054120325 -0.16395026 0.00796151 0.0030476272 0.0037248966 0.002982131 -0.0034184775 0.0035157446 -0.0010246088 0.013373457
0.10744322 -0.48772925 0.06837759 -0.014867272 -0.0008687112 0.034204368 -0.002516763 0.00026412375 0.0004823191 0.024454063 0.005307882 -0.16579434 -0.28921923 0.40618965 0.021137834 0.0012576099 -0.04560697 0.0042001614 0.0026727794 -0.0031332327 -0.034993082 -0.0015242322 -0.082186304 0.15765266 -0.01720008 0.0048888773 -0.0012485945 0.027694738 0.0017968671 0.0036121125 0.00088200456 0.0018986141 0.06707603
-0.42990795 -0.35794005 -0.15593334 0.0107427 -0.00013555499 -0.006807948 -3.7970858e-05 -0.00050857523 -0.00030515215 0.0008144346 0.048861597 -0.12228118 -0.33820668 -0.37795785 -0.013635466 5.680162e-05 0.0073384666 2.8682307e-06 -0.0006905657 0.0021007461 -9.4271905e-05 -0.055324454 0.85529476 0.22311158 0.009284016 -0.00086445047 -0.0016651405 0.0031008578 0.0006890269 0.0008689998 -0.0019640015 -0.0013382118 -0.010642218
0.05078446 -0.017788583 -0.008017233 -0.054749712 0.010475568 0.08164665 0.0025546595 0.020603832 0.004268294 -0.09787055 0.06726405 -0.06518176 0.14877908 0.058607265 0.04848794 -0.017151777 -0.10630318 -0.0075149355 -0.019951737 -0.012955091 0.13892582 -0.07864076 -0.05716753 -0.043412447 0.27093858 -0.03470447 0.0017015144 0.070414305 -0.003968707 0.012167837 5.9756196e-05 0.012055827 0.012168636
0.019021524 -0.07179806 0.067156255 0.095162615 -0.014549119 0.052487865 0.015404773 -0.15091154 0.00028182435 0.00010892634 -0.064271666 -0.010968423 0.033654094 -0.045715537 -0.012759483 0.29497212 0.29510707 -0.2070104 -0.032433238 0.0034066718 0.014494085 0.07326904 -0.046107996 -0.27468538 -0.05464044 0.06672955 -0.09305442 0.10302008 -0.21331172 0.014933001 -0.01082761 0.028547728 -0.1897598
0.014458451 -0.005647647 0.20818594 -0.035252526 0.003858548 0.013287246 -1.6209933e-05 -0.012782424 0.0008575371 -0.019683788 -0.095911674 0.16346993 -0.10659652 0.09244218 0.03424508 -0.003072456 -0.018320948 0.003896662 0.0075938716 -0.004403848 0.031983055 0.10828245 -0.084318414 0.11748286 -0.0787288 -0.083316 -1.4345388e-05 -0.040133234 0.0037904582 -0.041552108 0.004915557 -0.051021498 0.007337508
0.01874498 -0.037934877 0.002061278 -0.005912367 -0.0026672897 0.12199727 -0.019308297 0.068071 -0.0038499774 -0.038126573 0.035616107 -0.0035937766 -0.14303647 0.06974125 -0.013082862 -0.038467426 0.17387787 -0.014264601 0.060740948 0.003736981 0.04247058 -0.029853866 -0.00866495 -0.19094354 -0.0893193 -0.07484758 -0.22939262 -0.043168362 0.23851913 -0.2257809 0.0161027 0.08033528 -0.19365633
-0.024220679 -0.11732849 0.08153829 0.06846974 -0.16567893 -0.14381911 -0.01779955 -0.046632327 0.00044778056 -0.013004817 -0.029972242 -0.031491406 0.08903165 -0.104721665 0.19048122 0.6216198 -0.05713615 0.03430681 0.06055193 -0.0037713237 0.016244983 0.03173282 -0.090699665 -0.39298692 -0.001134613 -0.18367264 0.668213 -0.27535725 -0.026627015 0.05916151 -0.00020655073 -0.04707787 -0.17585042
-0.016720336 -0.13989092 -0.081362374 -0.015502824 -0.0030667547 0.04359561 0.0022747165 0.05234555 0.00077699404 0.0038438058 -0.0680849 0.09614971 -0.10701458 -0.3257109 0.023259724 0.0061464114 -0.052932892 -0.0074920068 -0.07618516 0.0007796277 -0.006514383 0.074094296 0.17924702 0.087349646 0.08797943 -0.04202715 -0.0033149943 0.046458453 -0.0011113156 0.04127661 0.003709886 0.0024886841 0.019849967
-0.27691463 -0.05569397 -0.42394704 0.019698888 0.00029288128 0.0014382771 0.00023719757 0.00054082525 -0.0009512839 -0.003099557 0.07108365 0.15982732 -0.16459379 -0.40547705 -0.028130632 0.0003825727 -0.00041595745 -0.00033241438 0.00010659704 0.0007805286 0.0033738264 -0.08097261 0.066766985 -0.0023618885 0.35806695 -0.0048539527 -0.00012628127 -0.012818403 0.0013761306 -0.0060392725 -0.0009989927 -0.0034131382 -0.022512095
0.013105466 -0.13614547 0.004145105 -0.17652903 0.013164758 0.062923215 0.1443517 -0.09737573 -0.00051106047 -0.007131635 -0.0131748235 0.011075348 0.2116907 0.057811763 0.01839512 -0.371876 0.031674057 0.20083942 -0.18570177 0.009235124 0.013876315 0.0014817703 -0.01284642 -0.120477386 0.049258295 -0.19758616 0.36168462 -0.11307321 0.19907922 -0.05692996 -0.014628644 0.000120836135 -0.18816012
-0.0069919443 -0.056971956 0.09261088 -0.05754022 0.007872904 0.081590995 0.004424786 0.1519926 0.0075917365 0.08350184 -0.051905908 0.015812712 -0.005304149 0.025886126 0.0008698487 0.038777076 0.03190736 -0.025190167 -0.21297738 -0.0393676 0.13536908 0.021738911 0.0047512986 -0.03379333 -0.20070437 -0.1064467 0.00921568 -0.0035657582 -0.13664421 -0.1285476 0.25001976 -0.03521324 -0.0040206434
0.13968489 -0.23414561 -0.3366832 0.04420408 0.0017389716 -0.07524015 -0.00082022673 -0.004789611 -0.0016822806 0.0038562473 -0.037178956 0.3109741 -0.23343517 -0.37476692 -0.058676343 -0.0025097325 0.09469112 0.00038884796 0.004432544 0.0024949547 -0.0035363697 0.044476334 -0.5929966 0.038843706 -0.09166819 -0.008596919 0.0013331397 -0.007415099 0.002790114 0.0063152993 0.0023907535 -0.006494735 -0.06043001
0.010438691 -0.08484014 -0.024558783 0.099443 0.005318596 -0.073989466 -0.0079209935 0.11319617 0.002137443 0.15078829 0.0371391 -0.026005102 -0.12214438 0.078381725 -0.17329185 -0.09226964 -0.12577657 -0.008061214 -0.12129923 -0.039217573 0.062551655 -0.048483238 -0.019907238 -0.2308178 -0.08074078 -0.05670248 -0.005060977 -0.068755664 0.21347505 -0.21743888 0.22668639 -0.03618535 -0.15052637
-0.022014683 -0.029200029 0.04460758 0.047597874 0.071072154 -0.117112786 0.0018924597 0.08222082 -0.00081924413 0.01419193 -0.021795077 0.01795435 -0.15640263 0.06559385 0.08243867 -0.047770362 -0.097861856 -0.014700481 8.779454e-05 -0.004950463 -0.022466104 0.026585845 0.028505089 -0.048511956 -0.17518318 0.015138955 0.23108238 0.008066641 0.14686356 0.08760236 -0.0035341717 -0.015193384 -0.024622126
0.11412459 -0.031631272 0.26761383 -0.015683606 0.0007331516 -0.025197955 -0.000530139 -0.006405143 -0.0010134935 -0.0027705256 -0.03267196 -0.23602122 0.08735848 0.13929492 0.016894227 -0.002560706 0.03360237 0.0018942787 0.0095382165 0.0014412098 0.0042318543 0.037601493 0.46939185 0.027355174 -0.29429144 -0.008844583 0.0018138586 -0.018796159 0.0006897572 -0.0064678765 0.002297921 -0.009005852 -0.0914492
-0.02975516 -0.0015548068 -0.088556916 0.022548852 -0.00020354356 -0.01024316 -0.00029374735 0.0008303637 -6.586516e-05 0.00079535175 -0.063432455 0.03986006 0.046375237 0.10972116 -0.028646726 0.00017243759 0.012014784 0.00034760262 -0.001033367 -0.00057322695 -0.0019559439 0.07110522 -0.08978588 0.148554 0.37117836 3.7011658e-05 0.0007326483 -0.0031160577 -0.00021255408 -0.0007929622 0.00081498973 -0.0015882122 0.021688007
0.025485653 -0.24310963 -0.015090528 0.01278254 0.0045664674 -0.07173898 -0.008408053 0.16395216 0.015711911 -0.068990186 0.42740944 -0.029016122 -0.041190755 0.05076961 -0.0061323717 -0.029666187 0.07184396 0.010377083 -0.2326183 -0.754153 0.092030555 0.15833522 -0.025172671 -0.42143583 -0.09363948 -0.05287351 -0.0017073122 0.10159275 0.0033012454 -0.6169101 -0.05104453 -0.6274574 -0.31658188
-0.058991928 -0.011645728 0.0150484815 -0.035196975 0.00088446605 0.040453706 0.00083293533 -0.012370582 -3.9402803e-05 0.008192139 -0.054524064 0.08116028 0.017956154 -0.10647597 0.044884272 -0.0002953504 -0.052813083 -0.0037249718 0.01877636 0.00012420617 -0.012069493 0.06195902 -0.10195357 0.07515366 0.32468003 -0.0054515684 0.0005140386 -0.018043289 -0.0021033569 -0.008015011 0.0012081508 -0.0027121464 -0.06321502
-0.065506294 -0.05565657 7.700949e-05 0.03894674 -0.0025407828 -0.003813365 -0.006348232 0.04679114 0.011395758 -0.023974596 -0.027656011 0.09561068 0.1652314 0.0073946705 -0.046809863 0.009676504 -0.009560253 0.013979473 -0.064891815 -0.023121567 0.04196529 0.01939666 -0.005898138 -0.060775995 0.19091794 0.07928855 0.0042340616 0.0006153221 0.012846656 0.0622588 0.011007492 0.04126965 -0.064734414
0.014028144 -0.14339691 -0.033040125 -0.1337686 -0.17258723 -0.16360095 0.0073942826 -0.18529604 0.0025244385 0.0070236693 -0.1330981 -0.060905408 -0.0744753 0.047509257 -0.06931912 -0.074181095 -0.10513305 -0.07721035 0.04762944 0.00448946 -0.0034296808 0.15422224 0.045188088 -0.23939621 -0.2227424 -0.054207426 0.3734797 -0.31195527 -0.40738964 -0.30307674 0.0020977496 -0.0449061 -0.16684729
0.019680122 -0.19710046 -0.086586855 -0.026729312 0.087359615 -0.15156458 -0.0044032983 -0.06461007 -0.0019542817 -0.01413247 -0.009047634 -0.11643179 0.1783991 -0.023470284 0.053168047 -0.12901783 0.051961314 0.023251744 0.18378322 -0.004889809 0.01927113 0.0108442 0.010975173 -0.048625346 -0.17926571 -0.059295144 0.5808128 -0.34220734 0.08241679 0.022416878 -0.0028396326 -0.07851382 -0.16629648
-0.076862566 -0.016612025 0.0352002 -0.050410666 0.022990957 0.12481607 0.02228141 -0.122138776 -0.0006333686 -0.0036970505 -0.09189363 0.04603583 0.13122074 -0.17354164 -0.07054714 -0.000515897 0.1306373 -0.03079484 0.19259678 0.0034049936 0.01779017 0.104280844 -0.059959553 -0.14376865 -0.041710645 0.0063288226 0.28178507 0.12219859 -0.0019492513 0.1765018 -0.005170147 0.011761214 -0.13094585
-0.06317198 0.027235284 -0.4251093 0.045781918 0.0007762355 0.014304553 -0.0004495846 -0.0010474877 -0.0004348046 0.0043989015 0.042883012 -0.45085362 -0.216526 -0.45409954 -0.05657017 -0.0010583418 -0.018940225 -0.0003939432 -0.0003134763 -0.0005976319 -0.005509816 -0.050419576 0.2721162 -0.015989056 0.20946863 -0.0054284837 0.0017913536 -0.002602638 -0.000788005 -0.0015434364 -0.0012897654 0.0013475865 -0.025984146
-0.4502024 -0.6259719 -0.28991884 -0.0010880227 -0.00049141137 0.0016561248 0.00044398222 -0.00035787091 0.00035251316 0.0005221641 -0.009270718 -0.3334399 -0.14018145 -0.24306512 -0.00013921512 0.0013052125 -0.004732811 0.0011643989 -0.001012176 0.0006885355 -0.0013526042 0.0108678825 0.6685696 0.28481406 0.20913 0.0005340989 0.00047973532 0.0027858051 -0.0003334125 0.00064430304 -0.0016086211 -0.0020032087 0.0024818096
-0.12683159 0.10213328 0.19583626 -0.07409612 -0.005076538 0.029164487 -6.559574e-05 -0.01857804 0.017106405 0.0067189257 0.14936814 -0.11562495 0.0799886 0.15669191 0.07856056 0.020195905 -0.036581516 0.0035080528 0.019713962 -0.047099173 -0.01200539 -0.16440158 0.12016956 0.126209 -0.15484282 -0.057336718 -0.004723223 -0.14461392 0.0016563521 -0.05307142 0.006070597 -0.015366833 -0.018952118
0.0023857225 -0.07016267 0.022297284 0.00500323 0.0008412398 -0.007735674 -0.0002067718 0.12281006 0.0019750304 2.2079224e-05 0.24707049 0.0024911868 -0.012019678 -0.0011565421 -0.011214932 -0.004832335 0.0054142065 0.004694599 0.04099779 -0.34191498 0.19323227 0.068605594 -0.009834697 -0.11430228 -0.039992962 -0.033789277 -0.0027748554 0.027688323 0.00093858177 -0.21709843 -0.28115463 -0.14048621 -0.1897846
-0.046751745 0.44940424 -0.09103315 -0.040869594 -0.0024067045 -0.005232854 0.0009714688 -0.004774699 0.0007764874 -0.0020921351 -0.007951105 0.11063446 0.035624463 0.22677204 0.053495772 0.002748479 0.0073800394 -0.0015815893 0.006143755 -0.0007559232 0.003173752 0.006186853 -0.025790596 -0.6225434 -0.6940941 0.030631023 0.0015076982 -0.0072230175 0.00026834736 0.0005705434 0.00028807146 0.0030019882 0.017407006
0.071038544 -0.031798065 -0.14970273 -0.006211997 -0.032890026 -0.05099085 -0.019379985 0.028781513 -0.002393187 -0.11297957 0.015602719 0.11836531 -0.12437985 -0.040648293 0.012217246 0.07405554 0.05951398 0.030419094 -0.039659932 0.0035959142 0.16075477 -0.018025892 -0.043934267 -0.03490254 -0.021404106 0.051156484 0.026759828 0.039889056 0.00105929 0.044696547 -0.024846857 -0.039437585 0.006311279
0.0038139257 -0.030625934 0.032941185 0.15415002 0.0080079185 -0.027016832 0.0067900014 -0.08521307 -0.004990856 0.030848345 0.043863464 0.012684853 0.10980302 -0.0045499755 -0.06262404 -0.014548376 0.041794218 -0.0019482872 0.12986681 0.0068783844 -0.047974598 -0.044101927 0.035326697 -0.1998342 -0.15400197 -0.11413854 -0.01004678 0.24609555 -0.0068897805 0.011492578 -0.0008106557 0.00011085217 0.1007474
-0.0044727526 -0.07057098 0.0024121783 -0.05687305 -0.055875853 0.010160173 0.065728046 0.012892096 -0.00800353 0.033733025 0.015088383 0.024659043 0.017336935 0.029052371 -0.021064306 0.3464598 0.09315592 0.19075494 0.17175403 0.013230465 -0.033576634 -0.014727931 -0.010513489 -0.12292176 0.042553708 -0.06421845 -0.08177265 -0.050512705 0.18863767 -0.08444922 0.0038474544 0.006382418 -0.059990417
-0.0010750678 -0.16145913 0.08130598 -0.08442711 0.13346736 0.15773298 0.017725257 0.08824945 0.0036117774 -0.0023006434 -0.008263464 0.007042943 -0.08793753 -0.03747881 -0.057735585 -0.0131891435 0.07636447 -0.23024604 -0.02738736 -0.016530234 -0.013714633 0.0069044232 0.015417173 -0.32910347 -0.07121567 0.06839936 0.10697782 -0.07196902 -0.49670535 -0.16304675 -0.010122953 0.09132493 -0.15972802
0.22948886 0.25794196 0.1007469 0.0022962596 0.0006393252 0.015532748 -0.0005894155 -0.0037956922 -0.00041997145 -0.0017995808 0.079613455 -0.41547427 -0.01164412 0.47940207 -0.0032544094 -0.0012653243 -0.02093355 0.0013240199 0.005929116 0.0017411064 0.001539418 -0.08803228 -0.20691966 -0.6761728 -0.23904397 -0.009735731 0.004371031 0.002116941 0.0007757825 -0.003723505 0.0021742862 -0.002200417 -0.030196296
-0.30162898 0.32557604 -0.10315032 0.008084155 0.00024189446 0.00973053 -0.0014050966 -0.0075375736 0.0008499567 0.0010644628 0.02372287 0.11320387 0.14155014 -0.11908554 -0.013025615 0.0014435183 -0.011999312 0.0014392738 0.009140646 0.0004863377 -0.00095801335 -0.027606416 0.23168565 -0.4821677 0.27062872 -0.010001061 -0.0007803063 -0.012932114 -0.0012212386 -0.006860351 0.0010601958 -0.0048238076 -0.07327772
0.032993335 -0.019761395 -0.07989653 0.033835445 -0.033017293 -0.03962398 0.00018711748 0.07637608 -0.009199624 0.023472058 -0.07100863 -0.19310544 -0.021848274 -0.065249905 -0.07875517 0.058808174 0.040454343 -0.023664568 -0.08627553 0.015896639 -0.023822356 0.04635884 0.102192834 -0.14919935 -0.024996718 0.08294859 0.03474794 -0.06879074 -0.027741568 0.0013639608 0.006373671 -0.015887279 -0.030878708
-0.016047461 -0.8691588 0.092373095 0.0097642215 -0.00093023217 -0.013689816 -1.7922073e-05 -0.006344167 0.000105896695 -0.0018394648 -0.021413367 0.014106907 -0.99294543 -0.06880901 -0.0058872434 0.0041385917 0.019214086 0.0021787405 0.012291189 -0.0017047022 0.003756976 0.025604803 -0.042427666 -0.24459565 0.03906835 -0.0059405053 0.00012674158 0.0129224 8.586849e-05 0.0017874226 0.001965844 -0.0038670166 -0.027939182
0.03566712 -0.060968038 0.12052887 -0.05144049 -0.008962855 0.04913465 0.029020824 0.027931856 0.0017932354 -0.08938929 0.0007018919 -0.052659504 0.05406711 -0.15254657 0.040840037 0.04611633 0.11150682 0.08092507 -0.016593097 -0.14421245 -0.04017338 0.04501458 -0.0014216484 -0.048085775 0.034861732 0.021666393 -0.03046857 -0.020332247 0.089718245 0.048945863 0.082236126 0.03630151 -0.0075168847
0.099781334 0.009013614 -0.09919932 0.015766464 0.0077240714 -0.025660953 -0.008231872 -0.0024115709 0.009966396 -0.059437994 -0.05426151 -0.11303453 -0.012493133 -0.068543114 -0.016626915 -0.029684525 0.0056991456 0.0040452983 -0.016435778 -0.03894164 0.07416354 0.06546619 0.1870844 0.0977858 0.047151655 0.07128799 -0.010945645 0.10814355 0.0009188221 -0.023541808 -0.010703259 -0.07855963 -0.10024293
-0.07762282 0.28094554 -0.047915585 -0.015793508 0.00059521606 0.009635001 0.0003480426 0.004534344 0.0010904815 0.0036857184 -0.037027717 0.008995054 0.18860386 -0.3256133 0.013656965 0.0006054738 -0.016091213 0.0005435181 -0.009028934 -0.002065255 -0.004977716 0.04286582 -0.2585304 -0.28128877 -0.072979234 0.0063917483 0.00032731314 0.0007242605 0.00029749406 -0.0014813539 0.00044105068 -0.0016358669 -0.014528763
0.10915843 -0.46491045 -0.643805 -0.035251748 0.00177151 0.034973577 0.00081065553 -0.0099961655 0.000137684 -0.009382744 0.018392814 -0.70068413 -0.3623033 -0.5162798 0.03848528 -0.003462483 -0.04481298 -0.00036922918 0.011529357 -0.00060304726 0.01588298 -0.020990059 0.074765146 0.098056875 0.036260713 -0.004187655 0.00050362817 -0.0027938446 6.1612765e-05 -0.0069989427 -5.1468883e-06 -0.0046368204 -0.035278995
-0.11381902 -0.14626431 0.22431237 -0.046841823 0.0024681569 -0.008345006 0.00070694403 0.013749654 -0.00013686616 -0.008348589 -0.041289568 -0.09935577 -0.18068938 0.17348205 0.061331853 -0.0011019472 0.014015028 0.002721453 -0.018959986 -0.0008421149 0.01363215 0.040596887 -0.005295537 -0.021937944 -0.075967245 0.0139478445 0.0002188629 0.0037766264 -0.0028290672 0.0122113535 0.0006935645 -0.011563868 0.0067050783
-0.41533947 -0.17347218 -0.013278463 0.013927101 0.0013725302 -0.007155386 -8.466264e-05 -0.0013429095 0.0012533523 0.025994567 -0.058557726 -0.15664627 -0.15903297 -0.107471794 -0.022695241 -0.0065744147 0.014541891 -0.0019966976 -0.00033131224 -0.0025693765 -0.037947197 0.06816766 -0.12431788 0.19579503 0.29231203 -0.017451514 -0.00029931896 0.0016982994 -0.0005074963 -0.0045404723 0.0013525744 0.0063934196 -0.020913929
-0.11251017 -0.079088494 0.23211806 -0.049468197 0.00051411765 0.0129049765 -0.0015742952 0.00378426 -0.0022100962 -0.008507373 -0.02430314 0.33004814 0.25121042 -0.15229644 0.06413083 -0.0021473384 -0.015258645 0.0008860548 -0.009422718 0.009288598 0.01507459 0.029417055 0.27196467 -0.073863424 0.090110905 0.0055048172 0.002013241 -0.03131292 -0.005147714 -0.0029716063 0.002245736 -0.002373845 -0.06454174
0.2136945 -0.34676218 0.17477588 0.027840087 0.00010294842 -0.017109971 0.0009858966 -0.0028139951 -0.0004751889 -0.002240508 -0.00017999865 0.14324607 -0.28128108 0.0846914 -0.029895931 0.0014686437 0.01719293 -0.0035492107 0.0046817954 0.002094048 0.002310126 0.0005915802 0.19206128 0.043175712 -0.13215569 -0.01903247 -9.084813e-06 -0.010342828 0.0028211782 -0.0030318487 0.00033159 -0.004017978 -0.05459134
-0.19145705 0.38213333 0.32849473 0.0020149269 0.000999106 0.0053297393 -0.00015724119 0.0029311362 0.0013424174 -0.0030708215 -0.10932515 0.5274852 0.32354665 0.080761716 -0.006970837 -0.0023647202 -0.006214082 0.00029290508 -0.0033480357 -0.0016312557 0.003125079 0.12285465 -0.5536566 -0.42866796 -0.3911199 0.0032125355 -0.0023877718 0.0016263594 -0.0012724267 -0.00053538487 -5.298371e-05 8.70395e-05 -0.013722053
-0.05741017 0.20000179 -0.13628823 -0.15298113 0.013238617 -0.07850651 0.0114231575 -0.123158865 -0.0016144337 -0.0057958555 -0.020846834 -0.006091753 0.013881642 -0.012575041 -0.02942898 -0.032171186 -0.19578998 -0.026906023 0.17555644 0.0125438925 0.017027164 0.014452917 -0.10168871 -0.06849101 -0.1504537 -0.018877268 -0.297179 0.036171403 0.009357808 0.13306132 -9.1330505e-05 0.010451038 -0.011121018
0.01282451 -0.01040998 0.080542974 0.019951629 0.0019872363 0.05181024 -0.00093808444 0.18879597 -0.14472961 0.017314374 -0.130278 -0.013361879 -0.15183204 -0.021225967 -0.04488848 -0.02424619 -0.054078452 -0.008734197 -0.3666018 -0.16613351 -0.0477184 -0.1882655 -0.01296772 -0.16526969 -0.08106107 -0.094365686 0.004520138 0.07682733 0.006758395 -0.24230762 0.15055537 -0.20303848 -0.04357775
-0.16470143 0.005551717 -0.21897246 0.0061876206 -0.00020513397 -0.008952977 -0.00011415241 -0.004716252 -7.93985e-05 -0.0045590964 0.06468154 0.5587556 -0.16049296 -0.20199335 -0.00930023 0.0014021354 0.00931805 0.000113681264 0.006734486 -7.999697e-05 0.006988099 -0.07176323 0.07324491 -0.030005991 0.28221714 -0.001171861 -0.00015994316 -0.0008459631 0.0012143843 -0.0042176866 0.0013943824 -0.0006615828 -0.0042691813
-0.0060467497 -0.08652398 0.039367277 -0.014468502 -0.054579917 -0.22549435 0.011395474 -0.05211929 -0.00042133624 -0.0020306844 -0.019930266 -0.06967487 0.016605666 -0.20229395 0.076662965 0.09184969 0.0821186 -0.049792685 -0.078812815 0.007543571 0.011918533 0.014489895 -0.015853688 -0.17075898 -0.16102912 -0.11576683 0.5435503 -0.28620055 -0.14299092 0.00922669 0.0028074398 0.007080219 -0.026312608
0.010444959 -0.15033564 -0.08478829 0.13914387 0.28017527 -0.12155889 0.02717441 -0.04179472 -0.0023825467 -0.008437265 0.046556678 -0.052588254 -0.10404488 -0.0017664736 0.03131681 0.015847964 -0.06704385 -0.079026654 0.07667785 0.00021231094 0.023806859 -0.057621237 0.008306599 -0.049641635 -0.15143758 -0.05923194 0.23350322 -0.20181397 -0.014635192 0.07526715 -0.007844068 -0.0189074 0.008041614
-0.025574252 0.054010957 0.060780384 -0.017920323 0.0101184035 -0.13208912 -0.004133047 -0.22326845 -0.0016415158 -0.0066349995 0.04108228 0.047398344 0.18567775 -0.09468597 -0.16095859 -0.21155618 -0.08259306 0.04877298 0.20960777 0.012477022 0.0073664896 -0.04193067 -0.057196237 -0.0678002 -0.047195412 -0.08395482 -0.1843129 -0.021837547 -0.07470112 0.18075144 0.002492291 0.005413575 -0.10194057
-0.014400965 -0.24900655 0.039854534 -0.14860047 0.26033002 -0.08275851 0.216475 0.062863566 -0.004790677 -0.033109624 0.030494954 0.049876183 0.060012717 0.010890603 -0.04197655 -0.027660083 0.082527675 0.06287932 0.22787865 -0.018856721 0.026282255 -0.043760248 -0.004925677 -0.23169795 0.025334109 -0.031831905 0.014546339 0.033892054 -0.016581813 -0.21880293 0.0052149054 -0.08239999 -0.17047068
0.035721056 -0.0108194 -0.14819802 -0.054573715 -0.008787488 -0.025603015 0.013329766 0.022346381 0.13398834 0.026051484 -0.042682353 -0.15323475 -0.10712047 -0.08827447 0.04765588 0.034348816 0.0062436727 0.01568051 -0.059966024 -0.041346505 0.021949735 -0.0071542575 0.05641754 -0.03670707 0.0845433 -0.24265692 -0.008713572 0.02783487 -0.0015840124 -0.0995464 0.13146365 -0.15688036 -0.019110655
-0.03140739 -0.17291833 0.056797154 -0.06661457 0.005079731 0.04082588 -0.006571483 -0.027127482 0.0018697971 0.0027479213 0.0040836986 -0.015423892 0.19269878 -0.09475888 0.35764638 -0.45761615 0.18734343 0.047649123 -0.03689867 0.003495131 -0.005468205 -0.014143761 -0.077033594 -0.4612748 -0.018900152 -0.23232162 -0.7130422 -0.2746524 0.08626834 0.067316025 0.0058625126 -0.05362948 -0.16833219
0.08893564 -0.32737926 -0.026682448 0.022447357 0.0001612578 0.0029966852 0.0034533883 -0.010341593 -4.979264e-05 0.021718305 -0.014029928 0.21153097 -0.2210954 0.13056338 -0.027289929 0.0023586738 -0.012907896 -0.0023011789 0.004818606 0.00019670164 -0.03245345 0.017136795 -0.22615582 0.094705835 0.2382627 -0.04721587 0.004381734 -0.060565114 -0.0027344436 -0.050153077 0.00085391913 -0.010605287 -0.046488084
0.053894762 0.22354764 -0.30100343 -0.019604601 -0.0011255284 -0.015392798 7.47869e-05 0.0020153911 0.00020589751 -0.004485266 -0.10249894 -0.2105644 0.10345302 0.31415734 0.020845855 -0.000171436 0.017508145 -0.000339498 -0.005303455 6.7985195e-05 0.006522804 0.11240511 -0.02976356 -0.13101086 -0.3523208 0.006916726 0.0035116205 -0.001579064 0.00089084334 0.00046308586 0.00010615666 -0.0029504914 0.0394511
-0.26021656 -0.27953696 -0.11207911 -0.018576214 -0.0016272325 0.025807753 -0.001665723 -0.005187984 -0.001120892 -0.003380875 0.06557172 0.25940073 -0.58623576 0.1680563 0.026329359 0.0027441832 -0.032208275 0.003961748 0.0053621037 0.0053322776 0.0033051611 -0.07626084 -0.06211052 0.09288399 0.18953392 -0.0166761 0.0005168464 -0.010279129 0.0022245643 -0.0064754426 -0.0005349476 -0.006556682 -0.07318799
0.22151251 0.31988406 0.21815024 0.009243037 0.0008064759 -0.0022854374 -0.0006625762 -0.00019898756 -0.00029564666 0.0018620361 -0.012083484 0.2414705 -0.077915445 0.14596917 -0.0115603 -0.0008947202 0.0015573098 0.0005782116 -0.00069876143 0.00020271412 -0.002000724 0.014462653 -0.117914364 -0.21107721 -0.16475023 -0.002640259 -0.0011412277 0.0017592363 -0.0003447757 0.0008392764 -0.0012440293 -0.0026194563 -0.019550525
-0.0009074199 0.06616465 0.019209567 -0.019476132 -0.002633688 -0.0053639347 0.0014773117 -0.008511576 -0.0028721956 -0.0063550877 0.04867311 -0.0082375035 0.05065531 -0.037626777 0.028198618 0.007071184 0.008927438 -0.002995048 0.01744453 0.0075135 0.013021494 -0.062014043 0.029116934 0.06951095 0.2878712 -0.05504663 -0.0015518573 -0.047184557 -0.0035440507 -0.016580882 0.00043147567 -0.0042053983 -0.041710332
0.06883461 -0.17103325 -0.3471008 0.032407578 -0.0024428177 0.017614318 -0.0015476592 -0.028128715 -0.00043426923 -0.0014493498 0.002744696 -0.3525395 0.058453992 0.011931318 -0.012568782 0.005072855 -0.022104673 -0.001248008 0.044334304 0.0043419995 0.000890511 -0.0013193385 -0.047126167 0.15134817 -1.0933532 -0.047850955 -0.0032979308 0.028140197 3.1881198e-05 0.0094474815 -0.0038049133 0.00022847492 -0.08375927
0.04217313 0.008490232 0.06789665 0.0021546031 0.002364194 -0.0902273 0.0028941573 -0.059177794 -0.00038285475 0.01666516 -0.07476125 -0.06776074 0.042144436 -0.07897792 0.00033065953 -0.01094334 0.11816046 6.077683e-05 0.0014958284 0.09428538 0.0903227 -0.034186475 -0.00020527281 0.06318541 -0.008029276 0.0050978432 -0.00074201496 0.05425828 0.0033709998 0.020209894 -0.11900035 -0.015332218 0.03613411
-0.33345842 -0.4212176 -0.088664435 0.030766288 -0.0008642483 -0.012885835 0.002678161 0.0035546618 0.0006756368 0.011416467 -0.035724886 0.025846127 -0.35697162 -0.0889617 -0.031180358 0.001084024 0.018436445 -0.0059376573 -0.009567006 -0.0057945135 -0.015296893 0.041543193 0.12616329 0.23845205 0.2516205 -0.018002283 0.0043310625 -0.023560444 -0.0024998875 -0.01058467 -0.0008115959 -0.0064485404 -0.03618607
0.066182226 -0.061801683 0.060838494 -0.043074038 0.011319099 -0.017578103 0.0006251962 -0.08707386 6.5603985e-05 -0.016530644 -0.016018461 -0.10677967 0.09570359 -0.018938236 0.017826827 -0.026304642 0.011345454 -0.0050524594 0.1480661 0.005072851 0.024171649 0.01048586 -0.030498777 0.083127744 0.1910091 0.032553766 -0.018587222 0.1768049 -0.008417267 0.024437206 -0.002726186 -0.025060218 -0.07508663
0.19708638 0.14279662 0.448853 -0.0020933005 0.0006055955 0.0069311303 -0.00026168674 -0.0025314474 -0.0010378186 0.0030784039 0.020981124 0.31066692 0.27481827 0.6212476 -0.0017310159 -0.0024092735 -0.009699502 0.0005510598 0.00061199634 0.00079961086 -0.0033425326 -0.024158329 -0.8326775 -0.17645769 -0.11934919 -0.01421252 0.0013079848 -0.013800711 -3.707388e-06 -0.0059856423 0.00091051776 -0.0050344896 -0.09288308
0.017136613 -0.070097245 -0.021065675 0.003783003 -0.00026411522 0.033104535 -0.0030512523 -0.013267637 0.00012664984 -0.027825398 -0.109384075 0.00584235 0.091480255 -0.023132918 -0.0019356023 -0.0019878335 -0.047909684 0.00393364 0.021812929 0.00052724575 0.037953548 0.11982986 0.03378682 0.09052943 0.22229952 0.00964206 0.006049692 -0.05382559 5.7568133e-05 0.0129345395 -0.002381402 0.0064777653 -0.08485519
-0.009572394 -0.10056466 0.18662661 -0.038722984 -0.0005664637 0.017037269 0.00037528182 0.009947914 -0.00042858973 0.0009233465 0.100359574 0.064729355 -0.18706518 0.09829816 0.035666343 0.001455511 -0.02664492 0.0017652941 -0.023300325 0.0041904156 -0.0035364074 -0.1171345 0.119898096 0.26668677 0.12016274 0.017864436 0.0030704062 -0.040775135 0.0060406807 -0.008647011 -0.001252554 -0.0027161748 -0.13561785
-0.514221 -0.34947562 -0.16672538 -0.005524101 -0.0014634336 0.0015760498 0.00012205079 -0.0024537027 -6.324788e-05 -0.0030854947 0.042172875 -0.053080197 -0.23175359 -0.11345635 0.006536599 0.00023159897 -0.0026041642 -0.0003348757 0.002021381 -0.000688825 0.003871528 -0.04678289 0.42465124 0.2793799 0.26513442 -0.0004902066 -0.00024913228 -0.0015825318 -0.0012487026 -0.0014791269 -0.0012017586 -0.0013443228 -0.012803442
-0.08023678 -0.052468278 0.027542757 0.030765165 -0.0005327472 -0.032110758 0.00085898646 -0.0073284144 0.0003415837 -0.006778942 0.04378661 0.08467552 0.10467025 -0.08221847 -0.04158993 0.00032100172 0.041643776 -0.0003132719 0.0100755505 0.00013928748 0.010297352 -0.04803132 -0.12948453 0.24282531 0.32145813 0.0030310191 0.0010554205 -0.0014773235 -0.0003718978 -0.004885168 0.0011965318 -0.003017113 -0.00760729
-0.021829356 -0.17058551 0.07912287 -0.45858106 0.033912245 -0.29431668 0.00028970308 -0.15875645 0.0020648357 -0.0005536554 0.08641032 0.038563218 0.14699142 -0.07493984 0.22896288 -0.7745114 0.025139686 -0.01261191 0.19825803 0.0018744636 0.0016229822 -0.093960136 -0.0051960344 -0.18115309 0.086778715 -1.0143168 0.26258203 -0.6634506 -0.08516164 -0.0088683525 0.008505949 -0.035233665 -0.11314489
-0.06412866 0.03899317 0.22286837 0.017068166 -0.057697244 0.08604287 -0.043463208 -0.026153453 0.00025839315 -0.040083416 -0.0042804503 0.077612646 0.09273284 -0.119626574 -0.014560173 0.09117627 -0.07425859 0.0412016 0.020355435 -0.00466906 0.04767488 0.021137618 -0.021202628 0.022840772 -0.440609 0.042092025 -0.0055315667 -0.02913281 0.048991594 0.010566101 -0.0017244347 0.0036590921 0.059622545
-0.44820377 -0.12362042 -0.5281279 -0.008040595 -4.614461e-05 0.0008665887 -2.9592386e-05 0.0034038636 -0.00085269747 -0.0013157628 -0.040480323 -0.5915419 -0.07309581 -0.54883105 0.010492892 -0.0016479117 0.00012682911 0.00042821228 -0.005610959 -0.00048416166 0.001572535 0.0460189 0.28681368 0.2897184 0.13281055 0.012185141 0.00033163562 0.012111033 0.0005475993 0.004166039 -0.0013873483 0.0027407834 0.051673867
0.023256477 0.36495048 0.026087299 0.030799825 -0.001377575 0.013999909 0.00058914674 -0.014474608 -0.00096539885 0.0010607536 0.07276027 -0.036299147 0.37636745 -0.19253159 -0.033542406 0.0008468664 -0.01626449 -0.0027635952 0.02303701 0.00020954001 -0.0010823628 -0.082254864 -0.2580616 -0.41002545 -0.23288514 0.0010310396 -0.002194926 0.012452298 0.0009963735 0.00045464642 -0.0015212575 0.0031604187 -0.038122043
-0.005857205 -0.25837755 0.014603846 0.072653696 0.046814606 -0.088888 0.11678687 -0.058068093 -0.004027264 -0.009769718 0.0091382135 -0.023607694 -0.1981019 -0.09948136 0.09747339 0.33875933 -0.176502 0.040640585 0.3272248 0.0034790055 0.009467536 -0.006852504 0.04995184 -0.048067193 0.00642651 -0.2196404 -0.20135576 0.055552196 0.10021436 0.08455153 0.008396117 -0.02460335 -0.15438636
0.01881197 -0.15468909 0.03482998 0.045545574 -0.018501466 -0.2211034 0.015363626 -0.20181334 -8.3219995e-05 -0.0072541637 0.013979434 -0.06180914 -0.34473792 -0.12370672 0.1482638 0.2741035 -0.13928227 -0.0745747 0.18805663 6.478926e-05 0.009141404 -0.01578399 0.06365402 -0.022547603 0.030134372 -0.20153898 -0.36116877 0.0889081 -0.038060714 0.22358666 -0.0077322875 -0.03240567 -0.11065076
-0.038035285 -0.045198306 -0.061870087 0.095420316 0.036643095 -0.14367014 0.04624523 -0.017799728 -0.0034873823 -0.012652621 -0.004891701 0.022211382 -0.011001416 0.035445265 0.033723604 0.12508214 -0.06060935 -0.13945624 0.2705101 0.016200095 0.026409572 0.008227802 -0.039403863 -0.23748755 -0.12884006 -0.10666072 0.38215587 -0.16416587 0.26760638 -0.137041 0.0022265734 0.0034324615 -0.19693977
-0.13693435 0.076283075 -0.003161428 0.0044796304 -2.3201343e-05 -0.0010530323 -0.00015890646 -0.0024909347 -0.0001673474 0.00061621505 -0.0013601445 0.13892671 -0.23372102 -0.07363633 -0.0063627353 0.0003680636 0.0013680974 -5.8118872e-05 0.0044733603 0.00058862276 0.0006736698 0.002148147 0.024723643 -0.22906736 0.4086422 0.0005804395 3.1667807e-06 0.002384551 0.00088494236 -0.0013122107 0.000944157 -0.0014581323 0.011115866
0.0075236554 -0.0676523 -0.08311268 -0.042374372 0.017540941 0.097881846 0.011522462 0.032436337 0.0027908455 -0.014522993 0.03399331 -0.007258605 -0.07664654 0.11522444 -0.060895454 -0.23524821 -0.3279115 -0.2756471 0.22120017 -0.0147049595 0.013666627 -0.03750992 -0.0040227827 -0.071711056 -0.029822592 -0.11129481 -0.09418202 -0.27802238 -0.30466712 -0.07666813 0.009378904 0.14344548 -0.14605738
0.005221833 -0.20240514 0.10346483 -0.025542296 -0.002550413 -0.06607237 -0.004940924 0.1631783 -0.014150346 -0.021373516 -0.36146986 0.00053707 0.016547298 -0.10818256 0.034945935 -0.0020451697 0.08113261 0.0043414403 -0.12719008 0.56188756 0.14444673 -0.07909785 -0.012811076 -0.2939324 -0.05104981 -0.04733475 -0.0030159322 0.08891706 0.0068942904 -0.37773073 -0.1409217 -0.3632813 -0.34353185
-0.00832997 0.10325339 0.053540755 -0.09025275 -0.016983027 -0.08223639 -0.057411026 -0.0060603167 0.004141195 -0.030771524 -0.044564333 0.021146297 0.046824828 -0.05635888 -0.03217052 -0.08182703 -0.09215064 0.092158824 0.025423449 -0.004500456 0.04236164 0.046388894 -0.04635288 -0.018949756 0.07164907 0.03548449 -0.17157713 0.074544884 0.03265439 0.026072469 0.00043270286 -0.039877508 0.087070175
-0.16361596 -0.05064472 -0.0658162 0.034775052 -0.00022574332 -0.07278349 -0.00093673926 0.029677687 -0.00035799737 0.000964622 0.060222667 -0.026076706 -0.16944526 0.05536508 -0.039893903 0.0006095417 0.08796038 0.0032415048 -0.05047111 0.0023321817 -0.00059145736 -0.06699293 0.015410438 0.106582746 0.15112877 -0.010527605 -0.0012698141 0.093169145 0.00075982756 0.0014978637 0.0005290558 0.0016863939 -0.004210093
0.0038567216 -0.06914279 -0.14626873 -0.018558655 6.317893e-05 0.0014673106 0.00061752263 0.00556595 0.00022438903 -0.001757104 0.019167844 -0.39773822 -0.013067126 -0.22162907 0.02447228 0.00013916862 -0.0017781159 -0.0020168207 -0.007216247 -0.0017554465 0.0023793108 -0.022648685 0.15896456 0.36713725 -0.19227354 -0.00568321 0.00063588226 -0.007300684 -0.0006731411 0.0035169395 0.0006383011 -0.0006320956 0.0010500029
-0.0061701005 -0.10493356 0.0014995896 0.0074847173 0.0036400734 0.00940104 -0.012959165 0.13486119 0.099382065 -0.10113379 -0.20745996 0.017635329 -0.0843493 0.027770067 -0.0010158028 -0.007012514 -0.019175656 0.022225047 -0.033044163 0.28827366 -0.102681465 -0.25671035 -0.00035231875 -0.24022207 -0.026044354 -0.025439262 -0.009794192 0.11455863 0.012278638 -0.56183344 0.4148467 -0.31228808 -0.3504394
-0.24481946 -0.08062048 -0.34385058 0.09049408 0.00075312355 0.0058962447 -0.0016773607 -0.00081532897 -0.0014131266 -0.004067154 -0.013551971 0.5229372 -0.040568873 -0.3710621 -0.11479065 9.734204e-05 -0.0042300434 0.0028425625 0.0027016862 0.0030146355 0.005885422 0.0132971695 0.0021450424 -0.095332906 0.015725456 0.0053496803 0.0023577965 0.005814783 0.00039764008 0.0015747868 -0.00068346417 0.000103522456 -0.0035304117
-0.09629134 -0.31110492 0.13747117 -0.034982212 0.001080825 -0.032201465 0.0003409919 -0.0036196958 0.0007195304 0.0014054013 -0.02300355 0.41299623 -0.032388814 0.33696342 0.048019875 0.00084380317 0.03904002 0.00016054892 0.006801912 -0.00085243164 -0.0027248336 0.025683282 -0.22243556 0.4515989 -0.34071004 -0.004347325 0.0021541987 -0.0054888045 5.3598927e-05 0.002815702 -0.0004284794 -0.00010892086 -0.031761836
0.10993545 -0.47764948 -0.21602952 0.035943694 -0.0030561169 0.008801433 -0.00088965177 -0.010930492 0.00079630915 0.0017717052 0.025542883 0.6106442 -0.60014564 -0.2255324 -0.043969303 0.0054740054 -0.009851944 -0.0008844268 0.017926347 -0.0033223147 -0.0016028518 -0.025943985 0.68280345 0.06913256 -0.32747486 0.0053427923 0.0018192346 0.007081372 0.0010026142 -0.0044673616 0.0019435765 0.0016423883 -0.04616198
0.0018151854 -0.025731076 0.010494154 0.046340745 -0.0011311312 -0.012742425 -0.00020147109 -0.0062277745 -0.0007085736 -0.0067674024 -0.010547733 -0.06039638 -0.029560441 -0.058174655 -0.054785017 0.0059391316 0.018943587 0.0017429369 0.00987982 0.00021771666 0.0058855833 0.012894112 0.022831632 -0.04679412 0.28225842 -0.006177892 0.00068854366 -0.019799875 0.0017513954 -0.009531079 0.0009925776 -0.0018062235 -0.031325053
-0.008777791 -0.13903506 -0.0045823124 0.12390052 0.01007552 0.059167307 -5.4920343e-05 -0.045594096 0.0017577322 -0.016097099 -0.030549064 -0.04976165 0.3010808 -0.061614998 0.07396997 -0.18979904 0.16050214 -0.08614258 0.24366263 0.0031329198 0.026112897 0.027077207 -0.073205695 -0.20994401 -0.1671832 -0.05087163 -0.5878927 -0.17603067 -0.21321256 -0.07542055 -0.005408035 -0.053152464 -0.17089334
-0.04982761 -0.240591 -0.42869323 0.0041003255 -8.7754226e-05 -0.00018103645 0.00093588 -0.0070488816 -0.00045616482 -0.0028560096 -0.0018675722 0.8420433 -0.041464407 -0.29493365 -0.0041627595 -8.3230036e-05 -0.00049338205 -0.000383491 0.0067429002 -0.0010556432 0.003534727 0.004090458 0.27513075 -0.05365607 0.17865475 -0.0036751453 0.00044836913 -0.00037101674 -1.7927205e-05 -0.0028338043 0.0003305984 -0.0018224692 -0.021017801
-0.05558081 -0.10714155 0.0384289 0.06092933 0.048987627 0.066076614 0.012967916 -0.02186803 0.004328097 -0.0069025503 0.03982222 0.07755806 0.010456536 0.037569076 -0.037173305 0.05020595 0.044144113 0.034403555 0.013785888 0.021947421 -0.010714729 -0.050201055 -0.01653247 0.047287762 -0.019496985 -0.12457786 -0.0800139 -0.11005964 -0.0653595 -0.24906415 0.006006824 -0.005893877 0.103930034
-0.02209458 0.012366369 0.002468094 -0.052188404 0.026405513 -0.08095062 0.043930177 0.10339157 -0.0072580217 0.005921179 -0.0732291 0.013935838 -0.09438817 0.05955402 -0.07689611 0.079884015 0.028573839 0.11938022 -0.06191532 0.0114222495 -0.015993726 0.07707934 -0.0021049932 -0.09459167 -0.1773303 -0.06804332 0.14677635 -0.059705704 0.053473346 -0.08601097 -0.005813624 0.04258952 0.0556457
0.028807616 -0.11245965 0.12996326 -0.21373561 -0.007277313 0.10322151 -0.00046645827 0.13141273 -0.006620548 0.030776795 0.09040363 -0.024556667 0.03211115 -0.113507055 -0.11835725 0.4078954 0.21054694 0.13078041 -0.016169537 0.020444058 -0.052951172 -0.09742999 -0.023689087 -0.23103857 -0.030026792 -0.14454165 -0.1663809 -0.12400829 -0.37458503 -0.11910246 -0.014700929 0.013863492 -0.23455122
0.14391993 0.15128012 -0.13116838 -0.02539628 0.0010813727 0.0036865415 -0.0005846158 0.005512248 0.00049182045 0.0092116175 -0.033679537 -0.39823106 0.30815378 -0.05537541 0.024720384 -0.0010617075 -0.005340297 0.0008337506 -0.008083959 -0.0019002684 -0.0133678485 0.037156474 -0.13634816 -0.12832071 -0.08449661 0.009190366 0.0020740728 0.0028366058 -0.0002946738 0.000114383714 -0.001182861 0.00066020753 0.013329249
0.0022813077 -0.047264934 0.051288676 0.043621205 -0.09556984 -0.0026467354 -0.04516721 0.07410342 0.0045572 -0.011371378 -0.038724516 -0.011207515 0.044151146 0.0008805458 0.011497646 -0.062668204 -0.031891074 0.30282584 0.089064404 0.00197888 -0.010323746 0.03150189 0.00029057273 -0.05308243 -0.14625405 -0.05416061 -0.0079975305 -0.12585884 -0.055393968 0.064778246 -0.021046113 0.045902215 -0.02937199
-0.0062334645 0.012470652 0.0068322048 0.021956503 0.023197223 0.02517103 -0.11327142 0.10197898 0.0162188 0.028515603 0.068918005 0.03906386 -0.1508579 -0.024681926 0.0551062 -0.19331162 0.10177985 0.04201367 -0.052355636 -0.0384184 -0.03867906 -0.074745595 -0.049069326 -0.021505775 0.067908116 -0.041799627 0.040775567 -0.032487992 0.17231204 -0.020194257 0.017004324 -0.17642361 -0.031159464
-0.005548998 -0.11503746 0.037299458 0.05359276 -0.010044665 -0.121839635 -0.007864163 -0.1601631 -0.0051792227 0.050384346 -0.08763715 -0.0057471674 -0.054139003 -0.019368172 0.032883644 0.24060166 -0.1721712 0.048801437 -0.16739573 0.016415121 -0.07540601 0.09843006 -0.023448005 -0.27336618 -0.1478428 -0.07020218 0.26244664 -0.12870754 -0.42588067 -0.12431828 0.024526073 -0.003813888 -0.21079248
-0.056259766 -0.036581997 -0.20216052 2.389248e-06 0.00044164018 0.031965196 0.0003431171 0.0039163437 0.0005532321 -0.0010258547 -0.0076030064 -0.10713046 -0.2833506 -0.22424018 0.0051594297 -0.0031691843 -0.03923237 -0.0017444353 -0.0051568286 -0.0018235816 0.001568317 0.008062474 0.09214146 -0.3159446 -0.07218491 0.0071099927 0.0013036913 0.011235836 0.0005386775 0.0018128804 0.0014120315 0.0016281808 -0.003519909
-0.009268728 -0.06629201 -0.08984198 -0.062047675 -0.019013934 -0.0036601496 0.0076573133 -0.05228682 0.0037200719 -0.07518061 -0.03422924 0.02978975 -0.0012587099 0.041992225 0.013684547 0.050455876 0.020072235 -0.03322026 0.15287286 -0.02153672 0.042070623 0.06748914 -0.028154658 0.061157737 -0.029327124 0.048670102 -0.00265039 0.00252033 -0.056285426 0.064871304 0.048504077 0.07944687 0.09556027
-0.26953658 -0.53629917 -0.413665 -0.0024173716 0.0015449197 0.018758995 -0.0003470085 0.0015751277 -0.00037027666 -0.004801818 0.05797398 -0.14392659 -0.50151426 -0.3106348 0.0042436253 -0.0015793454 -0.026724711 -0.001280006 -0.0009047107 -0.0017563706 0.009450079 -0.064548776 -0.44139165 0.2820755 0.1895995 0.004969 -0.0006847823 0.004452142 0.0013393271 0.0042369803 -0.0022196856 -0.005046114 0.04199834
-0.036730547 -0.052372936 0.030346924 -0.12622547 -0.0063782344 -0.015798979 -0.022109311 -0.07285184 -0.0036794902 0.056822598 -0.05000862 0.14994067 -0.09009441 0.2329369 0.07486737 -0.082396775 0.057413876 0.057041913 -0.20114231 0.015631422 -0.07262784 0.061600566 0.046030313 0.13263284 -0.027579598 -0.030304696 -0.21993196 -0.19425297 -0.2565692 -0.3152865 -0.030391358 -0.105408244 -0.03600516
-0.052266188 -0.14405581 0.1407993 0.014764648 -0.00013033686 -0.011653508 -0.0012585216 -0.023070946 -0.0011685182 -0.03464095 -0.011491985 0.038769055 -0.08514971 0.27719554 -0.004103997 -0.0029625166 0.011255971 0.0043716202 0.030882163 -0.00061761163 0.051480494 0.016205285 0.15032098 0.17663895 -0.2912146 0.00013343015 0.001921649 0.00789666 0.0055365977 -0.006756709 0.0034526966 -0.0026985812 -0.026982198
0.04813005 0.32375666 -0.30525428 0.016424013 -0.00013568487 -0.012059324 -0.0004301677 -0.00861697 0.00040957791 -0.0066058463 -0.024561912 -0.11488836 0.34490544 -0.30937585 -0.017946664 0.0003887321 0.017582016 0.0001886956 0.013439325 0.0016424085 0.0059229075 0.026313223 -0.07893977 -0.23447645 -0.5089279 0.031560402 -0.0015173901 0.012074096 0.0018605948 0.005982811 -0.0025650966 0.0045960527 -0.05053627
-0.051473625 0.100983575 -0.29302633 -0.0084607545 0.00051590585 -0.020222316 0.0008324375 -0.004928793 -8.40033e-05 0.0065075974 0.013179214 0.042481598 0.48332995 -0.19534077 0.0077110003 -0.0029652994 0.02650322 0.0014753323 0.0062297145 0.0011788495 -0.009804374 -0.015133041 0.04655377 0.022521289 -0.21279941 0.0030745505 -0.0009241028 -0.010210657 0.0008710044 -0.005739885 -0.0010802397 -0.004681003 -0.037474927
0.1745262 0.089976944 -0.13239709 -0.012340251 -0.00024760142 0.05545477 0.0046845777 -0.0063973116 -0.00044707773 -0.017779877 0.06959845 -0.031572193 -0.0035498827 -0.23364973 0.022903292 0.0011500182 -0.06773511 -0.012237932 0.011622205 0.00097096135 0.025927933 -0.074726924 -0.29961163 0.118657574 0.037040405 -0.009379139 -0.0011733554 0.011040872 -0.0020885365 -0.007434473 0.00095208664 0.0044035804 0.012048439
-0.372304 -0.03281661 -0.35368076 0.014990837 0.0003231252 0.030824589 0.00018697864 0.0051494073 -2.9083718e-05 -0.002671121 -0.108022824 0.40891543 -0.10250115 -0.2888948 -0.021308968 0.0013156078 -0.039120622 0.0012804334 -0.00873533 0.0006076666 0.0057434756 0.11990942 0.11955304 -0.042068537 0.33434448 -0.0025580497 0.00082508614 -0.0038614785 -0.0004682423 0.002041896 -0.0010435826 -0.00064066716 0.03292828
-0.09610538 -0.17339648 0.25234097 -0.04486047 0.0016786762 -0.023317654 0.00019559625 0.0043786895 -0.0006641339 0.007913677 -0.013066544 0.042885825 -0.12580341 0.083539575 0.052950464 -0.0041309013 0.028378058 -0.0015055957 -0.008719535 -3.815987e-05 -0.012482979 0.01467381 0.0873914 0.02447856 0.021636546 -0.013583415 -3.3914068e-05 -0.0048769806 1.2236753e-05 -0.0048283823 0.00045971244 -0.0013780028 -0.016045434
0.0020626017 -0.2854954 0.11094507 -0.04665828 -0.00052468106 -0.022099692 -0.0020284327 0.29255635 0.00028531847 -0.14118166 -0.045846865 0.0025140548 0.054997902 -0.08056372 0.08070981 -0.010627924 0.030584108 0.0052568507 -0.61340463 -0.036188606 -0.086159654 0.055778854 -0.012934593 -0.38715944 -0.0913828 0.022251287 -0.008730844 0.035208073 0.003883088 -0.39221528 -0.65062106 -0.521979 -0.23439123
0.03861652 0.004055807 0.14470594 0.012520329 -0.0049667447 0.017994557 0.00065857195 0.0084383115 -0.0005365256 -0.023603154 -0.08787007 -0.05765874 0.17226394 -0.14627497 0.0023650306 0.013783535 -0.03557045 0.0010190314 -0.015966041 0.0009634507 0.03935962 0.09815725 -0.06019849 -0.1774565 0.186886 -0.054724425 -0.00525463 -0.054188114 0.00068956264 0.0028540865 0.0067328764 -0.0005444617 0.0015126506
-0.0075167483 -0.059712373 0.020188797 -0.004226752 0.020702252 -0.035896074 -0.11370032 0.031494245 0.0010980511 0.013456691 0.043094218 -0.027933538 -0.19731298 -0.08786822 0.09436291 -0.48869786 0.09920614 -0.12698679 0.24156736 -0.000805731 -0.019045407 -0.04461362 0.018830825 0.03148066 -0.08267924 -0.22588992 -0.08841126 -0.1179864 0.22659273 0.02635511 0.0028059843 0.08916951 -0.14590113
0.12064798 0.27831405 -0.06259181 -0.015629845 0.0004671973 0.014955151 -8.787887e-05 -0.0051727225 -0.0005265034 -0.041203737 -0.04794875 -0.33663204 0.117305376 -0.075737804 0.012493673 -0.00047699595 -0.019420037 0.0010318507 0.0070528574 0.0018522397 0.060570534 0.053956967 -0.15996373 -0.16159421 -0.05924003 0.006953416 2.3917364e-05 -0.0033490367 -0.00031411843 -0.008057159 -0.00039013135 -0.00034902318 -0.04622677
0.010953491 -0.12854972 0.13859881 -0.102707595 0.21791282 -0.020621106 0.17892495 0.066475786 0.0003589436 0.054850828 0.046649456 -0.0055877506 0.06918989 -0.14373057 -0.036871713 0.0030650257 -0.014247897 0.07018184 0.19629896 0.012155347 -0.043666463 -0.050570972 0.013631652 -0.04315838 0.07978418 -0.052951135 -0.007604392 0.005779156 -0.02128234 -0.108999796 0.020555755 0.02046181 -0.09290233
0.20252186 0.22342059 -0.086894915 -0.006174737 -0.00037859642 -0.004466825 -0.00037682478 0.0041835294 7.854954e-05 0.011282537 0.041928776 -0.48762935 0.22463302 -0.026837453 -0.0009054753 -0.00043524097 0.0037269727 0.0022925443 -0.0044024102 -0.0025336654 -0.016712768 -0.04688916 -0.16783442 -0.18860783 -0.03075301 0.00695604 0.0014495874 -0.0031899358 -0.0017963449 -0.0041729193 0.00012391493 -0.0013529484 -0.03344468
0.021541664 -0.02164453 -0.073750764 0.041046415 0.01920971 0.03972947 0.01646196 -0.07476002 0.0058358065 0.013054333 0.020987986 -0.020463644 0.0038536328 0.0144677535 -0.04826834 -0.20218062 -0.1581014 -0.14268157 0.01639004 0.0054711723 -0.029104963 -0.028044581 -0.000730873 -0.016524598 0.18778521 0.04006848 -0.041365325 0.107736684 -0.063884035 -0.07012003 -0.005390958 -0.048536915 -0.085648015
-0.016511254 -0.084022194 -0.19864964 0.077499285 0.004803593 0.23343846 0.0144427065 -0.18264937 0.0016680129 -0.011231083 -0.06354547 -0.02864313 0.06552749 0.08252885 0.05052573 -0.21047252 0.011810962 0.008969299 0.027291767 0.016080173 0.004904861 0.066251665 -0.04444239 -0.09670206 -0.22449978 -0.075569764 -0.31710875 -0.21724293 0.31014916 -0.12029832 0.024764553 0.046257854 -0.16484116
-0.23245224 -0.05626357 -0.60819733 -0.006976591 0.00072604965 -0.05995388 0.00048958993 0.00678693 -0.0003539059 -0.011731686 -0.04067015 -0.019214692 0.012143575 -0.3526686 0.008048378 -0.0038024248 0.07558007 -0.0023939575 -0.010568614 -2.2522436e-06 0.019023558 0.046196938 -0.049009033 -0.015610668 0.280745 -0.0038212624 0.0036722138 -0.0052200365 0.0012851361 0.00089925993 0.0016251417 -0.00026902268 -0.045201726
0.055629246 -0.08154941 0.02538654 0.038688246 0.0005977129 -0.009031195 0.00018163657 -0.00037788818 -0.0005598989 -0.018033208 0.09066973 -0.29721916 0.09294182 -0.1620421 -0.04940398 8.0575e-05 0.010279504 -0.0007971496 0.0010216236 0.00018736557 0.025582453 -0.10238912 0.07166045 0.11556243 0.22406693 -0.0020257141 0.001229068 -0.0021844278 0.00040961723 -0.00059182715 -0.0002550587 0.0016034237 0.03375847
-0.17115173 0.0040865354 0.045716353 0.008812302 0.00073407654 0.007386209 0.0022540258 -0.029327905 0.00026296373 0.041155532 0.015982045 0.03817043 0.16697069 0.015871445 -0.010863113 -0.00084583275 -0.010967724 -0.0023544258 0.040521372 0.009962763 -0.06455407 -0.020386323 0.30252865 0.09471541 0.0006224657 -0.029684875 0.004214536 -0.14365111 -0.0009784946 -0.025668832 -0.004034181 0.0071774814 -0.072195105
-0.0071704327 -0.30284566 0.069338694 0.074368484 0.012295134 -0.034751583 -0.18713638 -0.3434673 0.003983102 -0.00094038254 0.024033584 -0.005590293 -0.10956858 -0.15006451 0.04486579 0.5900168 -0.18320689 -0.15794022 0.0920247 0.02273616 0.004898794 -0.029380843 0.039934464 -0.041553088 0.03513002 -0.17132567 -0.05369327 -0.08014648 0.299801 0.05366708 -0.016722193 0.037553664 -0.23816502
0.008922213 -0.24184293 0.018165557 -0.05567958 -0.0073490143 0.26983392 -0.066688955 -0.26032507 -0.0023109945 0.018841881 -0.03162619 -0.07996522 -0.10626244 -0.054421637 -0.17575203 0.15265043 0.14620134 -0.029139416 0.07718946 0.01980768 -0.036641218 0.03954547 0.079262935 -0.2301105 -0.17318717 -0.074020766 -0.29500955 -0.3373003 0.5511764 -0.3487071 0.017850466 -0.011346198 -0.14726566
-0.1233798 0.044241317 0.07859994 -0.0025192678 -0.0054701506 -0.0065762643 -0.0034676886 -0.0019832922 -0.0013688662 -0.028119998 0.0041417186 0.16623046 -0.020098865 -0.048834167 0.0012220852 0.018041238 0.005200907 0.01002021 0.005104606 -0.0013632406 0.044380438 -0.0009976189 0.07867324 -0.10586878 0.12872797 -0.043491576 0.002769285 -0.027963666 -0.0027290557 -0.016829832 -0.0015670924 0.014314775 -0.0064716027
0.08060524 -0.058804717 0.023569662 -0.007835764 0.009222198 0.06299185 0.010356095 0.002455441 0.0026803843 -0.01232276 0.018470908 -0.13560902 -0.003451758 0.023024768 -0.05345477 -0.01917112 -0.07858181 -0.018277701 -0.00046027152 -0.004996955 0.022222064 -0.016718281 -0.008659876 0.13381721 0.21430236 -0.047768977 0.015125049 -0.09321509 0.0009596123 -0.012742826 -0.0059850803 0.012672525 -0.043162316
0.17422372 0.3543131 0.115630165 0.027448341 0.00079324795 -0.020444907 0.0010873829 -0.000971431 -0.0007654993 0.0019410287 -0.052648842 -0.1845451 0.24525495 0.24027959 -0.034430094 7.130729e-05 0.025071464 -0.0028655257 0.0012014225 0.0015818314 -0.0023741024 0.062243897 -0.5861719 -0.4325816 -0.02530845 -0.023979332 0.0029840171 -0.023714114 0.0015589034 -0.007354968 -0.0013292349 -0.011091082 -0.041182894
-0.08317789 -0.07110407 0.035375122 0.03525805 0.0013375909 -0.0031697543 0.0009196364 -0.0041783005 -0.00049495575 0.00065666076 0.013042221 0.10091378 0.09452071 -0.045020547 -0.049052496 -0.004292607 0.006412142 -0.0011566498 0.007890308 0.0020826503 -0.0011207926 -0.015725518 0.066774346 0.11573899 0.23985253 -0.0038473657 0.002831031 0.017411936 0.0027256857 0.0026056904 -0.0021676898 0.0037755363 -0.038579196
-0.17403458 -0.017245555 0.027153185 -0.00747115 0.0006798108 0.0055184923 -8.3747334e-05 0.003864813 -0.0009812628 -0.008366821 0.033927027 0.059249062 0.28819388 0.109629296 0.005149031 -0.00010760407 -0.005944637 -0.0012287039 -0.0077568274 -0.0007642761 0.01352531 -0.037742585 0.008301075 -0.13904603 0.33311203 2.1121152e-05 -0.0013046509 -0.00241663 0.00027058102 0.0007269287 -0.00068276713 0.00016368083 -0.002778624
0.021295642 -0.15188633 0.16575877 -0.032068092 -0.0020034285 -0.009165051 -0.0010694636 0.02628769 -5.70639e-05 -0.011942613 0.02409057 0.08025055 -0.15505743 0.20333454 0.045607388 0.005889231 0.010617799 0.0045399116 -0.04513589 -7.796362e-05 0.02022627 -0.024662167 -0.28045884 0.13619673 0.002684545 -0.016011553 0.0038650855 -0.020718494 0.0008518149 0.023439603 -0.00059876544 -0.0047037983 -0.063663356
0.021983152 -0.1566749 -0.040327653 -0.07007682 0.0043217703 0.013681333 0.01294904 0.1577767 0.0024339077 -0.10019425 0.069295116 -0.04906794 0.046198014 0.11367805 -0.006569079 -0.01044348 0.012887084 -0.024080249 -0.16329303 -0.07581026 -0.16662845 -0.0001883307 -0.004099681 -0.16216767 -0.11058921 -0.08685857 -0.003589867 -0.011814523 -0.028095307 -0.20028484 -0.3673849 -0.03865222 -0.054198734
-0.010294758 -0.030744541 0.10321029 0.09890261 -0.09891381 0.07648443 0.017864041 0.00789034 -0.006853924 0.03687368 -0.031897638 0.030935923 0.014095378 -0.063078634 0.15583867 -0.07592334 0.15867586 0.0067081344 0.00021026071 0.01908407 -0.054572105 0.03676688 -0.0063663367 -0.14898089 -0.11703827 0.040621158 0.030057184 -0.19936933 -0.06916504 -0.086871766 0.009513078 -0.008147522 -0.029464396
0.07167306 0.16993496 0.28714094 0.012795272 0.0008837277 -0.021948328 -0.0005886436 0.004596928 -0.0016033987 0.0036244215 0.05420016 -0.11295221 0.07691781 0.40577835 -0.015091712 -0.00069882954 0.027576935 -0.0022408906 -0.0059895194 0.0041815015 -0.005146276 -0.06247835 -0.098917186 -0.16616674 -0.19406445 0.011034773 0.0011657127 0.015256803 0.00045282752 0.002052386 0.00011693571 0.0018584009 0.008321716
-0.04549881 0.23409477 -0.41444674 0.009710662 0.00079374504 0.0048504896 -0.00010699118 0.002160223 -0.00071656465 -0.0036945231 0.030840041 -0.13987961 0.037639633 -0.23596312 -0.019718139 -0.001559188 -0.0043474217 0.00036195864 -0.0069274274 -0.00037258136 0.0038266007 -0.034589972 -0.11916818 -0.47819832 0.20612995 0.0033796013 0.0028390146 0.0021821011 -0.00035927424 -0.0027979363 0.00087804534 -0.0033795654 -0.005083923
-0.21478534 -0.1782919 -0.49363407 -0.07168296 -0.0008338057 0.014070447 0.00045529433 0.0035963492 0.0006609664 -0.009330066 -0.029532138 0.545975 0.3341692 -0.44054425 0.087094545 0.0022872016 -0.016540783 -0.0014145802 -0.009753398 -0.0049619563 0.014001773 0.033199657 -0.073118374 0.13218436 -0.037008144 -0.015212003 0.00017497069 -0.01873687 0.00026415187 -0.016336745 0.0010594929 -0.005660159 -0.047281753
0.032868214 -0.14276037 0.104850575 -0.14563465 0.014456092 -0.028167982 0.17783579 -0.04176543 0.0037088713 -0.008046683 0.09103238 -0.018488878 0.02066104 -0.027616313 -0.08478411 -0.007968235 0.01031426 0.09307938 -0.16351905 0.00037799333 0.0148853855 -0.109453276 -0.014096783 -0.3077757 0.079575606 -0.13271765 -0.3594437 -0.14549364 0.26496115 -0.24454616 0.02100339 0.030746287 -0.10350422
-0.23712687 0.35859916 -0.20350765 -0.054314334 0.00024132218 -0.004051414 0.00075786636 0.0016538376 0.00038842784 0.028851576 0.000247106 0.04775567 0.17572404 -0.15870868 0.06941866 -0.00041398982 0.0064398884 -0.0017741503 -0.0022960438 -0.0005910922 -0.04182306 -0.0012710056 0.025813468 -0.1351351 -0.11373032 0.004046984 -0.0012210916 -0.007739522 2.118852e-06 0.0014306232 -0.0005448736 0.0020487902 0.040065814
0.020992652 -0.06229277 0.013089281 -0.05071592 0.005996364 0.013165613 -0.0042301835 -0.06753289 -0.0032729944 -0.019943811 0.029731758 -0.012210776 0.09233303 0.011326283 0.0077676126 0.03214086 0.080100484 0.009452407 0.008613996 0.021559428 0.026651755 -0.03967714 -0.026861293 0.023362417 0.21225038 0.051433515 -0.0126461955 0.08935404 0.1275558 0.0036872642 -0.0028260078 0.014134261 -0.0573964
-0.16055886 0.013343418 0.17945415 0.030913072 -0.0003096923 -0.0019018434 -0.0006490479 -0.0035047221 0.0006841941 0.006035252 -0.06737198 0.3931581 -0.035416007 0.35582128 -0.035859596 0.00018058642 0.002935687 0.0018105066 0.0066883415 -0.00067346665 -0.007579839 0.073265426 0.09155896 -0.05431662 -0.13441691 0.00053335953 -1.4006654e-05 0.0034280233 -0.0015985889 -0.0011852463 0.0017012524 0.0009458122 0.009656007
0.028525496 -0.101057656 0.106307976 -0.0008554832 0.002072457 0.0184641 -0.0001931352 -0.00070386345 0.00016733845 -0.00039545377 -0.052947607 -0.09260548 0.25969145 -0.25958025 -0.001884151 -0.0016185119 -0.022971047 -0.003351157 -0.00056880503 0.001267556 0.0021848432 0.056052547 -0.57489324 0.31867796 -0.06521952 0.015089486 0.001276784 -0.0008101416 0.0005000547 -0.0038644727 0.0012137797 -0.0019483558 -0.0067009837
-0.05080158 -0.0411244 0.08363903 -0.004349314 0.0025595143 0.0531726 0.0039792657 0.042514496 2.3182609e-05 0.054997638 -0.08427854 0.026379911 -0.02483249 0.047825735 -0.036807675 -0.0019166738 -0.023822134 -0.021628462 -0.06517569 -0.0030814311 -0.07984932 0.09538814 0.015234483 0.20996757 5.0780458e-05 -0.015805764 0.03751118 0.037983883 0.010303124 0.011709122 0.0031802764 -0.015910294 -0.055028677
-0.052649822 -0.041967954 0.0004949309 0.02376049 0.018841138 -0.06221936 -0.0005483043 -0.1416693 -0.0022237748 0.14002918 0.013634776 0.05533699 -0.058911916 0.019026231 -0.051340163 -0.0072235283 0.048124738 -0.010070374 -0.038175065 0.11585888 0.14181827 -0.10486153 0.02251086 -0.095348194 -0.06520906 -0.060903277 0.046674237 -0.053761765 -0.022394681 -0.08199755 -0.36140934 0.09478479 -0.14965668
-0.07709398 0.084318444 -0.0057451054 0.0098343445 0.0008635248 -0.004907083 -0.0008716451 0.0002852459 -1.8219942e-05 0.0032995564 -0.017993303 -0.008253079 0.3129609 0.12497814 -0.021135582 -0.0029370652 0.007159432 0.00083333027 -0.00017011692 0.000568599 -0.0026702816 0.021160161 0.06836652 -0.18410094 0.32929644 0.0007683685 0.0017644318 -0.0045554736 -0.00033963975 -0.001294021 0.0005810205 -0.0031782743 -0.044348314
-0.011979523 -0.021929825 -0.027776552 0.045064002 0.024343206 -0.053964987 0.01547122 -0.17427573 0.0046182224 -0.0010711162 0.019783381 0.029524524 -0.04284678 0.030394625 0.0941297 0.15261021 -0.15043975 0.098206125 0.3486613 -0.010557182 0.007945133 -0.031092368 0.014400058 -0.051744424 -0.04309778 -0.061239388 0.30794123 -0.114130005 0.031966668 -0.041838888 -0.012821691 -0.095026955 -0.11866153
-0.18287311 0.3447014 -0.0699595 0.030737286 -0.0005902331 -0.014061767 -0.0006635028 -0.003491805 6.2433544e-05 -0.01756701 0.019187925 -0.047164008 0.17506349 -0.2212672 -0.04247402 -0.0011995786 0.018795634 0.0013503772 0.004607972 0.0001655545 0.023933511 -0.022119336 0.016637653 -0.20075148 -0.11280692 -0.006285786 -0.0001293337 -0.0065015964 0.0011431004 -0.002380818 -0.0010150345 -0.003584289 -0.009569338
0.07566011 0.1147186 0.0858794 0.021033568 -0.0119135035 -0.06268668 -0.0055002617 -0.04560233 -0.001169939 0.0308895 0.033032406 -0.1077001 -0.10998284 -0.13800615 -0.01816275 0.02757531 0.07105776 0.02923504 0.061836008 0.0033958927 -0.04368049 -0.032263476 -0.12379897 0.122407906 0.13313954 -0.028156588 0.004037072 -0.026342662 -0.005882797 -0.040264193 -0.0022987337 0.005825014 -0.05779903
-0.054291774 -0.2047753 -0.07435057 0.051018845 -0.019626232 0.21512914 0.019899676 -0.03765661 0.00036382943 -0.009970669 0.0017489352 0.05103607 -0.21286774 0.040900737 0.16571668 -0.034651704 0.097136654 -0.090156525 0.123386696 0.0019207103 0.017491128 -0.0003583534 0.06192352 -0.054854333 0.0016078235 -0.15165025 0.3099314 0.035036232 -0.061414182 0.11899358 -0.00057534786 -0.027421556 -0.046018645
-0.018680815 -0.08159144 0.065977655 0.04708249 -0.0097256955 -0.038239982 0.001686039 -0.011610076 0.0032090966 0.028867079 -0.020412523 0.045417875 -0.046475746 0.05218815 0.05507876 0.08512029 -0.1063441 0.017023092 0.012588056 -0.0049343673 -0.042840775 0.019977907 0.060413267 0.1680889 -0.016599063 -0.073173515 -0.13013631 -0.0076996787 0.025985455 -0.032456547 0.0022362818 0.004948341 -0.028501326
-0.050058685 -0.14022666 0.28206545 -0.009000791 4.9872426e-05 -0.017194139 0.00045995222 -0.00602835 0.00062190567 -0.055574063 -0.009378796 0.26926926 -0.1717364 0.27059034 0.0014145352 0.0011680075 0.018282471 -0.00086790323 0.009557556 0.0010114306 0.08115262 0.009937861 0.1333737 0.188791 0.062906384 -6.728539e-05 -0.00017637102 -0.0046313563 -0.0013818801 -0.0057323133 0.0027337098 -0.0050468617 -0.0066405013
0.0033534006 -0.10966998 0.06833734 0.014748072 -0.014465983 0.1649075 0.010618338 -0.043686442 0.0046065557 0.0044420706 0.046683107 0.016813457 0.035322335 0.019261234 -0.03309841 -0.018025983 -0.09822318 -0.03664465 0.14877439 -0.0060121696 -0.017247612 -0.04758788 0.03615114 0.13243727 -0.09830028 0.016865764 -0.16346931 -0.09736449 -0.055437192 0.09867573 -0.0050234045 -0.030446704 0.034443215
0.036013715 -0.1685567 0.085241735 -0.0972621 -0.02125604 -0.13546436 0.007900849 0.08439311 -0.013274547 -0.0237454 -0.014208416 -0.04277237 -0.08244422 -0.03300311 -0.050870504 0.04654365 -0.10329181 -0.12894061 0.02733318 0.018508505 0.03453302 0.022575058 0.010335053 -0.09088248 0.105013356 -0.14032584 -0.06947215 0.0027596324 0.27175948 -0.07586218 0.009711599 0.09197931 -0.1923708
-0.046625257 -0.009550146 -0.2516004 -0.027976686 0.002551269 -0.01097369 0.0002659019 0.014744415 0.0005517047 0.005090847 0.08419645 -0.15606835 -0.20153855 -0.34056273 0.03054503 -0.0030059586 0.018299133 0.00015954574 -0.023126803 -0.0029883138 -0.0064376635 -0.09617354 0.16430089 -0.053820327 -0.04926485 0.004973402 -0.0028570564 -0.0036993674 -0.0027557025 0.008301687 0.0020814985 -0.003458431 -0.07122575
-0.017561296 -0.11044969 0.021517437 0.028238418 0.0019254993 0.053709097 0.0007880423 -0.0017272284 -0.00061822747 -0.007936597 -0.06805598 0.0071006296 0.069003806 -0.05695315 -0.038647175 -0.0030765433 -0.07212275 -0.0008143632 0.002399431 -0.001378241 0.011312852 0.077158354 -0.08548079 0.015147707 0.37725553 -0.008181157 0.0023752719 -0.02340296 0.00024126147 -0.0031759394 -0.00042405433 -0.0058035455 -0.075916044
-0.115095146 -0.026435519 -0.08588492 0.12406729 0.029546844 0.014907525 -2.4114132e-05 0.012683394 -0.00029167434 -0.010869866 0.0020902702 -0.009179942 -0.1111739 -0.059248175 0.13922851 -0.05539739 0.013936496 0.0023049556 -0.0015144615 -0.00518728 -2.5069054e-05 -0.0018913182 -0.08016508 0.03343071 -0.037710797 -0.023327991 0.0151192555 -0.05755208 -0.0025588812 0.03232398 0.0015757908 -0.045606162 0.018843744
-0.035788983 0.026423827 0.031281225 0.03256719 -0.0012026298 0.0051184446 0.0021657185 0.007124634 -0.0015031049 0.028184632 -0.06685813 0.020901132 0.13350491 -0.03226565 -0.026731635 0.002561755 -0.008560328 -0.0035253405 -0.012568066 0.00025706316 -0.03882825 0.07694402 0.013634003 0.12624678 0.28010914 -0.010233817 -0.0013258258 -0.0054713646 0.0014627635 0.0022561846 0.004076847 0.009434363 0.0041370164
0.01571349 -0.3072174 -0.5858513 -0.032220222 -7.198287e-05 -0.012201457 0.00034745786 -0.010445202 -0.00063854334 -0.003669443 0.026821584 -0.39001682 -0.2671739 -0.4351019 0.03881667 -0.0013785774 0.0144008435 -0.0013416563 0.016845724 0.001523679 0.001191212 -0.03184106 0.11924016 0.22724584 0.068626486 -0.010144242 0.00082693767 -0.0045676194 -0.00011011413 -0.009859257 -0.0020408966 -0.0030673032 -0.043038964
-0.0023069186 -0.0068446915 0.07674206 -0.023758229 0.00128476 0.012719008 -0.006109122 0.15068948 0.2441052 -0.046295267 0.08665832 0.00752795 -0.16073813 -0.036853403 0.01958821 -0.023383807 -0.008081009 -0.0014719454 -0.2512484 -0.026410349 0.057591993 0.20567968 -0.01278185 -0.16408446 -0.048881423 -0.06589776 0.0065716966 0.09170086 0.004851262 -0.17269285 0.285259 -0.21816297 -0.037108075
0.0023207895 -0.27668226 0.084890544 0.12714684 -0.043430608 0.032654054 -0.0134636415 0.14102928 -0.0041120406 -0.023231106 -0.046024013 -0.025481889 0.12419634 -0.09991031 -0.11633582 0.001323241 0.30762276 0.20655423 -0.07036118 -0.008554509 -0.0026665197 0.052771952 -0.020588137 -0.2589061 -0.022262186 -0.051120494 -0.10540742 -0.07557298 -0.57998806 -0.22384702 -0.011869598 0.18446219 -0.18067561
0.0531587 -0.316675 -0.18615155 -0.060935486 0.00087169855 0.0767173 -0.0019147437 0.020187125 -0.0013416997 0.005755027 -0.034203846 -0.1942289 -0.1528026 0.054369673 0.055661697 -0.0043618022 -0.098356985 0.0079362355 -0.023687454 0.004031248 -0.009505994 0.043628696 -0.039219003 -0.08465413 -0.32814473 0.089419514 -0.00768284 -0.04273377 0.0018495311 0.029582772 -0.0063506477 0.0053056856 -0.024721233
-0.07928595 -0.12162476 -0.03733397 0.008602277 0.0006568174 0.03326361 0.00204064 0.011692594 -0.0015350316 -0.002748398 -0.06791341 0.13335244 0.17650375 0.03687073 -0.013983463 -0.0016224546 -0.04460877 -0.0026382937 -0.017511401 0.0027911072 0.0033613124 0.07697039 0.06565449 0.02922894 0.20505162 0.0113772815 0.0005845782 -0.007380713 0.0032519842 0.0072226096 -0.002052177 -0.00043640067 -0.0036587678
0.043798845 0.010765559 -0.13076323 -0.03126213 0.0025839645 -0.08043629 0.015603818 0.19125833 0.016298741 0.13655332 -0.06076731 -0.08596329 0.035804607 -0.009314153 -0.005108731 -0.044454712 0.06427392 -0.028635733 -0.30631703 -0.049243566 0.04050138 0.014046395 -0.04327551 -0.06430555 -0.46052682 0.0022979863 -0.017240062 0.033379044 0.033476695 -0.12777856 0.19980353 0.06180295 -0.031689163
-0.042928632 -0.14410843 -0.22004609 -0.039609093 0.00020807567 0.067875676 -0.0008504447 -0.0031465234 -0.00013062169 0.038623035 0.00050613994 -0.020079883 -0.15779915 -0.15871859 0.04685779 5.519547e-05 -0.08591882 -0.000625671 0.0073887846 1.6729296e-05 -0.057339903 -0.0002582915 -0.19038649 0.039774906 0.042262405 0.01600046 0.0013840304 0.039025925 -0.00020270578 -0.0011609567 -7.13903e-05 0.0050543183 -0.07890127
-0.15464735 -0.42562103 -0.47152874 -0.000740857 -8.9109875e-05 -0.014661552 0.0010713359 -0.013189414 -0.0014846348 -0.011409231 0.055170327 -0.23944134 -0.3464576 -0.24322134 -0.000850768 0.0016989167 0.014292068 -0.00044825082 0.021261932 0.0005915918 0.012226137 -0.058067564 -0.29968983 0.07872861 -0.04494405 -0.0038246708 0.00036060004 -0.0015657701 -0.0017276104 -0.0011664889 0.002383763 -0.003233732 -0.033178516
-0.61400723 -0.50420463 -0.39579165 -0.0034609719 -0.0014802266 -0.002942787 4.7311783e-06 -0.00067445025 0.00042679705 -0.0007710665 -0.023169601 -0.19091906 -0.2604794 -0.17911427 0.004995365 0.00063365203 0.002988819 0.0015029398 -0.00035592297 -0.00052176276 2.9580038e-05 0.025394786 0.61298835 0.30598208 0.21795043 0.0006742562 0.0010969597 0.00063311215 0.001492422 -4.6259338e-05 0.0005309062 -0.0011033845 -0.0035448694
0.01551668 -0.07896879 0.005459824 0.018003568 0.0020794652 -0.025477463 -0.0022415027 -4.4398752e-05 0.002931882 -0.036494855 0.108008154 -0.024369165 0.09257421 -0.027612006 -0.023023425 -0.006638141 0.04292274 0.0030663284 -0.05675756 -0.17881015 -0.09902339 0.087903745 -0.0054268343 -0.039333846 0.09385013 0.04845101 -0.008232301 0.08437562 -0.0017049523 0.06462251 0.163943 -0.019549096 -0.027995734
0.050919876 -0.165771 -0.004243682 0.0006276684 -0.0009940917 -0.011989943 -0.0010320528 -0.0039203134 0.00035680842 -0.008051757 0.08008569 -0.14479037 -0.07684638 -0.00554381 -0.0007077521 0.0025689048 0.019708019 0.0019604322 0.0062020337 -0.0011909672 0.012919968 -0.09200135 -0.17022817 0.19706063 0.25137585 -0.010632426 0.002871096 -0.008626752 -0.0018891894 -0.0039187823 0.0005747088 0.0015132306 -0.006928434
0.19138077 0.3391887 -0.035345234 -0.014915829 0.0010939095 0.0068830997 -0.00040181997 -0.000618163 0.0010772743 -0.0005689814 0.059356578 -0.19449526 0.489964 0.17426032 0.011837285 -0.0001441563 -0.008690483 -0.00040997754 0.002356193 -0.0018370517 0.0009075922 -0.06687344 -0.46807784 0.038846977 -0.44648477 -0.0031135727 0.00030409702 -0.012272103 0.0017982088 -0.006562134 -0.0006996741 -0.0019074861 -0.01053857
-0.02694934 -0.17214935 -0.10905055 -0.033057176 -0.004104369 0.11367543 0.0065556443 -0.00039090603 -0.0013620915 -0.017773865 0.034689177 -0.01717043 -0.07855539 0.011967175 -0.0633098 0.099610984 0.089406416 0.0475569 0.22404172 0.0038934483 0.028178956 -0.041785676 0.051701583 -0.018251726 -0.18517695 -0.022102047 -0.47862393 -0.29456928 -0.22387943 -0.02463065 0.002189669 -0.07397968 -0.14358412
0.045878794 -0.047675356 -0.0018590109 -0.060140714 -0.015957644 -0.090620056 -0.0018197085 0.08743461 -0.0047151595 -0.07817945 -0.018523568 -0.06373918 -0.062355142 0.004851067 0.07668997 0.05309716 -0.060840458 0.08722113 0.15232567 0.063075215 -0.08717784 0.033425964 -0.029704336 -0.1300289 0.0016113576 -0.09941686 0.08184895 -0.06985799 -0.13475066 -0.031442177 0.16756698 0.034035113 -0.018040307
-0.005538154 0.30234692 -0.02759143 0.049066488 0.0016982506 -0.00023282757 -0.0014412086 -0.008496443 -0.0002107734 -0.00045699583 -0.06958653 0.011374934 -0.21912818 0.018299079 -0.0631871 -0.00462784 4.088776e-05 0.0016224774 0.013943634 0.0011323581 -0.00037873545 0.077044055 -0.062851295 -1.252076 0.07647916 -0.01433634 -0.0006189026 0.01980199 -9.856179e-05 -0.00022171841 0.0009993389 -0.0036502555 -0.019846868
-0.03978512 0.044324514 0.07691747 -0.022886729 -0.001921101 0.0038900827 0.0022419144 -0.09216845 0.00045281992 -0.0016151548 -0.13588516 0.062827095 -0.03489221 -0.08119714 0.034457903 0.0020155732 0.0036355103 -0.0009321051 0.060872737 0.09530799 0.10556318 0.031905293 0.0046798554 0.04255736 -0.019884067 0.033771966 -0.010395997 0.08781742 0.007485892 -0.03239287 -0.10239631 -0.02256315 -0.006800097
-0.07241359 0.045218263 0.14312825 -0.033530783 0.00024549378 0.034048904 0.0014494063 -0.0058226995 -3.988943e-05 -0.007966595 0.01573683 0.14187096 0.21806307 0.4257263 0.04050887 0.0016386008 -0.042374182 -0.0030755443 0.007506635 0.00018979088 0.013367973 -0.017961783 0.038523704 0.04359461 -0.17327835 0.0018125451 0.0011176358 0.0041724145 -0.0017274913 -0.0004045028 0.0012257509 -0.0022649458 -0.014383362
-0.04082128 -0.19072776 0.033578806 -0.009251956 -0.013226543 -0.027275575 -0.010467451 -0.0019770835 -0.0017558903 -0.01981231 -0.013846815 -0.009172492 -0.0687394 0.14053307 0.08527267 0.0050427318 0.047265165 0.026924545 0.0011282029 -0.0025168136 0.035717115 0.009829239 0.16569948 0.17085846 0.10247286 -0.05883964 0.027592566 0.058624595 -0.02139577 0.024565604 -0.007985154 -0.0005675196 -0.090912014
-0.08520466 -0.14712471 -0.11084374 -0.058469314 -0.00017657486 0.0806059 -0.00048847054 0.008692047 -0.0009883872 0.025014399 0.011204803 -0.15650246 -0.012719424 0.06259815 0.07375622 0.0010930429 -0.10289567 -0.000113278875 -0.012225238 -0.0015591064 -0.037077997 -0.010763606 0.073776074 0.007724104 0.26708314 0.0027906601 0.0010406104 0.011404254 0.0001663065 0.006818414 0.00047925548 0.0033200707 0.034644667
-0.2009656 -0.21547574 0.21160676 -0.030901756 0.0016785649 -0.036719617 7.5461307e-06 0.0031465841 -0.0007446575 0.0027990146 -0.073651545 0.20562036 -0.087689936 0.056063928 0.035821974 -0.0029841957 0.04414275 -0.0018871378 -0.0056672785 -0.00036807082 -0.004582571 0.08155247 0.15443778 0.10700247 -0.019852228 -0.0022166334 -0.001490705 0.0077330987 -0.0003527459 -0.003479199 -0.00035702522 -0.005787341 -0.054864228
0.0047795866 -0.062159184 -0.08814647 0.032734204 0.011751511 -0.13184209 -0.0021038826 0.13574287 -0.0009929801 -0.018655572 -0.024957294 -0.02331208 -0.04333645 0.15607136 -0.06419512 -0.06632874 -0.17078833 0.075661145 0.02150303 -0.011466479 0.0019718006 0.028854074 -0.012728583 -0.11025073 -0.09490118 -0.19554013 0.14132348 0.011934108 0.23860258 -0.1259324 -0.013596707 0.056461222 -0.07514443
0.16742665 0.17121968 -0.016773898 -0.008401553 -5.489094e-06 0.0035196466 -0.00031430376 -0.0032447232 -0.00014160304 0.0019184134 0.019181708 0.49196342 0.022751011 -0.011445802 0.00905675 0.0006625406 -0.004049462 0.00054821087 0.0044805324 -0.00025220844 -0.0005670393 -0.020666247 0.07644646 -0.17290875 -0.23218389 -0.011597676 -0.00014096116 -0.005878006 0.0003822712 0.00016133957 -0.00038817807 -0.0030279064 -0.057854116
0.033964545 0.081421 -0.21210904 -0.0031897612 -0.027749805 -0.011088412 -0.15200979 -0.09395975 0.0029171614 0.067390285 -0.08777483 -0.12299494 -0.10585781 -0.117070876 -0.07128615 0.0986576 0.077492684 0.21846464 0.110560544 -0.0019903032 -0.110785946 0.082445756 0.0055640694 -0.032306865 0.147474 -0.060459312 0.05091409 0.0145410765 0.20653006 -0.026871284 0.016707273 -0.12235544 -0.12498183
-0.016521957 -0.11853621 0.042370163 0.015633794 -0.001994414 0.11098578 0.005774473 0.04451615 -0.0023161953 -0.042579666 0.10682794 0.028345374 0.060547814 -0.053638022 -0.00753651 0.022781562 -0.15531598 -0.009338486 -0.06485489 -0.0056345095 0.05074575 -0.11317084 0.04775631 -0.037404682 0.13647674 0.03278359 0.009743524 -0.029675245 0.00044881753 -0.023182718 -0.0043474026 0.018538183 0.07566958
0.3560986 0.58743745 0.032537315 0.01577637 -0.0011244763 -0.014847051 -0.001954467 -0.011841629 0.0007226564 0.00675036 -0.025836777 -0.29773787 0.28686523 0.3672999 -0.017889308 0.0025940181 0.021064715 -0.00044672677 0.016292712 -0.00031187932 -0.008813064 0.02552876 -0.23699336 -0.74123573 -0.15479304 -0.0031597377 -0.0015225833 -0.002794228 -0.003634064 -0.003818718 -0.0023631693 -0.0008668023 -0.049317874
0.06807435 -0.03249226 0.022623079 0.0010264777 0.07743253 0.05581898 0.080840155 -0.013301762 -0.0039087315 -0.017294044 -0.033847604 -0.11308774 -0.0986796 0.01572735 -0.102828 -4.6093857e-05 -0.09620578 0.24668893 -0.046285518 0.03501414 -0.009438055 0.02642817 0.019765612 0.029792076 -0.02135046 -0.12539199 -0.19318986 0.056851257 0.10268656 -0.15242559 0.007147807 -0.04062756 -0.0138595775
-0.016091922 -0.33466658 0.009459891 0.1447274 0.027464502 0.055167634 -0.026901586 -0.23490348 -0.0016165144 0.008839345 0.038737822 -8.054042e-05 -0.10848208 -0.117578 -0.011077559 -0.65367126 0.11736391 0.28157607 0.03196425 0.0029782883 -0.01591118 -0.03930008 0.072614625 -0.061980113 0.0661549 -0.21236402 0.047211673 -0.10819533 -0.00864652 0.18096109 -0.012305539 0.016706798 -0.11924178
0.06029399 -0.0514977 -0.16705051 0.00999937 -0.0003180573 -0.09666391 0.0005734124 0.025881551 -0.0016701418 0.04313962 -0.03716938 -0.061613183 0.03713083 0.08964133 0.014145402 0.004640661 0.11128902 -0.0036529955 -0.039295428 0.0008796311 -0.060788948 0.045449425 0.015345164 0.10312052 0.2788042 -0.024812369 -0.0016338647 0.006482209 0.012315702 0.020720886 0.0028470408 0.013870608 0.006108899
-0.5159775 -0.15013742 -0.4737119 -0.004124079 -0.00026388743 0.0007855457 -0.0006017543 0.0016416879 0.00024142426 0.0026913371 0.008060187 -0.37352055 -0.16312693 -0.3876938 0.004970392 -0.0025298868 0.000526485 0.0003758226 -0.0030929598 0.00028900386 -0.00560539 -0.009451992 0.28771743 0.13263221 0.1659729 0.004095913 0.00122601 0.004780621 -0.0004963124 -0.0013484277 -0.0007096538 0.0016441012 0.028319392
0.021633755 -0.77831316 0.0083099855 0.009884304 0.0016240611 0.016929213 0.0011472788 -0.0055898605 -0.00052505225 -0.0039284364 -0.01657453 -0.04039298 -0.8383656 -0.13672166 -0.014238374 -0.004147897 -0.023020212 -0.002487862 0.0101232445 0.0012360407 0.005665451 0.017461585 -0.046141956 -0.29656422 0.23240383 -0.008460972 0.00016623296 -0.001735768 -0.00089716393 0.001755947 -0.00027417793 0.000868689 -0.01816085
0.005937473 0.051405348 -0.29239014 -0.019025553 0.0008792169 -0.000493085 -0.000482197 -0.004213403 -0.0009990114 -0.001724549 -0.022577623 -0.04693899 0.39499933 -0.24960496 0.022946257 -0.0007044658 -0.00034010992 -0.00020714523 0.0048519494 0.00079459976 0.0021948044 0.022355929 -0.00075006014 -0.11355901 -0.25173098 -0.011823706 0.0025785347 -0.019233152 0.0025408254 -0.010089775 0.0006578765 -0.0038791844 -0.053260796
-0.063365184 0.12825274 -0.033767886 -0.0019993358 0.00015186444 0.052839175 -0.0014690743 0.0067344853 0.00015532381 0.013490032 0.06491655 0.1314269 -0.110175274 0.042947024 -0.0055035297 0.005503481 -0.06939228 0.0030075777 -0.008647819 0.000476675 -0.018424075 -0.07204111 -0.024182312 -0.2768273 0.45258155 -0.017056162 0.0013524797 0.0120240245 -0.00080785766 0.006579342 0.0009898499 -0.006807011 -0.007907718
-0.03137273 0.0815798 -0.0106287645 -0.18997478 -0.057565346 0.057266023 0.020713665 0.07455194 -0.0012628033 -0.026900603 0.05379232 0.070337966 0.13029428 -0.011034219 0.13305175 0.0032057783 0.051505405 -0.05766932 -0.12395459 -0.002492936 0.03080398 -0.068617776 -0.03480648 0.016227353 0.041423086 -0.14613327 0.007147828 -0.05788913 -0.04252283 0.008974865 -0.010403381 -0.006399705 0.07928803
0.056689356 -0.11500578 0.071417056 -0.031261895 -0.0007035426 -0.003567933 -0.00042101878 -0.052193712 0.00031222095 0.003872849 -0.042653978 -0.17851147 -0.041204453 -0.2497594 0.04955737 0.003146066 0.008882064 -0.00017517504 0.079130344 -0.0009220486 -0.004230687 0.04379329 0.15391907 -0.23022668 0.16115235 0.0065163895 -0.0042822747 0.0019745624 0.0008855816 -0.0030437007 0.002187955 0.0061533507 0.033144396
0.12874044 0.36061972 -0.15129155 -0.034362037 0.0008027384 0.014781381 -0.0019389979 0.0046577062 0.00048320656 0.0036794904 0.07612084 -0.08717284 0.2725314 -0.13052869 0.040188417 -0.002586436 -0.019606387 0.0038921756 -0.008493477 -0.002084094 -0.004583812 -0.08710615 -0.10382707 -0.47594923 -0.29875392 0.0053911083 0.00063709496 -0.0052707866 -0.0001298127 -0.0005314698 -0.000120223194 -0.00015264127 0.03953548
-0.17712066 -0.16176583 -0.5035106 -0.004368088 0.0004391022 0.0077144494 -0.0008781701 0.009098557 0.0006672212 0.006793077 -0.024163254 0.5872325 0.046246607 -0.44976553 0.008696187 -0.003396083 -0.008122561 0.004111663 -0.012501564 -0.0033518933 -0.007461029 0.027894428 -0.16684018 0.10976342 -0.46356505 0.0012172259 -0.0007326383 -0.0007907093 0.004739573 0.0021387364 -0.0035228129 -0.0033241382 0.005593393
0.16255279 0.071054116 0.10360782 -0.027511759 -0.00042503935 -0.09265121 0.0003924891 0.010714137 0.000128385 0.011729702 -0.01505652 -0.17261183 0.073670164 -0.110349625 0.034695733 0.0018822748 0.11771374 -0.0027091578 -0.017827291 9.2694694e-07 -0.014918658 0.013731512 0.11185438 -0.08591741 0.23947611 -0.014328139 -0.0003876849 -0.04076017 -0.0009427975 0.0038522193 0.002549309 -0.012209737 0.044312567
0.057283655 -0.039428927 0.3286934 0.025462827 0.00076227926 -0.013476898 -0.00058879773 -0.003893986 0.00032658625 0.023542061 0.04840847 -0.11000289 0.17655435 -0.42100057 -0.03937894 -0.00038215358 0.016634123 0.0025726636 0.0035439709 -8.83516e-05 -0.034282148 -0.053786904 0.101076275 -0.20059548 0.22275925 -0.019445606 -0.0017493777 0.00078611623 -0.0008551342 -0.0053771813 0.0013171862 5.103836e-05 -0.02276922
-0.0024494089 -0.28720617 0.08982628 0.036395125 0.0008309859 0.011530133 -0.0010937717 -0.014741395 0.00018754015 0.002870923 0.0465845 0.008584148 -0.16789842 0.15578866 -0.044642124 -0.0042320294 -0.014645143 0.0017322269 0.026604367 -0.00052509 -0.0032667713 -0.052096467 -0.033504285 0.30718488 0.15416577 -0.005264439 -0.0004996537 0.0034019975 0.0014657889 0.0020614648 -0.0011761421 -0.0010020707 -0.024537213
-0.067168765 -0.09747671 -0.31929913 0.028549671 -0.00022843391 0.011993624 0.00016694257 0.013601777 0.00025284503 0.020344904 -0.027318029 -0.19355845 0.0058687925 -0.36673117 -0.036343068 0.00096676796 -0.012551787 -0.0009076371 -0.020690609 -0.0029406564 -0.03148115 0.028340707 -0.010372913 0.14068025 0.2348175 0.004858839 0.00039282822 -0.0010622602 -0.000113739785 0.0018788857 0.0012840766 0.0003064575 0.069440916
-0.18750717 -0.109103404 -0.22527674 -0.0014550263 0.0005772722 0.0020902606 0.00013818555 -0.0016083624 -7.502785e-05 -0.0022921138 0.053772263 0.6222891 -0.11344 -0.12566479 0.0026276745 -0.00013178345 -0.0036745623 6.7219344e-06 0.0018017569 -0.00039445792 0.0031432903 -0.060714852 0.010532875 -0.10640777 0.40807655 0.00022430079 -0.0001716827 0.00017242228 -0.001407192 -0.00266896 0.0009687242 -0.0026897194 -0.016146796
0.0032080146 -0.1372262 -0.07674862 0.034760527 0.11410819 0.06623635 -0.0665598 0.08017546 0.0026959945 -0.04704261 -0.010128444 -0.045215793 -0.013826198 0.07513219 -0.058856267 -0.05847824 0.23345405 -0.2106959 0.012479986 -0.0021710177 0.020577932 0.014504501 0.007239724 -0.16183881 -0.14987363 -0.171851 -0.024240982 -0.08019581 -0.11372844 -0.18644233 -0.051276907 0.10925254 -0.15089363
-0.010193736 -0.027505806 -0.0008207201 0.12229834 -0.03727556 -0.042651597 -0.04165299 0.05938674 0.0032096922 0.025656084 0.009811514 -0.02518611 -0.15000002 -0.045218445 -0.087960355 0.445735 0.06802799 0.39051643 0.30611634 -0.0107491305 -0.013139023 -0.008464449 -0.023840288 -0.07147902 -0.14789402 -0.18604863 -0.03210014 -0.21076544 -0.0027692039 0.054179966 -0.007903037 0.17123911 -0.14016478
-0.13706148 -0.07885549 0.10706644 -0.022557322 0.0010984779 0.020683212 -0.00037188656 -0.0026894668 -0.0005431815 -0.006808129 0.07349774 0.11030237 -0.23343037 0.11228462 0.02122856 -0.0025585312 -0.026314352 -0.0002727974 0.0050510354 7.3379247e-06 0.0073774476 -0.08602904 0.121371165 0.0383736 0.12914728 -0.018007534 -0.00039251393 -0.008230836 -0.0005658848 -0.0082180975 0.0014438275 -0.004715428 0.0032598397
0.011818158 -0.2678721 -0.07304047 -0.14889194 0.04816472 -0.12923233 -0.008586828 -0.16423693 -0.000930598 -0.059100546 -0.038405266 -0.034083173 -0.06967512 0.06800837 -0.0074310577 -0.29073152 -0.06427476 0.11856943 0.111723416 -0.00794469 0.09463399 0.047305763 0.021112869 -0.10899586 -0.083694056 0.04274274 0.25294447 -0.12381364 -0.15102911 -0.016280217 0.005771684 -0.005128028 0.0006949062
0.0029349423 0.07642728 0.09151239 -0.085031524 -0.00085850304 0.06929256 -0.060828898 -0.05181464 -0.0041503008 -0.0021793393 0.036180217 0.0038856044 0.037192725 -0.06651626 -0.07196795 0.1769157 0.13195524 0.10943455 0.035005428 0.0098799085 0.0074694585 -0.040311176 -0.035574812 -0.057279933 0.079989746 0.060930427 0.1260337 0.018149743 0.048197325 0.034832608 -0.0013963395 -0.022144364 -0.033121802
-0.18733434 -0.12556262 -0.4416253 -0.025228497 0.0012471371 0.025304133 -0.0010887029 0.007959009 0.0010516346 -0.0015424575 -0.0870971 0.0050097997 -0.02128909 -0.4599428 0.025245825 -0.0016196857 -0.031585164 0.0014056314 -0.010098809 -0.0029554965 0.0024456591 0.096532755 0.03692847 0.20322882 0.059563592 -0.0033487808 0.00050946616 -0.005060768 0.0019872542 -0.0025369972 -0.0004339906 -0.003303808 0.009580536
-0.32964337 -0.69385594 -0.54350746 0.047804795 0.00016521807 -0.015542801 0.003094336 0.0002545017 -0.0012676654 0.010382073 0.028615206 -0.36190373 -0.4986714 -0.5539243 -0.062295806 0.00028771133 0.022195736 -0.00453068 -0.0038242578 0.0016111734 -0.013592498 -0.031524256 -0.43185252 0.43431392 0.09630292 -0.008347477 -0.0013952206 -0.005295822 -0.001082201 -0.008074699 0.0011047395 -0.00346725 -0.030203221
-0.091228716 -0.10369347 0.21254459 -0.01710706 -0.00043286534 -0.010951386 -0.0002457051 0.00910481 0.0003188197 -0.017156437 -0.044732258 0.32593256 -0.03667615 0.26955053 0.024857216 -0.001020697 0.01574582 0.00092377246 -0.012836022 0.00020710895 0.025752047 0.0508571 0.048318475 0.05214451 0.032116894 0.018805897 -0.001039793 0.013148501 0.0015269937 0.00756863 0.002342227 0.0041326764 0.07028683
-0.3433395 -0.4469466 -0.2193566 0.013309129 -0.00069381477 -0.0030915705 0.00083017605 -0.0025561398 -0.00016956321 -0.0014131953 0.019629024 -0.2156114 -0.2568455 -0.054963987 -0.015572661 -0.00063762703 0.002374467 -0.00083682407 0.0029676107 0.0030313723 0.003963263 -0.022868542 0.66174763 0.20580709 0.12537457 -0.0031004774 0.00078950287 -0.0001898335 0.0013070063 -0.0021055937 -0.0011555909 -0.0021677196 -0.03600744
-0.30051568 -0.25418738 -0.3275942 -0.0062335227 0.0012768487 -0.022279507 0.00096484896 -0.0026115454 -0.0010863722 -0.0002283741 0.020587139 -0.3950311 0.025206354 -0.27892962 0.008990431 -0.00070458587 0.026439061 -0.0013138814 0.004493703 0.0020961436 0.0014344461 -0.021980347 0.31064337 0.20089811 0.30884078 0.008535888 1.6431586e-05 0.009509037 0.0022203305 -0.0014807646 0.0014508575 0.0014580216 0.034681283
0.02869967 -0.022255966 -0.123629265 -0.009604278 -0.10683216 -0.05710569 -0.075270034 -0.07521762 0.0038718558 -0.013831597 -0.06162163 -0.009675748 -0.022048768 0.12224385 0.09749232 0.10632666 0.02780853 0.041998547 0.13778412 -0.0061228722 0.02403502 0.05968432 -0.013420468 -0.056760203 0.1986626 0.07424176 0.0061330637 0.12184799 -0.048488557 -0.21946456 -0.008644387 -0.09037436 -0.15826252
0.000323918 -0.22369406 -0.04271387 -0.03419152 0.0002835646 0.016407967 -0.0054598525 0.24830408 0.014923312 0.12961338 -0.027381059 0.005320087 0.038407665 0.08234423 0.06684619 -0.0002768107 -0.023977613 0.008464949 -0.5424633 -0.18008074 0.08559505 0.049485385 0.0029854204 -0.30627224 -0.0014353379 0.025192875 -0.0037294312 0.046223376 0.0025205957 -0.3758833 0.53053474 -0.355577 -0.12397474
-0.12944737 -0.05121871 0.20071507 0.00047136386 -0.0009744667 -0.002638007 -0.000836474 0.01065451 0.0014615506 0.04234055 -0.00088102766 0.38148466 0.015343007 0.19061753 -0.005727523 0.002236849 0.0036337627 0.0029017627 -0.020683661 -0.0032035932 -0.062361076 0.00024712077 0.05531697 0.16731264 0.026601387 -0.032568987 -0.0021527223 -0.055412956 -0.00060381036 -0.008463171 0.0022453654 -0.008598344 -0.027274305
0.0011569259 -0.04221286 0.073261976 0.028551184 0.0037987093 0.013204792 0.0023105082 -0.017830655 -0.0043789446 -0.012454047 0.0067009307 -0.19533691 -0.18117599 0.0030843609 -0.04920512 -0.012421558 -0.015617241 -0.007207432 0.031071277 0.013161512 0.020607762 -0.0042081014 0.14381969 0.102194205 0.0943262 0.048382778 -0.0066213137 -0.078556724 -3.9857327e-06 -0.020370895 0.0034670993 0.0025937192 0.08494188
-0.19042955 -0.07632619 0.40429562 0.021049974 0.000210785 0.016268501 0.00019713205 -0.0014260156 -8.693349e-05 -0.0024424994 0.036377236 0.027483786 0.13685508 0.34910515 -0.021689111 0.0026461992 -0.019495586 -0.0017481218 0.0034277423 0.00086030946 0.003675491 -0.039066833 0.5483895 -0.12309488 -0.26802704 0.0027242776 -0.0024810575 0.0015439788 0.0010154146 0.0008612587 0.001036221 0.0006098381 -0.012174733
0.017171513 -0.3559046 -0.011102887 0.05388929 -0.0034843541 0.036295183 0.0037130727 -0.038743347 -0.0010614689 0.029090613 -0.052222878 -0.11420549 0.13611871 -0.15227248 0.010981398 0.02204135 0.10672288 0.0061630746 0.074222066 -0.00025644538 -0.03818527 0.04574752 0.01932803 -0.12948392 -0.060581252 -0.057545956 -0.89857435 -0.4885011 0.003513396 0.07881068 -0.0025072668 -0.05763362 -0.21061791
0.025735084 0.22321439 0.23450565 0.0099852905 0.00060162024 0.0027366965 -0.00025768855 -0.0014470256 0.0009055645 -0.0002601539 -0.03837289 0.45656052 0.037297234 0.1590164 -0.012402651 -0.00042434718 -0.0057537276 -0.00094010885 0.0024107592 -0.0012079076 -0.0004805226 0.043164216 -0.12516826 -0.25553858 -0.119613454 -0.009407438 0.00022847943 -0.0030520735 -0.00070759037 -0.0016050364 -0.0010765882 -0.0045608757 -0.038853504
0.025184693 -0.29255885 0.1011845 -0.39115393 -0.08050975 -0.32116598 -0.029669221 0.1342135 -0.001465538 -0.0014624813 -0.05413225 -0.04377935 0.18659253 -0.12661526 0.16407773 -0.46051586 0.010564416 0.09800432 -0.06055371 -0.009536467 -0.00021015159 0.061299775 -0.002913392 -0.3179577 -0.013668129 -0.15366821 0.29185617 -0.1768939 0.3164492 -0.11413542 -0.003957493 0.020428283 -0.13498251
-0.043734297 -0.033152044 -0.17076147 -0.023561126 -0.0006468572 0.017365152 0.00052614295 -0.012446639 0.00028516696 -0.002464746 0.039735734 -0.21777755 -0.25833225 -0.28945452 0.027029997 0.0029328514 -0.02190184 0.0011550076 0.019710762 -0.002398376 0.0028499712 -0.043905973 0.48214093 -0.053576894 -0.24757683 0.00032789746 -0.0008324691 -0.0064177536 0.0017589127 -0.008253879 3.3665034e-05 -0.004248785 -0.039761283
0.040359583 -0.013493523 0.048340317 -0.019017823 0.000101625825 -0.04293109 0.004829371 -0.0072558383 -0.00038501862 0.022829192 0.03479779 -0.08744685 0.035853043 0.09415785 0.020826375 -0.0020057799 0.058331437 -0.0072295684 0.014273807 0.0019720749 -0.031424902 -0.03933428 -0.049504973 0.17743436 0.14919838 -0.057573855 0.0063262577 -0.021820517 0.004429469 -0.014405034 0.00039591824 0.012639621 0.013976035
0.053322654 -0.13185851 0.05581221 0.009586388 -0.0043693497 0.014011836 0.002249782 0.029889017 0.00069272594 0.01505947 -0.06455016 -0.096050285 -0.067649804 -0.026602434 0.026053976 -0.0034388138 -0.02384517 -0.006790522 -0.046399616 0.0023401866 -0.0219513 0.06879617 0.026853006 -0.0075170663 0.24308623 0.01581175 0.0031097548 0.12070839 0.0031568767 0.028929034 0.0063163224 -0.026340848 0.012614911
-0.021583457 -0.06884228 0.016530734 0.027455296 0.0022837438 0.03912555 -0.013339265 -0.07808049 -3.0471097e-05 0.0011091385 -0.019042306 0.0020218778 0.024243396 -0.10604081 -0.13582855 0.1026333 -0.02776441 0.01985112 0.038910765 0.0061255386 0.011297292 0.020008527 -0.029352793 -0.048347086 0.111099556 -0.047933284 -0.04675828 0.08287665 0.120987885 0.064500034 -0.0129395295 0.04981388 -0.048977844
0.087475844 0.2787667 0.04479837 0.038195938 -0.00036761424 0.027012821 -0.00039079835 -2.8011074e-05 0.0011899018 0.010630928 0.021910567 -0.2225025 0.10558647 0.13308416 -0.05458508 0.0030626734 -0.03410554 0.0004030178 -0.0009714939 -0.0016061276 -0.015483379 -0.024021218 -0.4037261 -0.4761714 0.25501013 0.0011015534 0.0015567424 0.0036924875 0.0013163636 0.00044297162 -0.0008042005 0.0016501202 0.017163336
0.013891474 -0.17812689 0.04764869 0.04565086 -0.0066790227 -0.024524333 -0.013873548 0.0038205876 -0.006137022 0.020956442 0.015725207 0.00026097 0.11266803 -0.0050988817 -0.03356229 0.0028352337 0.029968496 0.026331292 0.01667939 0.010740892 -0.030553889 -0.010133134 0.04118485 -0.03212974 0.16654494 0.13698646 0.011494069 0.0086483825 0.0193263 0.051602338 0.009800772 0.013738908 -0.017936174
0.003157495 -0.045901414 -0.44901487 -0.009187154 -1.851684e-05 -0.013086662 -0.00018266356 -0.0031984493 -0.0006286392 -0.009362798 0.014893518 -0.40426385 -0.12006123 -0.3820415 0.015013657 1.9004669e-05 0.017035138 0.0014475967 0.0050347354 0.00091157283 0.014285188 -0.013865039 0.016643722 -0.01979076 0.24258971 -0.009073114 -0.00043771675 -0.0073533324 -0.00029988808 -0.0034372255 0.0016970698 -0.0014399918 -0.061628923
-0.15028201 0.30714005 -0.2541561 -0.023406979 -0.0008096884 0.015336785 0.0012195616 0.0038851132 0.00088678853 0.006262804 0.0032766673 -0.028600777 0.22493584 -0.34250385 0.031007743 6.0264803e-05 -0.0201856 -0.0019929458 -0.006581438 0.00041804413 -0.0105239935 -0.002457083 0.38587278 -0.24251509 -0.046281982 -0.015687762 0.0010845856 -0.010776106 0.0004569435 -0.0011649051 -0.00027000622 -0.0016130371 -0.021105273
-0.10856639 -0.0535284 -0.14338005 -0.038119346 0.0013615865 -0.08021986 -7.114229e-05 -0.012805282 0.0003997034 0.030560121 -0.023208406 0.07926648 -0.05054935 0.06330655 0.041125447 -0.0017367427 0.09279336 -0.0027441825 0.022620955 2.2369526e-05 -0.041587077 0.024352288 0.10771121 0.05573304 0.09948173 0.005386685 0.001609137 0.06192032 9.0125104e-05 -0.014468154 -0.0010632528 0.005278996 0.052970838
0.07811752 0.34627804 0.081596196 -0.02230578 -0.0005170839 0.013414914 -0.0013509088 -0.0061157946 -0.00085577916 0.004239283 -0.017214512 0.29190052 0.21161984 0.09759479 0.022427617 0.0033728355 -0.014843446 0.0036428687 0.008650029 -0.0029439128 -0.0062077343 0.018209245 -0.24883655 -0.4246457 -0.570672 0.0039418205 0.0013333595 -0.010993945 -0.00026776426 -0.005146787 0.001612818 -0.0022346638 -0.014440573
0.049560305 -0.0758624 0.029132532 0.12158895 -0.18523788 -0.05524005 -0.22348405 -0.04746522 0.0077797775 0.0143592395 -0.060901117 -0.033625323 -0.03797619 0.050323535 0.063867636 -0.02981934 0.05502061 -0.023988983 -0.20312563 -0.016784795 -0.00307263 0.05424222 -0.007890709 -0.20024289 0.04757641 0.06709124 0.044549216 0.035447925 0.14013673 -0.16554911 0.0059768944 -0.103866704 -0.18950929
-0.43184045 0.01233473 -0.35218737 0.022854524 0.0010924778 -0.035074517 0.0001348191 -0.0006858277 6.1383864e-05 0.0008303562 0.01240164 0.61243796 -0.22622932 -0.44539243 -0.029880855 0.00034479357 0.04433885 0.00022184887 0.0014828878 -3.341001e-05 0.0018749053 -0.013368441 0.20139405 0.05092574 0.29937392 -0.010330608 0.0012855357 -0.008950756 -0.00062785536 -0.0016648216 -0.00081717694 -0.0025959555 -0.033524267
0.04372876 -0.03302163 0.057398044 -0.0045055514 -0.009341894 -0.105329424 -0.004828312 -0.04963889 0.0005041374 -0.04576125 -0.008136086 -0.100373834 -0.059129268 0.035872437 0.084768645 0.046036225 0.07348793 0.019285958 0.045031197 0.0014147476 0.06674136 0.0040756585 -0.0015761189 0.24414633 0.05020708 -0.035522796 -0.03699932 0.15822783 -0.014377356 0.044428706 -0.0065218876 -0.028505998 -0.023220748
-0.5989504 -0.56690747 -0.18557748 0.0032822178 -0.0013338695 0.0019466872 0.0005538979 -0.0036969425 -0.00018871616 1.2360838e-05 0.001997086 0.5037529 -0.06022445 0.078792214 -0.0034981694 0.0014847878 -0.0025663849 0.0063852277 0.0018424052 -0.0022055227 -0.0015826559 -0.0007591702 0.8963222 0.3465759 -0.20476371 -0.0062667374 0.000768353 -0.0050150445 0.0012491707 -0.0032374891 0.00056125066 -0.009546538 -0.052454945
