0.04591041 0.08673601 0.014405946 0.12159839 0.087016754 0.099937536 -0.033556994 -0.1273221 0.13498375 0.15293147 -0.04986533 -0.050644074 0.013082809 0.24814057 0.06119051 0.097984634 0.029240688 0.102058955 -0.08915961 0.0077935252 -0.12536278 0.044232994 0.12602705 -0.09829298 0.02864021 -0.020801296 0.08835455 0.06141709 -0.16386124 0.018082518 -0.22162433 0.013899868 -0.08197014 -0.17326677 0.15493354 -0.10548839 0.079761155 0.21048723 -0.037469123 0.17382929 0.10814026 -0.024946889 0.100492485 -0.02983997 -0.27918872 -0.04488897 0.08316898 -0.0011545641 -0.11786496 0.09990073 0.034519896 -0.005716198 -0.014526435 -0.09541934 -0.24642442 0.0135798305 -0.38977087 0.11261957 0.0106866015 -0.4737089 -0.7253852 -0.07264897 -0.010451767 0.074551515 -0.11499409 -0.34444797 0.03484943 0.06824556 0.12990579 -0.009393624 -0.021981345 0.03229651 0.020367045 -0.10312636 0.043137077 0.16395757 -0.016395343 -0.008860112 -0.22547579 -0.03722143 0.02117306 -0.03219607 0.02486814 0.02662478 0.06878767 0.06253706 0.1292092 -0.050306 0.29765874 -0.0833886 -0.14657895 -0.047476683 -0.33702898 0.050867505 0.045068704 -0.08313854 0.049741846 -0.036189232 0.044866685 -0.045000944 0.03804744 0.07542457 -0.084477 -0.25909874 -0.004619002 0.008257166 -0.063769005 0.18870626 0.31208122 -0.10969274 0.04224738 0.031813785 -0.123222634 0.051909044 0.018965866 0.058872715 -0.05483957 0.06789299 0.056399107 0.07852797 -0.03911783 0.024747899 0.06319706 0.036525868 -0.18638366 0.05336044 -0.05348734 -0.11524148 0.042997297 -0.17714728 -0.027807862 -0.057395272 -0.038582437 -0.014766761 -0.3399614 0.028408466 -0.09381021 0.0316656 -0.06801363 -0.07600953 0.057712507 -0.11055724 0.002310659 0.15841395 0.032458805 0.007106762 -0.098112926 -0.07413086 -0.47993886 -0.5252836 -0.081504114 -0.08138752 0.05238413 0.08484355 0.021790324 0.05337565 -0.004548198 0.08951309 0.13540827 -0.12535056 -0.016218849 0.006212966 0.07271818 0.11262671 0.08972747 0.02041 0.0033671428 0.07867391 0.027888758 0.056075804 -0.6591715 -0.0070285387 -0.15849255 -0.043988165 0.10623654 -0.009753278 -0.014450905 0.6961755 -0.041414395 0.018065087 0.056770742 -0.07046076 0.12197507 -0.02455832 0.079594746 0.14104769 -0.18650194 0.09251941 0.14685391 0.022487214 -0.039609924 -0.23639353 0.025939103 0.045758057 -0.45708242 0.008370416 -0.042968076 0.0894751 -0.064809956 -0.28809845 -0.08361626 -0.07589802 0.061384153 -0.11568767 -0.37468055 -0.34836757 0.04059024 0.100972794 0.20767947 -0.2641621 0.27222008 -0.027282815 -0.01884058 0.14329663 -0.034521017 -0.03506044 -0.29328415 0.0067208577 0.051533088 -0.15050054 0.034693446 0.114651926 -0.10100896 0.079588704 0.0090096425 0.05595485 -0.14733982 -0.19741835 -0.27551025 -0.116974644 -0.06478897 0.041528367 -0.0027615498 -0.07636215 -0.031120943 -0.22264844 -0.033294417 -0.030397328 -0.2129252 -0.031369146 -0.08426303 -0.040301293 -0.2949485 -0.010294168 0.030618664 0.013843189 0.03024775 0.095008574 -0.0523181 0.076960824 0.025794506 0.06886926 0.06285428 -0.08317034 0.028127393 0.10308958
-0.23518382 0.04554092 0.08178683 0.039793078 0.09911404 0.113238014 -0.021684133 -0.0014677477 0.08667182 0.01699781 0.046015617 0.034468755 0.05982594 0.22851907 0.062444832 -0.19067964 0.015113684 -0.050837968 -0.016387649 0.0142611 -0.5989215 0.10695156 -0.49850672 -0.06373056 -0.0019809387 0.10075716 9.14292e-05 0.10001214 -0.32859793 -0.044029392 -0.00018369073 -0.025605155 -0.12493181 0.10210954 -0.049948648 -0.023332905 -0.21133329 0.120294526 0.116560176 0.020696953 -0.010974822 -0.20873636 -0.070441276 0.072182834 -0.10439468 0.030268835 -0.13325748 -0.03418261 -0.38629317 -0.06601768 -0.093487725 0.011493846 -0.096723415 -0.24004306 -0.025883988 -0.021223847 0.56478125 -0.009808777 0.14072344 0.056917172 -0.2823329 -0.24065694 -0.03459227 0.02062983 -0.16196764 -0.031321365 -0.010670224 -0.01830277 -0.056174345 0.14552252 -0.00074493146 -0.056156095 0.021634856 0.030432489 -0.17905462 -0.03515424 -0.020560717 0.12531337 -0.006945379 0.042378537 -0.112309955 0.0018916508 -0.078055136 0.07706161 -0.017106567 0.06515308 -0.06846822 0.17006776 -0.05709891 -0.2336619 -0.011983099 0.0060866484 -0.051663816 0.07128701 0.05984199 -0.014956941 -0.06883062 -0.01377754 0.020649416 0.079580545 0.04797571 -0.5632784 0.06517661 -0.046727695 -0.087326504 0.30210412 -0.032914996 -0.47470212 -0.09286077 0.021075316 0.024399983 -0.07771421 0.09522683 0.019215392 0.0349088 -0.09944613 -0.41658014 0.004723312 0.051252346 -0.033400908 -0.16589332 -0.034531258 -0.01259378 0.058687996 0.15182544 -0.10430762 -0.0069268947 0.06675984 0.0073026577 0.036541063 -0.040172 0.025629293 -0.02515713 0.005004641 -0.052616823 -0.018632902 -0.1264425 0.02176961 0.01946867 0.027583824 0.038548186 -0.0752467 0.0013988054 -0.05422328 -0.009617808 -0.02053928 -0.0014076787 -0.03957068 -0.00674946 -0.13993366 -0.051733006 0.10626773 -0.011795392 0.09837042 0.0047864937 -0.030285487 0.010300595 0.15351808 0.05360119 0.0020305521 0.033427097 0.026016675 0.015270937 0.014283996 0.027603423 -0.03158892 -0.2066403 0.15199819 -0.030576408 0.09131177 -0.16654907 -0.13029939 -0.07845434 0.022845058 0.05856003 -0.057765685 0.047403637 -0.2818242 0.06220723 0.027285848 0.025102528 -0.022573559 0.020503465 -0.052803803 -0.7786048 -0.00430569 0.119623475 0.025148906 -0.06979391 0.059380494 -0.010734103 0.0044980724 -0.075882 0.07782022 -0.08471504 -0.010366232 0.13830252 0.07052767 0.0010279239 0.7575316 -0.12919796 0.08753263 0.04784358 0.11674374 0.07628157 -0.19381197 0.13430297 0.07262634 -0.31284007 -0.036376007 -0.19190904 -0.033982035 0.021185387 -0.06756207 -0.049734417 -0.027522335 -0.067508474 0.009021533 0.07288404 0.08268179 0.04839115 -0.0638679 0.021027802 0.044536885 0.11569911 -0.2878704 -0.04496238 0.02677233 -0.0074749896 -0.18606126 -0.058814935 0.02627332 -0.017034762 -0.0223992 0.026101392 -0.10952565 -0.031032676 -0.05361319 -0.028962292 0.013528061 0.018497536 -0.07033965 0.06941337 0.07885054 0.06895353 -0.07417335 0.0725757 -0.09450399 0.07798864 -0.0072818724 -0.06751299 0.0376195 -0.020437237 -0.1825257 0.045050077 -0.3507345
-0.05814763 -0.3543997 0.02011009 -0.1949209 0.103988886 -0.106520355 0.007003536 -0.020283163 0.061988898 -0.70128685 0.07273361 0.04299395 -0.0043162885 -0.019653723 -0.23454401 -0.16917846 0.086845025 -0.1617942 -0.18278983 0.0114583485 -0.7019143 -0.11384992 0.27689323 0.034431983 -0.017803535 -0.042717155 -0.14974378 0.094444126 -0.26054433 -0.06769689 0.028063249 0.056592233 -0.094727784 0.15503258 0.035445053 -0.1125247 -0.4671595 0.018166669 -0.06254715 0.0016346362 0.023393063 -0.36591285 -0.21153158 -0.1331311 0.015633926 0.016758308 -0.045697063 -0.014097581 -0.53336954 0.06899347 0.014588873 -0.11587551 -0.3103175 -0.328196 0.050134797 0.053520948 -0.6863161 -0.047504783 0.08176594 0.010045939 -0.059186332 0.024924254 -0.023954574 -0.103731856 -0.1691801 0.10862184 -0.13152115 -0.0061387736 -0.009467987 -0.17028584 -0.048520964 0.0285205 0.054139573 -0.059377342 -0.35317966 -0.08606345 -0.20615995 0.004685226 -0.03426122 -0.022879083 -0.41030115 -0.039829094 0.010276013 0.05647197 -0.1687848 0.052979138 0.09866834 -0.0051002977 0.11318426 -0.42576733 -0.022032803 -0.009797148 0.011613295 -0.0021043234 -0.006113778 -0.2201959 0.13831885 -0.006866642 -0.039015934 -0.010304266 -0.06497261 0.11725806 -0.088273525 0.06693517 -0.36109537 0.1308459 0.0060780332 -0.25255406 -0.11053551 -0.09973502 0.021083817 -0.1965184 -0.13886754 -0.109364904 -0.04393705 -0.11362205 0.058163676 0.012176921 0.0023482072 0.06224692 -0.086935446 -0.15232722 -0.054046907 -0.008521943 0.0126775745 -0.0031990379 -0.46460882 -0.0924323 0.06439353 -0.062166817 0.032003317 -0.004722578 -0.050363354 0.04235209 -0.028485486 -0.046259604 0.012792249 0.021234417 -0.19106941 0.08984219 -0.018441308 0.045207158 0.0027088819 0.04487738 0.12385997 -0.13343467 -0.027879642 -0.33022374 0.09268815 -0.0005942401 0.035748735 -0.06443226 -0.029539278 -0.22967124 -0.04597246 -0.047865614 -0.09396373 0.11332698 0.025162317 0.028359847 0.13219218 0.050317813 0.002294407 -0.04050243 -0.011686549 -0.09896554 -0.041318208 -0.041405287 0.008917454 -0.051401634 0.029481476 -0.08700186 -0.30716237 -0.09273578 0.053095307 -0.046270523 -0.031211386 -0.058604397 0.055299636 -0.04857864 0.15125723 -0.037560187 -0.22259742 0.04849681 -0.99507576 0.020364108 -0.5328542 -0.046727546 0.002982278 -0.09794626 -0.060850274 -0.06387098 -0.12011475 0.0059359735 0.083865866 -0.07573509 -0.06481466 -0.085083894 -0.003858294 -0.6079462 0.00989694 0.14948526 0.03150853 -0.030603688 0.026268564 0.06677781 -0.050038826 -0.031021303 0.018110568 -0.022547787 -0.11636773 -0.36143097 -0.03735803 0.008975986 -0.08585579 0.12870839 0.01279246 -0.0052221296 -0.28349438 -0.035011098 0.02127226 -0.03977098 -0.632199 -0.23103224 -0.008414419 -0.4173562 -0.11206073 0.04015989 -0.34082735 -0.06733977 -0.025088407 -0.0218986 0.06871252 0.18164161 -0.045130655 -0.048663996 0.061343487 0.046481438 -0.04666889 -0.012480558 -0.049421325 0.15100695 0.28738585 0.09915323 0.088579044 0.061940588 0.07379714 -0.20983452 0.19968028 0.020568741 -0.3291677 0.1458833 -0.044220462 -0.117334306 -0.009955925 0.067257
0.086370066 -0.09692369 -0.099805266 -0.014477909 0.12228738 0.11595391 -0.11032102 0.02625499 0.119609855 -0.16871168 0.08138991 0.010591297 -0.02916247 0.05013583 -0.1819881 -0.023356628 0.012095102 0.06113513 -0.15934268 -0.03080519 -0.71589035 -0.58245885 -0.4409237 0.015299933 -0.011864959 0.04187454 -0.0067747706 0.029164838 0.23372066 0.0034264345 -0.013035268 -0.013445757 -0.2860874 -0.024135936 -0.14852418 0.0022865133 -0.037597746 0.10815274 -0.12552828 -0.016548226 0.0032840394 -0.33393785 -0.20315835 -0.04396746 -0.014061608 0.003830587 0.12318499 -0.015599721 0.22748229 -0.0133210365 -0.0013368743 0.02970634 -0.2197098 -0.11540534 -0.0084980065 0.06965581 -0.69441336 0.02627049 6.945042e-05 -0.0020770004 -0.022286626 -0.35704127 -0.003855172 -0.11553363 -0.19664896 0.24613804 -0.006306416 -0.05235427 0.06654798 -0.23267102 -0.038585804 -0.047078084 -0.032728106 -0.0059602642 0.008995582 0.05036832 -0.024308987 -0.16385117 -0.09984987 -0.040199388 -1.1962296 0.04989518 0.012846123 0.020266278 -0.0802548 -0.07259378 -0.2947832 0.035829265 0.16710693 -0.20442308 0.017878642 -0.01627694 -0.076516084 0.08291766 0.019976567 -0.20170455 0.053233393 0.03525943 -0.08830128 0.09031653 -0.022899512 0.052353468 -0.004485738 0.021721859 0.046194132 -0.018697916 -0.016082555 -0.13986419 0.004279095 -0.054737255 -0.0020469956 -0.0385266 0.037190154 -0.019651186 0.049821023 -0.06834198 0.102466635 -0.03813687 -0.038196605 -0.017018754 0.13862461 0.076796755 0.0087048 -0.038726795 -0.026831469 -0.36391357 -0.47768638 -0.17400558 -0.014980148 0.032019172 -0.027042462 0.043106962 0.042859748 -0.11876351 -0.0291743 0.059275534 -0.09375912 0.037588324 -0.1643703 -0.2021746 0.20215762 -0.018122155 0.08557952 -0.26284254 -0.07682485 -0.060990244 -0.057303693 -0.09966942 -0.015435703 -0.0006263903 0.03455706 -0.012578592 0.06388081 -0.09654398 0.020286614 0.099656805 -0.010447123 -0.056813445 -0.049551263 -0.020292282 0.021807794 0.10197356 0.07438028 -0.29264155 0.037924323 -0.00067513384 0.10880832 0.033664376 -0.1308075 -0.0038676788 -0.006797048 -0.025727153 -0.4251474 -0.25121912 0.09524422 0.032867268 0.01205723 0.11166365 -0.0209104 0.007283425 0.124472454 0.1185466 -0.12311886 0.06963406 -0.029995827 -0.059925176 -0.19596049 0.12656558 0.074792005 -0.39643383 -0.12840293 -0.033518054 -0.0059542735 0.040861376 0.08957936 0.07953399 0.036083642 -0.104859576 0.007112335 -0.796955 -0.05105441 -0.13856924 0.014885296 -0.013420114 -0.044241782 0.008435533 -0.06607745 -0.3003011 -0.5280938 -0.047557835 0.060743853 -0.20300278 0.09324088 -0.5170175 0.118725315 0.019730953 0.023023555 -0.006787405 -0.27683952 -0.08051772 0.024890982 -0.014612816 -0.40670338 -0.23417978 0.05511832 0.12522382 -0.2056264 -0.13947281 -0.3299187 0.035027456 0.20956397 0.19770554 -0.012228375 -0.039597753 -0.060796384 0.01211272 -0.020290688 0.05370835 0.03670383 -0.016529018 0.026298573 0.042472787 -0.1871782 -0.043440364 -0.0388955 -0.12017231 -0.003857019 -0.33222342 0.25004512 -0.07627474 -0.26463845 0.02802444 0.051048044 0.039290972 0.00914954 -0.14114963
0.022158083 -0.6185081 -0.9929904 -0.47974715 0.10816768 0.2261045 0.53370625 0.008391937 -0.07177141 -0.014787869 -0.00872779 -1.0571302 -0.25845248 0.087002665 -0.09154444 -0.03976524 -0.04075918 0.09339372 0.8212193 0.37825647 1.0333208 -0.6545785 0.10012323 0.0016832064 0.027006147 -0.62113 -0.243814 -0.7308122 0.815195 -0.009004415 -0.006012604 -0.76244074 0.8581198 0.049770575 0.41317156 0.23263195 -0.7102061 0.23989297 -1.4843937 0.042012926 0.0023969775 0.15849389 0.96577007 -0.45094514 -0.0029501908 -0.0029461128 -0.10383107 -0.97212416 -0.46518084 0.06477953 0.59974766 -0.27942538 0.78751284 -0.078298636 -0.081843 0.04733603 -0.055440903 -0.18227993 0.07841431 0.00308329 0.018439991 -0.0033597194 -0.021045761 0.021546097 -0.09835443 -0.016807294 -0.6031415 0.9125807 -0.042557117 0.8035641 0.362454 -1.2893779 -0.10126664 -0.005924534 0.73925984 -0.19396408 0.2182837 -0.15210228 0.0054087127 -0.0025218877 1.5378779 -0.14682296 0.0062593906 -0.34453088 0.20299551 0.08676567 -0.14979923 -0.0020772994 0.054704163 -0.2539493 0.6985402 -0.003806118 -0.045446914 -0.7036025 -1.0656836 0.1607786 0.01031075 -0.59457105 -1.554426 -0.21214463 -0.008267958 0.042904057 -0.99256015 0.015691498 -0.031853363 -0.060790297 -0.019695137 0.35647586 -0.012004563 0.12927116 0.088038154 0.7470617 0.012290246 0.3865692 -0.17230843 0.34259483 0.0032179772 0.035911623 0.017575864 -0.6275988 0.08770987 -0.0093419645 -0.045465693 -0.0027523628 0.0042790864 -0.04417804 1.3976684 0.010450308 -0.65404695 -0.0018673944 -0.16058554 0.004005525 -0.15840425 0.45067486 0.00015307535 0.07434686 0.06355581 -0.9808332 0.25662822 0.054466818 0.029387563 0.024741462 0.019017747 0.17732762 -0.39280388 0.6946506 0.10274436 -0.027915362 -0.008754719 0.0046761604 0.45799944 0.01268005 -0.30974355 -0.21426886 0.008080431 0.0057180366 0.33016106 0.17396045 0.36886132 -0.0066137686 -0.068459556 -0.56418383 -0.44005272 -0.27405274 0.35481814 0.39503992 0.030192992 0.2863338 0.09441017 0.080515854 0.013543126 1.0391659 0.09987476 0.0500744 0.07834 0.09774149 -0.017550573 0.08343594 -0.005106215 -0.27835047 -0.036477555 -0.102400705 0.3973794 -0.47311687 -0.22338694 -0.20342112 -0.15977705 -0.06250726 0.053307958 0.060719002 0.29311663 0.0543383 -0.10199631 -0.015615837 -0.062261716 0.50089675 -1.0599674 0.09280379 -0.002044929 0.01849595 -0.037062112 0.053564265 0.302706 -0.1673024 -0.022309313 0.040772576 -0.010161716 0.059068013 0.034747127 -0.010124108 0.084294975 0.09704017 -0.72292364 -0.02275232 0.5382703 -0.20661162 0.0024090158 0.0041753626 -0.2636522 -0.0013438672 -0.0012173859 -0.31706747 1.2186358 -0.7396853 0.10495445 -0.57295567 1.016493 0.048995156 -0.15133512 0.035144724 0.041700467 -0.08958805 -0.21457206 0.02122213 0.08313846 -0.003547952 -0.00010788072 0.02117171 -0.13672006 0.46158817 0.008359554 -0.44393018 0.09507962 -0.3000348 -0.5759147 -0.037045542 0.008253235 0.9757534 -0.15862334 0.0151642645 -0.0952011 0.059986375 0.21129262 -0.008914497 -0.2403202 -0.3271624
0.41607055 -0.080287695 0.004328317 0.66294926 -1.3215904 -0.026176611 0.07777632 0.18314932 -0.018235946 -0.7270745 -0.0331944 0.0831452 0.035263285 -0.12637742 -0.070046715 0.27453 -0.009751589 0.43003646 -0.10666051 0.15482314 0.08127335 1.3365904 -0.39911765 -1.4683143 0.110510714 -0.062166557 -0.13785796 0.10105025 0.81701237 -0.015093236 0.29363084 -0.018175809 -0.18553391 -1.2149258 -0.23099904 -0.036405988 0.22207116 0.0019997247 0.228773 -0.0071917633 0.042231698 0.43342724 -0.36865714 -0.019769326 -1.1114008 -1.6266545 0.16641164 0.22677547 0.34629992 -0.107915625 -0.032776523 -0.019558344 -0.21817969 -0.10281172 -0.08369485 -0.15061699 1.0905051 0.02243541 -0.26032874 -0.1109158 -0.6161712 0.12550975 -0.5838017 -0.10660066 -0.2984864 -0.019194316 -0.032940023 -0.25764143 0.044092905 -0.8298924 -0.02516932 -0.03006729 0.0111420285 -0.0035036441 0.60542953 -0.26279223 -0.0503905 0.78313565 -0.02101259 0.026712596 0.23869848 0.042781726 0.6419782 0.11021505 0.19828987 -0.035321426 0.40526006 -1.6028944 0.10271908 -0.26613268 0.02450896 -1.5387636 -0.10378995 -0.067578755 -0.03745794 -0.24431714 0.25006488 0.03223004 0.23406865 -0.0019480274 0.32910073 0.32186016 0.14961818 -0.0050725383 -1.1159359 0.9279314 0.15506703 0.2133902 -0.24413526 -0.034613077 -0.0008799268 -0.09867411 -0.194053 -0.0618328 -0.056493368 0.03869928 0.93431264 -0.029520266 -1.2874731 0.09708698 -0.7554861 0.5799459 -0.43590304 -0.44337848 -0.019522231 0.1431366 -0.53849024 0.01707795 0.06124061 -0.12748997 -0.021675088 -0.115665704 -0.0008247068 -0.22363617 -0.12285543 0.48007208 0.010061458 -0.019405711 0.41407958 0.07901197 0.17275393 -0.07561973 -0.19966166 0.07288337 -0.56548643 -0.24163583 -0.18723363 -0.1570936 -0.072067715 -0.14351913 -0.026727483 -0.07490294 0.020894367 -0.19380917 -0.80426055 0.18554375 -0.015781175 -0.001061185 -0.032257937 -0.095600456 0.10481785 0.109245054 0.13865206 0.116286874 0.006651781 -0.002076743 0.39742884 0.07527377 -0.23957281 0.0942153 -0.18777399 -0.2665799 -0.09533147 0.08614369 -0.044788733 -0.38786116 -0.5637276 0.16471215 -1.5358825 0.10242957 -0.24450435 -0.115958475 -0.5462354 0.11436782 1.6651267 0.041730076 -0.2077023 0.21333627 0.37970442 0.35437438 -0.108467564 0.1554596 -0.019174753 0.044830594 -0.08822643 -0.035601363 -0.11226127 -0.16948524 -1.7130227 0.16425498 -0.37691343 0.08505481 -0.038564533 0.15598159 -0.14312853 -0.21739638 -0.004928452 -0.0012940818 -0.16537932 -0.1352722 0.07894462 -0.16105539 0.09622224 0.6213641 -0.026146332 0.01490936 0.43061155 -1.3747075 -0.07714225 -1.516639 1.070413 0.050775364 -0.06194052 -0.0789372 0.33293554 -0.011227518 0.08950418 -0.00050205004 -0.21250108 0.4574041 0.08788995 0.12693101 -0.057853144 -0.13075897 0.056548715 -0.42917994 -0.07922731 0.18205355 0.12100039 -0.050766364 0.04266751 0.23510733 -1.5046593 0.011934889 0.06439342 0.94658434 0.09024693 -0.3796447 0.13217068 0.026061539 -0.21053816 0.30321008 -0.048387792 0.044670597 0.036988124 0.47692928
-0.10931673 -0.033905804 0.04681099 0.014029316 -0.0023761434 -0.0028958658 0.12605637 -0.259807 0.09994699 0.008186362 0.09279938 -0.021966485 -0.023937127 0.11222513 -0.08845221 0.02125128 0.080617465 0.032675363 -0.035230756 0.11839567 -0.22847623 -0.09105826 0.08648542 -0.121147186 0.032395225 0.070953816 0.015302006 0.07498526 -0.07681196 -0.016141364 -0.1701691 0.025527012 -0.04382677 -0.18921867 0.0072723795 0.06858637 -0.006958958 0.08692788 -0.013677377 -0.0018213444 0.060844246 -0.1155679 -0.03715758 -0.06437884 -0.3227567 -0.11317638 0.002364282 0.051456302 -0.081863955 0.01866368 -0.10029932 0.09474876 -0.0453515 -0.018945351 -0.4038689 0.025858965 -0.2765387 0.052838173 0.029929196 -0.0330087 -0.26835272 0.09777109 0.04587018 -0.03520511 -0.0070013194 -0.4275137 0.012034881 0.01265814 0.2007681 0.0009556133 -0.037440713 -0.053642232 -0.03935653 -0.12575842 -0.14257248 -0.045067977 -0.03745971 -0.11442976 -0.07475436 0.037453506 -0.10558473 -0.0043148096 -0.01660198 0.06541311 0.08038329 0.0989891 0.13537364 -0.09592199 0.2030397 0.0016636044 -0.08312921 -0.110037975 -0.15801851 0.045639448 0.051881544 0.028988874 0.061136596 0.05809838 0.038024407 0.009268163 -0.04820917 0.5904892 0.08669766 0.0126490705 -0.10901691 -0.07111167 0.05828047 -0.15735604 0.34805647 -0.019704102 -0.03438884 0.010324533 -0.07731386 -0.041711416 0.032472275 0.051792495 -0.16709393 0.01651035 -0.36747757 -0.0048466027 0.087503634 -0.07999268 -0.060123198 0.008009364 -0.18425152 -0.05868855 -0.15270956 0.030493258 0.073669285 -0.08130137 0.0016009628 -0.13026719 0.07253898 -0.012917466 -0.17770791 0.059992515 0.104527675 -0.012889887 0.05796401 0.10725445 0.013079465 -0.22396716 0.07507552 0.014184057 0.04365943 0.032445807 0.06955305 -0.048346035 -0.04211215 -0.12750286 -0.04962493 -0.07761942 0.08165976 -0.08291555 0.0715575 0.11259791 -0.013845476 -0.0066155945 0.055240564 -0.17796804 -0.022615554 -0.026987739 -0.02243733 0.23341015 0.08322164 0.023622332 -0.27672505 0.17500708 -0.090572156 -0.027025584 -0.19670413 -0.037217263 -0.20719306 -0.010864899 -0.005415491 -0.12484346 -0.080005646 -0.19798574 -0.10898478 0.05151732 0.13151804 -0.094726175 0.07914623 -0.13041851 0.029456843 0.014916744 -0.14775795 0.13356301 0.15211916 -0.01351557 0.043604936 -0.080042444 -0.017427841 -0.022492796 -0.26838186 0.06542924 -0.053994164 0.06539207 -0.062188722 -0.40527895 -0.0032312975 -0.0059272717 -0.13524076 -0.08308355 -0.16665179 -0.27974156 0.05240053 -0.02405288 0.07348459 -0.16545716 0.36241922 -0.10727115 0.026036773 0.08807115 0.1449778 -0.0029001355 -0.24945398 -0.50474244 0.012591776 -0.112978764 0.041242033 -0.007816515 -0.12053013 0.05900817 0.09568035 0.07992054 -0.065773614 -0.16879259 -0.27810702 0.09026804 0.061134655 0.082793236 -0.043368183 0.029251 0.021422725 -0.20697527 -0.2500067 0.019295763 -0.13885953 0.032294188 -0.117103636 0.123962946 0.01699433 -0.015941897 0.021705586 0.012648784 0.058928937 0.12150312 0.14596744 0.045828085 -0.04319279 -0.040440425 0.029487029 -0.044279434 0.05868219 0.061820805
-0.27771175 -0.045460027 0.009594439 -0.21325926 0.18805756 0.1621381 -0.080986634 0.020099714 0.029968252 -0.07371825 0.063526824 -0.053547885 -0.039110586 0.019386644 -0.2979552 -0.051933568 0.014845436 0.1166608 -0.10706016 -0.11851153 -0.5642107 -0.17219576 -0.42299506 0.20249724 -0.025654405 -0.033689335 -0.040601578 -0.07904933 -0.25031307 -0.18720706 0.04889222 0.013735093 -0.11484352 -0.010063571 -0.06027573 -0.04526889 0.083958976 0.015060657 -0.0498888 0.051807 0.017214581 -0.22628322 -0.05541151 0.015999721 0.0760822 0.08184516 -0.15991062 -0.0008140725 -0.32799587 0.0102188755 0.10056158 0.05176807 -0.14186119 -0.2945361 0.038059734 0.0388603 -0.107812926 0.0010586608 -0.045969132 0.01172303 -0.5238769 -0.46067727 -0.084659554 -0.06866504 0.09874237 0.07346191 0.0054434147 0.019472279 -0.20132962 -0.07680721 -0.07054332 0.07126332 0.021076638 -0.04675463 -0.284617 0.34879982 -0.0027136984 -0.12615992 -0.04304205 0.03821173 -0.16249453 0.023477752 -0.10816587 0.018441064 0.1564021 0.07450011 -0.18568863 0.10440515 0.032005172 -0.3054331 -0.114506125 0.07433491 0.054351106 0.06129545 0.013759582 -0.16863273 0.029895443 -0.069952704 -0.008732049 -0.016662804 -0.0144264605 -0.36472988 -0.018156413 -0.8802013 0.05700979 -0.088293016 0.10428039 -0.2844993 -0.74255204 -0.03924165 -0.03471757 -0.28787434 0.010672661 -0.017747324 0.030868564 -0.13441774 -0.33991012 0.0038372488 0.08801651 -0.029165665 -0.08895923 -0.42701155 -0.14793703 0.110843696 -0.04255259 -0.2698751 -0.4476211 -0.029879577 0.041086517 0.019304566 -0.016271187 -0.0009635854 0.01898009 -0.2127735 -0.012028581 0.06315011 -0.019574493 0.06877036 -0.09691915 -0.06409159 0.06316309 0.0063555846 -0.06732828 -0.028684452 0.016251262 -0.16815786 -0.0291679 -0.14100559 -0.032481845 -0.8802186 0.04343269 0.003861496 0.036096066 -0.1918626 -0.031077724 -0.08064884 -0.002650274 -0.08691804 -0.039542012 0.008286991 -0.08590057 0.034948 0.0011662722 -0.28310043 0.019946285 -0.00843062 -0.44895262 0.09927321 0.021061806 -0.00034487506 -0.2563547 -0.025430577 -0.31403247 -0.112294056 0.077328086 -0.30105048 -0.041259296 -0.3119575 0.005656044 -0.0063317674 -0.015553028 0.12861685 -0.13126594 0.048609897 -0.9316574 -0.060073413 -0.15292248 0.060078844 0.071702525 -0.05770159 -0.08808779 0.055562407 -0.031686213 -0.00049388973 -0.01929064 -0.01173883 0.08385719 0.058600444 0.0020230145 -0.17236435 -0.543006 0.05296922 -0.043485317 -0.012678848 0.009121318 -0.43631494 0.06777822 0.10560049 -0.34420952 0.037983853 -0.44027263 -0.24414457 0.013509253 -0.1558828 -0.17870982 0.012169508 -0.067614675 0.037789322 -0.32331926 0.17331547 -0.0270162 0.08878141 -0.39209527 -0.2890597 -0.011568032 -0.09365857 0.0008418713 -0.058724582 -0.47290096 -0.36982763 -0.053966645 0.014725001 -0.016112091 -0.023657078 -0.010287108 -0.10423065 -0.081023216 -0.0048997262 -0.017724408 -0.0226677 0.09542106 0.03652863 -0.6815257 0.03825701 -0.07007066 -0.3743325 0.011004447 -0.2418783 0.07399942 -0.036626138 -0.05682464 -0.11897477 -0.006806674 -0.30930305 0.017904144 -0.3893585
-0.019220926 -0.28732586 -0.042570915 -0.05788354 0.027775893 -0.068778954 -0.012905749 -0.094362125 -0.10896859 -0.28764194 0.057991337 0.0008050681 0.005326741 0.010988871 -0.3361949 -0.089996345 0.025242172 -0.19776265 -0.21731834 0.055064384 -0.65470815 -0.3689975 0.08477449 -0.07055906 -0.08002032 0.042338904 -0.007179916 0.001397015 -0.18682194 -0.078425065 0.01587085 0.055380978 -0.078008115 0.0063921707 -0.07126749 0.0107746115 -0.1985239 0.09256634 -0.036191437 0.024432093 0.07309343 -0.43023625 -0.30388716 -0.05808873 0.026131885 -0.06702122 -0.020408336 -0.08492696 -0.58544856 -0.13727407 -0.0027633423 0.023614243 -0.13250281 -0.09908565 -0.0548485 -0.049127888 -0.7575686 -0.0040932135 -0.024264026 -0.03646905 -0.010883573 -0.09357809 -0.0091258865 0.08850952 -0.09548198 0.21220975 0.01744854 -0.07920985 0.028606353 -0.0818345 0.04892721 -0.10538742 -0.0073647606 -0.033316154 -0.24391139 0.026253099 -0.14299569 -0.054483566 -0.06274638 0.034990832 -0.23136121 -6.110304e-05 0.01775911 0.05790346 -0.32385725 -0.08436783 -0.031393614 0.095185965 -0.019296054 -0.3686294 -0.18743604 0.12233823 0.022612294 -0.07392218 0.013375065 -0.27459288 0.105196536 -0.00070226024 -0.026392296 0.01809549 0.012202885 0.11866767 -0.10812927 -0.036704663 -0.28463957 0.05448353 0.053608038 -0.37531912 0.034007374 0.03519343 -0.01558892 -0.13621 0.07710791 -0.04629106 0.026044417 -0.15499619 -0.04200908 0.04059647 0.040972784 0.051695358 -0.04342337 -0.109276585 -0.10540029 0.025746426 0.027757036 -0.12219903 -0.35834116 -0.11011573 0.0068856105 -0.04903311 0.0010231793 0.12393868 0.018682234 -0.011941345 -0.009924332 0.0014783845 0.048687533 0.015766917 -0.2184574 0.07864602 0.060109574 0.08084184 0.03532687 -0.039554626 0.106696926 -0.12490614 -0.15824953 -0.26505566 0.016233895 0.09601898 0.02041917 0.060665514 -0.05520242 -0.14662017 -0.07076788 -0.028112872 -0.028919926 0.11627203 0.12947293 -0.057850137 -0.08277998 0.06454267 -0.0028189984 -0.19591036 0.0411643 0.06863497 -0.019168174 0.08508315 -0.0059589273 0.022644589 -0.027816992 -0.004525359 -0.40255883 -0.05349199 0.12766844 -0.063774094 0.077853 -0.029121112 0.0012921538 -0.061499882 0.04814276 -0.21192452 -0.15462628 0.0067710243 -0.59198076 -0.054944962 -0.23984668 0.12274063 -0.03378435 -0.03617154 -0.116827235 0.056382943 -0.039529853 0.058270905 0.2561268 0.08373877 0.03666594 0.034628123 -0.019324768 -0.7359375 -0.10593399 0.08653991 0.091087006 0.038305823 -0.020965647 0.0016839373 0.025105728 0.098509446 -0.066404395 -0.06074672 0.065563746 -0.109554686 -0.106974415 -0.060521234 -0.10493504 0.055369224 -0.044262916 -0.008445529 -0.14928062 0.08646708 -0.036043357 0.06673365 -0.5831343 -0.36847234 -0.009345634 -0.38152844 0.021700937 0.0375299 -0.42414287 -0.12692711 -0.02280686 -0.039486367 -0.016112104 -0.022263449 0.060042854 -0.03085539 -0.03624271 0.09209341 -0.11080392 0.016151516 0.012623044 -0.035717458 0.00041081043 0.0352042 -0.0049581975 0.10369099 0.09932386 -0.1554186 0.11434029 0.054081555 -0.11036784 -0.032489166 -0.06464289 -0.034072716 0.0402559 -0.026328284
-0.039642762 0.2610421 -0.08595604 0.27784672 -0.13114688 -0.0019162783 0.106758684 -0.038059954 -0.061141014 0.08453316 -0.11095814 0.055500425 -0.10506921 0.059376474 0.2453399 0.08187924 -0.03306838 -0.23927385 -0.13387823 0.06428188 1.0163739 0.19644846 0.19202876 -0.00593258 0.085242234 -0.13801174 -0.05080505 -0.1356102 0.19046102 0.101671875 0.0075342217 -0.079211436 0.18688211 0.06561477 -0.032166503 -0.04450228 0.097358376 -0.02198359 -0.17194742 0.017923493 -0.046766028 0.08244827 0.017381364 -0.013216794 0.0016428595 0.014103019 -0.14662282 -0.29063746 0.31881973 -0.0054263673 -0.021041237 -0.048820328 0.3340063 0.13750198 0.07664586 0.110527985 0.7550891 -0.03339613 0.023138262 -0.044157855 0.012109602 -0.0021210054 0.03445766 0.24219549 0.23556906 0.11837748 0.017134218 0.113069765 0.050724756 -0.23459764 0.09785957 -0.034018155 0.061114956 0.03129867 0.5223481 0.042671632 0.13905248 0.30166215 0.07245079 0.052513514 1.0402946 -0.11225413 0.05566242 -0.1353556 -0.26666874 -0.19839329 -0.11688899 -0.0026977137 -0.009179382 0.463889 -0.06851069 0.022566626 -0.11427999 -0.08084102 -0.054461658 -0.12090956 0.009818148 -0.09746886 -0.18732259 -0.012200149 0.05158425 -0.14035594 -0.27100083 -0.04884397 0.101455376 0.15074307 -0.0048228973 0.072099455 0.043113023 0.10027839 0.04243637 0.4214797 -0.012816908 0.14581709 0.02594619 -0.19748588 -0.098756924 0.010751879 0.08533709 -0.04178606 -0.14316766 0.14211826 0.01949254 -0.07231117 -0.0313932 -0.010015797 0.4855984 0.07696372 -0.0027071617 -0.10238992 0.025858937 0.014512131 -0.06709226 -0.14922419 0.0023254952 -0.04853105 0.011462016 0.047244404 0.2895007 0.095662214 -0.18030061 0.08616738 -0.14238654 0.15526272 0.14852335 0.1145702 -0.023298379 -0.10990934 -0.0073553966 -0.021620268 0.109793924 0.0023028497 -0.08450926 0.14087388 -0.0966782 -0.026909284 0.07584022 0.13197224 -0.10850158 -0.054563574 -0.001510612 -0.039226267 -0.0889963 -0.03253706 -0.12272835 0.13480355 -0.020743104 -0.081107385 0.12751473 -0.12464894 0.0027623242 0.30698934 0.5462668 0.25098974 -0.042904936 0.16324827 0.033779304 -0.091843516 0.00091405126 -0.15163772 0.03789833 0.009234211 0.15971188 -0.2689163 1.1191802 -0.09859372 -0.023628358 0.01215319 -0.0039448845 -0.046228193 0.027952267 -0.16214545 -0.0667045 0.020137776 0.39928362 0.021869369 -0.0054579307 -0.0624415 0.02250798 0.42963076 0.057813212 0.17147678 0.05715358 -0.030782163 0.020602534 -0.01329623 0.1766227 0.06348862 -0.031918447 0.08229259 0.18926701 -0.03802327 -0.07523285 0.05094083 -0.07900744 0.023957646 0.064471535 0.06336298 0.17073658 0.015745403 -0.0063488767 0.023744056 0.41360492 -0.02332652 -0.0089 0.020017821 0.1629396 0.038788233 0.30367398 -0.12987845 -0.026637172 -0.027974496 0.016750997 -0.09006902 -0.05329875 -0.0071551665 -0.0018593842 -0.009913581 0.061023332 0.05126336 -0.020229282 -0.07902605 -0.06923945 -0.062145077 0.049880728 0.055760067 0.0068284823 -0.8148458 -0.21200544 0.08808211 -0.22356991 0.35525885 0.054153144 -0.3156949 -0.13765056 0.021113815
-0.09171336 -0.4121262 0.0318929 -0.102829486 0.12588601 0.107003696 -0.052451827 0.0061778096 -0.019037334 -0.26550123 0.059936315 -0.04730705 0.043880615 0.023361849 -0.35636148 -0.24372628 0.03257132 -0.16252486 -0.23933345 -0.08358053 -0.65730584 -0.31430155 0.18126756 0.02355324 -0.0034978264 0.011354058 -0.015299515 -0.05079624 -0.3867225 -0.04965429 -0.009989352 0.052503157 -0.18623105 -0.11522924 0.11664355 0.0688129 -0.18941619 0.023238275 0.074914455 -0.07070117 0.05806537 -0.48653674 -0.22019495 -0.07072466 -0.018892426 0.0021886139 -0.11149553 0.065877154 -0.5999151 0.057438135 0.031936195 -0.0006812373 -0.31496465 -0.1094888 0.016626688 -0.02385135 -0.53484386 -0.07569262 0.002620954 -0.06006289 0.040011067 0.02411881 0.012211829 -0.08936572 -0.05834922 -0.03152673 0.029950367 -0.14952168 0.07476981 -0.18191685 -0.0017143294 -0.047346067 -0.059834853 0.031384468 -0.33806825 0.14087012 -0.20310013 -0.027330214 -0.018359527 -0.0036030004 -0.18363437 -0.036209747 -0.060923744 -0.05135515 -0.3683764 0.08190189 -0.03436062 -0.10327382 -0.027460884 -0.5554432 -0.027571425 -0.0112356115 0.016135061 -0.04619632 -0.011180763 -0.21272719 -0.010830725 0.011543364 0.07697387 -0.017371684 -0.027282003 -0.08398445 0.11504106 -0.012893835 -0.020917311 0.03241173 0.115993544 -0.23520117 0.06289164 0.14335102 -0.010615521 -0.2567767 0.040721603 0.022428375 -0.017089158 -0.078966565 -0.22921501 0.0020734991 0.05000371 -0.05872801 -0.25649405 -0.49893594 -0.48064157 -0.07485477 0.009669516 0.045295518 -0.15934439 -0.013404161 0.04404338 0.0072337915 0.09368943 0.059881274 0.029154938 -0.14030114 -0.0090060085 0.03741428 0.073801674 -0.011597751 -0.13421829 -0.025386859 -0.072006896 0.1197388 0.0131386155 0.031297028 0.0846384 -0.060578115 -0.09796775 -0.0032026744 -0.025401069 -0.08566246 -0.046648726 -0.0826806 -0.047930818 -0.15513818 -0.01786755 0.03831547 0.0071287174 -0.016202822 -0.14555971 -0.06326073 0.030721061 0.02312858 -0.028662724 -0.2974321 0.06957209 -0.04483117 -0.0696055 0.029658917 -0.013793582 0.003973356 -0.00900005 -0.12070079 -0.26254123 -0.14953183 0.04350898 0.010695407 0.027294327 -0.07208856 0.1485538 0.04741567 0.086846195 0.099188715 -0.13250296 -0.006581884 -0.58655816 0.021237658 -0.07629583 -0.06740269 0.0412247 -0.080095515 0.0368925 0.016278232 -0.07466819 0.040497705 0.09675812 -0.0030780633 -0.021752723 -0.07361176 -0.003958409 -0.6232724 -0.53950757 0.075130895 0.040542617 0.070356704 0.075131804 -0.03730368 0.14559548 0.09347403 -0.099896505 0.018314078 0.078714855 -0.26559907 0.030277211 -0.027853709 0.019581154 -0.010703138 0.06729411 0.03427413 -0.40486294 0.027663216 0.00050127954 -0.053867716 -0.3321309 -0.1933338 -0.03901381 -0.15120593 -0.0022959746 0.028492263 -0.36873794 -0.08771271 -0.12917522 -0.12172339 0.09485686 0.059202805 0.07470609 -0.055335753 0.01635745 -0.07343962 0.09538118 0.035732843 -0.0024054502 0.0013262903 0.006029296 0.018726429 0.020528985 -0.12305128 0.0636756 -0.06368821 -0.06492972 -0.016661875 -0.10949347 -0.08394375 0.018950647 -0.13068911 0.01950942 0.07587177
-0.063556135 -0.049208973 -0.13442351 0.0639662 0.067137115 0.035505157 0.18237951 0.10237479 -0.18953046 -0.018740166 -0.040837467 -0.091244146 -0.121102 -0.118548356 0.41197312 0.008513852 0.023930606 0.07790937 0.06709934 0.28436497 0.7591172 0.14105666 0.28236443 0.008964419 0.03789008 -0.13316302 0.018750401 -0.01725025 0.4312865 0.09332446 0.04219145 -0.037361573 -0.014241757 0.020834798 0.16338633 0.18605271 -0.20314813 -0.043458335 -0.1953716 -0.12586655 -0.007286844 0.41716483 -0.047867905 -0.08538784 0.024486423 0.0075644096 -0.028927224 -0.1024066 0.093572766 -0.00091593445 0.1290307 -0.041027956 0.29143387 0.15355512 -0.0115170665 0.1365164 0.5980428 -0.06212584 -0.03350876 -0.06825544 0.05192434 0.14263713 0.02732671 -0.028120585 -0.19097269 0.050211042 -0.053261217 0.17305446 -0.0631219 0.16632563 0.19763537 -0.082520925 -0.072114356 0.008132949 0.46052647 0.018154465 -0.04186747 0.14001939 0.03933725 0.012629204 0.73251283 -0.11932279 0.012485884 -0.044416513 0.040138043 -0.15579173 -0.22037219 -0.021255406 -0.1521623 0.9362727 -0.09064348 0.016473131 -0.07470569 -0.24037708 -0.21366963 0.09684126 0.12815264 -0.09064684 -0.20015657 -0.010542546 0.008003798 0.029746164 -0.10138757 0.042267453 -0.17220497 -0.027410738 -0.0039211274 0.2284535 -0.023029413 0.12884659 0.063800484 0.15381365 0.008048191 0.1387429 -0.076881684 0.18840651 -0.05898571 -0.028847568 0.08821199 -0.022963662 -0.32213444 0.058698464 0.011249522 0.034888696 0.075909324 0.018483892 0.45089722 0.11187425 -0.20496328 0.008817047 -0.0594965 0.06386345 -0.01456002 0.10800724 -0.005768395 -0.0067507867 0.022956971 -0.2951769 0.3017787 -0.056890614 -0.006857811 0.06560328 -0.2934258 0.011292879 0.17734805 0.18216233 0.09531916 -0.04846914 0.0048289737 0.0037756888 0.09387062 -0.027172767 -0.002689293 0.015437358 0.054841086 -0.03249292 0.28003857 0.007896409 0.053852662 -0.012717472 0.057030484 -0.20898479 -0.24600981 -0.10487439 0.087621205 0.052977946 -0.16925068 -0.08179576 0.05228138 -0.08354867 -0.017552946 0.116058215 0.39472637 0.28363746 -0.22823173 -0.015179974 -0.11756886 -0.24933499 0.0066951555 0.010981261 0.06657393 -0.03178825 0.15438516 -0.03266711 0.9654993 -0.02519733 -0.012306392 -0.15619992 -0.027237996 -0.18777002 0.11006233 0.04437301 -0.017590694 -0.087283626 0.07551791 0.14006212 -0.3930701 -0.10158758 0.007813655 0.55388594 -0.088826664 0.16570723 0.062184907 0.015651993 -0.040357158 0.0015455742 0.14257379 0.13565779 -0.11760752 0.038861334 -0.042239744 0.06370446 -0.033495955 -0.038531337 0.2426729 -0.03722688 0.013319626 0.01461947 0.009827629 0.024572631 0.014252749 -0.16960193 0.5853543 -0.036802806 0.013139851 -0.07197911 0.4026023 0.096991315 0.32953218 -0.069263145 -0.16698055 -0.009515265 -0.060970597 0.027105967 -0.08678987 0.04809656 -0.039156366 0.0907206 -0.019284133 0.20943291 0.044084597 -0.1420845 -0.16671713 -0.21688975 -0.11485634 -0.041338116 0.113934144 -0.6249069 -0.108946756 0.017344829 0.034197316 0.33681265 0.08588423 -0.07912542 0.0125187095 0.15042554
-0.040837076 -0.04655356 -0.012939156 -0.0029565732 -0.03131285 -0.012101345 0.09077597 -0.018359615 -0.043828532 0.03125712 0.04291499 0.070163 -0.031035576 0.072686724 0.08607994 -0.0028989424 -0.10578168 -0.06763488 0.038479872 -0.10070085 -0.0034408192 -0.057927307 0.023529673 0.006690145 0.026277328 -0.07061229 -0.036321923 0.08527231 0.01258165 0.02388192 -0.10740181 -0.031275503 -0.06531568 -0.08672694 0.012081389 -0.015444246 -0.044972803 -0.012825983 0.06838426 0.021666363 0.024948351 0.018822763 0.045034595 0.16115604 -0.06358808 -0.03354295 -0.00084746315 -0.008367735 0.005211581 -0.0527321 0.052427214 0.06609512 -0.013919178 0.05977071 -0.008328001 -0.037257686 0.010130415 -0.0095016165 0.0065758363 0.028424533 0.061995257 -0.025095487 0.008306902 -0.036982134 -0.010215644 0.027925473 -0.00050315127 -0.09603821 0.023122534 0.058321286 -0.1256996 -0.014157403 -0.051561095 -0.071380734 -0.030170994 -0.0036596495 -0.010505522 0.059753396 -0.011630881 -0.046235852 0.05988159 -0.0042850794 -0.09463222 0.027462132 -0.081586994 0.038819276 0.019132843 0.04000302 0.030247726 0.029881904 0.06811282 -0.040189814 -0.04838373 -0.11048913 0.077574104 -0.026599541 0.06231176 -0.009177716 -0.014441858 0.027895313 -0.019573463 -0.012319639 -0.018684382 0.03361677 -0.012796503 -0.08752474 0.035640273 -0.02178602 0.012093951 -0.08614158 -0.0051003806 0.033115294 -0.086693086 -0.0354211 -0.071499705 -0.035161942 -0.013032019 -0.038035907 -0.01269755 0.022227978 0.0027336036 0.0048256014 -0.016776621 0.086600244 -0.123505965 0.02912768 0.06391135 -0.05534201 -0.07831617 -0.057204556 -0.057144236 -0.0019166254 -0.013758904 0.027983433 -0.06275166 0.003914215 -0.0067917537 -0.0023604885 -0.06327895 -0.08228293 -0.115298994 -0.016646527 0.041975897 0.063282125 -0.0815232 -0.09807435 -0.027879994 0.12117161 -0.08804385 -0.004673301 -0.03977183 0.016129917 -0.016145421 0.061663304 -0.094499 -0.03907091 -0.0021594495 -0.0762333 -0.08503953 -0.060816072 -0.10520299 0.058243863 -0.043253094 0.06739832 -0.088158056 -0.04525236 -0.011201479 0.0095345145 0.05952519 -0.053392086 0.01011705 -0.07142824 0.01839958 0.024457106 -0.08916705 0.0003579461 -0.0025791614 -0.022046871 0.017942032 -0.053046133 0.08266425 0.07293412 -0.05300567 -0.03900684 0.00049311365 0.01947865 -0.008791235 -0.031442765 -0.026249044 0.027324438 0.016864507 -0.052293945 -0.049919114 -0.10945384 -0.064172514 0.056567498 -0.011450041 -0.016362933 0.070903644 -0.020598637 0.014613875 0.009353692 -0.05471743 0.029215304 0.09026197 0.086802125 -0.062165525 0.030067515 -0.030128201 0.031362608 0.027175475 -0.012720542 -0.03022055 0.029211858 -0.013934403 0.0017684641 -0.0026906284 0.049061626 -0.15552087 -0.06915768 -0.023741996 0.09747126 -0.010408605 0.013804618 -0.042062294 -0.042888783 -0.045702174 -0.010135734 -0.0040571583 -0.033872638 -0.01991929 -0.030725963 0.008978042 -0.013500716 -0.012369639 -0.022360701 0.011986152 0.0005846143 -0.03207017 0.01648031 0.035226624 -0.0030410725 0.053093836 0.044767477 -0.077201694 -0.009303188 0.0719451 0.0069567454 0.033115644 0.019473009 -0.096839525 0.031379282 0.124141365 -0.055477444 0.08675265 -0.07479527
-0.042601917 0.019225037 -0.012709784 -0.14047706 0.09215144 -0.051956188 -0.045873158 -0.014046058 -0.054239977 -0.053805698 -0.17308223 0.041475527 -0.025396278 0.0272185 -0.030583117 0.13684359 -0.2384274 0.030037804 -0.053587154 -0.06451195 -0.21980603 -0.116038 -0.07695558 -0.013493251 -0.35631412 -0.008039369 0.028220115 0.018227778 -0.0877045 0.01610757 -0.01794665 0.039558806 0.06913432 0.050738547 -0.14258035 -0.111042544 -0.041690372 -0.17540169 0.030840956 -0.3051752 -0.18583658 -0.03289936 0.15780094 0.030430634 0.008543704 -0.010064674 -0.077340394 -0.0324327 0.18705182 0.0875006 -0.0058001983 0.0017000426 -0.16999885 -0.05229785 0.009928515 -0.05260637 -0.2530337 -0.02915596 0.02543483 0.040236834 0.018393748 -0.079094924 -0.13400947 -0.40313393 -0.028278483 0.039169542 0.067697816 -0.16790672 -0.09726852 0.11830402 -0.0734348 0.023903083 0.031212112 0.023218827 -0.14920323 0.14799753 0.15157248 -0.35808584 -0.16938551 -0.09319694 -0.3438541 -0.018493673 -0.30574268 -0.0687591 0.011967508 -0.116763294 0.055666525 -0.06979696 -0.1049158 -0.11021182 -0.0313392 0.010202177 0.03329271 0.06707343 0.006256103 -0.054990437 -0.43031362 -0.026472146 -0.03779094 -0.047919422 -0.26452842 0.0740773 -0.046372354 0.037378117 -0.025585849 0.10276539 -0.20164518 -0.066776 -0.04063799 -0.11545022 -0.0017360598 -0.038062774 0.06219651 -0.16271059 -0.01452038 -0.0495919 -0.053666003 0.060866512 0.02623926 0.08226801 0.07841076 0.033302635 0.12563345 0.025147513 -0.007303738 -0.066244975 0.033206996 -0.3101348 0.06893559 0.045662344 -0.019432899 -0.013915463 -0.026419392 0.08745793 0.0010812021 -0.41858876 0.023133008 0.024142668 -0.07302725 -0.113417745 -0.014700946 -0.032315522 0.0051312353 -0.18183662 -0.06664782 -0.2131209 -0.22159213 -0.12725623 0.0042661214 0.025111021 -0.03418141 0.05429638 -0.07974407 0.029609112 -0.024423195 -0.050888754 0.048211075 -0.45421502 -0.13123085 -0.0043673753 -0.14935169 0.08199922 0.1259846 -0.09901174 -0.033338465 -0.07574616 -0.033514194 -0.017896237 -0.27051437 -0.54893744 0.0027015682 -0.060591556 -0.1406472 -0.3704254 -0.19015709 0.19164969 0.14952162 0.07347949 0.06702593 -0.07764859 -0.17985977 0.03173191 -0.0005884444 0.04313545 0.10435203 -0.09643791 -0.14615813 0.001750349 -0.056761265 -0.029677501 -0.10692507 -0.015494106 0.029128823 -0.2716556 0.048101448 -0.06967846 0.03521155 -0.11432296 0.049412917 -0.07681973 0.062499303 -0.26353765 -0.056490105 -0.11733041 0.057331305 0.042078882 -0.43184945 -0.37635484 0.077675164 0.05301523 -0.069018126 -0.07020662 -0.046493 -0.14177899 0.027342971 0.013247908 0.0077363583 0.04571987 -0.076099895 -0.03561026 -0.015356404 -0.12317447 -0.3626731 -0.073159285 -0.15176123 -0.0023644862 -0.12216156 -0.22749497 -0.50419277 -0.0280475 -0.027193526 -0.12804225 -0.012794501 -0.089829154 0.0049633346 0.018108722 0.051544413 0.0063942755 0.012308907 0.023000518 -0.020059496 -0.03365028 0.024588594 -0.1137904 0.03476263 -0.5965831 -0.09199775 0.027935786 -0.015258456 -0.0977022 0.026787622 -0.042158347 -0.014379673 0.033011306 -0.022543816 0.04640684
0.097784676 0.1348872 0.12662247 0.14037873 0.0545991 0.09322147 -0.03338009 0.008866663 0.10296358 0.35613775 0.042483352 -0.09134639 -0.03073145 0.27294037 0.093433924 0.028057909 0.1311077 -0.007508291 0.03684193 0.14927651 -0.0098862 0.040563814 0.07285134 -0.11658696 0.06116497 0.029026924 0.028246662 -0.009316684 -0.18186903 0.004637659 -0.07952679 -0.022652013 -0.13423635 -0.09550776 -0.032175645 0.08387862 0.075392455 0.20565516 0.09241857 0.08911919 -0.09965822 -0.09811922 0.21081352 -0.21640272 -0.11210393 -0.054313745 0.0053215865 0.08874568 -0.34928116 0.028979655 0.1324851 0.00046640425 0.2952005 -0.11369745 -0.42147785 0.030938234 0.4014109 0.024481399 -0.14547834 -0.22113965 -0.007830581 -0.024333077 0.05175798 0.2278179 -0.054970432 -0.30330616 -0.03210287 0.060359176 -0.021268401 -0.06812179 0.032407533 -0.10907092 0.0107737025 0.10609225 -0.050070666 0.21581665 0.23083325 -0.09594644 -0.33601913 -0.026843565 0.5175743 0.16204159 -0.017707534 0.040474586 0.029041113 -0.008895077 0.04301444 -0.016136821 -0.049600642 -0.104405135 -0.05979752 -0.02588913 -0.2576727 0.026427347 -0.06754765 -0.035172135 -0.08303867 0.003162543 0.025013408 -0.021376481 0.005675432 0.19234565 0.011588003 -0.04510964 0.18426836 -0.08366619 -0.067301914 0.08948498 -0.063508645 -0.034582976 0.093092725 0.17043188 0.0597194 0.09938634 0.0056458283 0.05314489 0.16929828 0.09567013 0.0021102855 0.06718633 0.08758419 0.54009 0.1288351 0.026770178 -0.061111953 0.11348282 0.011704818 -0.021831939 -0.09162254 -0.11235114 -0.06143421 -0.03827021 -0.05246974 0.07783254 -0.023015175 -0.0996831 0.020500472 0.013729566 -0.0782854 -0.016898334 0.09448499 -0.17375876 0.047643684 0.043441534 -0.004590291 0.0068240874 -0.07232775 -0.04121998 -0.11270895 0.00807364 0.002696149 0.018030478 -0.038151372 0.03025029 -0.07729096 -0.018180171 -0.029399524 0.039849207 0.024367297 0.009811411 -0.03018391 -0.058390602 0.058930222 -0.0038515045 0.09335782 -0.07576376 0.17768769 0.037764166 0.012844076 -0.105704285 -0.018449135 -0.0632888 0.19784808 0.2252866 0.014377306 -0.035228744 0.084999844 0.4723567 -0.052308857 0.11131563 -0.0018115903 -0.033287674 0.10771131 -0.017320894 0.035616737 0.029094636 -0.06328717 0.017332736 -0.051686797 0.019619973 0.081357025 -0.25618392 -0.03569862 0.012604348 -0.40266648 0.0005295215 -0.007995203 0.06466466 -0.06517234 0.471615 0.016726088 -0.07599047 -0.031194763 -0.028510394 -0.1976755 0.051109087 0.12723319 0.01654665 0.020685099 -0.09358298 0.11080418 -0.023837348 -0.07104194 0.030456131 0.08664375 0.06657023 -0.03125622 0.02709438 0.015781077 -0.060503334 0.053857077 0.060795408 -0.11001022 -0.013599199 -0.022689633 0.030766293 0.07912793 -0.13906461 0.17516619 0.17705116 0.056565482 0.057874847 0.020100288 -0.20804884 0.07352305 -0.04072772 0.029164804 0.026835505 -0.12332257 0.020252746 -0.0107786 -0.0065635853 -0.19373296 -0.035088353 0.027110355 0.030178053 0.038929503 0.19934016 0.00084371667 -0.17416881 0.0624655 0.007919576 0.054680694 -0.005152387 -0.08092378 -0.030275678
-0.025863292 -0.16590853 -0.016646337 0.00038316264 -0.017496461 -0.06445994 -0.049803372 0.059837446 -0.066221245 -0.26158407 -0.00071497966 -0.08586002 -0.034842253 0.10269177 -0.134759 -0.042071097 0.059339784 -0.12138397 -0.1058111 -0.15458569 -0.27472076 -0.08740805 -0.052911445 0.062034573 -0.04180113 0.03322007 -0.21649367 -0.028789295 0.0076471716 0.23419538 -0.0047152177 0.012466823 -0.117917694 -0.02582414 -0.037498295 0.01169571 -0.13277218 0.17505047 0.032764167 0.010135266 0.07519357 -0.25308868 -0.06800855 -0.039078187 0.01253818 -0.03852093 -0.09953855 -0.008760708 -0.064157255 -0.009288973 -0.08490283 0.041242898 -0.043435883 -0.014956805 -0.07374475 -0.018376784 -0.5606575 -0.0192246 -0.023629874 -0.028382221 -0.0032163165 -0.04432492 -0.028800435 0.06846631 -0.06642024 -0.119817466 -0.030710299 -0.04764833 0.01692683 -0.12818845 -0.050709974 0.006585525 0.010792402 -0.09944461 -0.112004526 -0.047615845 -0.13585122 0.048535142 0.08480484 -0.07080179 -0.13838705 0.07003771 -0.0035275477 -0.008606511 -0.28306592 0.051429372 0.13514273 0.044210296 0.11653872 -0.03102153 0.066409074 -0.0121141635 -0.23448114 0.013886847 -0.05397644 -0.06973316 0.033417344 -0.035775993 0.032099117 0.010300507 0.046710584 -0.05789446 -0.0033925702 0.01125715 -0.26486495 -0.04137312 0.055494457 -0.10551831 -0.055255957 -0.049336363 -0.11656425 0.042186238 0.03475415 -0.01290893 0.022813914 -0.054911837 -0.1054036 0.021424247 -0.025904277 0.04035283 -0.055536617 -0.3329061 -0.33880553 0.08608103 -0.024726704 -0.046790995 -0.25028858 -0.12256427 -0.011973386 0.07302185 0.0027099762 -0.036060035 0.030664599 -0.04700135 -0.051239148 -0.05417767 0.18547678 0.022390073 -0.09369072 -0.08464893 -0.019733755 -0.07985966 0.10536734 0.05902879 0.013656273 0.048306026 -0.05298625 -0.07249592 0.006695075 0.10933037 -0.025345724 0.033217926 0.03858151 -0.15548258 0.014800194 0.08703167 -0.033994105 0.031283457 0.06514377 0.00018223032 -0.10254075 -0.10983013 -0.048226275 -0.0023864103 -0.05419075 -0.029911937 -0.11155847 -0.0032218636 0.035980616 -0.0383656 -0.13735038 -0.10468309 -0.1607697 -0.029482894 -0.022018917 -0.008872718 0.039972425 -0.014856791 -0.009673948 0.0402085 0.052760452 -0.14698607 -0.03464121 0.19192788 -0.044498757 -0.04741532 -0.15184245 0.046046983 0.027349442 -0.085202016 -0.00089491217 0.05633075 0.053029727 -0.014838453 0.03468151 0.017484006 -0.035185475 0.09623339 -0.014651981 -0.4515643 -0.103012815 0.031401236 -0.08198851 -0.013016308 -0.15806411 0.033570882 0.042893 0.07793583 -0.0036014428 0.06381643 0.07427811 0.025824828 -0.017490383 -0.005611086 -0.08259808 -0.036729023 -0.019180426 0.065777995 -0.051770713 -0.0022664242 0.011551292 0.08803586 -0.2289416 -0.065007836 -0.008308336 -0.089699574 0.059198666 -0.07642851 -0.33192 -0.037166093 0.020979661 -0.011501225 0.09709492 0.07276363 -0.06902216 0.095361084 4.5388235e-05 0.022144161 -0.12960796 -0.055317625 -0.097039476 0.044516303 -0.06402432 0.049511712 -0.10940739 0.09631724 0.12404403 -0.13397716 -0.08284982 0.016268319 -0.13505022 0.09208415 0.028729413 -0.013414701 0.09287638 -0.016284706
0.050001286 -0.013598842 -0.04746826 0.05391844 -0.17091662 0.06566577 0.0443308 -0.027522441 -0.15622067 0.008104419 -0.18311821 -0.11100709 0.0013904546 -0.038840476 -0.09363262 -0.098202124 -0.04489636 0.056494825 0.021833103 0.008108112 0.01039918 0.05198685 -0.0028071774 -0.05804681 0.030908413 -0.07377826 -0.09165523 -0.18182032 -0.0071359673 -0.113073476 -0.04677653 0.05217954 -0.059572536 0.079679415 0.053976636 -0.043691743 0.038990684 -0.055406228 -0.0023547395 -0.036354728 0.039970007 -0.09363822 0.032188937 0.11950777 0.11285778 -0.109175764 -0.042604223 -0.1572599 0.049416 -0.077601574 0.025845964 -0.00023824806 -0.016409038 -0.14718814 0.009009946 -0.020433648 0.008278008 0.02689754 -0.05848904 -0.003401182 0.24621558 -0.023173222 0.07690249 -0.059507158 -0.04739612 0.06349417 -0.059469134 0.05082513 -0.0803971 0.15078624 -0.14969552 -0.045555815 -0.024819534 0.057308465 -0.02611465 0.05247298 -0.03959406 -0.06466745 -0.028933512 0.03812484 -0.014297697 0.045297243 -0.1439646 -0.025814565 0.0829352 0.0439679 0.08912507 0.027725816 0.08490253 0.034310073 -0.073835075 -0.043030288 -0.04440068 -0.021151353 -0.122522116 -0.08165287 -0.066797994 -0.06584213 -0.22011015 -0.12297454 -0.06493804 -0.123695605 0.09819988 -0.02990481 -0.09383565 0.017239239 0.012349887 -0.05286796 -0.04120421 -0.03881307 -0.07250127 0.16851011 0.03939983 0.036364082 -0.11046899 0.0013448005 0.010580569 -0.108170204 0.019489208 -0.036274884 -0.022982733 -0.09855818 -0.006370979 -0.005560425 -0.097806096 0.08637882 -0.035701107 0.041663263 0.017560912 -0.053549334 -0.053911738 -0.06504799 -0.06405389 0.034932207 -0.011219786 0.015793256 0.19274646 -0.08310511 -0.0727215 -0.06369277 -0.15941438 -0.07246732 0.058488835 -0.12896304 0.01403055 0.10185533 0.0116989575 0.022413958 0.03236174 0.012256785 -0.053903244 -0.10948006 0.02852152 -0.087994754 -0.07468862 -0.09621628 0.08505059 -0.08407505 0.078849874 0.027340518 0.041413907 0.03903882 0.08386694 -0.11573674 -0.123153344 0.01870112 0.024339886 -0.015280292 -0.038627356 -0.11660509 0.018975973 0.03068561 -0.009638194 -0.0901613 0.02743265 -0.074482724 0.03387849 0.032018278 0.038364824 -0.062893465 -0.050936583 -0.08227604 -0.0296159 0.09292296 -0.020720616 0.011996762 0.023135848 -0.06701654 -0.020395914 -0.10480502 0.020363143 0.13662338 0.063404456 -0.04325083 0.09009344 -0.044496894 -3.3944463e-05 -0.02399468 0.094299465 0.05245365 0.033332955 -0.14395116 -0.035355978 0.081845336 0.025366567 0.007006592 -0.050574798 0.049930494 -0.015322497 -0.002109199 -0.094025515 -0.006936539 0.1588518 -0.10429752 0.07883373 0.008231675 -0.08768797 -0.13951911 -0.13069302 -0.0055450196 0.13185601 0.052538436 0.084123515 0.04210078 -0.037538964 -0.024115136 0.039864574 -0.028479386 -0.021139877 -0.008495719 -0.065134205 0.07242239 0.03229133 -0.004739696 -0.17732479 0.0014198798 -0.053764723 0.02977746 0.02962577 -0.059172474 -0.16809683 0.017643342 0.004205676 -0.06541572 -0.040042046 0.035632007 -0.08151337 -0.0030648096 0.051515065 -0.038684033 -0.08966669 0.072814144 -0.025706735 0.040887676 -0.08870993 0.06638196
0.13187988 -0.01645172 -0.15921511 0.046962894 -0.6430303 0.07993222 0.056562595 0.038092937 0.1320543 -1.1359184 0.08278712 -0.06414085 -0.04038691 0.03522883 0.34035367 -0.1126787 0.06445233 0.19635756 0.11297212 0.02812617 -0.11279147 -0.047429558 -0.54766613 -0.25656104 0.042779356 -0.015946269 -0.09102912 -0.09421466 0.09153565 0.01703013 -0.027708312 -0.007038137 0.06580821 -0.122281134 0.2206499 -0.031539287 0.09257226 0.21875793 -0.43534556 0.102711424 0.050175413 0.03052587 0.09901733 -0.049384102 -0.2943349 -0.21135587 -0.0013258235 -0.39267817 -0.32830915 0.010865644 -0.060699064 0.0021395122 0.16524231 -0.12266986 -0.081238605 0.044596713 -0.23109598 -0.05240481 0.106971376 -0.04224622 -0.017479185 -0.021164542 -0.13818426 0.10478593 -0.052207638 -0.27491572 -0.055804454 0.30035377 0.07779743 0.04232712 -0.0038992432 -0.033749882 0.032261096 0.010960034 0.008334345 0.10964326 0.14009693 0.030424483 -0.11747184 0.025259066 -0.021838304 -0.2060796 0.24376136 -0.0797797 0.19525793 0.029990481 -0.011811567 -0.3948593 0.23506516 0.15033439 0.07814724 -0.33234257 -0.0435225 0.019301033 -0.008738086 -0.09964843 -0.024921522 -0.13432747 -0.56945306 0.16969657 0.050763182 0.5876428 -0.3427877 -0.026711145 -0.8102479 0.15221114 0.11188625 -0.21400186 -0.0978048 -0.041996967 0.029849822 0.18489441 0.11023513 -0.05715019 0.1005673 -0.06188766 0.18502049 -0.06536027 -0.020088183 -0.025065523 0.07923201 0.20037062 0.023384076 -0.093724705 0.11609737 0.08948098 0.7118191 -0.0034315141 -0.030577945 -0.04421582 0.008000022 0.029636823 0.024082124 0.0035440498 -0.028234808 0.15550417 -0.05809446 0.04598658 -0.20479347 -0.084319636 0.071626596 -0.17235288 0.12207855 -0.095976785 -0.29850152 0.2813868 -0.10016868 0.057617664 0.03303966 -0.11707065 0.04841842 -0.027938457 -0.06901451 0.049255762 -0.1977955 0.02780986 0.0811961 -0.14222397 0.0320423 -0.07627444 -0.04919933 0.0540611 0.012541184 0.2501498 0.03771359 -0.023747865 0.28446096 0.21088763 -0.044320762 0.06667881 -0.0074024587 0.54869825 0.43752405 0.015162159 0.08434258 0.374552 0.004974777 -0.010667424 -0.19318631 -0.22597104 0.037702493 -0.03109439 -0.1508798 -0.19289966 0.0072752247 -0.08107163 0.12872964 0.097389325 0.18522644 0.13137792 -0.06122813 -0.007731768 -0.11758704 0.07968171 -0.24704011 0.073688455 0.011888441 0.10505795 -0.32288867 -0.007341508 0.0980306 0.087874904 0.057364836 -0.111878596 -0.08352296 -0.12006916 -0.001613686 -0.03205558 -0.17658335 0.013508612 0.07118785 0.012766922 -0.11783789 -0.0263485 -0.04977132 0.03628148 0.032311104 0.017756017 0.077913545 -0.20018907 0.191922 0.026228573 0.8178847 0.107808515 0.007029747 -0.09051778 -0.09658492 -0.10226674 0.4178415 0.13573031 0.012483303 0.077942826 -0.062144723 -0.0960994 0.040507007 -0.08258479 -0.034842335 -0.060287613 -0.33387378 0.007050989 0.003604976 -0.029248767 -0.5217506 -0.0304997 -0.07567504 0.18747349 0.033229716 0.5275127 0.24863899 0.030505931 0.08134587 0.113509096 0.07204821 0.021100778 -0.055342358 -0.018406391
-0.3898733 -0.053545125 0.040383577 0.07817693 -0.055274162 -0.22350442 -0.096094154 0.051955063 -0.039487977 -0.52669245 -0.0011446888 0.051600426 0.02447402 -0.016427577 -0.29434046 0.32657465 -0.0115725575 0.5413278 -0.08512291 0.091913626 -0.7870729 0.10066563 0.19089986 -0.052052423 -0.042378534 0.0058730724 0.0684358 0.008951085 -0.8789911 -0.28489667 0.0077860025 0.007222208 -0.023103174 -0.11036776 -0.020858606 -0.00058308156 -1.2409847 0.03030233 0.09749144 -0.075402245 -5.5632707e-05 -0.3143315 0.014680867 -0.00028202773 -0.016809708 -0.04223075 -0.141309 0.03541455 -1.2572358 0.018961199 0.005267359 -0.0047561834 -0.12171045 -1.1604846 0.07753497 0.0144127635 -0.06039366 -0.0039903834 -0.009088223 0.048481032 -0.27169305 0.13046075 -0.045661606 0.1385202 0.43192428 -0.17277993 0.051018056 -0.18596986 -1.0809644 -0.0065425537 -0.024589485 -0.0020349964 0.025295854 0.0017182684 -0.6634608 0.25394273 0.045481607 -0.19733453 0.032856677 -0.04405199 -0.11580431 0.014394161 0.15425496 -0.031010386 0.54159606 0.017113822 0.20474245 -0.024991719 0.03702282 -0.526807 -0.21812713 -0.026418041 0.072941296 0.037867274 0.0049519776 -0.27669907 0.06370669 0.02127393 0.05056982 -0.039268255 -0.02072299 0.06376245 0.061600216 -0.6359668 -0.61044466 0.16213192 0.078796096 -0.63470984 -1.5017653 0.0008690937 -0.0009751659 -0.29532206 0.1483574 -0.018762227 -0.0039533027 -0.047846954 -0.3711607 0.0060860976 -0.14003716 0.010708822 0.3002316 0.3072221 0.24727896 0.17174655 -0.06307268 0.21273606 -0.49284726 -0.06852466 0.016584015 0.13913944 -0.027748452 0.097164564 0.0021646097 -0.10819009 -0.05739981 0.018419042 -0.09074028 0.028479852 -0.18101223 -0.07153466 0.007505558 -0.11629723 -0.0006520029 -0.102626555 0.21040204 -0.019165143 -0.10119372 -1.2053821 -0.0016144387 -0.8580902 -0.019905396 0.05775773 -0.01545255 -0.31101933 0.12301776 -0.020849511 -0.050541386 -0.10048048 -0.08478846 0.07354869 0.009790458 0.040294517 0.018910406 0.13099746 0.07024622 0.03408896 -0.55018675 -0.010927708 -0.13585418 -0.03706338 -0.2329877 -0.038121775 -0.22407825 0.019495556 -0.06034337 -0.23385811 -0.5678182 -1.0763153 -0.013993278 0.001982789 0.19431704 -0.08677556 -0.1157746 -0.016343929 -1.229418 -0.008341162 -0.982796 0.025812246 0.04130729 0.27729282 -0.048450187 -0.117022276 0.063470006 -0.053177003 -0.07898261 0.0184301 0.0013735334 0.047859624 0.004843538 -0.6352401 -0.05181008 -0.009991016 0.035145998 0.08782471 0.15684155 -0.67303944 -0.1448651 -0.09536748 0.15962145 -0.09487897 -1.2999954 -0.0020864864 0.03910791 0.3639101 0.045855246 -0.014394859 0.10135399 -0.117050484 -0.07127181 -0.06167847 0.014907208 -0.029800707 -0.29910836 -0.17487685 0.022255512 -0.84405285 0.17062691 -0.06343493 -0.41795895 -0.8461605 0.003836293 0.07445661 -0.026299153 -0.00619097 -0.015484766 -0.028538156 0.04789767 -0.03805311 -0.051732052 0.02198588 0.004828503 0.064167045 0.06579084 0.022147834 -0.019026367 0.17422023 0.0050026216 -0.6592028 -0.014309317 -0.04704193 -1.0208315 -0.095327504 0.004460385 -1.1841605 -0.0031558436 -0.09256944
0.09390343 -0.28501165 0.0056549325 0.026744958 -0.19032645 -0.14625314 -0.106928006 -0.044188716 -0.015246813 -1.0500429 -0.09229136 -0.04720084 -0.02898417 0.03925882 -0.3748066 -0.63976115 -0.0064542904 -0.9772784 0.043592066 0.060075674 -0.8073716 -0.7548269 0.28738928 -0.019396508 0.0025502841 -0.039979894 -0.07595247 0.02208938 0.0020829483 -0.011782041 -0.06971275 0.002801176 -0.23537557 0.06450073 -0.124441504 0.10234287 -1.140829 0.10084434 -0.15496485 0.057176817 -0.027172364 -0.41103816 -0.44692716 0.030289384 0.048574604 -0.02329009 0.16191769 0.015687391 -0.759078 0.014184431 -0.004934458 -0.046204604 -0.3608374 -0.25185397 -0.18477648 0.06800155 -0.9817049 0.015070919 -0.008868931 0.07657899 0.0031553477 0.14336653 0.008957228 0.12714726 0.54680175 -0.8756852 0.022188256 -0.14693466 0.04423129 -0.4627257 0.052852415 -0.0002414455 0.018091634 0.030135201 -0.29163325 0.17338578 -0.6563599 -0.042496283 0.48034725 -0.005795288 0.12202836 0.01223261 -0.018149517 -0.030624688 -1.2656037 -0.058326326 -0.03839533 -0.023811746 -0.021172171 -0.5473285 0.07891858 0.014557419 -0.2016263 -0.051296473 -0.051333427 -0.29872507 0.040419843 0.008129752 -0.04902403 -0.021020312 0.077777945 0.18381451 -0.0657495 -0.041761473 -0.8294094 -0.18753006 0.05260574 -0.3883435 -0.054479457 0.11582762 0.085618675 -0.2074821 -0.008932656 0.015086711 0.043486893 -0.079990074 0.052648023 0.018367257 -0.026729044 0.039691232 0.16784707 -0.8729998 -0.91744405 0.006303519 -0.027748147 0.044927202 -0.68789864 0.07728711 -0.03953889 -0.025334153 -0.011087012 0.0086028725 -0.0015714613 -0.058601495 0.02353154 -0.059991322 -0.0034714292 -0.019970637 -0.27241087 0.14798355 -0.05460352 -0.3733322 0.044327963 0.08811674 0.23637909 -0.13452463 -0.06217783 -0.47473902 0.050279792 0.026626017 -0.024534859 0.06869212 -0.025388397 -0.16884176 0.033753652 -0.0035767467 0.044742744 0.1724846 0.04094505 0.06976219 -0.017597565 -0.027903236 0.0089323195 0.20598637 0.0902925 0.0049555134 0.07887138 -0.07805033 0.07826282 0.021305699 0.015006044 0.054757703 -0.30135557 0.23470862 0.016712394 -0.056935955 -0.0047185495 0.016836898 0.0062754406 -0.00023516607 -0.05934071 -1.0450706 -0.28690073 -0.016746763 -0.54575 -0.009883018 -0.3152857 -0.04944113 -0.049554 -0.13491364 -0.12838466 0.25587392 -0.03345803 -0.049791083 0.15549758 0.011246874 -0.05067275 -0.046569183 -0.021450033 -0.9621319 -0.45917687 0.061367933 0.00941847 -0.008707444 -0.25754863 0.018949203 -0.12746544 0.0448505 0.23942508 -0.06481054 0.17778525 -0.13689004 0.0601151 -0.08425893 0.06771996 -0.0075854613 -0.039505355 -0.03294106 -0.13605508 -0.05352721 0.011438433 -0.009019267 -0.69687873 0.049472664 0.0006779771 -1.1791673 -0.11131306 0.43290856 -0.34381282 0.076419905 -0.062060177 0.0020741601 -0.012043461 -0.013839666 -0.025727754 -0.04435191 -0.010672365 -0.015758472 -0.58057904 -0.013225856 -0.047161892 -0.016287705 0.2176377 0.018999672 0.045269713 0.0077750967 0.012775655 -0.21487516 0.047590356 0.04015529 -0.76867145 0.03681003 -0.007748885 -0.35309154 -0.015963042 0.003363468
-0.58316845 0.058221012 -0.016313804 0.02329709 -0.042350717 -0.12771066 0.011887051 0.084823996 0.055298723 -0.18164724 0.1017345 -0.006928889 -0.014447167 -0.049108773 -0.3273006 -0.39074552 0.03869196 0.1747951 -0.24022307 -0.07369166 -0.6125381 0.13982713 0.04142198 0.029337902 -0.023190893 -0.04351592 0.029209666 0.017869093 -0.8157802 -0.22895582 0.050183374 0.006894164 0.0040055793 0.29547897 -0.073306434 0.0044661853 -0.07055748 0.061626688 -0.024406392 0.03957069 -0.06680751 -0.3529758 -0.04935913 -0.07316077 0.17825282 -0.06245866 0.10557204 -0.003291001 -0.0551371 0.15469699 -0.048426196 -0.014272695 -0.23632883 0.0031123557 0.10516988 0.05161709 -0.39174008 -0.0128786815 0.03565927 0.051830556 0.16495672 0.050340924 0.16035159 -0.024932686 -0.28174308 -0.12334906 -0.007814015 -0.14787324 -0.9101528 0.09548518 -0.020678869 -0.05040694 -0.009880539 -0.107833035 -0.47758147 0.12623972 0.10999294 0.40126887 -0.007465042 -0.07379349 -0.011132259 0.011379866 0.08323502 0.0249986 0.17704466 0.08990376 0.06509679 -0.14674856 -0.0009282826 -0.45681852 0.006181397 -0.07881612 0.073706314 0.04259827 0.023087775 -0.17671534 -0.3104116 0.01594012 -0.001020953 0.03688577 0.024034187 0.14866118 0.010397542 -0.97477067 -0.11174 0.11471059 -0.1731577 -0.41580522 -1.3785598 0.0322353 0.027502185 -0.21054472 0.049423967 0.008771422 0.041824047 -0.09692821 -0.7457939 0.0068544834 -0.14878504 0.039936755 0.103067234 -0.5306705 -0.34317333 0.2067009 0.12969923 0.09351171 -0.27125856 0.02099884 0.0016657457 0.05041704 0.03645191 0.008068852 0.016731545 -0.23032019 0.17074119 -0.0034268708 0.020062612 0.014597605 -0.20229946 -0.02290738 0.052923616 -0.0141087575 0.018033335 -0.27816767 0.120495185 -0.08667324 -0.039743725 -0.11102741 0.1287951 -0.8468945 -0.031507246 0.012765026 0.011365583 -0.03489736 0.1088362 0.017989928 -0.016706929 -0.35202432 -0.012438897 0.12659973 0.010297992 0.030660853 -0.029901396 0.062370874 0.017219005 0.015712418 -0.5157278 0.074776314 -0.067013815 -0.0639503 -0.11452609 -0.11850636 -0.3586589 0.1342485 -0.09423373 -0.16704658 -0.39208162 -0.42216697 -0.10618127 -0.0012527615 0.18503976 -0.16611119 -0.09213322 0.0062938486 -1.0861425 -0.02386254 -0.100236624 -0.026242943 -0.09114481 0.19307713 -0.0973077 0.07021191 0.03303442 -0.036371138 0.015199923 -0.0057532676 0.030750621 0.18107246 -0.04246214 -0.7912581 -0.43575445 -0.07886679 0.013637896 0.08740366 0.081606634 -0.76687276 -0.009325999 -0.045823406 0.06485164 0.021687172 -1.2871238 -0.19996443 -0.04524795 0.13608459 -0.10171462 -0.011511146 0.087716125 -0.084448494 0.081660755 -0.01897114 0.033163402 -0.03441677 -0.5291495 0.048902933 0.001168494 -0.00020555822 -0.10516607 0.025313549 -0.40948215 -0.30521172 0.006907336 0.07577017 0.04073744 -0.050731782 0.009088848 0.22619087 0.18399335 -0.2118692 -0.06549126 0.0021391117 -0.051930122 -0.021853993 -0.7021365 0.0052751517 -0.03587672 -0.06113257 -0.19748844 0.3778555 0.14660658 -0.027198607 -0.121966645 -0.13158602 0.0010305432 -0.21777715 0.0043565 0.060607966
0.051341917 -0.08840293 -0.04734098 -0.11099157 0.17543311 -0.061540037 -0.061468314 -1.3584815 -0.12222579 -0.10046476 -0.040892646 0.062206928 -0.0066693183 0.117222756 -0.2643726 -0.1922576 -0.06677416 -0.13606822 -0.17479795 -0.111743204 -0.36947656 -0.85934544 0.021089593 0.20929709 -0.077299505 0.021072727 0.005623864 0.010147624 -0.14047427 0.23438539 -0.70841956 -0.0104203075 -0.05689145 0.44945794 -0.015027474 0.05047004 -0.19609202 0.3071366 0.072650135 0.10093174 -0.020453013 -0.07335182 -0.06988951 0.07968933 -0.330762 0.1977655 0.02203952 0.037063133 -0.45418602 0.09402283 0.10541053 -0.0352763 0.035684504 -0.7059397 -1.4445995 -0.08778583 -0.770407 0.010804364 0.11050357 0.25647342 -0.7234824 0.01777453 0.104532234 -0.016686043 0.30836588 -0.9399298 0.065164 -0.12672517 0.638619 -0.16818127 -0.021679815 0.03470639 0.015096577 -0.02103174 0.055757377 -0.12228312 -0.51445967 -0.78367454 0.4599993 0.03437326 0.117330596 -0.04996667 0.035926305 -0.12873748 -0.2029521 -0.0931461 -0.034263987 0.25206223 0.18608329 -0.28659746 0.22681944 0.29272133 -0.049475122 -0.014667718 0.0054493328 -0.072442755 0.35484183 0.00064574793 0.058829416 -0.009243216 -0.045913726 0.20431362 0.025119362 -0.21723646 -0.015898023 -0.81317055 0.032480028 -0.08183698 0.68100196 -0.010783817 0.04368329 -0.2522074 -0.27528965 -0.057525482 0.021598287 0.04765965 0.09973351 -0.05253174 -0.652802 -0.00585095 0.07947328 0.050762422 0.11700807 0.17061771 -1.0484705 0.0057487916 -0.29926142 -0.022334708 -0.00035359192 -0.24970241 0.0037709407 -0.31209686 -0.046744376 -0.054722734 -0.79839104 -0.10168357 -0.05789437 -0.0022135626 0.018345354 0.05937514 -0.17821547 -0.7575628 0.0018727527 0.13388225 -0.15656392 -0.10881396 0.0026737 0.07290244 -0.1410427 -0.11104968 0.006651474 -0.24677137 -0.06662135 0.023630638 0.31996766 -0.11792092 0.0042105345 0.6533958 -0.010085587 -0.35602468 -0.031309307 -0.041641288 -0.050368145 -0.060206313 0.046622004 -0.075649135 0.16408227 0.082519636 0.07473594 -0.0017889517 -0.5848174 -0.11116928 -0.16586368 -0.094833404 0.03323038 -0.0019340934 0.14736351 0.45655903 0.20652314 -0.008734083 0.062295653 -0.83594453 -0.03372842 0.061291564 0.10943933 0.05442993 0.045031484 -0.09517774 -0.12665091 0.09683118 -0.009164619 0.39604378 -0.0030907667 -0.054998737 -0.6576135 -0.07783395 0.020997541 0.08432262 0.21741642 0.42213562 -0.16366957 -0.06278202 0.059331536 0.05938338 0.05163187 -0.27283606 0.057465166 0.20448788 -0.012869372 -0.61515486 0.813559 -0.09645094 0.07331706 -0.00349121 -0.07566975 -0.0018494917 -0.63057846 -0.9053599 -0.033721842 0.20297225 -0.18526292 -0.011944387 -0.41874608 -0.059966754 -0.099144146 -0.07541983 -0.013106771 0.45859668 -0.23752245 0.5888442 -0.14488469 -0.13131104 0.055534445 -0.2961157 -0.09090246 -0.79726076 -1.0672638 -0.048948552 -0.8791012 -0.033460457 -1.2438234 -0.13167787 0.25605097 0.056720268 -0.019338252 -0.117541 0.27885517 0.76310414 -0.036860522 0.00232574 -0.031330083 -0.03531228 -0.008744465 0.32132134 -0.009672905 -0.21405213
-0.045818802 -0.046830185 0.07199738 0.12388869 -0.039808534 -0.04306362 0.047254987 -0.15919468 0.10728673 0.020745609 -0.007000477 0.0002835985 -0.01636692 0.2168835 -0.07990744 -0.04541871 0.05918992 0.048811287 0.0076717464 0.09145501 -0.10176837 -0.029023455 -0.03055155 -0.111707665 -0.023635725 -0.06353391 0.021516593 0.09351966 -0.13139993 -0.071547404 -0.2215855 0.0047090105 0.020316062 -0.11611155 -0.058385924 0.091052964 0.082808435 0.121632114 0.08337046 0.16201182 0.12569895 -0.12521571 -0.0693822 -0.03036802 -0.21575485 -0.03250345 -0.044906672 -0.003500831 -0.17424387 0.029133748 0.053331528 0.009738617 -0.13367166 -0.07344103 -0.2812836 -0.04379831 -0.22690941 -0.039584704 -0.061336234 -0.355347 -0.33877906 -0.06428558 0.048275124 -0.0086190235 -0.023913141 -0.19879586 0.07125162 -0.1574869 0.18723072 -0.16202143 -0.09325926 0.014885794 0.011303478 -0.06561395 -0.0074142995 0.14821863 -0.20252186 0.004493454 -0.05692076 -0.00892096 -0.18456657 0.009626066 -0.017057434 0.13572548 0.013192859 -0.07976818 -0.012152244 -0.069853194 0.15500316 -0.025282364 -0.030733943 -0.046844687 -0.30528203 0.10129562 0.0028885037 -0.044735692 0.12014479 -0.0011311343 0.08861914 0.043933436 0.044674195 0.24298328 0.02261196 -0.123561196 -0.078720145 0.032657545 0.045329027 -0.15677871 0.07339626 0.05724787 -0.010170085 -0.086645655 -0.11254988 -0.027174914 0.12749213 0.048749566 -0.16061258 -0.014089537 -0.04012908 0.07698608 0.03221799 -0.043427635 -0.08858761 -0.038987376 -0.12967475 0.031773694 -0.1548394 -0.006158747 -0.008278678 -0.19266912 -0.022990616 -0.023361644 -0.011188715 0.064950176 -0.34136027 0.020261748 0.011532336 0.04938596 0.0012303501 0.093473725 0.07681775 -0.18724976 0.028815081 0.064964905 0.06133287 -0.09149958 -0.04624349 -0.041019656 -0.32860717 -0.24174821 0.003724659 -0.024499359 0.053610273 0.053629827 0.10430776 -0.03025786 -0.16185278 0.12802328 0.02895454 -0.21345648 0.065904796 0.06819501 0.028295554 0.053776044 0.08780934 0.07098179 0.011698789 0.09257888 -0.030815585 0.059386216 -0.43011612 -0.08246606 -0.009586275 -0.15013307 -0.06320461 -0.066522814 -0.03691199 0.2980775 -0.06642275 -0.006289967 0.12702824 -0.06029763 -0.08242034 0.017952602 0.040879652 -0.0194914 0.039275937 0.08885173 0.012770168 0.13646105 -0.06446167 -0.123745896 -0.043084323 -0.012413295 -0.5382871 0.02986096 -0.024799177 -0.05112558 -0.060449768 0.05416265 -0.16543867 -0.084780544 0.007519664 -0.09314494 -0.19380195 -0.3101167 0.038766474 0.031612694 -0.07998378 -0.02913917 0.31570125 -0.013531357 -0.06936534 0.099692814 -0.0035844282 0.0031765273 -0.27337167 0.027075289 0.014750306 -0.008356653 0.07444838 -0.09256558 -0.2938553 0.0037952191 -0.0040624654 -0.066176005 -0.07552253 -0.005965938 -0.22339508 0.14144708 -0.01351594 0.17553799 -0.09487914 -0.32029855 0.015910484 -0.30678776 -0.19452988 0.041029204 -0.3388072 0.08178239 -0.11871414 -0.080068655 -0.14777593 -0.063794136 -0.071960434 0.05790201 0.062942006 0.109390125 -0.025231453 0.010119418 0.04649333 -0.060718194 -0.00926518 0.04150484 0.018347615 0.033091146
-0.057524968 0.103103474 0.025868068 0.0767793 -0.043158393 0.18088607 0.029079992 -0.041210968 0.10472656 0.33091766 -0.093362056 -0.11540194 -0.004658981 0.07598094 0.121395186 0.09342849 -0.04459592 -0.08028462 0.09406217 0.044115726 0.05975062 -0.07811812 -0.22099096 0.060895313 -0.07293582 -0.11742808 -0.034573834 0.021538874 -0.1792702 -0.09724295 -0.04102012 -0.07041774 0.1724627 -0.13857886 -0.16690873 0.16326767 0.17966619 0.124112695 -0.05005705 0.017000869 -0.15110013 -0.01835278 0.038760383 -0.06222678 -0.03934417 0.03993671 -0.074925065 0.07552446 -0.21397758 -0.18716173 -0.022027355 -0.10391339 0.028854331 -0.18132311 -0.39310816 -0.0058972 0.2628059 -0.017824478 -0.021700995 -0.13821231 -0.031286243 0.028636442 -0.009352851 0.09343265 0.20155892 -0.28983095 -0.034434274 0.014338431 -0.22609942 -0.010837921 -0.009649791 -0.11248163 -0.006971064 0.00063450885 -0.013207993 -0.22538605 0.12740058 -0.017068395 -0.19744408 -0.03300104 0.52873987 -0.019056434 0.011907277 -0.048472878 0.02879888 -0.14366637 0.0013152723 0.04212604 -0.09463331 0.019191535 0.0071831523 0.011689487 -0.32669365 -0.06855688 0.0969959 -0.02906592 -0.054631367 0.037445165 -0.055313732 0.018397186 -0.037444916 -0.01969664 0.020362874 0.028759843 0.026944274 -0.33009127 -0.0882507 0.17526516 -0.41110003 -0.023096051 0.05641486 -0.010712736 0.048097014 0.12173601 -0.18045956 -0.0030252088 0.011299204 0.006060263 0.0062320507 0.08110973 0.28597337 0.7518031 0.39970532 -0.017595518 -0.11299829 -0.014909939 -0.02396253 -0.03450228 -0.0302056 -0.06520708 -0.01516729 0.008054397 -0.11265343 0.10557738 -0.02738128 -0.03552698 0.011635528 -0.05629695 0.13084704 0.121561594 0.07318747 -0.08017041 -0.057903018 0.14034258 -0.07303185 -0.05850716 -0.0031057727 0.086930186 -0.074003 0.022858044 -0.11275789 0.06330079 -0.06847597 0.04092124 0.030444972 -0.0036577191 0.11539547 0.12103814 -0.07911668 -0.086154655 -0.06345568 -0.07558945 -0.07071978 0.0010917007 0.10033918 -0.04211158 0.090345405 0.09325739 0.0408668 -0.04401307 -0.022318937 0.04787121 0.13478126 0.28390482 0.021056186 0.22146237 -0.0062939757 0.21303353 0.034569774 -0.018621102 -0.015641095 -0.3225473 0.09142324 -0.08497308 0.028104842 0.05982727 0.23069134 0.030799104 -0.007294931 -0.03320014 -0.09865463 -0.2005694 0.060200788 -0.04593304 -0.29861116 0.0377361 0.009423237 -0.16716515 -0.0072017843 0.19552858 -0.09765633 -0.19485241 -0.09219936 -0.20487231 -0.26505905 0.10960182 0.0056250133 -0.033055097 -0.0695488 -0.05553434 0.041600313 0.06188641 -0.026206858 0.02967747 -0.12841503 -0.098462604 -0.011953855 0.010277399 0.044961657 0.07518379 0.011032156 -0.04382104 0.11013673 0.15107107 0.055735264 -0.06420747 0.14949355 -0.06735122 0.1717558 0.035156563 0.06863356 -0.10066993 0.036604185 -0.112838246 -0.081405096 -0.053052932 -0.12089463 -0.020692613 -0.056840878 -0.04258901 -0.0727744 0.012222782 0.2879735 -0.061106615 -0.025785048 0.020518096 -0.09709387 0.23935576 -0.05608592 0.022789767 0.048914343 0.013133374 -0.001522915 -0.2641437 -0.16938083 0.042333882
-0.10583219 -0.25274286 0.029936736 -0.02736971 -0.05071183 -0.052895628 -0.06280068 0.014904871 -0.07004134 -0.16634972 0.02851523 -0.02280236 -0.0028056202 0.091261074 -0.1201624 -0.12721218 0.04610471 -0.030716704 -0.06806843 0.011292803 -0.47874853 -0.23916332 -0.08206712 -0.025466073 0.18110451 -0.015318482 0.006210344 -0.006176517 -0.16676942 0.054103754 0.002209687 0.07105812 0.09760004 -0.0027370842 -0.012126162 -0.025749596 -0.10490261 0.07749886 0.0449856 0.119556166 -0.08344193 -0.29747805 -0.0013879585 -0.08725384 -0.08930388 0.017437797 -0.1018638 -0.050643295 -0.38473824 0.09017673 -0.048608325 0.021029826 -0.09996213 -0.2042973 0.0997901 -0.07461617 -0.46147946 0.024685409 0.026250554 -0.013790804 0.08041309 -0.1569313 -0.073507 0.020200187 -0.18801555 -0.061185677 -0.104208745 -0.035451274 0.10040509 -0.20691822 -0.003951784 -0.046922337 -0.11493891 0.018549921 -0.14187872 0.07891953 -0.029205505 0.058986954 0.09398708 0.07620442 -0.16047798 -0.09899427 0.025652505 0.017292086 0.09420227 0.19845213 -0.08299077 -0.017463857 0.033731464 -0.09781587 -0.03136931 -0.020496761 -0.04368727 -0.06337838 -0.035551045 -0.015117184 0.03826569 0.036423832 -0.04137672 0.061461236 -0.079239264 -0.015413425 0.10684455 0.007989696 -0.17443438 -0.01363008 0.03246366 -0.19614078 -0.08410788 -0.032005366 -0.0006411351 -0.22065721 -0.078821875 0.056785244 -0.074687704 -0.08007266 -0.06096456 -0.04538222 0.09012225 -0.04573565 -0.17717278 -0.16428348 -0.14486526 0.009515718 -0.029462075 -0.07044219 -0.08674532 0.015575516 -0.06731026 0.06949329 0.11095184 -0.078811884 0.012399297 -0.033842485 -0.0070172534 0.03246472 0.07104861 0.0025469852 -0.1522963 0.031803917 0.04207517 0.07458591 -0.031236146 0.07789086 0.028333444 -0.16540626 -0.11373091 -0.16427805 -0.033181068 -0.15561326 0.06726575 0.043595843 0.09190127 -0.15170436 -0.062000602 0.12064514 -0.11403567 0.18908681 -0.042974934 0.03893981 0.045756776 0.0052905288 0.00019268043 -0.09099585 0.0060233967 -0.029812913 0.003641565 0.20672965 0.024132263 -0.00015561249 0.021260994 -0.07816714 -0.025646003 -0.08682205 -0.045536324 -0.03933011 0.01932231 -0.0020629968 0.046106435 -0.029313164 -0.023967091 0.013472798 -0.06774007 0.06157574 -0.673076 0.010142194 -0.13427877 -0.082327805 0.029215295 -0.09599624 -0.042951778 0.021847881 -0.042160116 -0.06017211 0.04806913 -0.071437515 -0.11806685 0.13777027 -0.011748579 -0.45991713 -0.052759275 0.12976946 -0.09418208 0.03274369 -0.0091360975 0.0077533 0.14294375 0.041723575 -0.1467143 0.036752734 -0.037731737 -0.0982347 0.0026431696 -0.08529791 -0.04388155 -0.024312265 -0.06843493 0.041458156 -0.2784657 0.02090027 0.06333673 0.012907198 -0.08982591 -0.27853298 -0.07696776 -0.091800556 0.015436911 0.057594158 -0.23234697 0.011353307 0.17079283 0.13183382 -0.0075556026 0.014404938 -0.009523631 -0.04887453 0.049344003 0.044388965 -0.025931675 0.049487434 -0.0113917105 0.065177396 0.04481029 0.01094979 -0.03161424 0.08986294 0.050989296 -0.16464347 0.045464627 -0.05901116 0.009765613 -0.01737331 0.039319262 -0.112772636 0.08992379 0.09177571
-0.07954744 0.00054252835 0.0039443895 0.024613705 -0.09729411 0.031481907 -0.08477217 -0.25121084 0.03265389 -0.2176644 0.016779961 0.004885003 0.07316181 0.14871395 -0.087771505 -0.042128224 0.046541598 0.03642998 -0.10449599 -0.03503077 -0.106438994 0.066576175 0.008170936 -0.08675829 0.054406945 0.027446393 0.012766132 0.030931065 0.033391144 -0.02164278 -0.28003576 0.018850042 -0.019845461 -0.15852915 -0.026867842 0.008537948 0.06974169 0.17449239 0.014528842 0.059869815 0.03815516 -0.13602255 -0.07942999 0.0887419 -0.126807 -0.0433249 0.1588061 0.06768786 -0.15245964 -0.044795047 -0.033407267 0.0010615892 -0.029748721 -0.006160202 -0.28669986 -0.06915122 0.055771798 -0.05356336 -0.050690692 -0.29169247 -0.4564752 -0.010697832 0.039403778 0.0047899797 0.103380755 -0.2893753 -0.035498537 -0.020454105 0.213054 0.04187312 0.039065275 0.028820364 -0.028150652 -0.11093252 -0.18081681 -0.013630135 -0.018234793 0.06280824 -0.11583787 0.022562865 0.005271048 0.008896501 0.094488405 0.06710339 -0.07241704 0.0838602 0.03378302 -0.076356955 0.17057636 -0.017881699 -0.09239273 -0.065131016 -0.21022041 -0.06268261 0.042701337 0.012101751 0.08290812 0.021057125 0.07236156 -0.017721064 0.016349416 0.1630528 0.04082322 -0.27069658 -0.047811743 -0.04663171 0.1755766 -0.11495506 0.31330517 0.051089257 0.036268968 -0.14251375 -0.17672233 0.0064798878 -0.032646902 -0.09182925 -0.20057003 0.066849835 0.031564992 0.011936265 -0.0032571089 -0.19983259 -0.1439042 -0.031390004 -0.18199638 0.12829286 -0.14045048 -0.07766459 0.024336647 -0.09309716 0.05302435 -0.14385743 -0.004239897 -0.02816328 -0.23717603 0.024455627 -0.08703113 -0.024388978 -0.07170859 0.08353643 0.024907136 -0.2020626 0.1053616 0.17474122 -0.017075468 -0.035169996 0.09032512 0.02383402 -0.4568387 -0.4269865 -0.043928325 -0.2337639 -0.060974944 0.05444737 -0.012748002 -0.027678274 -0.016478298 0.088132694 -0.0013495843 -0.15602747 0.04407231 0.035972193 0.086940534 -0.022299835 0.0038575747 -0.013256403 -0.10064605 0.21294226 -0.08027224 0.027145604 -0.3003723 -0.021278461 -0.084911525 -0.07690274 0.22060111 0.009317133 0.010047692 0.3393159 -0.070031196 0.03519765 0.0706445 -0.24537082 -0.053090032 -0.064599924 -0.07813058 0.07751408 0.026535392 -0.080051914 0.103130035 0.07192972 -0.09406043 -0.20909274 -0.016576942 -0.008650289 -0.24453299 -0.020534962 0.0070724827 0.00050255086 -0.06896837 0.082693525 -0.12883659 0.06261809 -0.042299125 0.07384634 -0.3171516 -0.44333932 0.004540108 0.09656325 0.05657202 -0.39319536 0.14757858 -0.01835767 0.008133801 0.041819267 0.028323695 -0.022207787 -0.26178885 0.074569605 0.087770864 -0.15061331 0.04395537 0.08529645 -0.16125607 0.14683236 0.018055808 -0.019318756 -0.023892209 -0.11905095 -0.14958826 -0.029205708 0.11438935 -0.003922885 0.05316316 -0.19345601 0.08116792 -0.30457857 -0.2527194 0.007680554 -0.16548915 -0.011821775 -0.22998464 0.018290766 -0.24126819 0.03428608 0.014819029 -0.042454924 0.13501762 0.14892133 0.13741429 0.06669951 -0.08048291 -0.011265484 0.009929256 -0.15772149 -0.018722976 0.08925274
-0.2774148 -0.10771114 0.060764827 0.022223795 -0.16511618 -0.03918128 0.062697545 -0.105723314 0.14680342 -0.40916887 0.09065114 -0.039180126 0.026192004 0.06155158 0.10617388 -0.018381674 0.12022532 -0.07800252 0.030148165 0.028685661 -0.09175123 0.08767096 -0.0071690427 -0.37527436 0.019391077 0.117739275 -0.038762305 -0.031212628 0.06947093 0.05688108 -0.06984746 0.0423362 -0.068768784 0.014914454 0.03365479 0.1280718 0.093476415 0.04139025 -0.024436219 0.12064202 0.030796913 0.11061852 -0.017079579 0.09886084 -0.09761964 -0.3423842 -0.048910867 0.00684312 -0.11907342 0.031754017 0.022755949 0.03683063 -0.012557514 0.13673006 -0.1376406 -0.120513946 0.16982874 -0.0013062835 0.07151546 0.03546197 -0.16527963 0.03254897 -0.21083029 0.14166598 0.045815803 -0.28631344 0.03637532 0.093742035 0.083054066 0.13310382 -0.023575312 0.047104985 -0.052918214 0.038400043 -0.002580147 0.1298657 -0.08315378 -0.026545 -0.10451768 0.047284454 0.04073029 0.06799277 -0.010690697 0.012332363 0.035199404 0.22298753 0.0046664127 -0.39592186 0.10210288 -0.106665276 0.05517813 -0.58963794 -0.13746391 0.045696124 -0.17533551 -0.092750035 0.023607075 0.013056985 0.012730953 -0.013739415 0.027208634 -0.0298572 -0.01882632 -0.16736622 -0.3404998 0.013708342 0.09980106 0.09449319 0.047937665 0.12794332 0.0040639993 -0.09005952 0.021037135 0.028443957 0.054264724 -0.11682263 -0.11092128 0.042856943 -0.32116392 -0.019167133 -0.012874018 0.09000798 -0.017298007 -0.046920102 -0.015099382 0.012592403 -0.09852635 0.043825325 0.013299266 -0.109134056 0.088815965 -0.022822484 0.095718965 -0.035107706 -0.09718645 0.02722489 0.07105396 0.059619352 -0.0064938352 0.24315713 -0.04388467 -0.21598102 0.117166385 0.051252376 -0.033128485 -0.05955436 -0.05972813 0.013533789 -0.031643562 -0.13447228 -0.0109614795 0.013350652 0.117229305 0.009948344 -0.17940548 -0.01403316 0.027476655 0.109802164 -0.04914324 -0.083336726 -0.051126964 -0.0656845 0.12847346 0.006423934 0.05057944 0.05596195 0.03620238 0.07714954 0.029229661 -0.09404815 -0.1622925 0.027735364 -0.054342624 0.13118018 0.13941346 -0.026423778 -0.02247584 -0.08276007 -0.2582417 0.057689052 0.006054655 -0.04691397 -0.08323857 -0.013295113 0.038440417 -0.015098373 0.0060229385 0.0896019 0.04655076 0.056295406 0.0003639562 -0.20630959 -0.21156979 0.069438994 -0.078223795 -0.015336266 0.029710619 0.12331864 -0.34160927 0.044272184 0.026805513 0.1564562 0.03378323 -0.06910313 -0.14610557 -0.32334477 0.056283597 0.03820786 0.061706536 -0.07523284 0.18746716 -0.05548319 -0.12483373 0.11227416 0.025694836 -0.017737601 -0.068228856 -0.107520774 0.041938704 -0.32170287 0.10969426 -0.018253734 -0.07902405 0.12001789 -0.007939736 0.016886126 -0.000676892 -0.15742469 -0.17033021 0.020249343 0.007257493 0.112507805 -0.03204746 -0.03947098 0.1308974 -0.17573999 -0.102257535 0.055097915 -0.1662574 -0.020924263 -0.05547424 -0.06462505 -0.80577224 0.0336807 -0.009827134 -0.030045653 0.15322526 0.23392214 0.186981 -0.0076101297 0.0072742575 0.031019736 -0.01803439 0.07092905 0.022267248 -0.0045348653
0.11672313 0.07324561 -0.12598293 0.11107306 -0.024515385 -0.018779073 0.011426815 -0.017547235 0.023922315 -0.28355864 0.1151018 0.08252702 0.018471053 -0.034499068 0.30160514 -0.017474538 0.01559294 0.024864364 -0.014945375 0.041684344 0.29074937 -0.3285573 0.018332899 0.005011464 0.08506057 -0.01849331 0.09049167 0.08208266 0.25397843 0.112875775 0.041121967 0.027067346 -0.056938756 0.02876858 0.124632336 -0.0481002 -0.055075645 0.048015263 -0.019249804 -0.20931898 -0.077590995 -0.040122338 -0.26508015 -0.01822764 -0.06277789 -0.0041473075 0.121907644 -0.06492614 0.050196093 -0.10346603 -0.07988382 0.005847429 -0.0741887 -0.04754923 0.048698004 -0.09015007 -0.08510572 -0.13260546 -0.02798386 0.0019107469 0.028512292 -0.0002409176 0.0062829307 0.032733317 -0.19727194 0.09224061 0.0010663054 0.09126865 -0.016730487 -0.08958466 0.016506225 -0.08135253 -0.13365759 -0.043039758 0.22181664 0.044205174 -0.03292068 -0.18795288 0.0415746 -0.011126751 0.5343351 -0.0035299016 -0.0112391105 0.041445233 -0.0029791333 -0.18941888 0.02329957 0.053340238 -0.18494092 -0.034465164 -0.1756485 0.00022031237 0.07098532 -0.029214337 -0.09911993 0.110054836 0.037231896 -0.067752786 -0.023374053 -0.011027566 -0.00611531 0.079596646 0.06207791 -0.010245511 -0.010857033 -0.15060896 0.049425177 0.09545241 -0.19975176 0.061218213 0.008250127 0.07607021 -0.021469142 0.12635837 -0.03814737 -0.058881592 0.1979936 0.0029251443 0.016090503 -0.07830204 -0.002326767 0.039960023 0.017510733 -0.057118375 -0.04182321 -0.07662107 0.13395183 0.10490319 -0.103301845 0.04289416 -0.17430282 0.008749213 -0.03941852 -0.1737269 -0.016501153 0.0049709342 -0.01658793 -0.013207191 -0.10538312 0.05727175 -0.06169209 0.08609638 -0.17582412 0.34080505 0.07927925 0.048119254 -0.031965636 0.12984267 -0.07149623 0.05536633 -0.0015288828 -0.10011967 -0.15542407 -0.061561417 0.069043286 0.0037820346 -0.07696334 0.15496932 0.008475214 -0.016799532 -0.12347385 -0.0045651095 0.116878845 -0.038713783 -0.1392109 0.027035886 0.16789728 -0.030249067 0.037676815 0.100667365 0.04447588 0.083384424 0.16189086 0.07661684 0.049494203 0.19739673 -0.100690044 0.063331164 -0.09733619 -0.13244805 -0.19487062 -0.11451772 -0.100561194 -0.14767095 0.87076634 -0.094076425 0.16214687 -0.14132345 0.039381444 -0.05190943 -0.00758482 0.008698789 0.04361688 0.038313273 0.110895045 0.06035933 -0.081967115 -0.06917731 0.008687355 -0.1531185 -0.037600037 0.08614122 -0.13022964 -0.09054667 -0.09423133 0.042581704 0.013920961 0.055460915 -0.08639085 0.11919038 0.0007625031 -0.044388723 0.00054628827 -0.063651964 -0.0794611 0.07843728 0.021257991 0.07297602 -0.006786467 -0.010636161 -0.016614094 -0.202739 0.16559985 -0.06449401 -0.10254985 -0.15287793 0.0354548 0.10564679 0.38724962 0.07159396 -0.0036760916 -0.11658383 -0.119639434 0.14003246 -0.09201475 -0.03805043 0.09027369 -0.112624474 -0.013058883 0.07121987 -0.016052656 0.0014305112 -0.019005097 0.01231869 0.092913814 -0.14631012 -0.015861182 -0.73240227 -0.06260049 0.018464968 0.13002454 0.1293384 0.015222106 -0.06741623 -0.12363786 -0.120660886
-0.07157335 -0.19168477 0.041447237 -0.084696956 0.13069369 0.04667591 -0.12638985 -0.011709414 0.029271493 -0.013802375 0.0987793 -0.06825182 0.013823522 0.051383127 -0.08201636 0.11815981 0.047808032 -0.062304813 -0.023092791 -0.019502778 -0.29215696 0.034364566 -0.08913313 0.011866518 0.12820299 -0.085498124 -0.08819051 0.022531608 -0.21883872 0.07759541 0.050449938 0.038007013 0.09979587 -0.028478583 -0.0090415655 0.03798557 0.046714924 0.13366866 -0.0488525 -0.028046586 0.040692393 -0.17007498 0.044951342 0.10403631 -0.031817388 0.07393038 -0.11784906 0.07800131 -0.08787307 0.062384482 0.15286303 0.03850303 0.056915216 0.029162161 -0.07540814 0.06021166 -0.10815791 -0.025901582 0.06434214 -0.008644242 0.07360494 -0.021741768 0.061673146 -0.005294234 -0.020555114 -0.018259978 0.049165446 -0.044495035 -0.08377177 -0.014914896 -0.051770065 0.017917797 0.002983396 0.063946076 -0.10875366 0.02375504 -0.045390032 -0.15160938 0.08746025 -0.06557465 -0.22237134 -0.06805657 -0.017803773 0.034450196 0.044816706 -0.016318014 -0.19816914 0.079092726 0.114884205 -0.011075734 0.04914689 -0.019076567 0.049480133 0.04528634 0.0783887 -0.044015832 -0.049998008 -0.06024038 0.08250939 -0.000116152034 0.05627507 0.049794033 0.0005253806 -0.06622478 -0.04351715 0.090973645 -0.012385722 -0.15726867 0.01169569 0.02800517 0.0009363984 -0.15979561 -0.026620265 0.14882998 -0.09052819 0.017202562 -0.03680806 0.09385742 0.06299057 -0.10968 -0.03701201 -0.09491133 0.0047630556 -0.18184485 0.10003081 -0.010919667 -0.045886833 0.113911435 0.072786294 -0.061562035 -0.04606506 0.09044782 0.07374967 -0.015086262 0.10255428 -0.059683815 0.08610333 0.04634829 0.030378148 -0.049295258 0.035208605 -0.014315916 0.011411885 0.11862488 -0.022974817 -0.05699844 0.10141749 0.03094004 -0.07482546 0.0072590243 0.066735424 0.039417222 -0.010226141 -0.14828154 -0.044443324 -0.05234966 0.0560539 -0.07844374 -0.02653163 -0.027272334 -0.069931455 0.11443696 -0.025518844 0.0017063608 -0.00854131 0.041717887 -0.047318418 -0.05447548 -0.10094114 0.0083652 -0.07790317 -0.0712303 -0.1150863 -0.051847905 0.068747014 -0.031056551 0.054153346 -0.047732204 0.07638219 0.009745249 0.0415664 -0.034967974 -0.006282371 -0.036960617 -0.2825446 0.09448656 -0.04233737 -0.06476159 -0.0389453 0.11607815 -0.07036174 -0.003013216 -0.028919421 -0.01618128 -0.030465193 -0.08734609 -0.009208313 0.047443822 -0.11434647 -0.13318095 -0.14805056 0.014689823 -0.042654533 0.07869791 -0.11059456 0.002870981 -0.029557597 0.07886514 -0.060022287 -0.019012932 -0.06975184 0.09869028 0.10586149 -0.02432491 -0.011455309 0.049821153 -0.05620103 -0.12844813 -0.10609076 -0.068746254 0.05834781 -0.00628497 -0.10526621 0.019899584 0.010762799 0.08026143 -0.13913234 0.011220212 -0.27407235 -0.11082285 0.009218092 -0.12840343 -0.17329481 0.008335878 0.1474833 -0.055136062 0.064560756 0.045166075 0.11109963 0.0021292607 0.11439879 -0.09184943 0.19039011 0.053098023 -0.07046584 0.04933753 0.024855494 0.46552637 0.08795288 0.17147873 -0.065334976 -0.021284474 0.046542145 0.0996149 -0.015542314 0.008520745
-0.23826616 -0.1559585 0.031218743 -0.07033763 0.2114796 0.02270228 -0.10285633 -1.0585002 0.0028681697 -0.10878828 0.06858394 0.08283973 0.0050928867 0.21219422 -0.23797873 -0.17345604 -0.05019165 0.056618 -0.10134546 -0.10827213 -0.43654445 -0.62593174 -0.028949635 0.16994528 -0.08996659 0.027420243 0.06532194 0.044926662 -0.07688629 0.18031491 -0.4866734 -0.025574746 0.007855138 0.31233308 -0.06642873 0.015050554 -0.20191151 0.24213763 0.15390542 0.089685746 -0.05244163 -0.11272789 -0.12480256 0.05705864 -0.15251425 0.1445713 -0.08794714 0.0190511 -0.24222644 -0.06805383 0.059146862 -0.000979522 -0.085921325 -0.40325484 -1.0415375 -0.06054288 -0.8341737 0.005324782 0.069453865 -0.15062621 -0.5218618 0.041225586 -0.00052717025 -0.16708128 0.17022578 -0.6740388 -0.008343881 -0.082253374 0.40789482 -0.06066205 0.0016052071 0.065321475 0.014891002 0.008471673 -0.12705292 -0.09728829 -0.494807 -0.89618224 0.3263447 -0.048714977 -0.10577694 0.028103018 0.19410668 -0.022674855 0.10911441 0.07407207 -0.106434174 0.088094 0.19532894 -0.3483435 0.1419395 0.08302854 -0.41432106 -0.032814413 -0.011426424 -0.10559105 0.32599476 -0.023414511 0.06657471 -0.027190005 -0.0627305 0.69933414 0.08971186 -0.44538075 -0.04547685 -0.8377434 -0.0190805 -0.20322993 0.6713992 -0.045078065 -0.009217177 -0.0753192 -0.33774516 -0.007187374 -0.036260627 -0.004581157 0.12298534 -0.029544922 -1.0008898 0.006721444 0.04012134 -0.23056714 -0.12994729 0.36200777 -0.68980086 -0.04540808 -0.23929726 0.06318775 -0.009800268 -0.38993588 -0.015804373 -0.3370228 -0.005835149 -0.11644554 -0.57792765 0.07135161 0.10893008 -0.010157983 -0.08985211 0.056871664 -0.015355973 -0.52892536 -0.0065510347 0.28635484 -0.07463104 -0.09980804 0.018045926 0.13313863 -0.52375746 -0.39309633 -0.052179202 -0.23302628 0.012303063 0.003073071 0.43156236 -0.043484986 -0.03380433 0.5073461 -0.09537248 -0.26888075 0.10161352 -0.070255086 -0.027092572 0.02231108 -0.038896777 -0.043691363 -0.119346775 0.17988127 -0.14175664 0.033237755 -0.3948572 -0.091151364 -0.2690003 -0.17837994 0.0726011 -0.08769782 0.2377258 -0.09074555 0.109773874 0.002825271 0.16779417 -0.6417398 -0.10452843 0.04272871 -0.12906368 -0.00070472364 0.07382911 -0.064168945 0.027920023 -0.0089347 0.04697963 0.19484723 -0.02122674 -0.03386879 -0.65132755 0.006878355 -0.012672315 0.014122117 0.1144365 0.25822783 -0.22263724 -0.2920802 0.03151316 0.07167121 -0.2839915 -0.42711553 0.1654719 0.08036993 0.0106787225 -0.48275965 0.48121092 0.040136997 -0.0058956803 -0.09112838 -0.07193197 -0.04226805 -0.49402073 -1.0920895 -0.022801952 0.12528336 0.004633556 -0.0061892807 -0.5510357 -0.00030366017 -0.07641551 -0.10289745 -0.07458206 0.21791059 -0.261309 0.71103096 -0.024287093 -0.095939495 0.019810531 -0.31388876 -0.05805577 -0.5046352 -0.8340695 -0.001147422 -0.75296 -0.045037277 -1.10075 -0.051260233 0.2914226 0.012080665 -0.047082577 0.07232998 0.20837663 0.5247377 0.040050745 -0.042077813 0.03181155 -0.064734556 0.017254146 0.2211905 -0.03813427 -0.057905953
-0.30224794 -0.23153143 0.046355374 -0.13407658 -0.7507172 -0.0020462226 -0.20647745 -0.14559142 0.0312261 -0.5434095 0.14302757 0.095639 0.034499064 0.068368055 -0.33454618 -0.15526646 -0.052249487 0.46119758 -0.1019955 -0.11448912 -0.56689334 0.14653033 -0.23615026 -1.1508535 0.07919895 0.121309906 -0.11258895 0.075190544 -0.26717976 0.36367926 -0.083711736 -0.00481332 -0.044030406 -0.67786455 -0.0860881 -0.03311988 0.1466072 0.37904784 0.10518486 0.3503231 -0.015547477 -0.269934 -0.2567659 0.02230581 -0.5134379 -1.002227 0.323021 0.022462945 -0.6567126 0.070562415 0.14927627 0.041067526 -0.053565994 0.07008969 -0.6460706 0.0791157 0.3718604 0.038383834 0.29938993 -0.80206627 -0.56152356 -0.067991495 -0.48266336 0.13918452 0.2094223 -0.5151247 -0.08047679 -0.098123826 0.24204412 -0.08891636 0.01232158 0.012617567 0.033366274 0.061090793 -0.20577992 0.36610535 -0.36987385 0.55635995 -0.3897709 0.047697134 -0.02124216 0.04818214 0.8225052 0.029262269 0.5486491 0.16609453 -0.07699828 -1.2322171 0.35124934 -0.4173758 0.19136292 -0.6806888 -0.42409214 0.00061577634 0.18010718 -0.08511857 0.36333126 0.0074972115 0.103847325 0.025120271 0.15539683 0.7230788 0.05632049 -0.9367009 -0.5215867 0.5780342 0.21009086 -0.3486015 -0.10633624 -0.016078115 0.033391748 -0.27073514 -0.43231654 0.019616434 0.06426504 -0.06412701 -0.30436775 0.028825464 -0.8956944 -0.052641314 -0.12130402 -0.0027972718 -0.06593716 -0.41759944 -0.20738478 -0.07123557 -0.2469008 0.04257976 0.05842104 -0.42281133 0.0049702465 -0.46796286 0.08440365 -0.16474453 -0.45278594 0.3486641 0.35811397 0.034068443 -0.083667256 0.1345189 0.02378809 -0.43881738 0.1700178 0.28446552 -0.13483569 -0.12066796 -0.026815375 0.16616748 -0.7319069 -1.0657691 0.023839695 -0.4623434 0.014044621 -0.077040374 -0.7205034 0.014359208 -0.08851982 0.33807442 -0.06941124 -0.38337728 0.034134276 0.016676117 -0.06326858 -0.067900784 -0.08330539 -0.042280268 -0.095153034 0.46964705 0.2404261 0.1044557 -0.43658978 -0.1396952 -0.2690811 0.0017090804 0.12742792 -0.18471132 -0.20788038 -0.17877242 -1.1606655 0.05196793 0.37597537 -0.56018335 -0.077320606 0.074119814 -0.24207722 0.047858253 0.004872499 0.048956957 0.40942734 -0.012479584 0.013906324 -0.57064706 -0.032725718 0.021609794 -0.5392175 -0.09073786 0.17658736 0.29199418 -1.1557627 -0.52059245 -0.12825188 0.17215359 0.027125582 0.43377063 -0.70693505 -0.7776723 0.04254067 0.42093483 -0.2797928 -0.15316679 0.18722782 -0.038016405 0.06875474 -0.04128883 -0.1408786 0.024974635 -0.13083225 -0.8887043 -0.16613089 -1.2130029 0.95854545 0.012351335 -0.5362915 -0.24882032 0.11704682 0.15496306 -0.07729066 -0.411031 -0.36519578 0.3288819 -0.016624913 0.03056283 0.21164916 -0.56419015 0.018600587 -0.37939528 -0.66212296 0.12928763 -0.54246914 -0.05189998 0.077102095 -0.07131453 -1.5169452 0.06969367 0.097855926 0.44668522 0.38075376 0.6239839 0.10922766 0.06384878 0.09281749 -0.16815312 0.013415368 0.37722433 0.04470352 0.033070553
-0.15610188 -0.14790669 -0.020261873 -0.08568998 0.11559258 0.10798165 -0.18773478 0.0025630095 0.07369734 -0.02705038 0.018764582 0.04453511 0.063154735 0.045672227 -0.21577202 -0.15720999 -0.019760413 0.017504992 0.027880631 -0.004155173 -0.39863208 -0.083640605 -0.22313915 0.17711759 -0.060492888 0.05874166 0.00060986134 -0.062513545 -0.24761245 -0.013862577 0.117769636 0.012432291 -0.00264306 0.0047498485 0.030524721 0.11663281 0.09058158 0.038587403 0.21200584 -0.043628663 0.10160814 -0.11555488 -0.09343963 0.05798347 0.08155905 0.008208819 0.032344762 0.07466084 -0.10631284 -0.048534118 0.020289809 -0.019038338 -0.07689981 0.056149498 -0.20174347 0.12845549 -0.32767257 0.11454199 -0.046891768 0.026026748 -0.047104795 0.03693977 -0.19807665 0.06342847 -0.10908863 0.05145518 -0.11039963 0.08813074 0.023071093 -0.065683424 0.10331824 0.09550483 -0.04719604 -0.0045446036 -0.18506508 -0.07253295 0.05387901 0.11465465 -0.049720544 0.05770686 0.032848265 -0.06874974 -0.19100663 0.12867704 0.03867048 0.05861537 -0.06969361 0.080968544 0.08785177 -0.18539622 0.087568015 -0.01567739 -0.009658857 -0.06715764 -0.10795905 -0.05394242 -0.053476542 0.021346763 0.0921072 0.021133061 -0.0022879487 -0.27638113 -0.0024818531 -0.09913995 0.04903171 0.09446139 0.14326036 -0.2637147 0.06700926 0.031085474 0.04370312 -0.057104282 -0.10530475 0.032132234 -0.0045407424 -0.12872544 -0.27303433 -0.011512009 0.026798548 -0.021114213 0.10994141 -0.15204597 -0.18091841 -0.02373167 0.10095454 -0.039520416 0.05892658 0.061212428 0.081832334 0.015919497 0.062218305 0.038206898 0.0138940625 -0.08034697 0.14211218 0.059918173 0.06734785 -0.0027282084 -0.010830294 0.122869335 -0.071858615 0.034089036 -0.042016897 0.037214007 0.018653063 -0.0040728394 -0.03968322 -0.023059346 0.069278196 -0.07249763 0.019070035 -0.0022077656 0.07163813 -0.03401517 0.07957951 -0.04585276 -0.006309928 0.049899366 -0.015291404 -0.041917685 0.088850036 0.003189798 0.0062861615 0.014256069 0.044362713 0.011469759 -0.123433284 0.10588417 0.0003318477 0.050982907 -0.0058169505 0.055440582 -0.14199609 -0.061059598 0.117234915 -0.0697697 0.0040379832 -0.25770235 -0.08370797 -0.03724329 0.006263849 0.049172424 0.001425486 -0.040708583 -0.3036035 0.016500402 0.048481554 0.03255702 0.059772797 -0.02666305 0.08232165 -0.11362747 -0.08074826 -0.112033166 0.0450514 -0.0066989115 0.005603094 0.050414898 0.044460326 -0.08477524 -0.13908358 -0.08388085 0.051177073 0.05873024 -0.1408351 -0.07739599 0.08054841 0.067958556 -0.24811368 0.22013178 0.06875269 -0.02460814 -0.09497937 0.00640585 -0.094214015 -0.031588934 0.07132498 -0.046332467 -0.045187358 -0.083003476 -0.055276442 0.058971763 0.039333586 -0.011562778 0.048243128 0.058569185 -0.073607184 0.063268766 -0.5015076 -0.115617394 -0.016269922 -0.07985851 0.09756729 -0.034969203 -0.022140497 0.021373795 -0.1338316 0.0031581004 0.059325207 0.034363903 0.062795945 0.14029352 -0.14266719 -0.11300987 0.0010174138 -0.15640648 -0.04694882 0.6877027 0.21216765 0.14685252 0.003590003 -0.15161693 0.03461855 -0.07022911 0.010394359 -0.0066686035
