-0.014274774 -0.13647889 0.019700898 0.05465638 -0.0016462457 -0.06572872 -0.00040662815 0.02438738 -0.03828114 -0.09106148 -0.05363547 -0.0739951 -0.21910866 -0.004962797 -0.06788163 -0.41491917 -0.5679213 -0.32635713 -0.12638435 -0.088513926 8.056059e-05
0.004394846 -0.006446283 -0.30281615 0.11833518 -0.06020208 -0.044877775 -0.008683047 -0.0077217445 0.045853388 0.43270832 -0.5425566 -0.062847234 -0.04393206 0.015696095 -0.00039628352 0.0076256515 0.29100075 -0.3366195 -0.049176145 -0.037677657 0.0027552096
-0.0011194486 -0.0035849116 -0.001700834 0.035491537 -0.0026416562 -1.4308362 0.112380505 0.0029017571 0.0028393208 0.0070228977 0.005091058 0.008453526 -1.4421136 -0.24042483 0.0026276184 0.0029725733 -0.0037358317 -0.041247632 0.002580654 0.23413777 0.07572649
0.0062182117 -0.019030647 0.5324279 0.15818632 0.019187821 -0.10796695 0.004376713 -0.013582406 0.008069706 -0.5082865 -0.28157732 -0.087053806 -0.09750612 -0.011427963 -0.01474958 -0.004659832 0.6919029 -0.49796858 -0.075058796 -0.110688925 0.003734768
0.34809396 -0.10388702 -0.010785077 0.32601106 -0.007397175 -0.08276222 0.003653248 -0.9890207 0.13791057 -0.22664054 -0.066352524 0.03744838 -0.056888822 -0.0039005603 0.36838752 0.38703534 -0.24114443 0.2665879 0.00102069 -0.10332765 -0.0014281782
-0.0009727992 -0.009414393 -0.0015934033 0.29538402 -0.0011732905 0.000887628 -0.25756693 0.0020735243 0.010492992 0.004876237 -0.11473018 0.008638194 -0.016977182 1.1400888 0.00093736965 0.017125411 0.0013654223 -0.31844112 -0.008216021 0.043738164 0.5364932
-9.030212e-06 -0.0031716225 0.00022066718 0.2262193 0.004685457 -1.4379107 -0.45936668 0.0042309607 0.0008636478 0.0026333171 -0.049981274 0.0022083323 -1.5053635 0.11143022 0.002303373 -0.0008123391 0.0031797392 -0.23872893 -0.025116652 0.24824874 0.77260894
-0.0014339358 0.059266202 0.019203791 -0.022646789 0.030817842 0.017300796 0.015891012 0.076911956 -0.44543722 0.5329256 -0.0127652725 -0.32234547 -0.21633722 -0.03328789 -0.017473621 -0.3031193 0.17310609 0.067726664 0.04142432 -0.28084195 0.0035272252
-0.00087158114 0.001556126 -0.050572634 -0.08951214 -0.57012486 -0.104068406 -0.04841655 0.011909924 0.013420097 0.11071488 0.6872633 0.7571364 -0.34014514 0.08014368 -0.0053535127 0.043813024 0.037191134 -0.23056395 0.62124956 0.21906057 0.019246373
0.018600857 0.018544585 -0.10100597 0.3337192 -0.006750679 -0.1553932 0.006105614 0.3721314 -0.0899435 0.46048155 -0.21796234 0.15602536 0.18824764 -0.012786581 -0.4307818 0.17343138 0.21398437 0.111092545 -0.13003476 -0.12558974 -0.006574432
-0.023126515 0.042155094 0.029084252 0.26265258 -0.010501619 0.13670555 -0.0033916647 0.038784213 -0.44480303 -0.2003545 -0.17617808 -0.006183248 -0.036515947 0.010074963 -0.05095824 0.24544929 0.36559266 0.14056793 0.22155808 -0.17144611 0.001901619
0.3544875 -0.07981372 -0.02405831 -0.025581716 -0.005113644 -0.07970437 0.007358938 -0.44715214 0.044031575 0.8163901 0.08476201 -0.016163724 -0.08658826 -0.0147882225 -0.26156846 -0.016908009 -0.12695688 0.12730363 0.05187827 -0.08072538 -0.0019817883
-0.2568887 -0.09652468 0.22306845 0.23780628 0.004840316 -0.11419641 0.0012766767 0.57920706 -0.18974265 -0.35017082 -0.2704883 -0.008048743 -0.045638185 -0.0044733253 0.154696 0.108667925 0.5424322 0.106645145 -0.04478573 -0.13672358 0.0029453707
0.00033195995 0.012774972 -0.006484048 0.045633376 -0.045080654 -0.011809479 -0.005032201 -0.0041241352 0.017195456 0.04698974 -0.44459364 0.05756571 -0.06488664 0.014679335 0.015601881 -0.009632465 0.16799934 -0.07298689 -0.043815494 -0.07682523 -0.0025981304
0.039520577 0.049594343 -0.31730935 0.5217592 0.0015639081 -0.13609356 0.0038638033 -0.33728543 0.38825434 -0.0378238 -0.55115825 0.04362029 -0.080350384 -0.007931067 -0.6868078 0.7153509 0.12732439 0.31163839 -0.05301902 -0.13664582 0.0028104517
-0.0031485758 -0.22082718 0.008001112 -0.29490846 0.030389614 0.082541086 -0.008765115 0.00661488 0.43937325 -0.015399692 1.2022322 -0.2141116 0.058390535 0.012114577 -0.02855411 -0.028521575 0.28282326 -0.13330257 -0.080465466 0.0015680364 0.0032074128
0.0022731822 0.4172058 0.11010488 0.02933365 -0.01748827 -0.3489211 2.3395358e-05 -0.010751232 -0.23202626 -0.1707216 -0.45636737 -0.0004055025 -0.36341476 -0.00073485717 0.044104367 -0.567178 0.78935486 -0.3895216 0.0055381563 -0.17129913 -0.0049153734
-0.0042660767 -0.06115869 0.42931136 0.27664402 -0.13793305 0.03500524 0.003637863 0.00955714 0.12697683 -0.5490509 0.11306686 0.06740401 0.009377184 -0.0031625405 -0.010107507 0.014301263 0.47673908 -0.49890497 0.19417365 0.04768515 -0.0025091984
0.049808037 -0.20728078 -0.05624861 0.08871923 -0.005249947 0.14496332 -0.030398984 -0.079455584 0.23720719 0.22660038 0.13263139 -0.03881462 0.20163287 0.058766425 -0.056325592 0.14035538 -0.098852426 0.030077359 0.056651685 0.05501254 -0.00036345108
0.0045801634 -0.0028935939 0.10241686 0.3605486 -0.082842804 -0.48454025 0.35800475 -0.00955693 -0.0023869528 -0.16189228 0.04162228 0.7487873 0.82654834 -0.5874398 0.0010603543 0.02757017 -0.074511796 -0.8968852 0.021612 -0.10450406 0.2825521
0.4675395 0.0023601912 0.0017569234 -0.016744807 -0.014294778 -0.1415881 -0.0033655684 -0.65392405 -0.060779396 0.102858394 -0.1847961 0.035074633 0.009161498 0.006005068 0.37779146 -0.38714743 -0.07071951 -0.48038188 -0.037292734 -0.2781304 -0.0036786357
0.0013792338 -0.07869281 0.09182691 0.22256678 -0.030013816 -0.22533764 -0.006119941 -0.009970726 0.5106371 -0.124267854 -0.20216335 0.068295404 0.02329701 0.009011944 -0.010656159 0.12133413 0.67618763 -0.23630545 0.0489107 -0.42737603 0.0025861852
0.0031018907 -0.021484539 -0.0074604973 0.21400942 0.0006465061 -0.11189383 0.026465205 -0.010804959 0.030928077 0.013538083 -0.2434516 -0.0022226602 -0.46657676 -0.0439878 -0.0018809212 -0.07014101 0.0017281536 -0.15348022 -0.016303401 0.7021961 0.011900319
0.39785287 -0.005045187 -0.1678852 0.48692298 0.0005271718 -0.020344552 -0.0007708153 -0.5974005 0.31056705 1.1217109 -0.30315202 0.006146614 0.0048832786 0.001126009 -0.10459386 -0.0096615935 0.5024004 -0.634165 0.0066374955 -0.03378075 0.0021276257
-0.75178224 -0.049512 0.28494364 0.45427114 -0.00065735425 -0.042989556 0.0009631886 0.7765289 -0.081465565 -0.30851343 -0.08219174 0.009375255 -0.024240024 -0.0012729001 0.99048305 0.06373903 0.47614202 -0.29798362 -0.010522861 -0.06421164 0.0006698014
0.039831426 -0.10514626 0.047285188 0.2056581 -0.019903483 -0.26572752 -0.012298303 0.00080657046 -0.0130776595 0.91118866 -0.04629295 0.050328087 0.020313136 0.03119412 -0.05536697 -0.045489796 0.27607018 0.19329454 0.06699073 -0.94338304 -0.0024184876
0.0080918195 0.09438687 0.007059772 0.14335299 -0.0055800327 -0.008889592 0.0073599364 -0.013346695 0.42881668 -0.006063489 -0.13690488 -0.015506221 -0.0021687944 -0.021018308 0.01094642 0.32129738 -0.49585015 -0.22760333 -0.012727888 0.09015789 -0.00092412677
-0.06017051 -0.009726432 0.019285508 0.25126386 -0.031818718 -0.03763574 -0.0011495543 0.74595356 0.08474283 0.354344 -0.23161575 0.096733734 0.034126803 0.0025979655 -0.056382976 -0.10396974 -0.12747286 0.3778073 0.23995794 -0.27490184 -0.013160706
-0.006677418 0.2093221 -0.003024233 0.29209214 -0.0016609416 -0.30372807 -0.004453332 0.013126781 0.9177487 0.0054284907 -0.2413222 -0.00088741526 -0.20461921 0.013603203 -0.031142967 1.2187196 -0.74095315 0.12817355 0.039574668 -0.4067136 -0.0009282785
-0.0008799303 -5.7196095e-05 -0.014349623 -0.053924665 -0.067266636 -0.1440565 0.012903968 0.0068184487 0.06040441 0.034265615 1.3703852 0.36596525 -0.91788286 -0.029553348 0.017525118 -0.45248055 0.02774734 -0.56616634 -1.3499469 -0.6787904 2.7627022e-05
0.015585337 0.007115827 0.016896013 0.2101772 -0.035826597 0.17929302 -0.015498589 -0.034626257 0.053826306 -0.08810961 -0.071907304 0.09491204 0.40845302 0.036875438 0.0036057686 0.6115089 -0.088013545 0.09662746 0.18882224 0.0064806095 -0.011371953
-0.010367075 0.0657938 -0.042704687 -0.060602933 -0.012083352 -0.14904054 -0.0006371054 0.023841077 -0.49208006 0.17575614 0.06673874 0.08967193 0.031567924 0.008962357 0.0053834887 0.28444347 0.41657385 -0.15290287 0.037214287 -0.08170981 -0.003665798
-0.0058457362 -0.04930387 -0.016018065 0.18646625 -0.019853339 -0.042147346 -0.00050895615 0.08447468 0.06636543 -0.026120897 -0.55582064 0.036707643 -0.022590218 -0.00077698386 -0.09056683 0.23252112 0.11263531 -0.14210562 -0.0034280533 -0.10148574 0.00012073304
0.042518005 -0.07659427 0.023730032 0.45440817 0.021361237 0.35665482 0.0026244407 -0.17857713 -0.12557398 -0.12156098 -0.14017612 0.01590027 0.23568206 -0.012355871 -0.04077504 0.15189089 0.2592565 0.51303345 0.38656816 0.18093744 0.0044552395
0.007709874 0.24752842 0.03814586 -0.108750895 0.09184047 -0.0011475675 0.00030354425 -0.054483667 -0.29281023 -0.5042812 1.0919538 -0.74806345 -0.5405526 -0.005173891 0.014460032 -0.45007765 -0.0316887 -0.19159907 -0.7569779 -0.028981216 -0.009752977
0.000111928784 -0.07477752 -0.03480279 0.05245883 0.0091118235 -0.28630677 -0.017495474 0.002842502 -0.2179517 0.65608525 0.062564455 -0.21305254 0.0338407 0.02843323 -0.021547483 0.41747317 0.048543863 -0.050098218 0.018187365 -0.13884729 0.0036226592
0.00016567773 -0.048545927 -0.0031957596 0.031986296 0.0006840067 -1.1160562 0.043969687 -0.00282549 0.060187962 0.006215264 -0.117083356 0.0071580275 -1.2819303 -0.09158244 -0.004467508 -0.0040784413 -0.009249089 0.028880807 -0.04386179 0.5350627 0.0014993297
-0.00020426477 0.1661912 0.13129504 0.032368805 0.104674906 -0.24297826 0.0056214463 0.015387869 -0.46425426 -0.7204367 0.25348824 0.13215812 0.22910124 -0.01791818 -0.023538824 -0.012830525 0.112144455 -0.115637064 0.26020628 -0.09278533 -0.0029288344
-0.4112084 -0.027077656 -0.06412217 0.5082782 -4.9562314e-05 -0.034780152 0.0040617166 1.3897885 -0.068400644 -0.08665714 -0.6537095 0.019798275 -0.021397097 -0.008590841 -0.15772086 0.020481674 -0.1668713 -0.24445112 0.011249388 -0.06666944 0.0013738712
-0.00013565458 -0.015955908 0.00097557274 0.0474489 0.0036612954 -1.7773929 0.1778604 -0.0003359123 0.01564824 0.0027581993 -0.0047339117 0.0025633615 -1.8943386 -0.37145117 0.0010786115 -0.0009390647 0.00070317293 -0.051793445 -0.008980596 0.39577532 0.11545965
-0.02093571 0.094379686 -0.026583774 -0.13030282 0.010329717 -0.07920846 0.0100019425 0.04119117 -0.6679512 0.16297783 0.22595733 0.018469395 -0.039797347 -0.013807726 0.005670048 -0.35696763 0.5239108 -0.08455545 -0.0016655603 -0.03189179 0.00011642751
0.49473494 0.15873626 -0.029877942 0.47804293 -0.01847992 0.15735331 0.0011049464 -0.58726674 -0.27502036 0.053894304 -0.36271527 0.02616833 0.21197747 0.000971722 0.5484412 -0.38566494 0.0023064718 -0.39078578 0.07003083 0.049294874 0.0027761117
0.0165843 -0.04425592 0.027357299 -0.26271373 -0.03906099 -0.08199076 -0.029351486 -0.030377574 0.04680157 -0.045086205 1.6629788 -0.07794481 0.5614448 0.05659384 0.00090027304 -0.14059334 -0.027616393 -0.20124325 0.35941854 0.12583181 -0.011146912
-0.0002881096 0.1593244 0.180603 0.11998138 -0.012012401 -0.1371495 -0.013116153 0.0077723446 -0.0120006325 -1.1005378 -0.08681937 0.2199289 0.044363044 0.021618059 -0.0020175346 0.0143439565 -0.22129686 -0.19042735 -0.039274525 0.0074366312 0.006664527
-0.13319016 0.07294544 0.12197143 0.41016603 0.0056615807 -0.056227043 0.0010948208 0.6860457 -0.14084668 0.25062427 -0.3921009 -0.011098698 0.02840761 -0.00587652 -0.070757985 -0.25038978 0.18637946 -0.95916826 -0.016576845 -0.17556678 -0.00067842973
-0.4044626 -0.18579072 -0.0045899344 0.5442986 0.0010337058 0.10433083 -0.0045046653 0.09709492 0.076126516 0.41810367 -0.22515249 -0.021069575 0.06823685 0.0062458897 0.56528354 -0.22841935 -0.68626535 -0.90213054 -0.0036390782 0.098727465 -0.0020797362
-0.0013301504 0.05926318 0.06687761 0.29151833 -0.01748226 0.07108535 -0.0014757479 0.0016103681 -0.112753324 -0.10758572 -0.33444443 0.025887845 0.07242942 -0.000450764 0.0038666264 0.00047687342 0.015762063 -0.75111187 0.08849264 -0.09240253 -0.00043301398
-0.03835832 0.026388802 -0.4337289 0.42741114 0.015307394 -0.16768858 0.0004350169 -0.20868479 0.7299082 0.19500288 -0.12101624 -0.16866295 0.30781603 -0.0008482225 -0.29027912 0.1569827 -0.07097086 -0.1862714 -0.12870619 -0.077016495 -0.0008909025
0.85945624 0.14518465 -0.32147342 0.67848176 -0.0022424567 -0.04470029 0.0028390072 -1.3135481 -0.4654703 0.6156233 -0.4579842 0.054487515 -0.047551885 -0.003823717 1.2506082 0.35493004 0.35044202 -0.2992026 0.0067258594 -0.053470187 0.0009939099
-0.006439514 0.04913019 0.00092357583 0.23393385 0.0005859459 0.02607182 -0.0051717535 0.01353809 -0.73447406 -0.005911409 0.035928868 0.019516835 0.14041437 0.010959028 -0.018474748 0.122051015 -0.6380941 -0.7921605 -0.011057652 -0.11811018 -0.0005182893
0.0034050015 0.17585066 0.48181954 0.2594751 -0.032738943 -0.0014325768 0.019699084 -0.00014913057 -0.3603975 -0.7705109 -0.39914113 -0.13278462 -0.18070462 -0.037132997 -0.008703701 -0.3919051 0.42050585 -0.31841823 0.049520917 -0.16377081 0.00085421524
-0.015665906 -0.005178715 0.09646159 0.26435742 0.0019941144 -0.13958666 -0.0007233359 -0.003527044 -0.4683443 -0.15081711 -0.4668858 -0.009414215 -0.03885578 0.0036698198 -0.16901854 0.22624834 0.6281165 -0.23430577 -0.03671995 -0.20517297 0.0005505212
-0.2382342 -0.017553436 -0.037243307 0.1354901 0.0029771163 -0.2174489 0.0057896706 0.47844246 0.034396645 -0.73640335 -0.11430691 -0.039600514 -0.12006033 -0.008056209 -0.26149178 0.1264415 0.11104435 -0.22078978 -0.038431555 -0.2717339 -0.00072448835
-0.23554397 -0.2186986 -0.43862835 -0.066847004 -0.010180087 -0.0830086 -0.0036269038 0.4171605 0.2995272 0.0834371 0.33372682 0.019657366 -0.08546841 0.0125439335 -0.1955851 -0.3480138 0.08755861 -0.10007514 -0.073751494 -0.11447034 0.0034627225
-0.0020165665 -0.04106047 0.07521068 0.16907859 -0.0021057935 -0.09010027 0.008459703 -0.042480417 -0.45993185 -0.38173974 -0.34773022 -0.17271614 -0.08278809 -0.011355527 0.0056492896 0.45849362 0.4337709 -0.13122925 0.08555121 -0.060905356 0.005896495
0.5077278 -0.092676 0.16371368 0.5469972 0.030919828 -0.24671067 0.004621425 -0.82612073 0.29530293 -0.45475447 0.019921023 0.49096912 0.6057006 -0.023838408 0.6127767 0.289524 -0.21247615 0.0007123016 -0.21792048 0.14270338 -0.015564388
-0.5314319 0.107685596 0.18494627 0.5178031 0.0055376356 -0.072957955 0.0020754023 1.126943 -0.24493119 -0.40729338 -0.43509603 -0.014708709 -0.026512112 -0.0071083363 0.7437935 0.16832004 0.068675384 -0.42698914 -0.016724544 -0.11513179 0.0018062787
0.0018722306 0.02313244 -0.13163497 0.6240178 0.041510466 -0.2633702 0.011438028 -0.7350071 0.23131941 -0.6429308 -0.8112564 -0.143929 -0.038376607 -0.025982583 -0.30127686 0.400659 0.46228275 -0.3562338 -0.032454338 -0.39357418 0.0027646502
0.54403025 0.10959359 -0.1454637 0.34532854 -0.00399407 -0.0462969 -0.00054781494 -1.3074571 -0.17792346 0.3465058 -0.4304687 0.014551723 -0.0037331805 -0.0014431855 0.71015996 0.12548576 -0.038552903 -0.29115754 -0.0063205413 -0.08176719 0.003103614
0.06219328 -0.046473976 -0.020866293 -0.15799062 0.034145467 -0.1306447 -0.04736089 -0.14464019 -0.10520026 0.33722967 0.060330022 -0.3155679 -0.1942175 0.098190814 -0.10532691 -0.2375729 -0.020833366 0.035642214 0.34632114 0.2328023 -0.0003860269
-0.24151571 -0.038545515 0.003553161 0.51654917 -0.009090036 0.01580125 0.002825651 0.28028592 0.14717035 -0.0021530136 -0.5981688 0.003340348 -0.16368753 -0.011683815 0.3721812 0.3919873 -0.17130461 -0.35343295 0.17937188 -0.3446483 -0.00017238139
-0.0001938937 -0.0124601545 -0.09603522 0.18177815 -0.0450226 0.19875655 0.0015061598 0.003660221 0.02005782 0.1604615 -0.104893655 0.13165896 0.25623146 -0.0030141238 -0.000911665 0.001962394 0.0452508 0.02816099 -0.045825902 0.014242115 -0.0017668416
0.0031868473 0.13319524 0.009062144 0.14382689 0.0038344462 0.12727763 -0.0015315592 -0.0040331613 0.43046162 -0.016792031 0.048179265 -0.017801246 0.19745395 0.00073511817 0.030928543 -0.28457162 0.7893131 -0.7123099 -0.00079357054 0.009725541 -0.00083147193
0.06771277 -0.045551077 0.030437594 0.12424223 -0.0028668842 -0.1588347 0.007864021 -0.06883698 -0.039461084 0.36073035 -0.6158651 0.003040106 -0.061020553 -0.014875162 -0.08350791 -0.049892887 0.1834751 -0.35453957 -0.022672657 -0.27512452 -0.0046241675
-0.14855072 -0.1615866 -0.08218521 0.096734166 -0.016070887 -0.0056756204 0.007824251 0.35077393 0.04717821 0.6036834 0.21781045 0.08925054 -0.006809674 -0.0066894135 0.118422374 0.542666 -0.11676318 0.25476316 -0.025150066 0.065493904 0.0050903116
-0.00448854 -0.15322837 0.0040691956 0.50881517 0.001969758 0.21880099 -0.009647002 0.026606958 -0.29469723 -0.047558136 -0.39544138 -0.020225417 0.16460612 0.017694572 -0.07212647 -0.27064535 -0.6955494 -0.90772545 0.007381724 0.25296527 -0.0010235902
-0.0031420651 0.029506143 0.0617831 -0.009950817 0.011844626 -0.24368358 -0.0046484624 0.02000989 -0.12229125 -0.20249933 -0.21310365 0.18747306 0.23486201 0.015587979 -0.010265668 -0.021431278 -0.12687899 -0.22184047 -0.09449905 -0.2657391 -0.0048770173
0.0015151432 -0.06697987 -0.0010339082 0.29958686 -0.00552795 0.25754243 -0.06263448 -0.0021343282 0.08108592 0.00084460346 -0.1299368 0.007928131 0.19553362 0.123666115 0.0023673302 0.4215721 -0.017099012 -0.6172031 0.006460676 0.34466466 0.036114026
0.0019733773 -0.017941128 0.13110332 0.17865345 0.16580881 -0.10565145 -0.0142706605 -0.010309893 0.011645502 -0.21369725 -0.38582695 -0.0700373 0.37726283 0.037281554 0.003316997 -0.0025147386 -0.0028437905 -0.012192599 -0.32885683 0.2937389 -0.019081429
-0.00035410473 -0.03704245 -0.0033893776 0.25028536 -0.00039825946 -1.5303086 0.07118222 0.001754787 0.030588474 0.014503317 -0.23048034 0.014193376 -1.4811652 -0.151957 -0.0034810463 0.074117996 0.0096075125 -0.16549422 -0.06514744 0.5369821 0.03158497
0.00081155676 -0.01921441 -0.41746688 0.32469538 -0.009597317 0.031760376 0.0018970846 0.007663181 0.0801722 0.49944416 -0.49849543 0.062111374 0.02294465 -0.007530596 0.016281031 -0.40027368 0.4236388 -0.48221433 -0.023183735 0.0029676398 0.0036417283
0.29657382 -0.1030468 0.269551 0.17500532 -0.001721174 -0.123680204 0.0065692426 -0.5523328 -0.07682672 -0.12656952 -0.067009 0.007358223 -0.11736917 -0.020643163 -0.015122946 0.11081055 0.033387665 0.034249134 -0.005468488 -0.14208205 0.0009980304
-0.016774429 -0.102677226 -0.116097964 0.18277708 0.032134805 0.032348603 -0.0008900244 0.006039888 -0.6364253 0.20550022 0.20461419 -0.0669587 0.10627165 0.0027898953 -0.015989607 -0.16748823 0.6451541 -0.30367175 0.00051066134 -0.15774585 -0.00016093785
0.0003938621 0.17191556 0.019814262 0.15236427 0.012777777 -0.014485853 -0.00444384 0.0070499377 -0.33931357 0.004721582 -0.13355212 -0.18337701 -0.0070423028 0.014502708 0.0059344023 -0.043416005 -0.45486984 -0.3652165 0.008826004 -0.083073735 0.0014028877
-0.13580342 0.04542549 0.07699927 0.2621708 0.036655482 0.03151183 0.013645521 0.34786958 0.31588057 0.5158706 -0.3646908 -0.11801187 -0.18820176 -0.032487318 0.16991659 -0.040209007 -0.24078596 -0.11561733 -0.16098976 -0.09183526 0.0016853432
0.0005486483 -0.029182818 0.007920465 0.1479151 0.018347673 0.15462871 0.00079189724 -0.01019278 0.03363277 -0.0010023837 -0.23485868 -0.021082757 0.18485217 -0.0023548186 -0.00626056 -0.06702255 -0.023079688 -0.0991429 -0.020741904 0.086085245 -0.0023853995
-0.027647214 -0.13536039 -0.046015978 -0.050453685 -0.03354164 -0.06574777 0.023826048 0.058251992 0.03662449 0.3033639 0.20549151 -0.15647127 0.42820126 -0.03714676 0.018751038 -0.11001504 -0.10418919 0.15488604 -0.067325085 -0.12102308 -0.008640017
-0.0017363803 -0.18365273 -0.0023715869 0.10773159 0.0025019632 -0.09714774 -0.015040517 0.009212922 -0.21449772 0.006801205 -0.04522136 -0.015610197 -0.095205806 0.025131445 -0.0028280066 0.8862117 0.20698448 0.022540305 -0.039948404 0.033755217 -0.0012378166
0.0038712143 0.43812603 -0.0022990822 0.2765043 0.004268346 0.0035429543 0.005059092 -0.0028018544 0.28103226 0.0026414422 0.23937848 -0.015882965 0.15563306 -0.0033992745 0.016693255 0.30740017 -0.4177289 -0.67403024 -0.00847763 -0.20772834 -0.0031952604
0.06910904 -0.14824925 0.18293637 0.09526939 0.03401518 0.178114 0.0118088145 -0.14040619 0.17754926 -0.41479838 0.2184735 -0.30028203 -0.0018436571 -0.030509442 0.0725658 -0.16301127 0.080102995 0.3411702 -0.012247856 0.10960381 0.0059661237
0.008399578 -0.110465735 0.030934658 -0.18193762 -0.031114059 -0.314076 0.014491072 -0.0072501083 0.16781667 -0.058954105 0.8216286 0.037771404 0.8894738 -0.028659306 0.020153437 -0.3310924 -0.035666984 -0.29457134 0.66577524 -0.22336799 0.013642286
0.0010231852 0.021229435 0.04353246 0.1958536 0.102131285 0.19749191 -0.17737229 -0.00095486996 -0.036257584 -0.06088454 0.22828543 0.058307454 0.5973491 0.27213562 -0.00057764567 -0.028830301 -0.01492723 -0.002944943 0.060544662 0.19524528 0.14668763
0.014158474 -0.060032107 -0.2868355 0.036136564 0.14757203 -0.20672964 0.0030652601 0.0030831664 0.083531685 0.69096875 0.20997566 0.032829627 0.27030808 -0.010389095 -0.003758375 -0.4552518 0.16188431 -0.43543467 0.3565786 -0.2190219 0.0104743745
-0.007601388 -0.0038426595 -0.03238007 -0.19052173 0.078972764 -0.028574262 -0.0065368493 0.013735993 0.019134114 0.056463633 1.9870932 -0.5309377 -0.04704503 0.011536437 -0.0035477346 -0.07024789 -0.015231814 -0.20145461 -0.19209586 -0.2243546 -7.182287e-06
0.57895947 0.05202282 -0.19152893 0.39198846 0.010314139 -0.18534683 0.005735682 -0.82094234 -0.27080145 0.39583543 -0.18843211 -0.07425233 0.039292604 -0.012823266 0.86348176 0.22355215 0.24170041 -0.14094578 -0.09056594 -0.20006095 0.00053039327
0.0031630832 -0.037453186 0.0047941282 0.27634203 0.00021211286 -0.33334965 0.015762202 -0.0034698586 0.0386881 -0.021874903 -0.3601899 0.024499726 -0.539915 -0.029518247 -0.00065614405 -0.095518015 -0.018274097 -0.17889693 -0.03016065 0.7695478 0.0017780251
-0.015961291 -0.20595083 0.37341335 0.3597681 -0.045421276 -0.0014186561 0.008923985 0.046149578 -0.43543777 -0.41405883 0.13566385 -0.14239982 -0.13146345 -0.015787883 0.00806139 0.24665135 -0.19124302 0.20092058 0.18212798 -0.22348519 -0.008113281
-0.03199581 0.09647285 0.020259937 0.28094968 -0.0029402245 0.2679562 0.03083024 0.06350792 -0.052952383 -0.03884654 -0.08914701 0.039367158 0.13339782 -0.05970485 -0.0023042362 0.050066333 -0.06949498 0.107807614 0.3958189 -0.29188222 0.011110307
-0.0034053843 0.06900063 -0.014660121 -0.06533065 -0.003337934 -0.49355337 0.054486822 0.017845845 -0.08354828 0.031507485 -0.07054532 -0.020220786 -0.2981485 -0.10477988 0.0014637803 0.09391511 0.031343743 0.20467009 -0.016924856 -0.18227077 0.023981538
-0.013419188 0.18306296 -0.103204004 0.11945499 0.016101645 -0.06712667 -0.028320948 0.023636341 0.16329254 0.29053313 -0.03698775 0.12310177 0.03287732 0.058428127 0.013647702 0.660338 -0.29898015 -0.16550846 -0.015539903 0.18197992 -0.0037697814
-0.01250893 0.121634245 -0.033802845 0.26889881 -0.0045304974 -0.1047843 0.0072449152 0.06679532 -0.24136373 0.09207886 -0.34398377 0.025495632 -0.06526786 -0.014627619 -0.36638474 0.4313267 0.13487606 0.17441948 -0.0069750436 -0.12405114 0.0014916472
0.0057583563 0.052443463 -0.026004631 0.13400356 -0.07326403 0.039779093 0.011128871 -0.014539622 -0.0816113 -0.17541027 -0.24168909 0.16891132 -0.063383445 -0.022604795 0.013251756 0.041116454 -0.49931604 -0.22484563 -0.276712 0.0307053 -0.0017859138
0.0044546835 -0.23580459 -0.030379266 0.08383458 -0.002917535 0.025981253 -0.009191691 -0.028007917 -0.04338611 0.2515999 -0.1320064 -0.010533953 0.012069184 0.01583585 0.11006855 0.110510215 0.3676518 -0.20150128 -0.061626755 0.10450442 -0.001265977
0.027403247 -0.021016926 0.4010202 0.07060424 0.020260893 -0.080608055 -0.0006632614 -0.07970044 -0.07369929 -0.59976226 -0.11709982 -0.047911122 -0.19079733 0.006113116 0.006455567 -0.6405096 0.47583246 -0.16036548 0.17928234 -0.0049420586 -0.00065608777
0.08561749 0.037304625 0.009985403 0.51061773 -0.03922767 -0.18472879 0.008520307 -1.1349384 -0.44453737 -0.50420207 -0.0141505655 0.15325537 0.026412213 -0.01586203 0.6480873 0.21889488 -0.18731335 0.104335845 -0.079539225 -0.22228697 5.640956e-05
-0.093864545 0.03074507 0.0144195 0.02685408 -0.018922778 0.025352426 -0.009081604 0.14380635 -0.06627829 -0.0091930125 0.18695223 0.058809374 0.06141691 0.01663731 0.20653068 -0.09413251 -0.56358504 0.31289324 -0.016653633 -0.041320696 0.0006141771
-0.0043879263 0.048297565 0.013893602 0.24080542 -0.018441781 -0.113474846 -0.0047199624 0.016117223 -0.26627827 -0.013119445 -0.35177994 0.047685817 0.026165087 0.010153767 0.02204207 -0.0476178 -0.7967353 -0.21223697 0.029037993 -0.25043043 0.0031034406
-0.09155872 0.09196601 0.031969726 0.3008305 0.011072798 0.05175475 -0.0023639791 0.14589338 0.3527345 -0.18685064 -0.10275585 -0.0015720301 -0.018251894 0.0027437045 0.0015957506 0.5076864 -0.40393844 -0.09961969 0.017266396 0.042476054 -0.0009717526
-0.022470232 0.07709159 0.025159292 0.09559325 0.03674266 0.13521244 -0.01564264 0.04938839 -0.27281493 -0.19188733 0.062106278 -0.19425489 0.12467452 0.028633775 -0.0005847088 0.2775613 0.08348969 -0.053020295 -0.08313954 0.3921336 -0.01196215
0.06344748 0.27826405 -0.1941145 0.17117238 0.2176674 -0.4563923 0.01705338 -0.092128694 -0.20458546 0.6896254 -0.04039819 0.22713108 0.18032384 -0.04259437 -0.0588652 0.7712826 0.07360382 0.1464576 0.22763053 -0.29087996 -0.010710661
0.2519669 -0.0024262539 -0.036957223 0.23681915 0.0056349053 -0.22882856 -0.00030622692 -0.38658485 -0.0912328 0.02914071 -0.38949648 -0.02337326 0.14304577 -0.004456121 0.3211872 0.474865 0.05159958 0.24643616 -0.19740416 -0.30332908 0.0016476405
0.019153658 0.013218326 0.0036491626 0.034870647 0.004365602 0.052043207 0.0019292292 -0.058960706 -0.28834292 0.43037832 0.078362316 -0.27727765 -0.31972155 -0.005462418 -0.010496361 0.07009434 -0.0035456559 -0.07121491 0.016374435 0.0007225458 -0.0035078737
-0.012214964 0.08582107 -0.017705752 0.13783005 0.015565805 -0.007934373 0.007042631 -0.06980622 -0.561339 -0.6655832 -0.07410558 0.17437921 -0.17624705 -0.014165054 -0.023228884 -0.28850842 0.35170108 -0.17007951 0.044466246 -0.35322475 -0.0039694905
-0.018390665 0.010529466 -0.02174883 0.050014976 -0.0618578 0.076287225 0.0038391412 0.09941886 0.48377994 0.28611776 -0.13879013 -0.05441432 -0.017902216 -0.0048122234 0.0379239 0.07057867 -0.48591593 0.032536406 0.09879099 0.11368235 0.0091268085
0.006646576 -0.020854194 0.09712284 0.03556144 0.3822525 0.06168681 0.0111036 -0.01672583 0.02771554 -0.23479515 -0.15136273 -0.45871174 0.01656103 -0.026483856 0.002527885 -0.009258238 -0.1023207 -0.08164688 0.6093674 0.2375727 0.007051306
-0.017656429 0.09711842 -0.23246084 0.11152764 0.10892621 0.11921965 0.018252295 -0.0060780933 -0.13707717 0.3999213 0.08845939 -0.45688498 0.036483634 -0.033084273 -0.02593448 0.0027458773 0.2098266 -0.043479644 0.102436006 -0.0992588 -0.013976223
-0.00517628 0.23194158 0.018234067 -0.25456625 0.030233713 0.19145331 0.00078335596 0.012576712 -0.43454632 -0.042127457 1.1479855 -0.2297886 0.16610713 0.0015668857 0.0011461865 -0.067762 -0.31079116 -0.19092156 -0.11754795 0.10573166 0.0015110066
-0.16644444 -0.004678262 0.026042012 0.18608166 0.002421676 -0.22955988 0.0026716692 0.22591215 0.13451882 -0.054986957 -0.5598532 -0.021526035 0.17247793 -0.0013060748 0.17285551 0.2466301 -0.14426751 -0.12673348 -0.17100783 -0.25141183 -0.0050238185
0.0404467 -0.13824166 -0.05172923 0.051640604 -0.01996703 -0.15766305 -0.00032031213 -0.12313778 -0.08016044 0.43604866 0.0051495056 0.033484392 -0.090626165 -0.0006660214 -0.05393447 -0.2941242 -0.8899116 -0.3642664 0.025901692 -0.16687982 -0.002999967
0.0033624726 -0.29014882 0.0025899948 0.4589471 -0.005764803 0.13041356 0.00028738505 0.008152542 0.12360979 -0.040403984 -1.0046461 -0.03068641 0.116767496 0.0035737422 -0.18823452 -0.8139532 -0.7048737 -0.4804482 0.0032326982 0.11280542 0.00044079614
-0.0011587339 -0.0071368874 -0.0030782006 0.117014036 0.006657859 -1.0533277 0.0679298 0.0045193816 0.0053947377 0.0076653594 -0.05022066 -0.018419573 -1.0151318 1.0134746 0.00012158184 0.0017778551 0.005275501 -0.1154935 -0.015720962 -0.16347252 -0.28014547
-0.06508238 0.16855422 -0.19418369 0.18137681 0.052384205 -0.32535252 0.0035744936 0.09449024 0.42168096 -0.1686865 0.11996199 -0.3754297 0.36231148 -0.00357621 -0.024189455 0.4679782 0.08538359 -0.06471854 -0.08470201 -0.20262809 -0.006811045
-0.0033792628 0.12719522 -0.0792033 0.08446463 0.004402462 0.19220631 -0.007956203 0.0015701817 -0.1889609 0.12808904 -0.26506904 0.009077443 0.2334144 0.018202657 -0.0022629595 -0.073793225 0.094129145 -0.06693736 -0.032450315 0.18014187 -0.0053696358
0.051423293 0.03873615 -0.012912023 0.28315246 0.026282525 -0.22114044 0.002173626 -0.7427464 -0.24358922 -0.2327513 -0.2826993 -0.06570227 -0.05208483 -0.009130446 -0.5363519 0.2258842 0.09415109 0.13969423 -0.052836712 -0.30342302 -0.001229647
0.005578315 -0.01087821 -0.0319602 -0.026459446 0.011105251 -0.1726911 -0.007676631 -0.010027472 0.059572864 0.09074845 0.43650767 0.05268161 0.63926333 0.02134437 0.0040458334 0.028599605 -0.04896887 -0.35674605 0.47675678 0.2870605 0.0075672753
0.009987098 -0.037026346 0.04383479 -0.10007157 0.019318663 -0.06055857 0.0036348253 -0.013286552 0.15268965 -0.5909343 1.8727199 -0.50443465 -0.053746585 -0.0040891482 0.0069276816 -0.21868613 -0.13413437 -0.16851845 -0.058194187 -0.11566517 0.0011108392
0.012018436 -0.027424 -0.04535933 -0.15409745 -0.009729036 -0.081549965 0.004116737 -0.06282106 -0.05628625 -0.32163116 0.5304543 0.31967983 -0.58399373 -0.008285229 0.0067230198 -0.378707 -0.13155979 -0.2796326 -0.30165336 -0.3375903 0.0010205399
-0.632819 -0.4727103 0.0016743196 0.6336836 0.018389994 -0.22977033 0.012705698 1.8025975 0.07242081 0.5513364 -0.12121632 -0.021288203 -0.09874387 -0.022673069 0.5681187 1.0686706 -0.30639756 0.37404144 -0.039398447 -0.2834652 0.0033277322
-0.003611804 0.008906343 0.41099197 0.061774503 0.15529153 0.0060806284 -0.01520917 0.00399222 -0.0060970103 -0.6795807 -0.10321756 -0.26150328 -0.008685227 0.031190615 0.0014916926 0.042992815 0.20609018 0.04615413 0.34901482 0.11258789 -0.0019951682
-0.0036076664 0.03492302 -0.016988162 0.29752892 -0.008619401 0.056943696 -0.0026030731 0.02032369 -0.07397793 0.07193554 -0.5205125 0.014304075 -0.0039735115 0.0067580095 0.0041475906 -0.12697521 -0.0024258408 -0.71225905 0.082139954 0.03979582 0.0014925209
0.0025406515 -0.016998816 0.014393681 0.36577034 0.0017225143 0.20115556 -0.010081281 -0.0054445504 0.4508609 -0.016684536 -0.26632085 -0.012748139 0.18898752 0.019727893 0.04999893 -0.320394 0.60713166 -0.7492725 0.021946767 0.21819727 -0.0036970938
-0.0016949245 -0.06093895 -0.10813171 0.2251124 0.021403814 -0.22129099 -0.0042494107 0.009197746 0.31344318 0.15728574 -0.3877397 -0.02477716 0.10881669 0.008817984 -0.015197411 -0.06894931 0.8234798 -0.20214203 -0.061282806 -0.3725954 -0.0021658337
-0.005081093 0.24887696 0.05437058 0.32311058 0.18535574 -0.3901652 0.015476598 0.0071556065 0.6359571 0.7698209 0.37753448 0.058441367 0.17605732 -0.039694507 -0.00080691866 0.28989565 -0.34533757 -0.5572013 0.38233456 -0.20550473 -0.0069135292
-0.005004364 0.028832357 0.01614115 -0.45695382 -0.11812133 -0.77536595 -0.044566456 0.0045353444 -0.015973022 -0.04297249 1.5618691 0.15263987 0.22732104 0.07459212 0.0018370094 0.019216627 -0.005454724 0.03756808 0.8632639 -0.10295274 0.026004408
-0.024732446 0.07853845 0.015851796 0.23260647 -0.013061443 0.079550646 0.016876014 0.07237609 -0.42692655 -0.458333 0.005052068 0.28328967 -0.2688376 -0.034487013 -0.01654454 0.12078738 0.1195983 -0.28407633 0.038211577 0.016010132 -0.001963637
0.0026804483 -0.10579273 -0.0014474641 0.31782362 -0.00060114637 0.10016382 -0.0038732153 -0.007826082 0.38058668 0.013181978 -0.15382975 0.0045804493 0.47903517 0.008862037 0.0057479697 0.12410632 -0.2663361 0.10264211 -0.090085246 -0.3940812 1.9638444e-06
0.023834689 -0.098234676 0.06894394 0.18897314 -0.23477206 -0.24287699 -0.024233049 -0.075293034 -0.1428775 0.12787999 -0.23829144 0.028929103 0.39014775 0.05058893 -0.020926945 0.15466736 0.14650048 -0.3977509 0.13134433 -0.05713424 0.009987927
0.017712286 0.07112865 -0.00010071922 0.054392625 0.005011739 0.000272896 0.0026250759 -0.049850494 -0.6144097 0.085014 0.014869243 0.06864885 -0.05582275 -0.011024613 0.0015600298 0.12023304 0.49838993 0.09665344 0.04767809 0.032801647 0.002553475
-0.0032610924 -0.13189389 0.02734095 0.110681124 -0.006448904 -0.026233211 0.0055837585 0.005522614 0.37116367 -0.39090973 -0.2576666 -0.18308516 -0.30709717 -0.0111735 -0.0039087157 0.12381309 -0.07772943 -0.48028672 0.02044839 -0.067933515 0.002742966
0.2659706 -0.13090922 -0.072217904 0.66871643 -0.029013466 -0.4043428 -0.002782603 -0.46430027 0.65414107 0.6702078 -0.6201488 0.10290758 0.024776647 0.002648466 0.024251083 0.56451434 0.8215315 -0.17035924 -0.11884368 -0.58798575 0.0009277758
0.0039244243 0.011929602 0.0050740005 0.10788272 -0.002988422 0.12294094 -0.004310884 -0.008760798 0.022255078 -0.0011470243 -0.2341454 -0.013361582 -0.027116701 0.0054097963 0.011161893 0.44699344 -0.042751722 -0.28197914 0.00075288233 0.25268796 -0.0016099219
0.13162331 0.074605875 0.3934631 0.18122467 0.01652884 -0.28029236 -0.008004713 -0.11566275 0.40531453 0.26310116 0.48459932 0.14663479 0.15590571 0.016952612 -0.17598183 0.028816849 0.48479894 -0.14816459 0.05367767 -0.36896864 -0.0032487172
0.0626207 0.28769997 -0.14183533 0.21390401 -0.16390392 -0.11078098 0.0048293388 -0.14913185 0.18535742 -0.3857606 -0.2574256 0.25282308 -0.049601205 0.004513885 0.09278051 -0.09281649 -0.5231685 0.18726264 -0.23494118 -0.16404344 -0.007640556
0.006244418 0.071495384 0.07916255 0.09133199 -0.0068396493 0.12347581 0.006024121 -0.019353697 0.013651374 -0.13651726 0.044038054 0.04203472 0.06784772 -0.012727694 0.052616876 -0.11923266 0.5131715 -0.2523203 -0.04303779 0.14013818 0.003101488
-0.014435673 -0.29791337 0.011935114 0.044865973 0.014052559 0.09195402 -0.011340916 0.035250697 0.35877332 -0.030388273 0.046938665 -0.0095084375 0.1763535 0.037420098 0.00748756 0.17012444 -0.016811986 0.036846794 -0.08539278 -0.015237823 -0.020963728
0.17248935 -0.10129004 0.11342604 0.17566839 -4.7589238e-05 -0.017343532 0.0048257015 -0.34479132 -0.010048249 -0.80220574 0.15992728 -0.031116147 -0.035816237 -0.011341014 0.15591341 0.28326955 -0.123657495 -0.135247 0.0371873 0.038355872 -0.0017372145
0.0074613723 0.10489631 -0.004838019 0.22120634 -0.024351072 0.14213042 0.012713917 -0.00748135 0.03654062 0.02272199 -0.061375167 0.09003118 0.062574536 -0.033796515 -0.019064339 0.5367993 -0.1952968 0.13227192 0.044215042 0.26715955 0.0032735297
0.009957154 -0.11781493 0.18910544 -0.10935816 0.024432555 -0.19105792 0.0072160806 -0.008095474 0.25149378 -0.92720383 0.18927385 -0.14173934 -0.1894947 -0.011131248 0.0030714357 -0.022744512 -0.10201685 -0.1796588 0.121429525 -0.07080134 -0.000783989
-0.0011121989 -0.0064688325 0.0098551065 0.28911394 -0.033714883 0.16711536 -0.0044976077 0.0049843113 0.008214018 -0.023572074 -0.26331383 0.067020714 0.17421891 0.007978811 -0.00028750455 -0.0142219085 -0.06066808 -0.20453486 0.03001798 0.02223723 0.00047458604
0.0016687805 -0.0032057583 -0.10123695 0.19609515 0.0048964596 -0.1921784 0.004959608 0.0057909163 0.08708692 0.09567226 -0.107042566 0.0011211581 -0.12103377 -0.004873299 -0.124247976 -0.09458368 1.0034896 -0.25381547 0.014046427 -0.28852785 -0.0035410293
0.0011828444 0.01900091 0.0057604113 -0.13562597 -0.007937123 0.16085662 -0.008062339 -0.0058203214 -0.043622516 -0.0065665296 1.0560751 -0.015053952 0.25535297 0.016309418 0.0037005648 0.017322179 -0.01756573 -0.16101156 -0.01291881 0.0005752119 -0.0024241267
-0.0077914777 -0.0024194687 0.01564496 0.12514979 -0.0025520215 -0.14999762 0.048184507 0.005256803 -0.029318005 -0.069652826 -0.09136315 0.008018113 0.11410941 -0.09060201 -0.008155132 0.4660467 -0.0007772567 -0.67482024 -0.0037219692 -0.44513863 0.010729217
-0.3516067 0.088096455 -0.16529368 0.3681902 -0.022054706 -0.09374788 -0.01192276 0.61104614 0.1963353 0.34247696 0.20186165 -0.40007314 0.42864704 0.032285955 0.3272908 -0.03198061 -0.2759155 -0.023342438 -0.10998569 0.28636792 0.002631317
0.0020945189 0.0725683 -0.39880598 0.1012544 -0.16148837 -0.50306123 0.004614693 -0.0037833941 -0.15184687 0.7088919 -0.039919015 -0.37535214 0.4602013 -0.007272425 -0.01009418 -0.076742 0.18851933 -0.5623115 0.27395892 -0.4263207 -0.0024775665
-0.003780409 0.19497764 -0.011465984 0.38377276 -0.005459948 0.11148902 0.0029332412 0.0043593156 -0.48214594 0.055299427 0.16664603 0.02508025 0.0724567 -0.0036770888 0.0048525543 1.0435326 0.13555913 0.22791925 0.07035858 -0.07564182 0.0005024986
0.09665451 0.05050283 -0.141821 0.38137993 -0.0040455167 -0.0944899 0.002165323 -0.58875906 -0.071929306 -0.28958187 -0.54811203 0.008518881 0.0028261144 -0.0076485025 -0.016972747 -0.2766182 0.1642926 -0.96584433 -0.0140187 -0.25370753 0.00041111722
0.00020486834 0.039001364 -0.033243187 0.20893341 0.30975905 0.14083156 -0.07090419 0.0001307922 -0.06041009 0.056314897 0.23751345 -0.33826172 0.24887124 0.13008356 -0.0030473205 -0.17055409 0.002207918 -0.48524478 0.63045865 -0.07842774 0.015735058
-0.0032018034 0.04742449 0.09668642 0.31536144 -0.022402609 -0.014810412 0.014955158 0.009999889 0.17433694 -0.008226075 -0.085477374 0.12557067 -0.008203759 -0.02789513 -0.015578423 -0.10000128 1.0512047 -0.068614915 -0.07933509 -0.04568821 0.00591954
-0.011847392 0.10497182 0.013442871 -0.19632873 -0.00093437074 -0.14744923 0.011658016 0.02377214 -0.1385104 -0.031426873 0.711566 0.009454585 -0.04936944 -0.022657583 0.0008589241 -0.07203727 -0.036170635 -0.24043009 0.30231395 0.41730228 0.0014210406
0.0056388676 -0.20151825 0.010950007 0.24205786 -0.014522138 -0.42465588 0.0047486355 -0.023895243 -0.35064232 -0.21099593 -0.26855934 0.1286041 -0.041523505 -0.0055397754 0.00997162 1.0277375 0.33785495 0.076398365 -0.07794758 -0.40788463 -0.0018746923
-0.00914224 -0.13834603 -0.34890214 0.11759657 -0.023769327 -0.42741165 0.001012751 -0.023169095 -0.15640745 0.5451727 -0.33296803 -0.10036658 0.24132255 -0.006939248 -0.0021217463 0.35708532 0.041482866 0.19617382 -0.19938193 -0.36199036 0.00047032707
-0.0045330888 0.0663409 0.03673142 0.40299982 -0.052990586 -0.06405993 -0.0023244258 0.00478255 0.07676141 -0.1270652 -0.4537036 0.059201743 -0.09351042 0.00068295316 0.0117566865 -0.22586358 0.75952154 -0.6103628 0.13627149 -0.20779748 -0.0022086839
-0.08555158 0.018874556 -0.45586884 0.039437305 0.014791674 -0.066291355 -0.008955284 0.16543514 -0.14277454 0.7204345 -0.40420616 -0.14198819 0.05886034 0.019533621 0.07766175 -0.40537593 0.46740258 -0.16349106 -0.109806895 -0.028369155 -0.00393191
-0.014526911 -0.063493274 -0.0045504817 -0.072150275 -0.044417284 -0.61360645 0.0059514083 0.04310093 -0.5229224 0.008842204 0.2501072 0.08840287 0.10775816 -0.013805552 -0.026261121 0.017341135 -0.5704723 -0.3185387 0.29586935 -0.62643486 -0.0027567602
0.010381024 -0.09529704 0.12276594 0.067542255 0.013835673 0.051634442 -0.0020570508 -0.023095084 0.09603946 -0.22599792 -0.1302692 -7.5879965e-05 0.036213957 -0.0010751006 -0.013398028 -0.18875545 0.0140727395 -0.15827532 0.09468369 0.045999568 0.00068519777
-0.004819162 0.015069475 0.2879552 0.05751939 -0.057334036 -0.23769264 -0.026461946 0.012402725 -0.056248765 -0.49011293 -0.050674718 0.4498151 0.15041377 0.049352188 -0.015846895 0.02649236 0.19736853 -0.23162119 0.05223217 -0.0966383 0.0010266781
0.0066489605 -0.056980573 0.055786286 0.274843 0.021140026 -0.2982951 -0.0025035073 -0.017610624 0.27994496 -0.33200768 0.12585633 -0.09093532 -0.08359447 0.006004339 -0.019404542 1.3564104 -0.19265008 0.4432778 -0.13485408 -0.21070045 -0.0025161186
0.019238679 0.00041515444 -0.010235178 0.04624052 0.013327783 0.02534841 -0.0042010904 -0.038503777 0.1487827 0.040041436 0.12735832 -0.04496156 -0.017394591 0.01061033 -0.048790168 0.5760196 -0.15882824 0.21840148 -0.061666902 0.1265754 -0.0019450581
-0.00831347 0.10068937 0.004765532 0.1993365 -0.008472826 -0.3091713 0.028835433 0.02083108 0.37639567 -0.032306056 -0.113436975 0.0067141997 -0.7523235 -0.044745367 0.0055279904 0.7203495 -0.4659559 -0.26205057 0.030869681 0.18821056 0.010712188
-0.006054356 0.033396482 -0.0028282555 0.24261639 -0.009280018 0.20762467 0.001995702 0.014619708 -0.057132326 0.016313208 -0.24680527 0.071633436 0.37306175 -0.011651888 -0.009059852 0.017287824 0.0028914127 -0.22050583 -0.10409839 0.2534874 0.01061949
0.067800514 0.20054528 0.014432412 0.22719182 0.00202015 0.08115334 0.011627793 -0.18669787 0.44428772 -0.3978582 0.023520214 0.21176663 -0.011445403 -0.028397096 0.043152504 -0.17695193 -0.7386094 0.15855783 0.09571854 0.07888832 -0.00229906
0.024087928 -0.5616875 0.10353047 0.24649796 -0.031653743 -0.15195993 -0.0008628438 -0.010593929 -0.062338293 -0.1758852 0.06242192 0.0341921 -0.04184215 0.00055522803 -0.035001513 0.05486496 0.57921773 -0.77299935 -0.049441826 -0.31761426 -0.009156331
-0.0061906483 0.023657033 -0.034259778 -0.047794178 0.004241157 0.06428393 0.0058817947 -0.020449268 -0.4218865 -0.37900475 0.1993964 0.3380608 -0.3061622 -0.012104548 -0.024660068 -0.2470861 0.07504898 -0.021198902 -0.0058521973 -0.08880015 0.0104487585
-0.007162456 0.16766664 0.00609542 0.105540894 0.004787157 -0.04195561 0.006828454 0.012086364 -0.6342542 -0.042112604 -0.019069877 -0.0075883665 -0.05267437 -0.016724292 -0.0384215 0.30208138 0.39003462 0.10090003 -0.021880962 0.01779161 0.0050778477
-0.3774465 -0.03551345 0.09927948 0.33019805 0.011426117 -0.015567855 0.0020673356 0.5859666 0.32957327 -0.82355756 -0.4052075 -0.03327841 -0.0008914298 -0.006457696 -0.04465266 -0.0068972283 0.4590029 -0.34791377 -0.049490776 -0.034484025 0.0008136228
-0.0025051697 0.15597387 -0.0067775925 0.042562887 0.02189791 0.1546165 -0.00609559 0.0052114287 -0.14651364 0.019884087 -0.20465437 -0.033971854 0.20896617 0.020173518 -0.016819302 0.22292209 0.057481326 0.066520035 0.0193375 0.068562336 -0.0062838793
0.0051192055 -0.20743088 -0.04859393 0.15826906 0.010261531 0.13067932 0.0037090047 -0.029261451 0.29223233 0.121669784 -0.20751947 0.032193527 0.20608647 -0.005255268 -0.018775553 0.0738326 -0.32510805 -0.036609687 0.050773524 -0.04477653 -0.005494879
-0.18270469 -0.06421138 0.13295153 0.34991428 -0.005468808 -0.10719367 -0.003989486 -0.15435353 0.33011538 -0.983041 0.005206902 -0.026023507 -0.00062985084 0.008507194 -0.65861744 -0.36487994 0.14355977 -0.889221 -0.043731276 -0.200456 0.0025097898
0.16455996 0.032663595 -0.031719152 0.2121107 -0.0042965426 0.08315891 0.0021645376 -0.28030777 0.052520614 0.071740165 -0.14493546 0.0190234 -0.015951488 -0.0021629299 0.20222196 0.64252925 -0.12818769 0.19877252 -0.009117126 0.08676273 0.0070321504
-0.015230822 0.26366973 -0.015825922 -0.034986213 0.023153206 -0.10723088 0.011100697 0.038379025 -0.36213312 0.44866532 0.3646381 -0.3781239 -0.5064748 -0.019042209 0.040770423 -0.18278266 0.046549622 -0.38036203 -0.2908022 -0.39400145 0.007615993
0.019699655 0.13455269 -0.2783871 0.14041236 -0.02865464 0.014914979 -0.012248248 -0.10144142 0.3050512 -0.19415897 0.6890174 0.3095546 0.21988375 0.047524136 -0.0049019796 -0.15267645 -0.0037086082 -0.06634955 -0.095600694 -0.03825938 -0.0009194328
-0.19059417 -0.07225269 -0.03161653 0.12482175 0.004534385 -0.11138926 -0.0007261406 0.34001553 0.2043581 0.67652506 -0.12375549 -0.0042073308 -0.06265302 -0.0016518055 0.1045834 0.1337378 -0.36247352 -0.15172863 -0.02361975 -0.11189667 -0.0009581128
-0.0025995446 0.009021254 0.005184334 -0.42599696 0.0066089095 -0.23614147 -0.003928235 0.009621341 -0.015654884 -0.011367873 0.5420537 -0.008098462 -0.21190894 0.0048753866 0.006227618 0.007850545 0.00035194968 0.3981425 0.0048634927 -0.17485037 0.00093244534
-0.015684662 -0.031169726 0.015344063 0.39609846 0.003064322 -0.23164493 -0.023403056 0.034329176 -0.058234103 -0.047751278 -0.4375046 0.009897491 -0.5320903 0.045114703 -0.004011028 0.5759645 0.044460587 -0.5257258 0.022167414 0.2130528 0.0017462104
-0.05426401 -0.18719195 0.003818735 0.32877904 0.010455235 0.11174537 -0.0075574173 0.038431693 0.64957124 -0.42197224 0.073302835 0.008820475 0.23009937 0.011625299 -0.07405922 0.11477881 -0.39744863 0.11842259 0.06979642 -0.54582727 0.00117471
-0.06643603 -0.1254734 0.10152312 0.06685353 0.018088272 -0.086742945 -0.0017854684 0.22267884 -0.3816757 -0.36617792 -0.16395105 -0.059414387 0.04768034 0.008039068 0.088375665 0.32253134 0.5580287 0.24452306 -0.07297063 -0.09259038 -0.0048399228
-0.0028020348 0.009293152 -0.08254621 0.13879137 0.020979246 -0.01360129 -0.007379364 -0.0015713773 -0.10835098 0.560794 -0.19986886 0.20237945 -0.39990675 0.012192058 0.007147339 0.35366923 0.24072312 -0.28213194 0.04692933 -0.0031306641 -0.0023444642
0.008718357 0.0074009574 -0.018646466 -0.039555956 -0.0049843644 -0.026310764 0.0024179148 -0.0009870247 0.77244604 0.25538403 0.2001603 0.06882001 -0.29339188 0.007928596 0.013450654 -0.49771386 -0.81567585 -0.44647744 -0.2474866 -0.0680761 0.01281806
0.16862032 -0.02968753 -0.24261309 0.19068742 -0.034874085 -0.071731605 -0.023701403 -0.29516432 0.04902323 0.6188151 0.09563062 0.3596172 0.23691793 0.044585135 0.03015552 0.38567594 0.19177645 -0.1483025 -0.056647312 0.2643014 -0.0141373435
-0.015186843 0.17577595 0.45893863 -0.021142548 0.016356578 -0.11493547 0.002068853 0.024589423 -0.22024316 -0.5187839 -0.09841348 -0.06381396 -0.08963259 -0.0054794988 0.020245017 -0.29333782 0.59006333 -0.17597084 -0.035816062 -0.14272758 0.0042734514
0.001385979 0.37203586 0.0042226478 -0.047806006 -0.00039778577 -0.18743807 -0.0063576787 0.014268869 0.14332591 -0.033125628 -0.17947847 -0.02268924 -0.07823176 0.011184519 0.05360145 -0.24433057 -0.5189763 -0.36743736 -0.008083917 -0.3581104 0.0045165457
-0.014789131 -0.124373645 -0.041057214 0.19170739 0.0021321794 -0.2864189 -0.0040550088 0.022884455 0.1795934 0.2557737 0.028623465 0.00024596206 -0.078382924 0.0086114565 -0.0058392994 0.96620536 -0.0807373 0.36097163 -0.099429876 -0.2531931 -0.0012736208
0.07908515 0.047214482 0.38252047 0.4254034 -0.015234033 -0.028010512 0.012206705 -0.16766697 -0.27454424 -0.58596575 -0.69830525 0.0409023 -0.020820675 -0.018056171 0.03852218 0.032466974 0.56623125 -0.31086418 -0.095799565 0.033429235 0.004006575
0.017287448 -0.10147619 -0.005949728 0.21261445 -0.0045729666 0.0004146687 -0.0023187296 -0.04500562 -0.32447156 0.052115794 -0.36727777 0.03578938 0.020554032 0.00282882 0.055429824 0.5263508 0.35982674 0.245413 -0.0032908218 -0.077918366 -0.00022877441
-0.0017654956 -0.2546668 -0.24106404 0.004452022 -0.07794508 -0.03932545 -0.08216924 0.031407103 0.20628995 -0.042658925 0.116849184 -0.090396106 0.037605166 0.14586528 0.047987036 0.25306746 -0.16425316 -0.057527333 0.07151924 0.27126688 0.0635396
-0.102168314 0.012761583 0.43568736 0.7103365 -0.022778142 -0.14061 0.0054275836 1.1782744 0.38869146 0.19028996 -0.4474246 0.10275627 -0.03837905 -0.007357782 -0.6477338 0.4768966 0.4473654 -0.17623541 -0.0034347905 -0.2028162 0.0012120351
-0.12160085 -0.0038647864 0.17306176 0.27199665 0.028038776 -0.3102807 0.011950998 0.18698843 0.1645115 -0.6159411 -0.38025486 -0.15268666 0.09726837 -0.019484177 -0.04315615 0.30434096 0.18706904 -0.037540566 -0.0973583 -0.43276146 0.0072069694
-0.0021191766 -0.05699239 0.22286515 0.19253682 -0.023667997 0.18810336 -0.010778231 0.0074773445 0.10795347 -0.2837058 -0.22651882 0.008728287 0.18126285 0.021634992 -0.005700921 0.018844172 0.2609851 -0.14614381 0.11067894 0.020458704 -0.0076532587
-0.0027785236 0.1311126 -0.011273521 -0.07976061 -0.00042912783 -0.05567175 0.008249832 0.021238256 -0.1393834 0.0048889993 -0.08640074 -0.030635824 -0.121208094 -0.012562739 0.012747252 -0.4439 0.012466417 -0.09080085 -0.20641442 -0.3179996 -0.00071767624
-0.0008254281 0.023088576 0.012259359 0.3672564 -0.00035257117 -0.09800354 -0.009244136 0.003770332 -0.02135126 -0.039392855 -0.4127077 0.018137394 -0.03736102 0.016706703 0.004471872 -0.11188024 -0.017459929 -1.3488692 -0.043333538 -0.09236104 -0.00012598465
0.00050222577 -0.007781392 0.00019408691 0.06668884 0.0008350141 -1.1890336 0.08736717 -0.0018838308 0.0069697136 0.002098707 -0.010068334 0.0026407135 -0.9880223 -0.16761152 0.000609014 0.0029608584 0.006013553 -0.07352688 -0.012724512 0.36996034 0.026689393
0.00011140667 -0.036667965 -0.04186023 0.2180708 -0.057310294 0.21260372 0.00020442852 -0.010303268 0.05115987 0.07393348 -0.1926305 0.05604947 0.045983844 5.5736335e-05 -0.0065398095 -0.031320468 0.028161792 -0.21586815 0.0033722601 0.24421032 0.007645155
0.030551994 -0.00361919 -0.29862344 0.35169113 0.006212036 -0.07116179 0.0021621343 0.802116 -0.0030280936 0.37433 -0.419264 -0.020574983 -0.01050147 -0.009500528 0.63441 0.003885543 -0.39301684 -0.4048193 -0.011844129 -0.10387562 0.0008613965
-0.8085416 0.19166389 0.29091182 0.5203149 0.0013383696 -0.0643979 0.0037995533 1.240804 -0.54032445 -0.5767436 -0.42899948 0.011267876 -0.031771105 -0.0067791427 1.2683896 0.38368002 0.33668616 -0.10775747 -0.038617685 -0.06497124 0.0009985386
-0.4662004 0.04024015 -0.0068228086 0.22107238 0.0071990397 -0.16545781 -0.0026214442 0.7321378 -0.14074712 -0.17666242 -0.36530948 -0.017664535 0.023023743 0.007183281 0.32712075 -0.39190623 -0.098735385 -0.7885211 0.0010926992 -0.30414715 -0.0028596474
-0.027391648 -0.17265417 0.020016555 0.12245446 0.039138697 -0.26501915 0.030296566 0.08344005 -0.16720502 0.27789903 -0.10705357 -0.3240598 0.3048886 -0.059127547 0.0175438 0.40888196 0.21121703 0.076420195 -0.14526054 -0.30843553 0.0047922465
-0.12814754 -0.056790452 0.11942598 0.42909357 0.042429175 -0.05799493 0.005603849 0.14369304 0.34085947 -0.67829216 -0.3747549 0.16028926 -0.34956205 -0.012434915 -0.08711803 0.40770742 0.13752347 -0.11117641 0.23241705 -0.4202171 -0.001880824
0.010118688 -0.019372892 -0.16167176 0.0052129356 -0.0023657216 -0.20527215 -0.0022389204 -0.09227786 0.034300227 1.1680431 0.48271763 -0.07961861 -0.090659425 0.0001701392 0.003480055 -0.27086586 -0.06310456 -0.3203036 0.08688005 -0.18601547 -0.0033873185
0.006900355 0.07562635 0.029593796 0.29427636 0.017001688 -0.2414134 -0.01574496 -0.0023670667 0.06758631 0.020497167 -0.27446792 0.005710313 -0.005256167 0.026129488 -0.014551363 -0.23454703 0.92303234 -0.5663014 -0.06421216 -0.16488203 0.0037402285
0.00072246836 0.108908325 -0.061861474 0.13691346 0.01497729 -0.037841156 0.0029723772 -0.05339874 -0.16493393 0.693913 0.06485788 -0.029194666 -0.034038693 -0.0005817996 -0.017341353 0.15328147 -0.023422377 -0.33017677 0.0029398797 0.028943868 0.0036859824
-0.03207074 0.054586828 -0.017047243 0.10510365 0.05961279 0.08765653 -0.014736434 0.10134188 -0.18678737 0.23769678 0.035417818 -0.31474683 0.19077325 0.021165414 -0.009732678 -0.023909446 -0.27792087 -0.18481994 0.06095591 0.27038524 0.002519559
-0.0056352178 0.061987817 0.020444617 -0.21215361 0.057200674 0.098137505 0.00028278513 0.00869216 -0.086687505 -0.039998733 1.9462199 -0.35116947 0.053083915 -0.0010079017 0.008346057 -0.0061745057 -0.04179651 -0.19217968 -0.13127466 0.03993705 -0.003961279
-0.076110564 -0.22847934 0.07938084 0.11645149 -0.0671653 0.0708647 0.0026851192 0.22696263 -0.101822086 0.22288845 -0.364396 -0.1784929 -0.1816942 -0.010623895 -0.063175 0.18933973 0.3033983 -0.023805076 -0.15181522 -0.13929294 0.011477725
0.0024857053 0.021119121 0.022009006 0.32442585 -0.026704535 0.20508523 0.00539185 0.0067724893 -0.024545783 0.009534117 -0.14330134 0.070985936 0.18482299 -0.0048067817 -0.010385885 0.0921736 -0.24120484 -0.06403359 0.16797188 -0.11069509 -0.0021932614
0.014041579 -0.09796863 0.020983934 0.3097248 0.013038719 0.22708982 -0.008241626 -0.04280668 -0.039257176 -0.09909941 -0.22007762 0.008362731 0.30845556 0.021421237 -0.014460274 0.27881387 0.2125828 0.21194945 0.24537669 -0.037415676 -0.00023511007
0.0032499032 0.14701173 0.031747524 0.015392403 0.050604343 -0.015272775 -0.019526629 0.03316714 -0.07648446 -0.14587973 -0.25049436 -0.090486 0.1069828 0.056234922 0.024043329 0.1695937 -0.029364133 0.056477576 -0.21580967 -0.13145311 -0.004267345
-0.007145645 0.10853499 -0.56728464 0.15672916 0.24825755 -0.031616136 0.02663104 0.016774084 -0.2630658 0.95365596 -0.14492103 0.24610943 -0.19436724 -0.057722062 -0.007740534 -0.11336949 0.35626143 -0.3498334 0.35221577 -0.40579677 0.0051878756
0.0020501972 0.14191182 -0.01944795 0.08729347 0.001899309 -0.017067395 0.002291073 0.0026426343 0.49279937 0.040260464 0.11871424 -0.0011256797 -0.027481586 -0.0031528424 0.032197423 -0.0068847407 0.6266467 -0.5306724 -0.11184206 -0.20941052 -0.00027826673
-0.025023209 0.029241225 -0.27461568 0.18681486 -0.016363196 -0.07772676 0.0044280468 0.0579695 -0.05371887 0.42154738 -0.62430465 0.11597395 -0.19144043 -0.008260604 0.016902952 -0.10157213 0.23677151 -0.5197772 -0.05461774 -0.039246727 -0.0010671234
-0.008621682 0.00035846184 -0.008347091 -0.14961971 0.0011430911 -0.27501598 -0.0044496506 0.01478581 -0.020622727 0.007565453 0.47411108 -0.0047168615 0.1682156 0.004628321 0.004978622 -0.63604546 0.013931845 -0.6924092 0.12275751 -0.6793891 -0.0007837143
-4.6255598e-05 0.0049260333 0.034060538 0.3464575 0.20561352 -0.807082 0.03772977 -0.0007679388 -0.017437618 -0.06512245 0.9871251 -0.1651659 1.0659909 -0.06736925 -0.0012766417 0.057066362 -0.023326216 -0.90522975 1.7019666 0.25213078 -0.017392617
-0.007019839 0.026199942 0.0055675963 0.026744941 0.010192923 -0.082877226 0.0045957593 0.022302687 -0.4757271 -0.05767613 0.13208078 -0.034267206 -0.01897709 -0.008974075 -0.04290945 -0.28172436 -0.60988307 -0.43872446 -0.039325096 -0.2113526 0.0023435277
0.0037278114 -0.05141141 -0.14118785 0.32571584 0.08400868 0.06507563 0.17353895 -0.010421844 0.06764223 0.22904359 0.11516691 -0.822989 0.19708167 -0.32300532 0.005623578 0.027792975 -0.017944718 0.27065042 0.49669132 0.50472504 0.08229767
-0.1560672 0.057370737 0.15734436 0.17421195 0.008164138 0.03642907 -0.0014953419 0.2932875 -0.25972924 -0.30626553 -0.12866193 -0.0016023743 -0.027014542 -0.0026579 0.19393218 0.4863339 0.27376717 0.22032791 0.025380297 -0.03062372 -0.00014244509
0.0008044673 -0.0060494454 0.004215544 0.19984479 -0.022294963 -0.066845916 0.0005194626 -0.023364484 -0.2412807 -0.14781876 -0.08359349 0.15827265 0.41608283 -0.0023260466 0.014893533 0.31667915 0.18436831 -0.02082442 -0.1891897 -0.062019937 0.00065044273
0.06465179 -0.18136047 -0.07655366 0.20405407 -0.370049 -0.0063185045 0.0032212574 -0.2586978 0.26176083 -0.06919208 -0.35449448 0.350414 -0.23779209 -0.006887262 0.060420595 0.34508857 0.18057637 0.2422237 0.094698355 -0.3083651 0.0011499423
-0.017408052 -0.05092719 -0.013638394 0.048425723 0.008129579 0.013887776 -0.004464666 0.076102704 0.41278616 0.45317793 0.21571516 0.16581137 -0.26527795 0.015098803 -0.020670945 -0.24428098 -0.21904032 -0.19436565 -0.090110675 -0.10480948 -0.0025751085
-0.034645338 -0.044903386 0.11094233 0.3354095 -0.1950095 0.053859048 -0.0015460429 -0.0014134798 0.26040477 -0.45396852 0.18059583 0.0025515268 0.30740595 0.008769457 -0.027736222 -0.19160298 -0.077221096 -0.7939868 0.47955742 0.24102351 -0.0061910897
0.009098974 0.098755166 0.015620433 0.09579431 0.04638025 -0.07348665 -0.011837836 -0.050319068 -0.3578218 0.24750349 -0.052269608 0.20079744 0.12905502 0.03448587 -0.014804222 0.16452184 0.056582507 -0.15366605 -0.041273262 0.10756653 -0.0068306183
0.055384137 0.14416823 -0.09395409 0.34243408 -0.025642283 0.17757092 0.0028198971 -0.0927893 -0.5230642 0.46701083 -0.18522957 -0.032108516 0.019723628 -0.00504684 -0.025312534 0.26225296 0.30868036 -0.013730057 0.13601696 -0.16419971 0.0045677796
-0.0007760152 -0.007964091 -0.00074153685 0.07591524 0.0013833952 -0.89411473 -0.12268091 0.0016324657 0.0076634977 0.0032858977 -0.012065067 0.004676381 -0.8857617 0.5398532 0.001145487 0.0057340376 -0.0011313801 -0.07621288 -0.007564712 0.12404091 -0.3486827
-0.0036759013 0.16921328 -0.028254684 0.07832596 -0.001140737 0.064932264 0.008303678 0.0125216395 0.043318447 0.03305023 0.09702914 -0.006421197 0.05391986 -0.015073949 0.032760557 -0.3769064 0.47764954 -0.49899787 0.006961607 0.03316182 0.0031297232
0.0020965196 0.092067175 -0.0002255934 0.058470868 0.0030449324 -0.05192421 0.011266255 -0.0063844537 -0.04996105 0.0043343455 -0.07518636 -0.01778601 -0.20121095 -0.024294538 0.004489757 0.970614 -0.036996048 0.108522594 0.018517438 0.09146051 -0.0017523057
0.004814109 -0.056080967 -0.0014186542 0.2938541 0.0015287414 -0.12925828 -0.0012838112 -0.013370172 0.11234686 0.031955265 -0.1004923 -0.021433605 0.80453044 0.008986013 -0.026127642 0.1280736 -0.029966995 0.12150994 -0.27592272 -0.37263542 -0.0112385675
-0.0011564565 -0.064372756 -0.57877654 -0.052650116 -0.009327441 -0.09144352 -0.008058614 0.01013944 0.11041008 0.93417066 0.13667852 0.040112976 -0.093959734 0.013864147 -0.023595728 -0.055713635 0.40833414 0.17732182 -0.374913 -0.12064651 -0.006757606
0.00042196753 0.008498929 -0.053632766 -0.10424259 -0.111586094 -0.26771367 -0.0030640108 0.0014783427 -0.019545201 0.08880655 -0.8516414 0.20465012 -0.29047528 0.007434326 0.00055456086 -0.021010311 -0.06252898 0.024303664 -0.04676576 -0.41727257 -0.00539905
0.0010271815 -0.0601075 0.052212805 0.14404547 0.05026011 0.17102094 0.001785777 0.001127499 0.06302009 -0.09499514 -0.12983829 -0.051696785 0.19223835 -0.0013925736 0.0040746625 -0.07067272 -0.016304353 -0.07506687 0.10207446 0.13486305 -0.0077304877
0.00096134294 0.50037265 0.08285043 0.3285156 -0.0052302247 -0.21110532 -0.001033686 -0.01122061 -0.41316432 -0.115194775 -0.7841424 -0.043671638 -0.17884429 0.003965295 0.078683905 -0.85638165 0.8522394 -0.6008863 -0.02197274 -0.22158486 -0.0015682005
-0.039825957 0.15598767 -0.04213069 0.0059404 -0.019340055 -0.027705373 -0.0017885643 0.10238051 0.24758558 0.04528017 -0.03153401 -0.020981308 -0.054394532 0.0073750378 -0.17528236 -0.33032152 -0.6574051 -0.22391133 0.01732392 -0.01794855 -0.0022542272
0.005024423 -0.07944677 0.008004924 0.60280263 0.006542106 -0.5743179 0.018484123 -0.0071332813 0.09065512 -0.026544886 -0.41479003 0.022625636 -0.53452045 -0.028436512 -0.0067292354 -0.02859203 -0.012825622 -0.55346525 -0.060154606 0.9275704 0.0023887188
-0.0033774464 -0.007834892 -0.0024450892 -0.07933724 0.19780439 -0.4375276 -0.030028766 0.007564551 -0.0011715047 0.0027805003 1.6025708 -0.21672429 0.78885466 0.054734215 -0.0013313842 0.003710726 -0.024393013 -0.51449186 1.0828325 0.49753717 -0.0013210932
-0.08452887 0.0369513 -0.1893488 0.2638755 0.019370098 0.096539795 0.0063737147 0.1624484 -0.11739193 0.2784334 -0.32013988 -0.058196135 0.042784773 -0.01661908 0.027717916 -0.07139362 0.2414452 -0.16154808 -0.03810355 0.18742247 -0.0005724839
-0.007156512 -0.4376443 -0.35340804 0.47831643 0.027898604 -0.015417949 0.010077004 0.0075968145 -0.14103428 0.49798304 -0.14470008 0.29324067 -0.097904675 -0.020064216 0.01517709 0.48340598 -0.31378424 -0.25092077 -0.012446953 -0.2516616 -0.0039995443
0.027364578 0.11781888 -0.13014142 -0.01467333 0.0349311 -0.10029135 0.0022282398 -0.010697909 -0.17646413 0.8121013 -0.16460107 -0.23199865 -0.01792445 -0.0031638572 -0.025935495 -0.062390696 0.13846737 -0.31998414 -0.0030047002 -0.057835497 0.0032154026
0.0005282056 -0.060380507 -0.006728258 0.12797569 -0.037697576 0.18090762 0.01335708 -0.0041852347 0.05651732 -0.015138593 -0.21852428 0.048308924 0.1579899 -0.031970933 -0.0057716276 -0.49265966 0.039183233 -0.1953435 0.046363194 0.26760936 0.00043064883
0.0033427088 -0.1000174 -0.0044175987 -0.18275526 0.019829396 0.08113657 0.0038633095 0.00021905977 0.1692848 0.0010632956 1.3984021 -0.23055418 0.07621091 -0.008011441 0.008037699 0.040366378 0.09363709 -0.18545286 -0.09833148 -0.034182142 -0.0029021404
-0.06898865 0.04284237 -0.09334074 0.38103557 -0.059707664 0.38019764 -0.0042000893 0.11840326 0.012762386 0.33532843 0.0024194915 -0.22823472 0.29998523 0.022069346 0.0026818737 0.1289495 -0.07236523 0.34619316 0.19417769 0.37814415 0.008621098
9.5491385e-05 0.060338724 -0.08033425 -0.0461837 0.031207876 -0.3967526 0.00040206924 0.0011358099 -0.045341775 0.14929815 0.24646366 -0.070425205 0.37029105 -0.0046187183 0.0044623152 -0.059609957 0.029089155 -0.4175952 -0.63624847 -0.38409775 0.0017091287
0.0035532713 0.26060617 0.15673874 0.055004273 0.0025767575 -0.20181759 -0.0037575748 -0.057169758 -0.038837705 -0.57295316 0.11483662 -0.23439035 0.2901323 0.008125775 -0.02672769 0.14758107 -0.18151785 0.034679543 -0.016904632 -0.38800147 -0.0015034028
0.0007637176 -0.02237721 -0.019666899 0.1246256 -0.016943892 0.026666049 -0.0014523991 0.005956616 0.076017946 -0.038161132 -0.37625197 0.01034431 0.026417602 0.0066040475 0.0020073373 -0.025951292 -0.09575527 -0.09753297 -0.09870151 0.040819157 -0.002266041
0.103673354 0.13723594 -0.19837856 0.25415042 -0.085542664 -0.03694244 0.0041974466 -0.09301173 0.12934461 0.7088222 -0.28490928 -0.06747572 -0.21996805 -0.008583411 -0.1185462 0.19901715 0.0497166 -0.420591 0.0838052 -0.16905478 0.005136068
-0.0013542164 -0.06641951 -0.035884272 0.24056116 0.01622008 0.18998374 -0.011024899 0.0044342666 0.07610496 0.053684346 -0.10916625 -0.021479657 0.1655405 0.026339559 -0.003896944 -0.09947125 -0.027398674 -0.26000258 -0.06494119 0.18999405 -0.010444942
0.0016338467 0.026203455 -0.011830555 -0.30740198 0.0397301 -0.0011653318 -0.0061696772 -0.0014428014 -0.024806952 0.009678028 1.6243273 -0.25734377 -0.008702202 0.012951182 0.0045962217 -0.043679908 -0.0016662788 0.18525858 -0.08331288 -0.03483109 -0.0021727602
-0.0007719249 -0.011545253 -0.0007424951 0.28012034 -0.0011281202 0.008439975 0.09979182 -0.0008332004 0.016274353 0.002110473 -0.09358506 0.0076625147 0.010469782 -0.8134738 0.0013229363 0.01669588 0.0021702822 -0.31158674 -0.0070672436 0.021730121 -0.6167505
0.003723706 -0.057732336 -0.00129397 0.14261502 0.0029675127 -1.2977427 0.06299205 -0.006481537 0.06182587 0.0012545962 -0.14981394 0.006131068 -1.091178 -0.12064956 -0.0044754604 -0.016352667 -0.0028827293 -0.08849394 -0.06351739 0.7773838 0.012291915
0.03454318 0.002215724 0.009788484 0.23919086 -0.008085857 -0.20638283 3.598106e-06 -0.11518413 0.0063115307 -0.64664006 -0.41416955 0.037003104 -0.04051412 0.0003958287 0.005007606 0.0044601085 -0.21074834 -0.36722615 -0.041186225 -0.31094244 0.0030628818
-0.0049302336 -0.0177867 -0.006760284 0.03776203 -0.004405546 -0.24251817 0.0013384143 0.006978632 0.73917556 0.011642754 0.311303 0.021881355 0.17739499 0.00030628685 0.013110732 0.092576735 0.5583937 -0.45046422 0.085501425 -0.3715687 0.0017212798
0.0029075984 -0.029120777 0.26574728 0.22908674 0.0054827034 -0.20798774 -0.0055097914 -0.00969649 0.0854061 -0.33203727 -0.5416294 0.013823874 0.15069322 0.0031728249 -0.0070305904 -0.20011906 0.26658717 -0.55474627 0.01610366 -0.20577872 -0.00026775274
0.118910864 0.11104074 0.12931202 0.19623116 -0.026006674 -0.3126474 0.004080441 -0.163739 0.4482259 0.25889 -0.26217926 0.21349211 0.30157903 -0.010153039 -0.05751026 0.41681382 -0.1298039 0.059494838 -0.17668079 -0.38815224 0.011155288
0.0038004247 -0.054644886 0.0013583943 0.6083908 0.001524037 -0.79492486 0.021037975 -0.008953451 0.05565247 -0.011407476 -0.5480136 0.02398483 -0.879079 -0.030393833 -0.0059112394 0.0060770684 0.001680316 -0.47258824 -0.07161139 0.97156143 0.0054043494
0.0011367623 -0.108526565 -0.27453977 -0.19120276 -0.057787895 -0.2728622 0.0053009368 0.0021982542 0.114662856 0.022742739 0.31837434 -0.2291574 0.21453403 -0.02832871 0.0019548978 -0.12938957 -0.4414511 -0.041004505 0.0033093072 -0.141776 -0.033955183
0.0066611376 -0.18279092 -0.13918932 0.0115860505 -0.1085084 0.034176625 0.0078500975 0.049002238 0.21227393 0.43931687 -0.032719657 0.44308373 -0.18943554 -0.020712953 -0.06952941 -0.3573968 -0.45519844 -0.070093736 -0.16971895 -0.13480385 -0.0042355
0.0018019386 -0.0097200805 0.34782878 0.16933644 0.66306096 -0.5318909 0.11685205 -0.0065760748 0.012501622 -0.56218195 -0.386452 -0.015882323 0.29460394 -0.20868523 -0.00037336643 -0.0072147576 0.15272367 -0.09960062 0.59024364 -0.3442584 -0.038738262
0.13467352 -0.004306835 0.45545655 0.44518763 -0.021332012 -0.13380438 0.0005327532 -0.20055881 0.3933721 -0.18752393 -0.28276342 -0.082805775 -0.30819917 -0.0019409396 0.010600527 0.44113138 0.40211427 -0.15095748 0.1447476 -0.34717545 -0.002775159
-0.15932341 0.17365271 -0.3884886 0.33058903 -0.053063404 -0.092868544 0.007786548 0.2216694 0.86523634 -0.2533891 0.51980233 0.29637706 -0.15380006 -0.021028388 -0.16365206 0.5454922 -0.012762559 0.08688068 -0.34746957 -0.1921801 -0.010509852
-0.010517286 -0.024047846 -0.30161408 0.07003356 0.042756937 -0.020099984 0.01319714 0.022618799 -0.10660617 0.20488508 -0.24689893 0.08623048 -0.21293783 -0.028411213 -0.003606285 0.24409229 -0.41404912 -0.082868114 0.10682452 -0.11099348 -0.00045532038
