0.21875471 0.10596573 -0.030997405 0.37665766 0.19869651 0.19756709 -0.21766502 1.0654355 -0.1615826 0.36272556 -0.09339382 -0.15507893 0.0049587246 -0.28702268 -0.24635021 -0.1957552 0.26417977 -0.14502226 0.15857083 0.1302784 0.08577312 -0.16498893 -0.38436472 0.10038329 0.09336937 -0.19416605 -0.33250892 0.03136284 -0.39443174 -0.094627455 0.16416657 0.12456401 0.11269222 -0.007768764 0.08694904 0.02461016 0.15461265 0.20293687 0.029018566 -0.01838248 -0.21784315 0.25304207 -0.07683435 -0.1991509 -0.0017414344 -0.07578286 -0.12334062 -0.17975369 -0.22373866 -0.09099865 -0.02045903 -0.019697366 -0.09772117 0.1916431 0.26968417 0.09446468 -0.16010311 0.07721113 0.06405341 0.2790292 0.5795403 0.014475196 -0.3195605 0.2308714 -0.4312353 -0.2314868 0.20056571 -0.23625955 -0.25783554 -0.0932932 -0.29823568 0.26612198 -0.0053434856 -0.029125413 0.056878664 -0.50111836 0.44252583 0.30346382 0.1134099 0.360613 0.10389452 0.30956843 -0.09182665 0.15140204 0.015642934 -0.016083742 0.15543582 -0.3280088 -0.40560484 -0.22636156 -0.031790085 0.090185694 0.010120349 -0.19719239 0.09316475 -0.03535003 -0.08250707 0.010939264 -0.60618556 -0.22645368 -0.11871753 0.057568222 0.078508474 0.058048468 0.06356009 0.12098467 -0.14221157 -0.10744588 -0.014040823 -0.29310948 0.070072606 0.0026418557 -0.123328 -0.10188602 0.19666465 -0.017839206 0.2557024 0.13919766 -0.12526649 -0.14652526 -0.097784385 -0.16837856 0.15728027 0.40065914 -0.39386374 -0.10212018 -0.12630409 -0.04852886
0.0847728 -0.16158853 0.10362357 -0.25064036 -0.167727 0.007127671 0.675531 -0.9099798 -0.04454836 -0.48646352 -0.05917027 0.041726492 0.16339235 0.4306672 0.0066112294 0.19597913 0.051305927 0.038616337 0.0042524585 0.13397692 -0.11584282 -0.1126073 0.21270522 -0.024007142 0.19680591 0.03332567 0.10023155 -0.11119005 0.23244183 0.15088132 -0.07849775 -0.18111682 0.056257837 0.11367473 -0.09433742 0.2652654 -0.074371755 0.08286108 0.49281836 -0.032127086 0.06370271 0.09848115 0.09046819 0.21888067 0.16120419 -0.06984202 0.48210025 -0.02947126 -0.21292414 -0.014506325 -0.09815924 -0.019122876 0.14724685 0.07386242 -0.0072748535 -0.16395234 0.327347 -0.088112794 0.12713568 -0.12164122 -0.45854405 0.22230844 0.23265775 -0.014673991 0.15504542 -0.039798252 0.16449949 0.010888066 0.25504297 0.11865075 0.26019722 -0.039424613 -0.11745669 -0.18077268 -0.027351419 0.19190481 0.084566675 -0.047874797 0.02263713 -0.2878195 0.1006227 -0.07387023 0.18924196 -0.2918681 -0.1193681 0.029917587 0.036985915 -0.050815526 0.27898628 0.11349384 -0.098592386 -0.06204026 0.084626496 0.10934381 0.00863838 -0.12226167 0.10788089 -0.03761516 0.3426334 0.13743408 0.056990676 0.029009562 0.16733813 -0.20529999 0.12167527 -0.11479459 0.15590487 0.032715682 -0.39727995 0.31649098 0.1559154 0.24683803 -0.05881789 -0.011688278 -0.09402824 0.00408345 0.05726982 -0.20066759 0.059762437 0.10754646 -0.1062369 0.13898014 -0.019104047 0.12683067 0.31598476 0.18355633 0.27963427 -0.062044792
-0.14796422 -0.028814277 -0.11537205 0.19950745 0.103561334 0.096959285 -0.2023327 -0.5999178 -0.09428463 0.2702278 0.023249343 0.13800436 -0.09008011 0.08545731 0.17615862 0.5884929 -0.057845604 0.23567438 -0.0601473 -0.5683831 0.09342423 -0.3004831 0.5552845 0.2617151 -0.19950491 0.097901456 0.101764984 -0.15008129 0.050730072 -0.2947223 -0.036552176 0.0841458 0.014879945 -0.06470091 -0.2093623 0.06668158 -0.15895958 -0.105913945 -0.06969652 -0.18769112 0.029438013 -0.084578864 0.02446632 0.23423265 0.032567088 0.21908058 0.21100864 -0.002176571 -0.26091832 -0.1429084 -0.0357156 -0.090352595 -0.16313922 -0.4203527 0.03737691 0.077494875 0.21567062 0.04457218 -0.06397846 0.24100058 0.3184126 0.27854732 0.0026067263 0.13438688 -0.449954 0.16582568 -0.5899529 0.121730015 0.4594483 0.15514456 0.095231056 -0.10398259 -0.22278611 0.06768634 0.0050591193 0.2506202 0.23528643 -0.3312405 0.022459006 -0.03495702 -0.0066198832 -0.21384192 -0.12641545 0.12722917 0.027877696 0.16390653 -0.049054425 -0.20915867 -0.30078632 0.33400857 -0.07744906 -0.14251682 -0.080196716 -0.27128527 0.0536057 -1.4140924 -0.011063805 0.32533005 -0.33152956 0.19310582 -0.2580941 -0.4666855 -0.06789756 -0.041878648 -0.011418923 0.031830452 0.036983263 -0.07909813 0.45078155 0.51544815 -0.036820546 0.069853015 0.25656393 0.102589935 -0.23575357 0.06593322 -0.35044783 -0.091053866 -0.2723783 0.27591866 -0.0783198 0.07631528 0.11193613 0.22165291 0.653851 -0.095838234 0.07631006 -0.542612
0.14271401 -0.06685707 -0.28084782 -0.17918889 -0.12373233 -0.031077234 0.044113457 -0.56840545 -1.4393984 0.4850531 0.035587527 -0.113069996 -0.06253769 -0.26567245 -0.133322 -0.17895505 -0.04107128 -0.18864277 0.07730498 0.1855431 0.16888094 -0.034860376 -1.4243737 0.3010878 -0.059358127 0.1388625 -0.13855508 -0.24957053 -1.0727273 -0.10957788 -0.037438806 -0.15194927 0.36164117 -0.259621 -0.07625525 0.041798577 0.09116838 -0.010714446 -0.0942606 0.17873795 -0.026914401 0.31154236 -0.010054515 -0.31347853 -0.2514701 -0.09753746 0.039877463 -0.3600479 0.24947222 0.001737937 -0.13203491 -0.04503509 -0.3641182 0.07674935 -0.14949864 -0.034712065 -0.6432562 -0.029965553 0.06400187 -0.16814508 0.7642247 -1.1430452 0.052260857 0.35656926 -0.054641865 -0.38760114 0.1416905 0.060950175 -0.19186234 -0.032143902 -1.0072167 0.060235295 -0.6487921 -0.05256322 -0.23878238 0.0148647 0.14850698 0.12337513 0.060761202 0.0020599961 0.12437636 -0.060184747 -0.15971473 0.6418239 -0.07398771 0.012367653 0.19314183 0.2188778 -0.52747536 -0.24143384 0.01500593 -0.13533303 0.018444862 -0.54748344 -0.12657821 -0.38670057 0.27810255 -0.07052504 -0.6657751 0.05377323 0.0139109045 0.028235145 0.020647313 0.21565242 0.10086245 0.00417583 -0.19790284 -0.1270352 -1.4336588 -0.12695381 -0.16762428 -0.28751752 -0.11907344 0.035956435 0.14744711 0.0021551303 0.30952525 0.03763191 -0.8332988 -0.037814967 -0.33438033 -0.29479098 0.041335035 -0.3293008 -0.8437531 -0.4231003 0.09409191 0.17283852
0.09402633 0.12876795 -0.09481472 -0.14557293 -0.06119768 -0.20629884 -0.12720184 -0.4374716 0.23050225 -0.21776624 0.06487668 0.035749123 0.10602559 0.068419784 0.14804098 0.095044665 0.011783371 -0.009199905 0.05691255 -0.043789044 -0.04025328 -0.027657297 0.33821318 0.050717447 -0.09370192 -0.04543864 -0.056433808 -0.08730802 0.17779864 0.0034193834 0.06858582 0.2270148 -0.004359573 0.118633606 0.21319838 0.113042206 -0.060424432 0.19198902 0.11734847 0.0698261 -0.08477456 -0.05720634 -0.11828118 0.3058924 -0.092207685 -0.019659203 0.04567525 0.1862232 -0.0200549 -0.12932777 -0.045046885 -0.063913256 0.10726604 -0.12584268 -0.070861645 -0.039157752 -0.0037001148 0.02738931 -0.0011527983 -0.11811323 -0.32653788 0.06341328 0.086003326 -0.41920954 0.072184466 0.2478292 -0.1856491 0.17301925 0.16565472 0.059287682 0.11459281 -0.13130762 0.12688059 0.0094946 0.04019135 -0.1805935 -0.20394354 -0.013323656 -0.052022673 -0.10307892 -0.15033425 -0.03502644 0.06919173 -0.18006961 -0.0321935 0.0061944886 0.0043961643 0.15310743 0.120402895 0.15093783 -0.094757006 0.089585684 0.12510592 -0.07044392 0.07158982 -0.30838594 -0.057828795 -0.05619624 0.075182185 0.10269874 -0.004496942 0.01815856 0.006774398 -0.29865065 -0.16002539 -0.08360565 0.34484357 0.01815877 -0.005032395 0.11755917 0.2049041 -0.09294126 0.015333064 0.021879477 -0.08420364 0.116062135 -0.10882969 0.05307635 0.14581801 0.013065535 0.24735431 0.11853929 0.0031250066 -0.2201842 0.117895536 -0.047592342 0.0839606 -0.062039044
0.12475949 0.18921182 -0.16647615 0.07038754 0.11415378 -0.09107031 -0.31330648 -0.51740015 -0.042172536 0.025019186 0.14058515 0.038564347 0.065685116 0.109334245 0.12675644 0.07674123 0.1026315 -0.036350887 0.17572108 -0.19849694 -0.11278401 -0.03345608 0.42596263 0.07527408 0.18047434 0.28796062 0.10876697 0.17261936 0.15818985 -0.021275746 0.0039644833 0.035662822 5.2740914e-05 0.079246745 0.12270828 -0.1395868 0.23298061 -0.10313256 -0.36207762 0.06650647 0.09502373 -0.02907705 0.10244649 -0.1974866 0.13366671 0.105913825 0.24324964 -0.07072738 0.0010218393 0.2453837 -0.12639658 0.06872325 0.3393066 -0.10150123 0.031326227 -0.03754228 0.24888925 -0.11553846 0.12789492 -0.057397958 -0.24741788 -0.0250707 0.11014596 0.28823012 0.29802147 0.1817965 -0.23010677 0.26028153 0.12267797 -0.19024113 0.22204466 0.011808486 0.10810648 -0.011094483 0.114310674 -0.15463406 -0.073136166 -0.097776175 0.17558244 0.0019890952 0.015979694 0.0023993803 0.09284141 -0.2202196 0.101812676 0.23052081 -0.086336285 0.21059905 -0.014012287 -0.007279364 0.21365523 0.0285676 0.10674276 0.13161708 -0.05241983 -0.08777056 0.1255225 0.14514211 -0.04201983 0.10521968 0.27550152 -0.029771265 0.009952263 -0.08972798 0.0892785 -0.02633836 -0.019444702 0.1595942 0.019336129 0.11017873 0.10148435 0.05392524 0.26047713 0.23916344 0.027235508 -0.029316869 0.038560234 -0.1382247 0.119049855 0.020301199 0.241274 0.23519151 -0.00698773 0.095739394 -0.04155119 0.2523849 -0.108294636 0.12844415
-0.10169276 0.14383505 -0.056030728 -0.2169626 -0.026271058 -0.2818685 0.23647118 -0.9670824 0.16233654 -0.027958902 -0.13859999 0.14350723 0.22071733 0.15314995 0.21074946 0.36345592 0.0025523303 0.1821384 0.006279469 -0.11608915 -0.3055186 -0.06861667 0.6007381 -0.18403319 -0.012939737 0.14232327 0.22095713 -0.0068471497 0.22185111 0.253275 -0.23520617 -0.083807096 -0.25835463 0.30890396 0.0035605375 -0.095722444 -0.12891898 -0.0842457 0.14882205 0.081715375 0.09229147 -0.36551282 0.22823362 0.05469033 0.14436309 0.13739498 -0.10440173 -0.09837195 0.22586265 -0.1057353 0.13281491 -0.22562875 0.011317468 -0.1712433 -0.068532996 -0.26467657 0.097763315 0.20576532 -0.24058314 -1.1318222 -0.15923588 0.06733007 0.044229344 -0.031176126 0.39088544 0.24386689 -0.5608379 0.14109965 0.12807064 0.15435128 -0.06136215 -0.05527317 0.08410362 -0.048488192 -0.22700582 0.28686556 -0.69201803 -0.0697055 0.2439566 -0.31230685 -0.19020382 -0.37997666 0.018608958 -0.26363096 0.042788878 0.20510669 -0.26716554 0.16340472 0.3860443 0.0059364527 0.12862031 0.15355825 0.2766476 0.39099547 0.060141396 -0.4179556 0.14248173 0.022375094 0.33632088 0.27140757 0.10208833 -0.09522426 0.17628516 -0.4241918 0.04185172 -0.008184379 0.16038974 -0.05502583 -0.21750858 0.115874544 -0.08381092 0.27713224 0.15412034 0.061090052 -0.009636857 0.033178717 -0.15792309 -0.09653514 0.031954587 0.013622938 -0.041089192 0.17641827 -0.027166788 -0.21935456 -0.015066799 0.18135065 0.015204135 -0.048665516
-0.23555583 -0.06989439 -0.031067023 -0.035870634 0.013402538 0.090339184 0.038376354 0.27240458 -0.109483995 -0.031111008 -0.08687866 -0.03189119 -0.001166134 -0.11295401 -0.13568388 -0.21692148 0.05414127 -0.028072052 -0.12161873 -0.090907186 -0.15001021 -0.031839076 -0.47123456 0.16434205 0.0628065 0.12272377 -0.05499585 -0.02486273 0.3418948 0.02064084 -0.16621098 -0.046273366 -0.08716518 0.088880375 -0.022907771 0.08149265 -0.022707669 0.11442563 0.007150064 -0.0291223 -0.0020526221 0.05334805 -0.12481198 -0.07033158 -0.063565865 -0.0080445 -0.021200268 -0.11750241 -0.10191668 0.1228959 -0.2519232 -0.022172395 0.10100271 -0.04206211 0.19207259 0.15324031 0.062403522 -0.03103588 0.1204264 0.12760565 -0.09630889 -0.0311418 -0.00020341547 -0.12782192 0.05487284 -0.04960997 0.016142795 -0.19287108 0.53417814 -0.011370259 0.88782483 0.11814438 -0.10742054 -0.09765301 -0.0063422895 0.06657345 -0.02684183 -0.12117796 -0.22466382 0.007975674 -0.015210609 -0.32936588 -0.010775636 0.25648412 -0.21275683 -0.01319166 -0.05094624 0.10204343 -0.06676066 -0.026194077 0.08291273 0.01608047 -0.12618649 0.05403351 0.009196794 0.6868766 -0.18161446 0.09515446 -0.21328956 0.27202526 -0.016753448 0.22245368 0.054234657 -0.18178304 -0.13942093 -0.02182654 -0.076527484 0.01694534 -0.6278106 -0.13220252 0.04337706 -0.018028663 -0.20421319 -0.05120475 0.043367032 0.25155517 -0.21595338 -0.16956532 -0.14401454 -0.06528112 0.031293895 0.0005732895 0.30494913 0.33455893 -0.548855 0.15967529 0.014840133 0.096299544
-0.02532474 -0.021043865 0.008191954 -0.04057691 -0.0017195904 0.04805398 0.029369354 -0.04026554 -0.060192313 0.041255187 0.09548321 0.16631158 -0.1500147 -0.043868076 -0.005210982 -0.08737356 -0.12643668 -0.138143 -0.10530674 -0.092108734 0.13769482 0.14032687 6.97391e-40 -0.056058887 -0.09318351 0.023760771 0.017102407 -0.014695521 0.11017967 0.029853398 0.16668701 -0.13053344 0.14939117 -0.099611886 -0.094300665 -0.14362575 -0.048638538 -0.23624484 0.095805444 -0.062281255 0.051980354 -0.004674274 -0.03752404 -0.0029121009 -0.041144017 -0.11025281 0.06209469 0.074043274 0.008491416 -0.03297016 -0.1802687 -0.05643282 -0.048263524 0.03076203 -3.7334867e-05 -0.07208055 -0.021571452 0.009589442 -0.21052276 -0.31751907 0.0251646 0.013285505 0.048561696 -0.12632684 -0.008239009 -0.12270062 -0.13868324 -0.026342656 -0.039268374 0.00082385965 0.0650011 -0.047048774 -0.09141496 0.027598016 -0.033301547 -0.10719385 0.02583563 -0.013724572 0.16406932 0.031384878 -0.09606288 -0.10625947 0.081428036 -0.083571225 0.16115293 -0.0071841124 0.05338094 -0.08253591 0.0696959 0.03462068 -0.15523961 0.08758807 -0.09623406 0.059306413 -0.08428771 -0.009564951 0.052068096 -0.042843387 0.09142027 -0.079852656 -0.084600955 0.02372317 0.008008671 0.13086535 -0.11990224 -0.0141542265 -0.089446366 -0.12522276 -0.05697203 -0.03958781 -0.01082215 -0.055403654 -0.0770109 -0.12408091 -0.05225727 -0.053079803 0.09940269 0.10580766 -0.25187874 -0.05946726 -0.032465577 -0.0041922242 -0.10112544 -0.04353212 -0.05139096 0.0014821423 -0.122724175 -0.0671407
0.04945383 -0.047595605 0.0126012685 -0.13879828 -0.093180545 -0.044940412 0.0058834734 -0.13443197 0.07327221 0.079554364 0.010459565 0.01647494 0.1048814 0.031765357 -0.0007706554 0.2837981 0.15401246 0.049216244 0.08701185 0.10585824 -0.03538953 0.0009744347 -0.037593327 -0.1480327 -0.13799791 -0.014130463 0.2964427 0.14489451 0.020398365 0.06989392 -0.028282383 0.21163668 0.047923084 0.08976203 -0.050794985 0.09938196 0.27141812 -0.09404754 -0.07432053 0.06158522 -0.07308667 -0.07880079 -0.022681054 0.020390024 0.070410535 0.23048513 0.10990191 -0.043294962 0.14793608 -0.11089292 0.16241051 0.08949993 0.2551506 -0.22419652 -0.15777344 -0.27545813 0.11617989 -0.055419277 -0.23447776 -0.07259049 -0.5251461 0.28344047 -0.04498148 0.14770056 0.0039861593 0.03712668 -0.26680425 0.13919452 0.12816304 0.07419319 0.47852656 0.054287817 0.05070358 0.04477718 0.014981641 -0.5061715 -0.13594508 -0.25831556 0.10449437 -0.031354014 -0.16032632 -0.3596044 0.013854112 -0.18203834 -0.074868605 0.18232396 -0.020224137 -0.0019148934 0.09617153 0.05655284 0.06679378 0.053241823 0.081867404 -0.033601828 0.095293544 0.118083164 -0.14658336 0.14309521 0.21567683 -0.014626484 0.15460932 -0.08628748 0.056789547 -0.243348 -0.036848992 0.066278316 0.067132205 0.073129185 -0.059060924 0.31956986 0.17587893 0.10860158 0.15615156 0.13821745 -0.054302957 0.024354914 -0.067462526 -0.07398213 0.20813406 -0.09307101 0.05380296 0.110995136 -0.078503355 0.3353442 0.278255 0.01917803 0.018350514 0.030316714
0.07753823 0.18292989 -0.08107951 -0.50637 0.30486646 0.09706257 -0.4671314 0.12948392 0.07700901 -0.9818815 -0.106819026 0.118986346 -0.16414669 0.43851835 -0.1876155 0.112632096 0.019783244 -0.1540012 -0.385435 0.2580036 -0.17810857 -0.10807384 -0.0066874707 0.1541032 0.16263467 0.08838595 -0.2796067 -0.1417898 0.17407233 0.11277138 -0.05532109 -0.018992491 -0.12324038 -0.016984936 0.039119486 0.24492365 -0.31093988 0.03812955 0.09754359 -0.21398468 0.089449964 0.04622547 0.20442003 0.25705212 -0.18711154 -0.39882195 0.18700302 0.2639215 0.08135505 -0.051894862 -0.0306221 -0.07536221 0.061260927 0.21734783 -0.13930607 0.039443757 -0.3819985 0.05397699 0.16164821 -0.17838554 -0.36975226 -0.063646525 -0.10706246 -0.8969889 -0.0013865788 0.047243085 0.5577541 0.01514815 -0.630928 0.016547896 0.012469492 -0.22700052 -0.012268659 -0.100465834 -0.4439741 0.1468927 -0.59878033 0.3590167 -0.10717765 -0.0713934 -0.06579924 -0.0672651 -0.26493344 -0.48485354 0.23233865 -0.022183456 0.091681294 0.044225637 0.23735745 0.16899866 -0.4780074 -0.3579269 0.09023379 -0.09928142 0.19306557 -0.3522111 -0.08815273 0.16980714 0.42597017 0.14326695 -0.35421872 -0.0743401 -0.06450134 -0.27415663 0.18997157 0.03899214 0.07786054 0.03736117 0.5921678 0.102047324 -0.13455082 -0.08600335 0.18651617 -0.12675336 0.21371792 -0.2891198 0.08036252 0.021537391 0.222151 0.05581784 -0.43054804 0.06641879 0.16578867 0.153625 0.21139807 0.119121894 0.1397751 -0.5488734
-0.0906762 0.06440425 -0.41589838 -0.46089616 0.20579347 -0.19886632 0.2977884 0.24033464 0.14955784 0.182084 -0.11756255 -0.18536928 0.032145206 -0.015011752 0.059461974 0.23531808 -0.09652031 4.8509904e-05 0.0616174 -0.20295858 0.22491945 0.19205765 -0.11268797 -0.20206995 -0.071463145 0.14319262 0.53392446 -0.043021318 0.14286189 -0.072907224 -0.317822 -0.029844072 -0.07674667 0.066050924 0.010761063 -0.08381298 0.14898825 -0.10596274 0.17412528 0.19358492 0.015703512 -0.061755236 0.21029653 -0.16943961 0.063486874 0.31466913 0.042043444 0.14323677 -0.0017239194 -0.25173262 -0.036076616 -0.16175005 0.04004743 -0.16682258 0.10085049 -0.08729419 0.09742117 0.07726029 0.06468076 0.11138644 -0.29380715 0.3563636 -0.004673614 0.30402616 0.0473134 0.23904507 -0.6837207 0.27081025 -0.060417034 -0.13972118 0.46189916 -0.10012255 -0.15902086 -0.13984936 -0.2201818 0.71741027 -0.34157008 -0.08656946 -0.077600524 -0.24510294 -0.07462048 -0.5902274 -0.032939687 -0.24497786 0.092516385 -0.28920773 0.07042734 -0.14667903 -0.23952328 0.25737777 0.21700992 0.20603253 -0.0058096456 0.02303871 0.15797128 0.035225227 0.070363276 0.2419648 0.3326403 -0.025374612 0.17518203 -0.14786264 -0.030265747 -0.072761364 0.16601306 -0.16070434 -0.05124107 0.113995604 -0.3673232 0.23295014 -0.066057764 0.15696423 0.33960488 0.32777545 -0.003834372 -0.04802328 0.097008236 -0.11597255 0.058849964 0.20527372 0.42231053 0.25939405 -0.20706367 0.0024941075 0.2891937 0.17492072 0.28488448 0.17684445
-0.073637195 0.07368397 0.025487235 0.05445477 0.08041329 0.060242694 -0.14340468 -0.17011937 -0.16014476 0.09085864 -0.10666349 -0.111122705 -0.14369674 -0.05353993 0.021371791 -0.046324357 -0.030127658 -0.09561165 0.12228482 -0.13230461 0.03649343 0.04024276 0.061216723 -0.032905646 0.0071217427 -0.0061799902 -0.23940279 0.013932207 -0.031105876 -0.095013574 -0.13219297 0.17914978 0.099476986 0.052025516 -0.079575606 -0.18531847 -0.029440152 0.17585658 -0.057471808 -0.15439746 -0.11189404 0.03144816 -0.0591881 -0.1266738 0.041340668 0.013439602 0.042653643 -0.09115441 0.105985515 0.032580607 -0.058137108 0.11600656 0.046976935 -0.23242831 0.10348012 0.0017577808 -0.08463722 0.01856116 -0.055081096 -0.037652932 -0.028299017 -0.049985845 -0.031180413 0.07057442 0.115408294 -0.004083596 -0.015162267 -0.1686031 0.015843378 -0.04668341 -0.042097624 -0.014020394 0.06300454 -0.02938924 0.16644774 0.0009986922 -0.1861576 -0.24198048 -0.06508646 -0.13754885 -0.05979996 0.08547435 -0.029842675 -0.11274136 -0.16641785 0.009789992 0.15060353 0.08818335 -0.051839106 -0.15840533 0.09816971 -0.10876114 0.047690574 -0.15175462 0.11693034 -0.104522415 -0.047645412 0.103475116 0.026695251 0.059322376 -0.1061174 0.032086164 -0.08689435 0.024173755 -0.08934473 -0.1652926 0.17401785 -0.13073786 0.09208471 0.123378724 -0.16002639 -0.07621265 -0.16320023 0.06672672 0.016660573 -0.19856046 -0.016755566 -0.0952705 0.10453645 -0.080211215 -0.027394254 0.10312358 -0.04024677 -0.017221544 -0.12408754 -0.11301578 0.0019228399 -0.008001436
-0.049348384 -0.054863468 0.15718693 -0.16761228 -0.20466965 -0.19792446 -0.30998892 -0.08781594 0.21049072 -0.20970915 -0.009420425 0.14321311 0.18196553 -0.038625155 -0.01876742 0.27772328 -0.0019276263 0.18979412 -0.07957729 -0.061655127 -0.096884266 -0.038422816 0.23460391 -0.10720434 -0.020527251 0.120492965 0.24166588 -0.032503117 0.041437905 0.1623213 0.10281276 0.07947406 0.047042802 0.14963897 0.124025136 -0.20564732 -0.17565122 0.031111 0.056089103 0.26144782 -0.08133034 -0.16774964 -0.0043190746 0.18490422 0.11852733 0.02327404 0.004568581 0.12954696 0.07220611 0.06615333 0.16696538 0.008161184 0.06426102 -0.12037175 -0.12560068 -0.23023947 0.021580115 -0.16930066 0.069679774 -0.12295247 -0.14046758 0.07897362 0.046537127 -0.019337451 0.266025 0.28691727 -0.16703536 0.042009354 0.07627959 0.03104731 0.0042598937 -0.26118505 0.10552773 0.036691777 0.09224631 0.07030292 -0.09899469 -0.11293566 0.17467687 -0.17169003 -0.06967152 -0.1719651 -0.09652103 -0.22843055 -0.06787173 0.11422951 -0.07591471 0.22806086 0.19330616 0.12406887 0.10193262 -0.01803197 -0.07885085 0.13559285 0.07041944 -0.2831353 0.07108107 0.0769636 0.15276027 0.115620345 0.22479549 0.05569535 -0.0012471543 -0.093218565 0.07086493 0.061417878 0.19770697 0.17653507 0.011562747 -0.018274311 0.15280832 0.14927158 0.020773206 0.039100707 -0.029403003 -0.017086416 -0.2527265 0.031513333 0.07825114 0.100523666 0.08128803 0.19271135 -0.19417594 -0.09098325 0.05942187 0.012123041 -0.0546078 -0.09118191
0.120135605 0.16121234 0.22276941 -0.1403016 -0.01503057 0.26595065 -0.6253312 0.7204783 0.27335316 0.03365596 0.1323583 0.020020692 0.13145775 0.31080702 0.13879177 0.039912734 0.14374813 -0.069213904 0.25898975 0.04179487 -0.09537853 0.2271162 0.20142671 -0.08032073 -0.07037927 0.2710066 0.25179112 0.11966499 0.23622972 0.033856187 -0.033726364 0.22620745 -0.20672429 0.28716362 -0.101789184 0.102435924 0.28524408 0.14326489 0.078895934 -0.0025791354 0.0033074038 0.014136041 0.083287865 0.2525605 -0.39098367 -0.26683655 -0.15599887 0.15934049 -0.05124283 0.02132183 0.0383344 0.081607066 0.121331245 0.07142702 0.35238063 0.3663268 0.36414602 0.06615131 0.031363636 0.13097511 -0.21210496 0.23820257 -0.03488552 0.18184102 0.16376491 0.04054852 -0.012514322 0.12964734 -0.0116368225 0.12341967 0.4493021 0.18295069 0.26743168 0.069683515 0.04975797 -0.27229384 -0.16805373 0.12586264 0.09729064 -0.0777805 0.19304828 0.16739647 0.117599785 -0.079672776 -0.04904586 -0.008348705 -0.031983864 -0.1599842 0.237078 0.1979021 -0.09046612 0.15310581 -0.013264655 0.08753789 0.21813019 -0.49192038 0.089111194 -0.093387805 0.1265249 0.2562249 -0.12031561 0.021963395 0.0035850229 0.22895494 0.13374764 0.25484103 -0.07209626 0.084301844 -0.19726044 0.17545845 0.043965746 0.05905549 -0.08136157 0.15293634 0.37757552 0.079304054 0.13955466 0.07960916 0.09452811 -0.0044633695 0.25783578 0.24302596 0.17124723 -0.2536125 -0.08412225 -0.13698144 -0.3467585 -0.102182165
-0.005896583 -0.1259027 0.16483976 -0.26969922 -0.043496516 0.06596692 0.019924086 -0.29717463 -0.11347187 -0.0479004 -0.13271964 -0.07337422 0.013823663 -0.16971326 0.17502262 -0.13377027 0.1771203 -0.13004348 -0.013710211 -0.07774774 -0.17777738 -0.055762984 0.6618203 -0.039701834 0.042841457 0.0042289738 -0.11889292 -0.18695645 -0.029616032 0.027477216 -0.013558839 -0.10607705 -0.12440452 -0.17126878 -0.074806914 0.018104302 -0.10206651 0.14944832 -0.013902847 0.026430743 0.08466257 0.024964394 0.111021414 -0.023787864 -0.03414089 -0.009839949 0.09541774 0.15608123 0.012675851 -0.04612437 0.03854372 -0.058457777 -0.16665147 0.037421558 0.20034446 0.08004167 -0.38485274 0.082170516 -0.04759578 0.09868244 0.16990457 -0.7370293 0.029695846 -0.072543524 0.12287496 -0.30716684 -0.077580824 -0.1314215 0.030711781 0.10548697 0.46157813 -0.018682351 0.18446629 -0.051910844 -0.14081693 -0.21056992 -0.04923369 0.07533461 -0.13887447 0.065211326 -0.0921968 -0.88397735 -0.08857073 -0.5625287 0.19359861 -0.27988005 0.27676305 0.032513633 -0.03475816 -0.02470837 0.05916014 -0.22190313 -0.03872586 -0.026845451 -0.009787587 -0.083357915 -0.15042499 -0.1255995 -0.08178942 0.013646706 -0.0044199983 0.12646161 -0.120029345 -0.14072618 -0.19772099 0.071751125 0.042923316 -0.21058413 -0.060843833 -0.13374925 -0.030924257 0.20670937 0.13596556 -0.0438425 -0.032995563 -0.047631096 -0.05453843 -0.008004414 0.08121242 -0.11629897 -0.07320889 -0.13336691 -0.25375277 0.10868727 0.25171205 -0.11965409 0.029389963 0.0072688167
0.0127026355 -0.0057434677 0.023372304 -0.2791769 -0.06910867 0.21852162 0.12523071 0.15341523 0.078858614 -0.13040364 -0.03123379 0.21477173 0.06333322 0.37121332 0.08842751 0.039538812 0.09220382 0.18389067 0.047661792 -0.08773607 -0.05029076 0.049065225 0.08533127 -0.133362 -0.104883924 0.11266196 0.08615076 0.17410114 0.19909632 0.13286775 -0.048407108 -0.12793142 -0.04384886 -0.043241147 0.09963342 0.23909351 0.0008304375 0.22403137 -0.15574777 0.118556716 -0.0899148 0.053976987 -0.026167497 0.04111767 -0.12424117 -0.08313185 -0.006012395 0.032040518 -0.055094168 0.08933185 0.033905834 -0.023510927 0.053836074 -0.030064007 -0.31063887 -0.03210186 0.20173806 0.12334808 0.0928222 -0.05648715 -0.43163672 0.08027538 0.078376584 -0.2583285 -0.04403125 0.30887437 0.095213 0.025506953 0.24739824 -0.0154067855 0.13051648 -0.14948896 -0.011471691 -0.10469903 0.17060326 -0.15985522 -0.27465868 0.05434779 0.021976957 -0.05620426 -0.006254235 -0.16787444 0.056623332 -0.17473477 -0.049788326 0.01300581 -0.14611377 0.14594403 0.18241519 0.059512272 -0.11699965 -0.038138513 -0.13013493 0.12019707 0.20442048 -0.14649741 0.06922528 0.07081035 0.18018948 0.08276753 0.042146236 0.02934797 0.26834854 -0.035941187 0.21551616 0.0057907854 0.04639046 0.0937978 -0.09841188 -0.04459315 0.019313721 0.026544847 -0.03678237 -0.07924947 -0.115292504 0.07396843 -0.23675926 0.040313624 0.24109003 0.09901966 0.21979243 -0.050171975 -0.147964 -0.010067133 0.19279888 0.02977702 -0.03252094 0.049215995
0.061781045 -0.08384267 -0.011847697 -0.4633569 -0.0354427 -0.19667906 0.22306442 -1.8404425 0.09465312 -0.25472575 -0.038119458 0.043243915 0.29001418 0.36747658 0.29395276 0.5053591 -0.36491287 0.1359958 -0.20211077 -0.41299713 -0.26206413 0.16629167 0.57366323 -0.49305946 -0.10146093 0.06959309 0.2377489 -0.12627468 0.34630084 0.21070832 -0.17623025 -0.03635696 0.054772496 0.1274129 -0.03318154 0.025434474 -0.11741324 0.18851617 0.03041227 0.03623423 0.04576099 -0.21089575 0.2995622 0.21073927 0.32552058 0.09269672 0.10863986 0.25602782 0.30152297 0.13500609 0.019679913 -0.06536051 0.09286127 -0.10057563 -0.19906402 -0.2909023 0.16607235 -0.13385314 -0.10828503 -0.47518253 -0.483501 0.24718551 0.24415475 -0.382472 0.30857408 0.2616018 -0.1460158 0.24192661 0.3527822 0.025001537 0.30208313 -0.35972494 -0.0963156 -0.20925122 -0.09989413 -0.10350071 -0.31250593 -0.27703187 0.030341998 -0.20545971 -0.035297573 -0.38480806 0.05337046 -0.15979373 -0.14631428 -0.062399928 -0.47551692 0.38024417 0.5566223 0.17164914 0.0066411165 0.05093518 0.22232533 0.39163676 0.29078117 -0.43406186 0.13706988 -0.12633054 0.61511827 0.17294581 0.031734895 -0.0076578697 -0.13302293 -0.09467718 -0.088358976 -0.0053071813 0.14285132 0.041125644 -0.018234868 0.37827367 0.10457403 0.054051645 0.007068779 0.025946911 -0.043783467 -0.11211046 -0.58237785 -0.18044375 0.45007455 -0.0045337942 0.13287954 0.28650752 -0.13396284 -0.4358325 0.57069266 0.15657994 0.034544725 -0.1872689
0.060210295 -0.0009863183 0.02122502 0.0640812 -0.011488168 -0.023762895 0.0702901 -0.21662085 0.031187331 0.028602323 -0.034084868 0.058515232 0.09625243 -0.070794724 -0.11108971 0.0017275031 -0.019619832 -0.094749324 0.049847845 0.10996906 -0.22066385 -0.1763942 3.0021667e-13 0.06938072 -0.04457652 -0.017388958 0.09241939 0.029560158 -0.06326918 0.07067415 -0.11093406 -0.00013762547 0.01929591 0.050003167 -0.21967532 -0.27379602 0.04765405 -0.010822067 -0.13614511 0.048601735 0.14628626 -0.061718456 -0.097532615 -0.14176053 -0.11278288 -0.24286756 0.095113136 -0.07791257 -0.12238136 0.05138894 -0.14890082 -0.010488982 -0.055190105 0.070039295 -0.009556112 -0.085325666 -0.15848212 0.022034107 -0.09633369 -0.02482934 -0.010880791 -0.08158035 -0.0028235116 0.059723683 -0.121114954 0.05230736 -0.049797848 -0.11662596 -0.106499635 -0.1501947 -0.0048978115 -0.04575878 -0.10024866 -0.027059643 -0.066476226 -0.0345726 0.037710574 -0.0020930849 -0.021973733 -0.106536925 0.09209137 -0.22783007 0.0015486801 -0.14486568 -0.10819349 0.070432246 -0.17054008 0.09748419 -0.17274252 -0.08204135 -0.052543487 -0.2016884 0.07408896 -0.10196214 0.20120016 0.017947333 0.066693015 -0.07700659 -0.06854627 0.0561243 -0.12079615 -0.13770251 0.026332844 0.09559795 -0.04230713 -0.019574603 0.05432734 -0.05509698 -0.0656965 -0.09235312 0.057927962 0.038701378 -0.1339491 -0.00528468 -0.17565824 -0.09896656 -0.06558436 0.0142907 0.020320185 -0.14902736 0.005611961 0.026395842 -0.051252674 -0.030299935 -0.13456674 -0.0907669 0.06642583 -0.23318939
0.13548082 0.078030564 -0.03684869 0.07722944 0.06638975 0.20204028 -0.09640739 0.044716798 0.002988729 0.054216433 0.03356419 0.1092542 -0.11323408 -0.062362406 -0.27364042 0.0028129406 -0.2833434 -0.1651109 -0.0054080663 0.11766713 -0.06669852 -0.0070460415 -0.08928397 0.19692934 0.045684543 -0.08706113 -0.014207609 0.031522706 -0.1264306 -0.23378262 -0.05664223 0.076973684 -0.08171933 -0.19802272 -0.03434841 -0.03042802 0.187987 -0.043174565 -0.19581832 -0.023702443 -0.0041373796 0.10220982 -0.21893877 -0.2676025 0.078719236 -0.056277327 0.16845003 0.019448955 -0.0516439 0.033453315 0.07126028 -0.012546711 -0.05083278 -0.20651446 0.14452969 0.1456113 -0.21069051 0.04051282 0.08286182 0.065675914 -0.008928827 -0.040774498 -0.037574317 0.22062007 -0.11678424 0.08173221 -0.32088995 -0.055890676 -0.13398007 -0.043958135 0.06642304 -0.038447227 0.062955745 -0.103030995 0.16174838 -0.18103673 0.05791738 0.07078949 -0.032972097 -0.054969452 0.0358394 0.07102703 -0.010380463 -0.8825256 -0.047303665 -0.19973524 0.20636688 0.14175573 -0.13182725 0.1796853 -0.061810628 -0.009840255 -0.064413 -0.22707166 0.08561061 0.5915785 -0.03286743 -0.0062838537 -0.08262822 -0.06073692 -0.071715795 -0.018574812 -0.026108518 0.1194642 0.07229954 -0.018592367 0.0058425334 -0.11331798 0.02795605 -0.11051029 -0.21648277 0.07001052 0.061714243 -0.05399713 -0.057065416 -0.042708643 0.16339764 0.25655067 0.120325334 0.2171936 -0.16115944 0.14274658 -0.0638363 -0.08188096 -0.2048861 -0.11929328 -0.18682912 0.021488316
0.07193723 0.11386072 -0.0734075 -0.21374765 0.13627782 -0.23378466 -0.23424464 -1.4824982 0.14906918 -0.23203917 -0.043044295 0.046347156 0.24060538 0.20148465 0.17575216 0.2865737 -0.06775941 0.029935552 -0.046601985 -0.25297368 -0.33187547 -0.072478026 -0.00842696 -0.18295293 0.06293127 0.012057492 0.1159112 -0.1354799 0.0926577 0.1644001 -0.106097296 0.021508394 0.0067676106 0.1515166 0.019300988 -0.062132087 -0.17606887 -0.091362596 0.20520546 0.119351454 0.060863107 -0.25728744 0.2034357 -0.05166001 0.15274107 0.048157964 0.09449915 0.0517872 0.1536191 0.006870344 0.010347957 0.0138861155 0.05755871 -0.14266038 0.050330013 -0.12606779 0.06597361 -0.058529247 0.122931615 -0.42011645 -0.1825294 0.12861718 0.38049594 -0.14111786 0.32482415 0.1913414 -0.3821743 0.058738317 0.19981205 -0.029127501 -0.033385895 -0.050164513 0.1481638 0.057513155 -0.12286291 -0.37790728 -0.5083114 0.12558722 0.09341108 -0.22294791 -0.12104005 -0.3925274 -0.040946934 -0.23510593 -0.055900376 0.15474832 -0.36643362 0.41297722 0.20436187 0.18262067 0.08756619 -0.017967034 -0.018065961 0.40599567 -0.01390619 -0.41926667 0.21273461 0.033329587 0.60534585 0.092022315 -0.03133466 -0.035738528 -0.05002967 -0.14180116 0.09385937 0.060223415 0.11310834 0.024755254 -0.31860763 0.3395427 0.054215476 0.2654318 0.0748338 0.29949072 -0.019436752 -0.07997821 -0.071472704 -0.0454749 0.117932595 -0.009556089 0.042848315 0.21632452 -0.11948152 -0.26562053 0.21570553 0.1288369 -0.05277793 -0.11279872
0.027620435 0.034447983 -0.1423296 -0.110601105 -0.123088636 -0.16086966 0.4684508 -0.3659901 0.10785169 -0.047773853 -0.03201425 -0.23805377 0.14976074 0.05177247 -0.046997134 -0.03423482 -0.06289845 0.06302374 0.011439257 0.036354117 0.07319183 -0.17544118 -0.09568071 0.08906968 0.102983736 -0.06494535 0.06699324 -0.092655 -0.07372839 -0.013068386 -0.13914527 -0.057644524 0.042880803 0.12983601 0.14984797 0.10547442 0.026419263 -0.14529873 0.05790271 -0.016559575 0.13963106 0.12583004 0.17957877 -0.032145474 0.16553007 0.045127016 0.0005312156 0.08709659 -0.06752215 -0.05138127 -0.085923254 0.060105 0.10099753 0.16577964 0.046214987 -0.051964886 -0.10850681 0.092200585 0.04229949 -0.025875779 -0.61937195 -0.018934257 0.11368744 0.038683865 -0.08633455 0.0708927 -0.17391433 0.05708589 -0.0685374 0.058720235 0.079212114 0.01968495 0.03494037 0.03485461 -0.16858794 0.36681613 0.17730233 0.0065351008 -0.21775547 0.055530105 -0.100988254 -0.15021886 -0.12420161 0.044533674 -0.0151528455 0.08623115 0.250926 0.27780768 0.05418539 0.004422218 -0.08284861 0.108364426 -0.037946653 0.011784064 0.07192323 -0.45706007 -0.012517122 -0.021865733 0.039769616 0.0074606035 -0.040763874 -0.0756099 0.11372046 0.01895099 -0.116617925 -0.24347422 -0.06118678 -0.010174593 0.058587607 -0.03551471 -0.1234018 -0.22399668 0.10782695 -0.118650034 -0.039251942 0.08863983 -0.10865962 -0.009671277 0.06074209 0.04529211 -0.015661322 0.14251345 -0.09898462 -0.08218712 0.09197107 -0.010914545 0.28143215 -0.07514557
0.16322123 0.08600641 0.06661923 -0.17110854 0.033889987 0.13095525 -0.18226911 -0.053123944 0.08207458 -0.08262005 0.12758857 0.028437389 -0.061449792 0.123526424 0.1285164 0.16897139 0.029095901 -0.0031735222 -0.08769061 -0.03752059 0.12012439 0.19492623 -0.09906217 -0.11357338 0.06744972 0.03855409 0.21829177 0.047836103 0.17655183 0.085730046 0.049078163 0.13355182 0.06549446 -0.04779901 0.12653112 -0.06406008 0.20129044 0.13447092 0.0935718 -0.011381429 0.013168684 -0.07855657 -0.028738135 -0.16194315 0.17422582 0.027801167 0.091453284 0.12163095 0.05865796 0.1677103 0.0008384036 0.0382129 -0.17522795 -0.09038391 -0.16495286 -0.08883757 0.11206491 0.09626131 -0.030047586 -0.04783253 -0.23448056 0.028829524 -0.086398594 0.02931968 0.06665351 0.05613859 -0.16991368 0.09807516 0.12911665 0.1471904 0.17630334 0.06773811 0.16230051 0.029372323 0.09037272 -0.14436075 -0.0784185 -0.13163456 -0.0022968976 -0.04586361 -0.078890145 -0.054787856 0.07461006 -0.34052733 -0.0018670179 -0.13186978 -0.003967747 0.040204167 -0.039577354 0.0739626 0.124690644 -0.004609807 0.100895844 0.13689254 0.17220394 -0.2749935 -0.23473357 0.04753937 -0.019027742 0.049638 0.02440633 0.16305846 0.07041109 0.08750127 -0.003436567 -0.1923092 0.090342306 0.010072146 0.008280439 0.03444132 0.13416193 0.055538774 0.025239112 0.2701795 -0.0810536 0.06563544 -0.072534725 -0.115110174 0.12649532 0.046543956 0.15962237 0.10291477 -0.11330913 0.102825396 0.111289255 0.092611924 -0.093189895 0.16334818
-0.19974433 0.021267386 0.124821305 -0.3004411 -0.13825119 -0.1209875 0.24705786 -1.320293 -0.03106307 -0.39503005 0.10971903 -0.021281436 0.16185758 0.4010711 0.11871654 0.18782936 -0.11351996 0.18092135 -0.43533126 -0.27861518 0.062664784 -0.03306241 0.5747079 -0.17450972 0.034583043 0.008750076 0.10068939 -0.14591405 0.3757288 0.1702637 -0.06098913 0.08510933 -0.08276628 -0.12197343 0.12015821 -0.09370932 -0.041195497 0.055659328 0.16350669 -0.010479023 0.08674739 -0.21139455 0.21195035 0.16219401 0.21583554 0.08222783 -0.045810547 0.15860343 0.058886398 0.009528154 0.1355774 0.030175958 0.19052282 -0.091954395 -0.13442835 -0.17485826 -0.03267794 0.0691991 -0.23276432 -0.47576833 -0.26220492 0.12646486 0.11029007 -0.34787962 0.38540187 0.07152079 0.057872538 0.255006 0.1441717 0.27387404 -0.031081928 -0.15582475 -0.08679938 0.047396213 0.11906662 -0.094258934 0.20043752 -0.19355953 0.08582506 -0.17629999 -0.09992187 -0.2661848 0.037800927 -0.2273492 0.037898798 0.21925431 -0.43219063 0.23739119 0.3625926 -0.041173436 0.053661957 -0.06427216 0.041220207 -0.024754856 0.29553577 -0.3473348 -0.1301071 -0.09401427 -0.16438854 0.28980848 0.12041783 -0.09499321 -0.22125821 -0.16927017 0.10093657 0.112431005 0.1312044 0.11068345 0.10829581 0.09861366 -0.03394181 0.011665628 0.03977736 0.088195235 -0.104699805 -0.24324664 -0.56483287 -0.081986934 0.044210073 -0.093333274 0.054319948 0.12926322 -0.05873849 -0.37831187 0.26874706 0.083268195 -0.15304998 -0.19137911
-0.32256868 -0.19083363 -0.11146232 -0.30713248 0.02406965 0.026154097 -0.053887185 -0.046646766 -0.06892285 -0.082905605 -0.21954396 -0.061547097 -0.028320694 -0.017744917 -0.13818265 -0.15429343 0.2243788 -0.1390212 0.0751901 0.047133293 0.0932048 0.06789432 -0.6266565 -0.0010299063 0.13963164 0.18129419 0.2712904 0.057246227 0.12704717 -0.2159272 0.15795065 0.028187692 0.07187198 0.16970499 0.06809745 0.01688867 0.16049847 -0.15844832 0.006530296 -0.13331333 0.25351867 0.15324281 0.027257519 0.100407116 -0.10268661 -0.11599809 0.05765439 -0.20515153 -0.09973811 -0.14124122 -0.13606365 0.036199603 -0.14157173 -0.09514612 0.04432971 0.07053426 -0.09117399 -0.05351145 -0.15111981 -0.08048725 0.09176291 0.009071863 -0.02841149 -0.25042924 0.15335421 -0.031400684 -0.10919445 0.048405614 -0.12158 -0.17121339 -0.17244779 0.14767124 0.098524965 0.05107229 0.15962376 0.117216945 0.09387699 -0.02690969 0.07796858 -0.37585837 0.09586613 -0.06811358 -0.005955518 0.044607777 -0.10973775 -0.1912883 -0.20289299 -0.039871193 0.05491261 -0.05165918 -0.015499138 -0.0025762701 0.010451576 -0.0073794518 -0.074787766 -0.08182178 -0.10826543 -0.099761486 0.034027696 -0.043120995 -0.19197279 -0.2141835 0.18093415 0.16281895 -0.012656588 -0.046435703 -0.06676549 -0.0105531765 -0.17572556 0.025071885 -0.007739692 -0.035415277 -0.1248951 0.039052453 0.00073266134 0.04565877 0.13602005 0.1745737 -0.108134985 -0.1077482 0.14531857 -0.092380084 0.05567281 -0.13417718 0.33725765 -0.2129109 -0.1174606 -0.006508749
-0.0012142246 0.0085023455 -0.040640105 -0.06422489 0.16547257 -0.0052480455 -0.2666281 -0.40094298 0.18715113 -0.24004602 0.007786393 0.07373858 0.09095693 0.20261268 -0.0626655 -0.10157916 -0.11811587 0.25049424 -0.124139436 -0.07819354 -0.11618889 -0.07670571 0.3806193 0.07296475 0.07379005 -0.052227568 0.039834887 0.0005521771 0.35543385 0.19783764 0.10629046 0.049838126 0.10368489 0.107781775 0.03245469 -0.11244905 0.12535144 -0.013431661 0.11779232 0.21903723 -0.082562044 -0.22558264 0.15445939 0.07075985 0.04260565 -0.104265176 0.004110575 0.14730151 0.08165275 0.10655231 0.10250348 0.15463296 0.005669999 -0.10221424 -0.012402455 -0.10997661 0.16431697 0.0053415233 -0.09910673 -0.21013486 -0.294751 0.051356673 -0.07244854 -0.01126767 0.26322654 0.048241768 -0.0041750013 0.082165174 0.39697692 -0.13827784 0.11053881 -0.057696614 0.16601056 0.15021068 0.09150359 -0.15537149 -0.15010682 -0.08859603 -0.008797547 -0.11731723 -0.13226946 -0.061203964 0.06810515 -0.088365436 0.26467797 0.2054609 -0.19425766 -0.03342258 0.103431 0.05030696 -0.025575839 0.017151529 0.0115513485 0.22117919 -0.04589816 -0.25812632 0.02456858 0.07622507 0.15129538 0.15019833 0.06689421 0.15711163 0.0043278914 -0.13230847 0.061119385 -0.07392571 0.15098846 0.0038484384 0.17262897 0.016371606 0.08703461 -0.1665035 0.061037343 0.07092391 0.027343376 0.040093787 -0.13351686 -0.09477078 0.2698476 -0.06314123 0.16532369 0.07828879 0.10160753 0.005741163 0.11891669 0.08136018 -0.15963845 -0.09187463
0.07487442 0.28046295 -0.08935113 0.4251157 0.10488684 0.16447602 -0.2411153 0.41652545 0.07738984 0.40222245 0.2224865 -0.036775216 0.03292893 -0.30583787 -0.17809662 -0.19009307 0.15691714 -0.27446243 0.20055635 0.3077753 0.34353969 -0.005444802 -0.45070907 0.23404334 -0.019106086 0.1848731 -0.09995063 0.19081841 -0.34371892 -0.09481565 0.000206776 0.27817506 0.26899028 0.064636745 -0.11027736 0.079718575 0.17959537 0.074828774 -0.1155149 0.25151914 0.27264732 -0.0070479847 0.0411113 -0.025891237 -0.027453262 -0.010438353 0.0031943833 -0.110020556 0.013587345 0.23635301 0.2191531 0.11053582 0.012842239 0.18007945 0.4086624 0.1619614 0.05077272 0.10503403 0.07497431 0.43762228 0.27902913 -0.03663225 -0.12662198 0.30607015 -0.00890216 -0.06906427 0.20637023 -0.07767674 -0.024088731 -0.088830814 -0.14486949 0.27912408 0.12553564 0.092966795 -0.11698368 -0.08827418 0.48075613 0.28295705 0.22302786 0.18010417 0.19784275 0.17668821 0.053601466 0.16878203 0.02623738 0.08963658 0.22029562 -0.025856923 -0.27200752 0.03251441 0.20375599 0.08631015 -0.1429819 -0.34362188 -0.18968642 0.25312343 -0.013645823 0.053629518 -0.5873896 -0.009274811 0.18347374 0.0657319 0.27094105 0.1595755 -0.035266537 0.029652055 -0.23360997 0.18618067 0.2380635 -0.20132671 0.049887314 0.009180378 0.1669978 0.072661385 -0.15791465 0.31955346 0.42563033 0.053195998 -0.032260552 0.12466884 0.022230763 0.028030537 0.029625136 0.2980661 -0.16857067 0.116124555 0.1273378 0.062994294
0.006816533 0.2310691 0.048866186 -0.13219833 -0.05505693 0.09079806 -0.050942373 -0.077373475 -0.022321053 0.1355651 0.2455809 -0.17277636 0.017072763 -0.3817756 -0.061003346 -0.24468882 -0.16307649 -0.026061004 -0.19494778 -0.19796918 -0.007702977 0.13804138 0.18346825 -0.11460157 -0.012457661 -0.003795084 -0.036541965 -0.18212472 -0.3411929 -0.0016852649 -0.00015904945 0.15629463 -0.061653286 -0.10716626 0.009075331 -0.096756086 0.20016238 -0.030746477 0.14047675 -0.1673187 -0.10735897 0.05972206 -0.1788843 0.18381289 -0.31950313 0.087408155 -0.054792672 -0.024087308 -0.03523638 -0.07492195 -0.26146436 0.099276535 -0.16432521 -0.017897228 0.118938915 0.05082769 -0.02507153 0.0728093 -0.04364863 0.2057871 0.26275998 -0.21987452 0.20406856 -0.015037467 0.067816004 0.074154325 -0.1245259 -0.14048907 0.0152934445 -0.002615627 0.41674885 -0.17920643 -0.04834356 0.017508285 -0.08546609 -0.15799375 0.05995382 -0.32197872 -0.01643906 0.16285372 -0.33897263 -0.5367537 0.09282425 0.102319896 -0.025632085 -0.24562654 -0.25239044 -0.21684316 -0.13620321 0.08526666 -0.022340197 0.068535104 -0.21882726 -0.10458173 0.019632308 -0.22753596 0.047814187 -0.048935574 0.033715796 -0.17023459 -0.14246328 0.15198235 -0.14514767 0.014081299 -0.030982133 0.030965196 0.2097306 -0.009877892 -0.39154422 0.023136714 -0.03263701 -0.1733816 0.20171279 0.16798553 -0.11165041 -0.21364655 -0.12878248 -0.01064406 0.0010005634 0.14226568 0.041413456 0.038927574 0.104267426 0.11264725 -0.047098834 -0.15879308 0.00268156 -0.1412274
-0.097682506 0.005335537 -0.13987084 0.41583318 -0.04080952 -0.109110914 0.48790503 -0.9229073 -0.42682818 0.7217771 -0.012336823 0.158327 0.0930929 -0.41162348 -0.1446694 0.2187487 0.15140274 0.27089372 -0.10797114 -0.23512745 0.067718014 -0.113810346 -0.73176056 0.13917054 -0.05090639 0.07545935 -0.87470895 -0.01120362 -0.9879204 -0.14958052 0.026069317 0.10220482 0.53749716 0.18229714 0.13935618 0.19839627 -0.14817932 -0.056337956 0.22470972 0.088070616 0.2823298 0.09737151 -0.10866649 -0.60526884 0.38478094 0.28475142 0.3338664 -0.28671438 0.08546868 0.29570544 -0.09293235 0.15813163 0.10337867 -0.025782846 0.003558737 0.23384032 -0.21149527 -0.05685628 -0.076236024 0.17989755 -0.44842172 -0.5089241 0.2943648 0.19404571 0.10420429 -0.20875897 -0.10493406 -0.37816873 -0.7615814 -0.154951 -0.8308053 -0.31860122 -0.24954076 0.03807081 -0.10396466 -0.27736032 0.28398106 0.36146477 0.038569227 -0.4278526 0.14458413 -0.61320347 0.055759918 0.12145835 0.42921817 0.26203543 0.18845241 0.123746604 -0.12529007 -0.3433382 0.15028031 0.09255094 -0.036912315 -0.17673723 -0.18930005 0.07146576 0.063067645 0.1205002 -0.75027883 -0.22525504 0.45131513 -0.080508254 -0.027615301 0.03470765 0.03066049 -0.048442677 0.1267914 0.12734431 0.96256465 0.1398154 0.1442716 -0.22184584 -0.08978472 0.002686961 -0.0773902 -0.020623805 0.40706345 -0.11812341 -0.10051031 0.1280939 0.024815565 -0.4689636 -0.010262876 0.50902116 0.3884769 -0.090721406 0.11315035 -0.030709084
-0.039157372 -0.0058271415 0.22135244 0.086416796 0.000853503 0.3469676 0.14224884 0.4611872 0.034789246 -0.53852737 0.15245263 -0.074290104 -0.1228992 0.11719202 -0.021785166 -0.29548487 0.037848223 0.045272157 -0.012760583 0.013262148 -0.02194107 -0.11308248 -0.32978156 -0.27366325 -0.064731844 -0.054638173 -0.19106652 -0.121769965 -0.3403513 -0.07850192 -0.06376814 -0.08760739 -0.14361034 -0.14535667 -0.07540167 -0.11549537 -0.16752277 -0.005504694 -0.009967291 -0.0979824 0.042721942 0.00066785316 -0.19508408 0.09267119 -0.21949822 -0.2891392 -0.09833388 -0.10218494 -0.089622915 0.02334907 -0.063840255 0.068588756 0.08050604 0.34392855 0.11386453 0.035070445 -0.011499601 -0.12701419 0.36705595 0.48365337 0.4347462 -0.2731187 -0.08299496 -0.45653662 -0.014006058 -0.034779985 0.13291784 -0.15863709 0.06516458 0.14837275 0.3154044 0.21740763 0.12130183 0.120987445 -0.32731396 0.08059226 0.1169374 0.048902214 -0.14854944 0.11875297 -0.16133536 -0.45121625 0.06376405 -0.022101969 0.06875812 -0.06607881 0.062246058 -0.08543791 -0.020580797 -0.06175505 -0.14872654 -0.29251987 0.09069974 0.023143083 0.0045748632 0.047593854 0.17298849 -0.13049291 -0.30059978 -0.12520497 -0.13218525 0.053171527 -0.107319556 0.09843703 0.08965118 0.12798746 -0.16679952 0.1744196 -0.05177212 0.019582642 -0.02618159 0.14665434 -0.22008678 -0.14398332 0.12081582 -0.00078948645 -0.45697525 -0.0857227 -0.23572825 -0.063284494 -0.030203272 0.001204485 0.079086 0.2153077 -0.09198054 0.12185338 -0.05366563 -0.07532556
-0.04582083 -0.037832543 -0.027849443 -0.2353209 -0.0030511683 -0.13966607 0.1047585 0.12705623 0.005511097 -0.13328546 0.22074851 0.03975258 -0.058419567 -0.20676629 -0.052919574 0.07501377 -0.07772578 0.09867112 -0.20971978 0.017264867 0.16313598 -0.10513072 -0.3469109 -0.14511718 -0.049362294 0.10211603 0.10187945 -0.03202418 0.11185308 -0.08292012 0.08783419 0.0031992644 0.1567411 -0.045749977 0.14246076 -0.15568773 -0.109817505 -0.084404424 0.022858579 0.082443565 0.21173933 -0.09125781 -0.034160126 -0.052386373 0.1001649 0.08145787 0.15241857 0.30135202 -0.21581767 -0.019353746 0.03921614 0.07312082 0.12378917 -0.07020093 -0.06889245 -0.09846899 0.32656845 -0.026033374 0.11317636 0.02159437 -0.28340924 -0.03044945 0.08307126 0.07612903 0.22215375 0.1263052 -0.005480866 0.10143229 -0.15092689 -0.022352086 0.23630498 -0.042801816 0.03538123 0.10215757 -0.1622182 0.311372 0.17880909 -0.10011547 0.02817833 -0.01072115 0.04873395 0.036878623 0.11904842 -0.032791983 -0.006026272 0.042045344 0.15171938 0.21414262 0.09373274 0.04922833 -0.15133542 -0.07709584 0.16471839 0.20989376 -0.10503308 -0.02458077 -0.051163115 -0.06764595 0.28508127 -0.056458574 0.06090906 0.011482341 -0.07434984 0.022110853 0.004950322 -0.0065962784 -0.21628815 -0.07855601 0.08953361 0.16153233 0.08039492 -0.11388733 -0.24117066 0.10983029 -0.13119486 0.24125527 -0.08580262 -0.19541878 0.013151638 0.05047349 -0.059115544 0.06612351 -0.2698187 -0.36661166 0.31658342 -0.03692767 -0.042651303 0.43170905
-0.05982318 -0.055522658 -0.05233693 -0.09963911 -0.17379257 -0.07808773 -0.10817426 -0.10599421 0.012439162 -0.16093163 0.011096869 -0.23458795 -0.19451135 -0.009797722 0.11617117 0.13787511 -0.04019894 0.08641671 -0.05815402 -0.118819 -0.06594623 0.051659297 0.07505131 -0.044427685 -0.025998835 0.06708192 -0.04476222 -0.029214563 0.012601935 -0.18309292 -0.079722755 -0.03133975 -0.0073867785 -0.095400065 0.09692652 0.022985289 -0.10588451 0.16318342 0.07028845 0.04432588 0.12523827 0.08620378 -0.12027002 -0.06992658 0.010430386 -0.10694841 0.041075207 -0.10089272 0.015564293 0.039725658 0.0613119 -0.042170368 -0.13041626 0.12787178 -0.0773515 -0.03235619 0.016287642 0.030744845 -0.071240015 -0.13312003 0.09923663 0.0054956772 -0.113122374 -0.066016234 -0.110949755 -0.111092895 -0.08274715 -0.052591037 -0.045176137 -0.025007432 0.0693926 0.15043978 -0.09453326 -0.15476193 0.050288707 -0.09781409 0.15192547 -0.13114442 -0.010082042 -0.3058236 -0.055892646 -0.15034471 -0.016399207 0.036776815 -0.0012786279 -0.11108095 -0.11717311 0.05335887 -0.14723343 -0.08578645 0.24342446 -0.073946245 0.17745717 -0.18354236 0.17348626 0.09133778 -0.0770271 0.033316348 -0.07192082 0.04878005 -0.02933 -0.028726248 0.025803534 0.014639305 -0.09463168 -0.16423817 -0.033358216 -0.06974936 0.08782294 0.030935226 -0.02109535 0.032538407 -0.22303346 -0.059203405 -0.04138685 0.0060959696 -0.030740283 0.10185664 -0.12166182 -0.26756713 -0.11592464 0.071799755 -0.01604171 0.08487835 -0.09645268 -0.049985573 0.06512895 -0.065751664
0.06139438 0.07771513 0.05045466 -0.03980858 0.011221136 -0.21470605 0.15769161 -0.13173807 -0.02160931 -0.043749463 -0.08073432 -0.13487795 -0.16011958 -0.014538082 0.04118121 -0.009705087 -0.15060961 -0.16264227 -0.039387777 0.034383796 -0.062320612 -0.12698238 0.007113454 0.11511033 -0.27044335 -0.2023641 -0.075304046 0.037265085 -0.11788245 -0.07073679 0.18738087 0.04066059 -0.24164934 -0.03093016 -0.13764895 0.13095525 -0.18925358 -0.08927874 0.08787227 -0.0008893363 0.06092801 -0.027981287 -0.23679058 0.0025803435 0.17080455 -0.009821568 0.04691393 -0.11310803 -0.021247102 -0.045252893 -0.112525925 -0.026520452 0.012311459 -0.08208226 0.03424208 -0.017094366 0.0377909 -0.045183226 -0.096578926 0.068207584 0.058824137 0.027220078 -0.057432093 0.040456723 -0.1443638 -0.08597429 0.05141861 -0.0039346726 -0.0042074495 0.052122075 0.090248324 0.084851325 0.105437346 0.0029658386 -0.01963315 -0.012087426 0.009179185 -0.054808814 -0.027282583 -0.002462245 -0.08151044 -0.112696074 -0.018242493 -0.030670099 -0.041903496 0.005520825 -0.11948092 -0.06158334 0.2191085 0.021771636 -0.059074696 -0.06668648 -0.12460253 0.07378769 -0.064474784 0.04072574 0.05031196 0.121642984 -0.106887415 -0.028825568 0.022962442 0.016538154 0.0124593135 -0.020148242 -0.11582517 -0.0066794204 0.09434627 0.10568688 0.11580106 0.05990173 -0.11301368 -0.054059714 -0.017854737 -0.120950535 -0.023190644 -0.153427 0.031137967 -0.08533182 0.027436972 0.07763508 -0.16426194 -0.012449188 0.109774105 -0.055932127 -0.02831822 -0.17560034 0.009797499 0.13861421
-0.05332432 0.024262305 -0.15003198 0.064284936 0.017704409 -0.08423672 -0.0136713525 -0.054626998 -0.04493648 -0.0073799873 0.13085563 -0.029904282 0.08904941 0.025821807 0.058306597 -0.13789392 0.08996941 0.07816021 -0.045689564 -0.024367902 -0.055385046 -0.0056796763 -0.05123237 -0.15921766 0.018453863 0.022675725 -0.009061791 0.1833988 0.031621385 -0.02311263 -0.057299048 -0.15087199 -0.18012102 -0.059796385 0.10666668 -0.093074694 -0.14901769 -0.12850532 -0.16300116 -0.009335246 0.17875342 -0.13305357 -0.12755054 0.012650145 -0.024169067 0.0015048233 -0.066255346 0.15219653 -0.16106817 -0.12088796 0.13863726 0.122843474 -0.2544889 -0.07090127 0.05804605 -0.020529117 -0.026385512 0.11949481 -0.054591805 -0.079422414 -0.028507479 -0.14434108 -0.044478856 0.029663358 -0.053887706 0.09844175 -0.09541582 0.05415433 -0.08930031 -0.010556687 -0.05624314 -0.106289014 -0.12142038 -0.063874274 -0.055106357 0.10864024 0.087441474 -0.030653408 0.10880662 0.089099556 -0.086564556 -0.15765232 0.07160569 -0.2717504 0.06741903 -0.11684763 -0.07272898 -0.08036768 -0.003352836 -0.23845679 -0.16602892 -0.10261143 -0.2782742 0.0034563036 -0.18617702 0.12719595 -0.07658294 0.009054255 0.068561286 -0.012217978 -0.006037243 0.058919333 0.008546656 -0.020045148 -0.066822834 0.1370343 0.018763216 -0.021961886 -0.021057285 -0.095076166 0.07858292 -0.14423239 -0.014594327 -0.061406024 -0.000323548 0.04185595 0.052125446 -0.20925537 0.124125086 -0.10375814 -0.06628123 -0.20214842 -0.06639604 0.1306408 -0.05667894 -0.10629805 -0.023434274 -0.120712094
-0.03017327 -0.08829947 0.11672368 -0.43041486 0.0024847125 -0.09862978 0.11754273 0.0986777 0.17100377 -0.32773715 0.053253 -0.12207039 0.065522276 0.06826946 0.047845613 0.26199055 -0.19583462 0.14576127 0.00073922204 -0.32870662 0.0738638 0.33219734 0.41491097 0.07959283 -0.029572975 0.06454067 0.16075398 -0.15610181 0.20402505 0.11283372 0.15104146 0.012069707 -0.04123126 0.16789666 0.042240452 -0.22380178 0.0071727433 -0.049485464 -0.122854225 -0.017304523 0.014548561 -0.4507876 0.046938524 0.04562314 -0.043430068 0.032857418 -0.039415866 0.13750766 0.03109918 0.05010396 -0.069982834 -0.16131903 -0.06169685 -0.0067459806 -0.30437884 -0.02960535 0.14330138 0.29466838 -0.0850264 -0.10795507 -0.32316846 0.26825723 0.2054966 -0.13583913 0.16771305 0.21184368 -0.12066123 0.26024842 0.28615555 -0.039640423 0.16908999 0.07253916 0.011831643 -0.051900078 -0.08186898 0.027606728 -0.53970486 -0.08582992 -0.07730399 0.15322138 -0.06462402 -0.017888578 -0.060525194 -0.084595576 -0.12065457 -0.17917128 -0.055788487 0.23563854 0.09737115 -0.03289361 0.0681866 0.063984856 0.17154072 0.3232277 0.038507476 0.073224485 -0.016113618 0.0566402 0.67016006 -0.1444324 -0.05011578 0.04424466 0.038536433 0.026433768 0.06695101 -0.074376225 0.24181244 0.074488945 -0.12288176 0.12686516 -0.031266112 0.18254666 0.19913642 0.36776614 0.1278888 0.1416998 -0.13787997 0.07369696 0.3704136 0.03794435 -0.013321455 0.5170043 -0.2771028 -0.03491813 0.31301636 0.08092181 -0.05296442 0.24556331
-0.027975073 0.36039725 -0.037921514 0.41709223 0.20744175 0.30152434 0.035811212 -0.20353776 0.19013666 0.57471526 0.024448184 0.090142794 0.21356934 -0.31961885 0.060622633 -0.16497736 0.07757107 0.08100493 0.27516174 0.17883772 -0.011392751 0.16390021 -0.14240748 0.3542523 0.08301169 0.25748444 -0.18468273 0.08386751 -0.20213345 -0.18500242 -0.02852187 0.35635847 0.15273657 0.010033137 -0.07134824 0.10804531 0.039961882 0.07251074 -0.11114661 0.10799025 0.21510212 0.20717493 0.21648604 -0.23115663 0.0052243997 0.019237846 0.0085513955 -0.12646958 -0.21296169 0.39210278 -0.08125756 0.23973899 0.0573904 0.11327636 0.35841164 0.17237233 0.05037233 0.00064511056 0.22878149 0.34797826 0.36043128 0.123406425 -0.10068856 0.38679025 0.076027855 0.028055312 0.080234 0.09944558 -0.32211974 -0.030013723 0.116147414 0.14127365 0.003979361 0.10651203 0.08267123 -0.18854684 0.5272475 0.19516405 0.28449243 0.1529585 0.38784108 0.52521235 0.058191635 -0.051694874 0.3617273 0.2706711 0.38205695 -0.1930839 -0.26841238 -0.01198515 0.09444686 0.16676924 -0.046176504 -0.09113214 0.037697107 0.3755896 0.096609786 0.2270816 -0.55372447 -0.07991511 0.16854589 0.02340525 0.1440079 0.14178574 0.26251268 0.032554325 -0.20959982 0.105478905 0.10704859 -0.16761605 0.20075978 0.005061579 0.17258747 0.024152616 -0.09753103 0.11061949 0.48759565 0.016996656 0.056958567 0.28675708 0.15853465 -0.2820826 -0.020806117 0.12468117 -0.09023265 -0.004238411 -0.11088309 0.19349459
-0.14167494 -0.21414258 -0.05494198 -0.26918244 0.029593324 -0.27124843 0.102780685 -0.12756193 0.1479445 0.11180738 0.045681197 0.00055984344 -0.117691614 -0.14745353 0.15167563 0.18233395 0.024355737 -0.20202367 0.04148808 -0.14074266 -0.014866208 0.26724613 -0.14837788 -0.2224354 0.08080757 0.09825361 0.23749733 0.021437988 0.34114358 0.06475517 -0.085517466 -0.09252245 -0.07085306 0.18762474 0.17891927 -0.02280985 -0.11220502 -0.061870087 -0.11472458 0.4017359 -0.023063114 -0.15921715 0.081227764 0.112041794 0.04024793 0.2554545 0.29039744 0.0026479908 -0.0110816015 0.08622457 -0.08381634 -0.1475162 0.1229805 -0.112519294 -0.33254024 -0.15490894 0.24777974 0.05760728 0.10858576 -0.20540157 -0.52065206 0.17191659 0.28374028 0.17303985 0.0829998 0.12720148 -0.39739442 0.394751 0.41939944 0.14402471 0.5915936 -0.08755914 0.14807034 -0.042539954 0.08914679 0.17456284 -0.51042217 -0.17340977 -0.11444907 -0.15564397 0.0073554576 -0.032708913 -0.005815479 -0.2939543 0.009448851 0.25337544 0.09872609 0.22320212 0.10791807 0.30143657 0.22753261 0.20935051 -0.034653094 0.14675215 0.17724061 0.21667439 0.071440235 0.013867285 0.6281801 0.1927935 0.22019728 0.000287362 -0.05529333 -0.08436451 0.15614653 -0.037898026 0.08574748 0.26251167 -0.3661068 0.4534763 0.019101588 0.1217051 0.021183033 0.11845308 -0.06428645 0.014136454 0.07692171 -0.17777635 0.035515495 0.26782596 0.076889046 0.011176474 -0.15922414 0.21858452 0.32436532 0.045505032 0.04723041 0.07413578
0.20032653 0.10230387 0.1701644 0.22906278 0.100993834 -0.06628765 -0.31025985 0.11859856 0.11977351 0.261046 0.12642735 0.023496093 0.14488705 0.21612193 0.0038819355 0.16673945 0.05926402 -0.021252591 -0.09956845 0.003266562 -0.16116399 0.08270828 0.13807142 -0.11361994 -0.056108672 -0.08289541 0.14568494 0.14457577 -0.00031622578 -0.068597995 -0.021635305 0.030784378 -3.087566e-05 0.088186905 0.04204758 -0.0526484 0.15393254 0.08461279 -0.10993389 0.047025107 -0.23590855 0.18636595 -0.102866285 0.16715583 -0.02992877 -0.16029088 -0.10930865 0.024252882 0.09267966 0.11051053 0.020310568 -0.108939916 0.16522922 0.09365972 0.08210293 -0.07025549 0.014108849 0.16893221 0.033330433 0.0004793624 -0.19456114 0.24951254 8.1770224e-05 0.11412877 0.19503634 0.027209312 -0.20707488 -0.010947694 0.018533835 -0.08248871 0.048801176 -0.008264925 0.13946623 0.041427154 0.18454511 -0.09182524 0.0036691558 -0.039001197 -0.0049725706 0.081833765 0.14497544 0.21740016 0.04787013 -0.25497714 0.14369825 0.10702077 0.024659352 0.17414847 0.11585967 0.1511399 0.088310204 0.13209522 -0.03466613 -0.06505263 -0.040684085 -0.10251619 0.09028224 0.17984526 0.11101341 0.059538994 -0.13841587 0.030436264 0.13174158 -0.23558627 -0.048656896 0.1943877 -0.08735223 0.040488653 0.14313895 -0.0141165685 0.2183113 0.15625831 0.16355987 -0.003998972 0.05902988 0.16281827 -0.0030973344 0.22760977 0.01039759 0.03130386 0.17363697 -0.019875485 0.0449036 -0.18613675 -0.03753651 0.007875581 -0.12501134 0.13276255
-0.028889826 0.0625677 0.153426 -0.24823444 -0.062103722 -0.06588335 -0.23159514 -0.09104894 0.3017459 -0.26516145 0.039534055 0.07267424 0.080989465 0.13806456 0.053241376 0.021932228 0.017645666 -0.014977425 -0.02054444 -0.061496608 -0.0048371768 0.06220325 0.24408293 -0.03662813 0.07162112 0.12349651 0.08497833 -0.024803244 0.07410763 0.09821876 -0.034447983 0.17152587 0.074025825 -0.018335462 0.10168436 0.07935966 0.046149556 0.17009549 0.003984039 -0.06879503 0.09984304 -0.049346987 0.11871925 0.007909581 0.091126144 -0.10050276 0.09535641 0.0024598308 0.07442189 0.07863824 0.052281607 -0.026024088 0.027080147 -0.014252437 -0.024274861 -0.028227862 -0.0041557653 0.033994723 -0.0064216563 0.13801032 -0.21492803 0.1624357 -0.047438752 0.1647428 0.16608089 0.036190182 0.046933014 0.011351854 0.085435 -0.10930645 0.23780431 0.13827004 0.023788389 0.090618715 0.24008997 -0.15276651 -0.00612199 -0.019992093 -0.002634949 0.0863705 0.062269323 -0.10494156 0.013325627 -0.043187544 -0.1155535 -0.0049824063 -0.10467027 0.03981323 0.056250922 -0.0556883 0.20938261 0.06270818 0.19545227 0.029897219 -0.013224129 -0.31601635 0.13885936 0.08010088 0.12737392 0.07406944 0.121812135 0.1432738 -0.011813804 0.0812867 0.040902883 0.15171157 0.025106117 0.03704866 0.054767374 -0.13984433 0.18280275 0.23480521 -0.06973537 -0.20688128 -0.084453434 -0.10082928 -0.25747997 -0.08163408 -0.0035816692 0.19174723 0.067200854 0.043547608 0.040250797 -0.27024895 0.21092129 0.26652008 -0.1594272 -0.07841681
0.06411373 0.09559093 0.010817605 0.14833602 -0.042198617 -0.026090577 -0.4222563 0.97043145 0.16412579 0.099331416 0.14150205 0.17240685 0.0027516189 -0.04173053 0.044712912 -0.07948193 0.2688397 0.024860421 0.18772103 0.060539655 0.11588277 0.16718903 -0.18778034 -0.014781943 0.025342025 -0.24861622 -0.017972894 0.088534646 0.014770355 -0.21866183 0.12948197 -0.20418479 0.044826362 0.03279504 -0.21821523 0.06356234 0.21744618 0.032902475 -0.13717051 0.17221682 -0.0015113284 0.0062782145 0.17644346 -0.021209853 -0.107889 0.04169044 -0.1253953 0.20622323 0.014980883 0.035438377 0.08580768 -0.019650396 -0.020470958 -0.11598115 0.18150568 0.087011956 0.08680944 -0.12887679 -0.11327654 0.15638508 0.17586263 -0.18666007 -0.023374345 -0.14677359 0.018399267 0.06697588 -0.2952849 -0.0834799 -0.13721468 0.020215528 0.06746303 0.018488755 -0.02054817 0.11192036 0.0885643 -0.24997257 0.06944724 0.18154548 0.00173952 0.103262015 -0.16528371 0.23100302 -0.09761481 0.14394672 0.23368992 -0.001579829 -0.092603676 0.012053926 -0.1520113 0.16205762 0.0504801 0.11698868 0.060263865 0.08547548 -0.11330831 0.20913595 0.07066762 0.043916155 0.061917726 0.15688348 0.060052328 0.15755677 0.11070376 0.18753955 0.06575826 0.25897622 -0.10221482 0.12190507 0.23261988 -0.1920889 0.19517763 0.036835913 0.2591987 0.052648786 0.28066728 0.13331293 0.048534304 0.117706805 -0.033096865 -0.17023243 0.14265756 -0.07428629 0.11481417 -0.12847282 -0.14226414 0.019879758 -0.29934093 0.075686626
-0.038332604 -0.11556313 0.09670305 -0.39391458 0.11650333 0.17641829 -0.12228555 0.1825247 0.26463288 -0.8314358 0.00746899 0.06589921 0.061210595 0.48877376 0.13484234 0.009616644 0.006987695 0.049393494 -0.09983785 -0.1806046 -0.06579586 0.08762681 0.092102446 -0.27006906 -0.13098188 0.0535905 0.2651326 0.20529541 -0.402327 0.12190155 -0.19660771 -0.17994198 0.037668936 0.11897048 0.17046927 0.07344209 0.06112799 0.025966054 0.18640606 -0.20006278 -0.14973116 -0.11673568 0.10211587 0.10851147 0.050764535 0.113085106 0.06347024 0.13590838 0.05782508 -0.13533366 0.21863757 0.0057007214 0.17057346 0.3073407 0.10020186 0.12336445 0.16419302 0.060559817 -0.0350344 -0.20848991 -0.0042135706 0.028220834 0.11857534 -0.13791227 -0.08060172 0.44467697 -0.076943584 -0.05962877 0.06360688 -0.04480514 0.17363039 0.015051549 0.095353514 -0.0030560908 -0.034044553 0.21513735 -0.106375314 0.2487456 0.28076935 0.023288334 0.029302722 -0.40254545 0.13219121 -0.40229756 -0.123523265 0.10631762 -0.0892677 0.1507106 0.070278294 -0.0844043 -0.09041491 -0.2670873 0.17436855 -0.07506344 -0.038416903 -0.50739056 0.011101293 0.014058477 -0.33271542 -0.10231907 -0.111785844 -0.0822392 -0.103964925 0.33285922 0.11718741 0.009925984 -0.08098225 -0.13595189 0.51727396 -0.05098598 -0.08360653 -0.072619975 0.010245968 -0.21391894 0.035926927 -0.033975165 -0.17035016 -0.1348614 -0.14247961 -0.021245297 -0.06350984 0.09590896 -0.073127635 -0.32646435 0.3342327 -0.0022012047 -0.0036569363 0.04190752
-0.07073738 -0.20503841 -0.019677134 -0.5479928 0.048998103 0.09823433 -0.55428433 0.19234093 -0.1263538 -0.53201824 -0.07534545 0.113067165 0.057778012 0.43554565 0.16956149 0.09884998 -0.22693282 0.074518315 -0.3048842 -0.47823113 0.03453437 -0.06734245 0.22949216 0.15432389 0.055788066 -0.15276493 0.21188793 -0.21264999 0.011151278 -0.026698707 0.098498665 -0.090295695 -0.1485637 -0.06733775 0.0031364446 0.09520856 0.18044624 0.046824407 0.38098234 -0.13655318 0.10183961 -0.031495314 0.22627263 0.25607875 -0.14094625 -0.08310932 0.16764887 0.092244394 0.037199132 0.1281561 -0.15384854 0.14680573 -0.08815881 -0.36989602 0.21461022 0.101827934 -0.27874544 -0.086398594 0.057944737 -0.011897847 0.6857961 0.17888491 0.03438626 0.32728058 -0.098546885 -0.08664367 0.059772357 -0.32850993 -0.1747756 -0.031297933 -0.09707578 -0.096700385 -0.003726762 0.0356383 -0.15145451 0.13838357 0.047321852 -0.2157972 -0.066319935 0.331545 0.15401049 0.04530735 -0.10756655 0.18675588 0.037451252 -0.12630378 -0.11464808 0.013743032 0.24533921 -0.049052987 -0.07953149 -0.02377016 -0.2622272 0.386241 0.11000107 -0.4626099 0.063118264 0.13242802 -0.8276506 0.020092372 -0.19465059 -0.0646032 0.12878601 0.30852446 -0.2679737 0.052329447 0.3130701 -0.1034805 -0.31397933 0.11937278 -0.05801709 -0.12998882 -0.027077544 -0.040533952 -0.1447736 -0.32519156 0.35498133 0.2430691 -0.031961463 -0.06530445 0.09692409 0.03328437 -0.19565327 -0.16771777 0.0718824 0.018652402 0.12609506 -0.1656671
-0.0656583 -0.05905256 -0.17632666 -0.21001948 0.14857762 0.14333333 -0.013730447 -1.0081753 -0.0847578 0.15551174 0.13708521 0.04317242 0.14631605 -0.1614189 0.0022653474 0.4043043 -0.25054994 0.2364581 0.08913566 0.01838014 -0.3833307 -0.004385831 0.37852788 -0.21181129 0.11427661 0.081612796 0.14904495 0.21115455 0.20957108 0.107733324 -0.21986361 -0.03515545 0.08457749 -0.04350157 -0.00010422854 -0.04421267 0.09169197 -0.08758327 0.042045984 0.33371633 0.081701115 -0.3692207 0.10844261 -0.28198755 0.25330597 0.24751088 0.16503361 -0.045007527 0.21534315 0.08727559 0.03847549 0.119872764 -0.006084704 -0.08643107 -0.08470709 -0.035637856 0.2969203 0.13428186 -0.06427791 -0.21810387 -0.46592975 0.2517251 0.056246273 0.07078315 0.13103613 0.11016831 -0.5713278 0.022187408 0.42174003 -0.003333416 0.12457163 -0.06530777 0.2841529 0.03953856 0.037754506 0.22627454 -0.030872935 -0.12377194 0.04828621 -0.049617883 -0.0501607 -0.3420089 0.05900926 -0.3679965 0.14938009 0.09199791 -0.15751816 0.1841025 0.22023807 0.015114636 0.14647096 0.25006875 -0.10041728 0.2479686 -0.06290036 -0.17089453 0.008624272 0.050119795 0.65953636 0.020660352 0.2096703 0.047102865 0.06925083 -0.25302806 -0.113225445 -0.061127823 -0.009725772 0.22878131 -0.2323535 0.34887788 -0.14200969 0.10254153 0.0048890305 0.27397525 -0.18496484 -0.038039334 0.079569824 -0.08190963 0.15676771 0.14147234 0.22422084 0.26108596 -0.29825225 0.0791254 0.16546483 0.16803536 0.012756301 -0.020512277
0.014728951 0.12511122 0.14714418 -0.26305506 0.002628452 0.12896554 0.0072920495 -0.2963151 -0.07141503 0.13656443 0.047866143 -0.032827884 0.08136722 0.23511462 0.10695493 -0.25319 -0.03078136 0.03744048 -0.020545205 0.30484408 -0.26580337 -0.1446065 0.58892953 0.059920337 0.2354507 -0.018421894 0.09385592 -0.020386029 0.057124287 0.12794477 -0.03166393 -0.10206173 -0.12687767 -0.09169859 0.0026884624 0.098234646 -0.22409959 -0.13127425 -0.08622656 0.12309495 -0.19634268 -0.26987556 -0.19553849 -0.027988816 -0.1296393 -0.09319805 -0.03745783 -0.14993732 -0.21249641 -0.1032516 -0.08314155 -0.08405489 0.18677516 -0.1704925 -0.12475438 -0.245283 0.15712012 0.056844477 0.09081813 -0.0039272383 -0.44619054 -0.00388234 -0.12160613 -0.124079615 -0.052845776 0.16024384 0.0009133668 0.02495568 0.13133857 0.06615676 0.104143254 -0.028280908 -0.03424148 -0.1870122 -0.06768238 -0.3546651 -0.14118464 0.05400366 0.16917723 -0.17155705 -0.15710723 0.000114084214 -0.16786584 -0.4173825 -0.15946433 -0.30790862 0.03920154 -0.14581358 -0.015463308 0.018096931 -0.17514327 0.11309344 -0.11852009 -0.009877523 0.14504758 -0.34497836 0.0115454765 -0.08957396 0.46190378 0.028250365 -0.14249979 0.014460411 0.13111062 -0.18412668 0.13202015 0.110610664 -0.1657341 -0.24453425 -0.39661875 0.11239938 -0.19415118 0.04721476 -0.121769115 0.028742347 0.12034694 -0.048249032 0.14900276 0.0258447 0.14226031 -0.039438307 -0.11763471 -0.06841027 -0.018919917 0.06443866 -0.00011922146 -0.04549879 -0.058362514 0.115285404
0.05944941 -0.1456265 -0.0037532486 0.17082398 -0.1673738 0.016595474 -0.043661363 0.14388417 0.034217864 0.091964714 -0.015016822 -0.10184665 0.00895114 -0.066559635 -0.034255102 0.06649505 -0.23217005 0.07066892 -0.0043254313 0.047518283 0.021853754 0.028722225 0.6037506 -0.06983907 0.0044937446 0.08981878 -0.0033655863 -0.113069296 0.12852174 -0.03248913 -0.1680742 0.063412756 -0.016464021 0.01889968 -0.16093443 0.02876583 0.0649881 -0.088736854 -0.11319493 0.07210171 -0.12208836 -0.052534185 -0.011270564 -0.05424956 0.26877117 0.0653891 0.11191732 0.18112728 -0.05958972 0.15035921 0.12758124 -0.056721013 -0.11201908 0.065586254 0.015187241 0.044882797 0.10002525 0.13858019 -0.21144272 0.015215142 -0.23365378 0.012759167 -0.008741833 0.11565355 0.36228654 0.026543839 0.033964735 -0.23867434 -0.14589967 -0.09940885 0.19568156 -0.07969464 0.015400918 -0.04739112 0.070704505 -0.35535076 0.10653384 -0.1123796 0.09295206 -0.05503685 -0.059600353 0.21374871 -0.025969416 0.06279034 -0.048589338 -0.14493456 0.15273167 -0.08208194 0.09708788 -0.16585617 -0.064672194 0.13174061 -0.0015215538 0.11088968 -0.0006434758 0.56248623 -0.09250063 0.099433124 0.10245338 -0.056824222 -0.014659332 -0.008631466 0.12306408 0.00078159256 -0.13524622 -0.095163874 0.039944526 -0.054894116 0.30700132 0.03131526 -0.10928878 0.16521679 -0.0026329544 0.07810974 -0.08879732 0.03044226 -0.10912781 -0.104520455 0.22055928 -0.042820033 0.06901596 -0.07508836 0.12729692 0.08050873 -0.052881267 -0.1387227 -0.13719906 -0.08456526
0.07724534 -0.1623913 -0.05528622 -0.20985387 -0.10854065 -0.1733346 -0.27415082 0.126895 -0.025573023 -0.07032549 0.08079068 0.06979997 0.08400534 -0.25773537 -0.013048168 -0.015517144 -0.011400197 0.14098807 -0.1290224 -0.16733249 0.04592073 0.16472337 0.07403206 -0.16473843 0.07533417 -0.08830931 0.14990933 -0.05981131 0.20034362 0.20902522 0.16215172 -0.03240984 -0.058313232 0.044613034 0.08587843 0.02467453 -0.0805268 -0.058688853 0.071663775 0.020241477 -0.13603042 -0.004805697 0.12871286 0.050906867 -0.009275892 0.23292413 0.13472202 -0.024496367 0.058121435 0.09990636 -0.16673534 0.070272826 0.09859507 -0.07191559 0.017798923 -0.07155607 0.006516114 0.33989182 0.06410415 -0.17978996 -0.23333234 0.04388058 0.072321884 0.13330032 0.29071873 -0.06585273 -0.19365294 0.010611424 0.19857237 -0.06484389 0.12182938 -0.2023071 0.082940504 0.23074645 -0.015728485 -0.17770307 -0.120716535 -0.16522847 0.18582006 -0.023469932 0.003680949 -0.061130524 -0.02407537 -0.25261885 0.0315798 0.01816514 0.0014162292 -0.014923961 0.13693331 0.16216749 -0.004675999 0.14817408 -0.07243158 0.16765013 -0.09023741 -0.3298565 -0.1315739 0.038037542 0.1695858 -0.0014921759 0.18863449 0.1618518 0.15009375 -0.013542876 0.1790032 -0.020775553 0.092318594 0.020138985 -0.041242335 0.092389956 0.13037167 0.06995388 0.24884026 0.16491473 0.028508913 -0.03875947 -0.351651 -0.12927032 0.15214607 0.1539483 0.060096852 0.074020535 0.01569681 0.0061976817 0.08623205 0.11215942 -0.06859566 0.08143037
0.15695836 -0.00068628666 0.02220909 -0.37244487 -0.28748924 -0.057823345 -0.099080324 -1.0994356 0.094998114 -0.006907929 -0.038031492 -0.10194 -0.21859549 -0.9580262 -0.15861003 -0.06940841 0.07233948 0.0009614127 0.018899305 -0.06869421 0.11900053 -0.1887957 0.5832327 -0.053028416 -0.16059433 -0.64938 0.08206237 0.23562235 0.045375038 0.15939045 -0.12365798 -0.15000726 0.107271716 0.025430085 -0.19845742 -0.21639867 -0.24227242 0.23381966 0.05870515 -0.22875708 -0.077695385 0.017339656 0.15211993 -0.0205778 -0.15052223 -0.006862598 0.18786097 0.16826488 0.097860955 -0.33211884 -0.05922839 0.07362075 -0.07877197 -0.10845979 -0.008165931 0.11290182 -0.031491295 -0.06943934 -0.01259465 0.0051220157 0.31602553 -0.33328733 -0.012201305 0.025955101 -0.14620957 -0.08441483 -0.0138247395 -0.04348666 0.028349511 -0.09117441 0.069116466 -0.12778707 -0.1994984 -0.1872104 -0.2545195 0.074989766 0.011212352 0.13863687 0.10896053 0.12623224 -0.19121575 0.09536728 -0.00075832935 0.22819702 -0.06988385 0.08008894 -0.019160006 -0.08674418 -0.13055247 0.06192357 0.2834332 0.050881095 -0.11150104 -0.06400347 0.013391225 0.030232016 0.09429745 -0.04422759 -0.70543504 0.2959038 -0.7104029 0.023593118 0.05674047 0.13473503 -0.0030751033 0.0069858003 -0.07911843 -0.0889558 -0.09226067 -0.0011346136 0.002296611 0.04128028 -0.06350037 0.18027024 -0.28507957 -0.048085585 0.11668125 -0.009283387 -0.06970965 0.13237652 0.19194265 0.2971446 0.09710004 -0.44071501 -0.32325456 -0.00807569 -0.14211719 -0.14383918
-0.23453835 -0.167332 -0.034533236 -0.016028956 0.0059782355 0.03813766 -0.21714422 0.08001194 0.064306386 -0.040830392 -0.14626482 0.027336761 0.005694659 0.2769462 0.098548375 -0.10163644 -0.030240735 -0.0025303925 -0.073677026 -0.12448343 -0.118136056 -0.059559725 0.06397732 -0.039226808 0.19054723 0.13692036 0.0044586114 -0.07697721 0.14170326 0.081791155 0.11868745 0.11262985 0.07391689 -0.1438475 0.07076844 0.1581903 -0.07946203 0.14692073 0.05163623 -0.20052363 -0.16888213 0.14771055 0.037430644 0.05094537 -0.08988739 -0.10691058 -0.0005456339 0.016429842 0.034047335 -0.11102051 -0.027989319 -0.16620402 0.09905642 -0.013528172 -0.036479514 -0.054083932 -0.023088302 0.28444037 -0.022179695 0.10463031 -0.31031027 0.26415613 0.043109443 0.076343894 -0.12356353 0.20928554 -0.23658468 -0.24154752 0.011114492 -0.002698938 -0.04565408 -0.054650832 0.096398465 -0.1693996 -0.05386131 -0.12434924 0.08788369 0.15667513 0.010420938 -0.069957875 0.09474985 -0.23556991 -0.03717181 0.13391435 0.08503101 -0.03756222 0.18637729 -0.16090618 -0.11161316 0.18595903 -0.060187146 0.10929042 -0.10053172 -0.012795981 -0.044158693 0.27783218 0.053570833 -0.12024878 -0.19070604 -0.0005669664 0.0445889 -0.15108712 0.09734134 -0.0134360995 0.022260133 0.04962997 -0.09042196 0.028822104 0.15920125 -0.17157859 0.0021787535 0.04075272 -0.13209257 0.08179349 0.025512017 -0.17032127 0.19712155 0.05828398 0.11661784 -0.042477842 -0.077559896 -0.0790864 0.09998715 0.1165952 -0.1591414 0.05730764 0.031981908 -0.022735065
-0.05782612 -0.064541996 -0.118932635 0.048520904 -0.02936593 -0.18078673 -0.05587572 -0.13975373 -0.03156218 0.09457289 -0.111912735 -0.22281776 -0.07655998 0.1800196 0.022086743 -0.08134598 0.13208455 0.17541373 0.07570528 0.06600516 0.044879884 0.050924268 -0.06386066 -0.19128288 -0.045787893 0.083953194 -0.08365213 0.011577381 -0.01723309 0.04892806 -0.04072201 0.09676719 -0.121029794 0.1090447 -0.03958236 -0.066807985 -0.060046617 0.042567484 0.047134556 0.06942617 -0.06841712 -0.24244528 0.0017660458 0.0004902331 -0.10232189 0.029992074 0.00724639 -0.0046816226 0.109064825 0.030669944 -0.17425367 -0.123657316 0.0017338286 -0.034045693 -0.16320905 -0.05488477 -0.033223093 -0.12781286 -0.16251987 -0.08385262 -0.0076141385 0.1346138 -0.15028515 0.08544651 0.18911633 -0.17271233 -0.009034927 -0.068132006 -0.050417352 0.07230564 0.07356853 0.013465391 0.14769492 -0.16799593 -0.05431323 0.057041835 -0.14860547 0.1393048 -0.007505354 0.015145159 -0.008026467 0.043910787 -0.18474577 -0.025721448 -0.056464236 0.069271475 0.11168444 0.0017083726 -0.10182305 -0.059319098 0.0018569077 0.020333441 0.10966353 0.14975198 0.04002027 0.010294048 -0.06892564 0.10478257 -0.07285824 0.25187644 0.09619821 0.018035999 -0.053923737 0.030170279 -0.10845081 0.034584 0.047324043 -0.019821128 -0.03678005 -0.027537445 -0.119082235 -0.08833645 0.0516701 -0.22020423 0.022491904 -0.11160894 0.11402394 0.0854474 -0.08924342 0.003572157 -0.1887435 -0.056922525 -0.01279557 0.19502984 0.043693747 0.010336227 -0.037649423 0.03660024
-0.09006327 -0.08471227 -0.091779046 -0.13782999 0.17665543 0.019417096 0.035688777 -0.14507532 0.06160979 -0.0019058494 0.009270351 0.01953423 -0.086129375 -0.08657535 0.02339279 -0.07353539 -0.0124605475 0.031017998 -0.20100844 -0.24014196 5.0109116e-05 0.08792976 0.030456105 -0.3207244 -0.06516154 0.0165727 0.1674152 0.11312568 0.098621525 0.01779103 -0.120813526 -0.013347064 0.018483458 0.008518818 -0.039335396 -0.019415705 0.1887248 0.21899539 -0.1352989 -0.060266584 0.06633789 -0.17830637 0.013697214 -0.100741886 0.06643764 0.12142849 -0.09497913 -0.059432317 -0.055771742 0.0860972 0.06373329 -0.07331094 -0.019451488 -0.09077492 -0.14558959 0.07725648 0.1937829 -0.08024407 -0.073515154 0.04353121 -0.20361067 0.06555639 0.14236073 0.16144183 0.25179425 0.15319017 -0.11604835 0.0777769 0.12946463 -0.080790654 0.0732223 -0.002987157 -0.09030801 0.06341627 0.12750086 0.032231987 0.12217484 -0.1662181 0.08666927 -0.065959394 0.054696463 -0.30606163 0.1953675 -0.13210337 0.1574882 0.16101415 -0.0019172499 0.14316589 0.04225646 -0.008467535 0.10763078 0.12122268 0.20270407 0.07656998 -0.017032411 -0.18574062 -0.14009956 0.050156385 0.048494756 0.066361114 -0.091499075 0.19352764 0.11869929 -0.03639075 0.06530456 0.037324272 0.02663076 0.19312216 0.10407804 0.098487265 0.008068447 0.037794933 -0.05989289 0.09510272 -0.17871618 -0.029183226 -0.21043839 -0.059793122 0.32296276 0.16728115 0.24543989 0.08055414 -0.21724112 -0.0028141446 0.117561884 -0.00071294664 -0.07579659 0.10509694
-0.022752672 0.044832036 0.10668529 -0.09037192 -0.11090787 -0.023907982 0.4924502 0.20949957 0.387236 -0.3087217 -0.030074317 0.20647784 -0.12226711 0.18228015 0.36958244 0.12130847 -0.082930446 0.11171399 -0.059669245 -0.137223 0.14162432 0.18949734 0.5819512 -0.2949268 -0.099213205 -0.11901607 0.2497835 0.17892632 0.39531934 0.01589613 0.2174265 -0.3939233 -0.0885925 0.045161262 0.04443339 0.0050259694 0.20873262 0.013191591 -0.43036452 0.061280407 -0.028469104 -0.24998741 0.037574083 0.06785141 -0.11527247 -0.118286796 -0.13333099 0.26875028 0.14049426 0.10992997 0.130203 -0.03460941 -0.110305645 -0.13083695 -0.19259742 -0.098346755 0.2659821 -0.14227249 -0.37079483 -0.009995712 0.22484778 -0.0002889018 0.11122154 0.05142149 0.5411764 0.4084504 0.029740958 0.12667431 0.28701785 -0.114312775 0.2880279 -0.00017744082 0.22199187 -0.095414855 0.26458642 0.18303297 -0.06698706 -0.20898323 -0.07049296 -0.13521592 -0.19558673 0.23980792 -0.07351036 -0.008148137 0.06988881 0.29927254 -0.15019968 0.3118904 0.12318693 0.1325803 0.07576401 0.020360783 0.12872137 0.16835064 -0.10252614 0.07694115 -0.03641192 -0.078310415 0.2998687 0.28031015 0.07183242 0.13226545 -0.19788839 -0.01764586 -0.2875123 -0.07435702 0.09656101 0.19837041 0.30536774 -0.08352786 0.26831236 0.017628213 0.20544818 0.07960977 -0.23856758 0.008438536 -0.5941088 0.01809705 0.44235325 -0.07027138 0.41692734 0.2158023 -0.087547734 -0.45945078 -0.029006306 0.003204619 0.25672373 0.044050783
0.1560536 0.06165419 0.05273254 0.0349424 0.034655396 0.12244472 0.05382072 0.52262086 -0.09528702 -0.5002739 0.086625524 -0.045849044 0.13653915 0.12602977 0.03823098 0.11977499 -0.037603837 0.10029308 0.11485206 0.18921225 -0.06776824 0.12845707 0.3495574 -0.109529465 -0.04532932 0.01913896 -0.0942939 -0.053435203 0.16956152 -0.030990006 0.14574741 -0.23824951 -0.063994505 0.06280001 0.038927224 0.007829291 -0.1006838 0.21362118 0.15803063 -0.0075441543 -0.19468969 0.20002116 0.00036022498 0.023070376 -0.16228788 0.18265387 -0.051250864 -0.045999918 -0.11573205 -0.27594465 0.033446684 0.0756096 -0.092694856 0.21475239 -0.22939375 0.057129975 0.08517722 -0.010147832 -0.0027382409 0.16362308 -0.23760638 -0.05073261 -0.17726076 -0.3081048 0.08728404 0.2873897 0.16854514 0.07106653 -0.025705388 0.004400597 0.03561947 -0.2283392 -0.030122472 0.07807159 -0.028865403 0.23475063 -0.7222114 0.09702056 -0.08525492 -0.15260652 -0.0016571068 0.33704895 0.043260492 -0.104456276 -0.06843478 -0.1170775 -0.24734288 -0.036307815 0.04097759 0.16449745 0.115841284 0.08688796 -0.07514812 0.13971347 0.3089316 -0.44064036 -0.013435324 -0.14694536 -0.0568545 0.18818794 -0.13923998 0.10995503 -0.021280162 0.14921466 0.19180915 -0.0407859 0.040118318 -0.17963795 -0.5958326 0.26555702 -0.15777625 0.014351021 -0.08882323 0.08645199 0.004878343 -0.06997098 -0.04746666 0.1516405 0.25660303 -0.018482724 -0.038243916 0.21551855 0.24691422 -0.18279308 -0.48992294 -0.04797446 0.06156606 0.09752735
-0.0017033331 0.0936758 0.11715282 0.32105437 0.21980774 0.03287968 -0.87295693 0.9982453 0.2190048 0.081614375 -0.02053677 -0.08947196 0.0945155 0.31831437 -0.14068925 -0.16680269 0.18962319 0.07141749 0.17138223 0.21712835 -0.020774525 0.038305208 0.07827705 0.08453526 -0.06495767 -0.22485773 0.013683456 -0.099581465 -0.0069946484 0.14322989 0.21623912 0.0067571797 -0.41344652 -0.050876975 -0.2023825 -0.17279997 -0.24186373 -0.025692886 0.023104807 -0.053548686 -0.1715026 -0.037041888 -0.071431614 0.19053307 0.15629937 -0.13073894 0.12916021 -0.044623967 -0.07092619 -0.06412017 -0.099933065 -0.09817527 0.019055637 0.26720813 0.30929297 0.13923305 0.18837145 0.098702535 0.22259478 0.32249653 0.5131049 -0.13745147 -0.26434392 0.09870118 0.09163476 0.16941072 0.44715896 0.1557033 0.76609725 -0.037258778 0.2531013 0.22770172 0.46069318 -0.0013768247 -0.039002426 -0.13061824 -0.80917865 -0.3872736 -0.20930432 0.42179534 -0.13269052 -0.15406826 -0.12779263 -0.018746166 -0.05798515 -0.045327947 -0.29690656 0.006916766 -0.008662409 -0.13824351 0.06735354 -0.45759618 0.014520251 -0.24365774 0.067663975 0.009851223 -0.013901821 0.09944586 -0.039491665 0.07826063 -0.41833922 -0.123130746 0.06767906 0.08012028 0.073646374 0.040887564 -0.15931071 -0.26201922 -0.42123353 -0.05651025 -0.08635673 -0.042456724 -0.21882038 -0.21727176 0.040701482 -0.036381725 -0.5178513 0.023991251 0.04595785 -0.14982086 -0.2325397 0.007064001 0.35337207 0.42368266 -0.22672248 -0.21264382 -0.06517827 0.0932491
-0.018411094 -0.13760266 0.010377595 0.088279 0.061193917 -0.05318456 0.106273085 -0.096733585 0.012334006 -0.31376186 -0.05645814 -0.16999476 0.025298482 0.33766508 0.14141981 0.21872903 0.13653076 -0.13850176 -0.0073244767 0.07854147 0.13741352 0.12307197 0.11318517 -0.014598522 0.13976924 0.038696606 -0.0024453085 -0.014880504 0.28273633 0.06564113 -0.21045938 0.048824996 -0.20130268 -0.05121462 -0.056452192 0.090845436 0.06326748 0.036730085 0.007998467 0.034855355 0.070321634 0.24208045 0.033327896 0.09371789 0.021682605 -0.018094216 0.20582548 0.0798143 -0.01945836 0.021910278 -0.17968495 0.08237336 0.07376363 0.100414306 0.015609349 -0.16886114 0.28254545 -0.028183736 -0.06217386 0.14030774 -0.33710474 -0.08386921 0.081560664 0.06312206 0.10163048 -0.037346855 -0.2466542 0.16592087 0.25853837 0.024123386 0.19905695 -0.2502425 0.23519517 0.005926072 -0.36978394 0.23532306 -0.18560739 -0.03199087 0.028777314 -0.114053056 0.028631946 0.1141383 -0.10410892 0.011059065 0.12052494 -0.010748622 0.012540594 0.058340147 0.06230913 0.10678262 0.08650366 0.05440426 -0.22544447 0.12658435 -0.112076394 -0.033499904 -0.12282694 -0.1869202 0.38360637 0.1825131 -0.07425217 -0.06701214 0.032719977 -0.08353634 0.1125712 -0.08470037 0.16834223 0.21557006 -0.03936068 0.28255567 0.07351145 -0.09232738 -0.064758204 -0.07840923 -0.04457019 -0.054845344 -0.028944597 0.11363924 0.2688818 0.2833659 -0.11056216 -0.023448173 0.021974415 0.14262319 0.090792306 -0.11360213 -0.07768931 -0.034228336
-0.030707698 -0.24454866 0.21978565 -0.10169158 -0.06294465 0.072407186 -0.33640715 -0.021917166 0.19597317 -0.00014752356 0.0070689847 0.055910032 -0.11075712 0.02541845 -0.047547024 0.049360123 -0.0828418 -0.04192853 -0.012323681 -0.15539043 -0.23509221 -0.048894003 0.6416447 -0.089495555 -0.14870317 -0.044473417 0.14948858 0.01662842 -0.021519188 0.02109123 0.04053398 0.08521219 -0.28016162 -0.020134151 -0.029389935 0.1341343 -0.13717148 0.0012191014 -0.032184552 -0.040572222 -0.031518653 -0.09053685 -0.113715924 0.105411984 0.032480553 -0.09187605 -0.33207464 0.020150783 0.020820238 -0.1912388 0.110607065 -0.06446586 -0.1982031 -0.110762745 0.10692628 -0.102030516 -0.03705093 -0.062248636 -0.05113861 -0.049170654 0.068310216 0.05241231 0.04385405 -0.16004273 -0.03787824 -0.01108154 -1.0993371 -0.19454664 -0.19083369 0.0254742 0.14559446 0.16849379 -0.18429255 -0.061163835 -0.1856684 0.09200911 0.12985922 -0.13207103 -0.09114997 0.07044206 -0.006629049 -0.24581295 0.11495356 0.124506876 -0.045709174 -0.031362053 -0.123243056 -0.15087628 0.025017105 0.071579814 0.0052158115 -0.16128415 -0.0614599 -0.10190428 0.21805361 0.23833738 0.0283879 0.1413954 0.16140261 -0.033656962 -0.15491395 0.1443006 0.09559615 -0.08594811 0.06863123 -0.0530472 -0.13637693 0.07022303 0.8482145 -0.027858447 -0.13073972 0.052723464 -0.08765338 -0.15113233 0.11910429 -0.085377745 0.036679488 0.17931646 -0.0831045 0.04364626 -0.108606815 -0.045546904 0.10153601 -0.09548161 0.29551953 -0.05160168 0.034117565 0.029603936
-0.15003407 -0.010739591 0.13241245 -1.213332 -0.1489318 0.05248939 -0.09745418 0.06339267 -0.0061428286 -0.5458513 0.08473882 0.0050135525 -0.08849426 0.30844846 0.085137844 0.08967704 -0.0095893415 -0.17130047 -0.114403926 0.22650927 0.18897417 0.16049048 0.9184413 -0.48679128 -0.12077432 -0.13061383 0.05332429 0.031547707 0.18883477 0.3080551 0.12978424 -0.1586896 0.04260414 -0.095440105 0.016483454 -0.0052044196 0.021595921 0.11878617 -0.4945555 -0.093130335 -0.098982506 -0.0742962 -0.0852518 0.09794257 -0.20636223 0.047409166 0.48078698 -0.122414075 -0.21785359 0.018625006 0.011614839 -0.18200669 -0.11489544 0.12065878 0.14752439 -0.114620954 -0.30776444 -0.050498098 -0.56782985 -0.46891782 0.28447834 -0.16883953 -0.147248 0.22076327 0.056737598 0.23810093 0.20360081 0.060935028 -0.13154258 0.39745507 0.21982163 0.28150555 0.16052443 -0.10623131 0.21270828 -0.19832823 0.15923655 0.2198961 -0.041168395 0.014602367 -0.28079072 0.14836833 -0.032340962 -0.7244425 0.1047322 -0.25328895 -0.6150181 0.15095052 0.035365798 0.080067195 -0.2664497 -7.1018134e-05 -0.06288691 0.2757449 0.19436802 -0.73263675 0.14525901 0.21728884 1.0675081 -0.023378372 -0.14368977 -0.14140876 0.07632979 -0.086645745 -0.13093828 0.10946201 0.14562881 -0.03844681 0.29677275 0.15186816 -0.19159786 0.092147045 0.06079664 0.114518195 -0.016502768 0.13717999 -0.5913943 -0.08975652 0.16214974 -0.0558473 0.15641266 0.4047354 0.21142285 0.18888581 0.37811452 0.1657791 -0.0063918354 0.45498857
0.01193436 -0.13124393 -0.03086428 -0.06779128 -0.00532673 -0.15264578 0.03326668 0.074430734 0.1425652 -0.043520387 -0.14441298 -0.20082812 -0.10467403 0.00019999934 0.10620655 0.09356358 -0.16488339 -0.29703397 0.18468547 0.06476148 -0.042455237 -0.08351867 0.053114068 -0.054447997 0.06460308 0.024633275 -0.104058094 -0.033850003 -0.090872064 -0.08465979 0.06776976 0.10204322 -0.1409725 -0.09061608 0.0263116 0.07259298 -0.04584521 0.016421534 0.16124916 0.15301235 -0.06158247 -0.038071867 0.08907168 -0.08241112 -0.018260922 -0.07725885 0.07915198 -0.047179677 -0.028251376 -0.09454299 -0.17986469 0.12180226 0.03992592 -0.19203769 -0.032005154 -0.0122685265 0.089122996 0.077239536 0.041769568 0.047894917 -0.06910102 -0.11640126 -0.013899414 0.11600446 -0.04235723 -0.07983674 -0.20375286 -0.0688572 0.05206705 -0.044123594 0.06262844 -0.09222817 -0.001164172 -0.005164844 -0.12246924 0.16912924 0.13655181 -0.06150731 -0.034266848 -0.151885 0.0026869092 0.0022184425 -0.12213996 -0.18867543 -0.16337469 0.14963908 -0.12240016 -0.17608908 -0.003572031 -0.22078145 -0.006667913 -0.07357242 0.13784195 -0.20068458 0.07694202 -0.04569668 0.058156412 0.056926608 0.052290197 0.068338335 0.01610004 -0.00081417104 -0.0041617 -0.033543803 -0.06560492 -0.123042785 0.07328029 -0.12447401 -0.11526844 0.019271825 0.07330544 -0.06269609 0.0028969916 0.020466035 0.010813641 0.24185283 0.11943535 -0.0686127 -0.1540462 -0.193132 0.094360314 0.052884784 -0.030527163 0.22503756 -0.18721059 0.07162941 0.08835271 0.11082901
-0.05593183 -0.11302925 0.007114039 0.08183484 -0.051419463 -0.11168315 0.060144182 -0.34894347 0.06564095 -0.035582133 0.088404335 -0.0064352388 0.048425287 0.09329936 0.052923385 0.20916988 -0.053283945 0.0473315 -0.17617428 -0.13150094 -0.24917643 -0.12434741 0.14260298 -0.06729594 0.05919157 -0.088498905 0.084824175 0.16281646 0.281393 0.13491529 0.027221255 0.09945163 -0.08450789 0.17463182 0.011262104 -0.13134013 -0.09687978 -0.008044103 -0.025944397 0.009493086 0.04380173 -0.077863015 0.0022017348 0.06721693 0.08482391 0.1799832 0.29254103 0.12535106 -0.012133 0.06138092 0.08933353 -0.033037174 0.07533318 0.038455296 -0.12764785 0.042289797 0.14778979 0.02343538 0.11204467 -0.13782127 -0.045098253 0.04864653 0.15865166 0.064196095 0.15062399 0.19679706 -0.09672665 0.1656338 0.51524216 0.17264524 0.19529413 0.053676605 -0.01813847 0.025529621 0.17089467 0.14124453 0.040417872 -0.19951305 0.012682238 -0.26148227 -0.02242964 -0.2768324 0.01272682 -0.26578805 0.027489837 0.15377566 -0.26281363 0.24288383 0.15401502 -0.077045895 0.0347268 -0.075122386 -0.06026747 0.028195057 0.06022229 -0.2985103 0.15491726 -0.040113304 0.51374197 0.2919567 0.22255 -0.09366984 -0.2052519 -0.04121402 -0.20776285 0.060318623 0.045659658 0.0046948963 -0.107180156 0.1086756 0.2747899 0.063622594 0.16966453 0.1449419 -0.3113108 -0.001020514 -0.3282962 -0.1831805 0.23855716 -0.091348834 0.04659072 0.0841992 -0.16298525 -0.18025038 0.30383354 0.066980086 0.008100543 0.122623265
0.32898077 0.031503182 -0.000671077 0.13512926 0.07668552 0.055115424 -0.20166358 0.011814954 0.19767854 0.01379887 -0.16060096 0.14326294 0.19006592 -0.014879569 0.16177486 0.15963078 0.09635524 0.018324059 0.0059488476 -0.0629585 -0.036244504 0.048116427 0.37932256 0.3071409 0.0078082634 0.0114886435 -0.019472197 0.151808 -0.1163032 -0.06280528 -0.065782666 0.10649933 0.06974812 0.112287454 0.020153832 -0.093746744 0.2577652 0.15047005 -0.02757572 0.04863495 0.17948775 0.0009376748 0.117438175 -0.008579745 0.046535403 0.1756591 0.14820628 -0.07909999 0.032767225 0.081079856 -0.072250076 0.060465172 -0.065145686 0.10937831 -0.09183908 -0.05015948 -0.09167939 0.01626919 -0.119809896 -0.10001876 -0.3046603 -0.01620838 0.119292445 0.15064289 0.06840243 -0.015840115 -0.08645838 0.18543161 -0.20744799 -0.07444881 0.39394128 0.03441994 0.18044852 0.09935457 0.1542682 -0.29878312 -0.18755864 -0.027493251 0.1898586 -0.2748483 0.036371846 0.490013 0.14771497 0.036086224 0.27579945 0.3384218 0.065560184 0.11032898 0.059549026 -0.010832448 -0.13808098 0.01914423 -0.07288637 -0.053091455 0.026591277 -0.1477144 0.08244058 -0.06714308 -0.016755147 0.16326119 0.1507249 -0.11323281 0.056951504 -0.22208032 0.20288914 0.16163391 -0.021965565 -0.024760356 0.027153514 0.16489957 0.17329256 0.19913873 0.2347125 0.05780161 -0.06662888 0.07320914 -0.08675871 -0.07696339 0.16895488 0.1308707 0.102482505 -0.12926054 -0.09285607 0.046236772 -0.058194302 0.043771222 -0.18175907 -0.08640699
-0.0004909852 -0.023106148 0.1352083 -0.6267967 0.09596685 -0.060844567 -0.06438167 -0.2866487 -0.3158991 -0.22967264 0.13213141 0.095614105 0.18699074 0.014358725 0.17792478 -0.15535258 -0.3574946 -0.33004022 -0.30599242 -0.29389662 0.29514897 0.19494535 0.37189195 -0.2415156 -0.044463787 0.23345773 0.018440168 0.0708231 0.014506333 -0.083739564 0.045400493 0.22042172 0.01114227 0.09693682 0.21499673 0.02691279 -0.3111926 0.018671887 0.4612333 -0.82842714 0.12990743 0.020696046 0.36355755 -0.170054 -0.025359206 -0.037828848 -0.0030361088 -0.02592493 0.239264 0.056019682 0.17502917 0.17654862 0.0767771 -0.32754135 0.027939128 0.038288165 -1.1709628 0.09065996 0.0855933 0.17788333 0.32790786 -0.05774566 0.005111219 0.29428905 0.43978554 -0.28946713 0.008567201 0.46764842 -0.083506405 -0.07323559 0.105088085 -0.10677312 0.06760495 -0.039799705 0.28058222 -0.12825239 0.40731624 -0.64799154 -0.016942794 0.31996703 0.0302845 -0.19052805 0.25696594 -0.40868986 -0.2602537 -0.102432795 -0.5102427 -0.06315793 0.10766743 -0.19327267 -0.1334909 -0.40935746 0.010817708 -0.27327332 0.2112505 -0.5217022 -0.056946997 -0.45009616 -0.30088812 -0.43129557 -0.117444396 0.10777288 -0.58628666 0.10546701 -0.110412575 -0.0041677994 0.21842735 -0.21429631 -0.298705 -0.40958828 0.010893769 -0.19385685 0.11934428 0.0038839988 -0.20062679 -0.31133485 -0.16032608 0.02698631 0.10629514 -0.027944688 0.1228084 -0.033715595 -0.6854295 0.7509417 0.004618942 -0.086993635 -0.18625201 0.43674222
-0.106565215 -0.23733072 0.08133387 -0.15581454 -0.15927449 -0.2563118 0.0735075 -0.6717103 0.08995302 -0.28369898 -0.061114885 0.11804547 -0.035470862 0.16612682 0.32557812 0.3609896 -0.2327156 0.23827533 -0.18864778 -0.14286733 0.0030505937 0.0036808378 0.13777824 -0.08207233 -0.27213287 0.0070435186 0.35454193 -0.014620033 0.44777995 0.010786662 -0.18217388 0.10083036 -0.08282904 0.27170146 -0.09986601 -0.117939286 -0.042063676 0.100236684 -0.045388494 0.09028927 0.12390551 -0.05948168 -0.019819409 -0.030021762 0.17250645 0.0654145 -0.0010418226 0.12229723 0.04557401 0.1173278 -0.14273441 -0.09795137 0.074370384 -0.11981548 -0.20992847 -0.09686303 0.12748846 -0.19991769 -0.35718745 -0.365491 -0.18025726 0.1519055 0.12701862 -0.24920158 0.07895477 0.19597062 -0.08642934 0.32012564 0.42129323 0.18476416 0.43036863 -0.094578385 -0.11360716 0.07608998 0.04498328 0.0788379 0.12973121 -0.3531163 0.110813715 -0.33501416 -0.13967277 -0.32288438 0.18587567 -0.19227065 -0.09835776 0.3345271 -0.2948055 0.24463697 0.16312443 0.15095784 0.07126435 0.01362563 0.22545068 0.14982755 -0.049258452 -0.28832796 -0.10826175 -0.13567252 0.62048537 0.124210164 0.12582847 0.05189215 -0.014449712 -0.17244883 -0.081353016 -0.0070072683 0.16389042 0.14987068 -0.0316125 0.35713765 0.21988808 0.12839168 -0.08799696 0.1434112 0.087737806 0.13755693 -0.45559844 -0.09645794 0.17145385 -0.017531257 0.17716464 0.09320637 -0.22236165 -0.16093649 0.3982675 0.2207162 -0.04676219 0.23688175
-0.054992218 -0.016317274 0.09331391 0.17646645 -0.14878672 -0.018365053 0.28381014 -0.32109323 0.13944985 -0.31839287 0.12297143 0.002900581 -0.1010405 0.40677127 0.23888841 0.27158096 -0.022948157 0.11495761 -0.27950993 0.11595819 0.06777449 0.14299828 0.41884694 -0.08765773 0.022050977 0.087697074 0.22016606 0.16659674 0.29199564 0.13044086 -0.25582033 -0.14016254 -0.05063183 -0.11004028 -0.19031341 -0.087000914 -0.058860924 0.067727454 0.047225095 -0.12525043 0.05806893 -0.10855861 0.07999062 0.17475446 0.29611298 0.05944709 0.09850337 0.002697553 0.13292137 -0.09715685 0.05032847 -0.18233663 0.13737245 -0.06842133 -0.42153478 -0.22648424 0.24822877 0.115671046 -0.076035194 -0.19165532 -0.6833977 0.096782476 0.15605745 -0.38947886 0.07279467 0.14264835 -0.0030005162 0.2477716 0.33081457 0.16175576 0.38945407 -0.069979265 0.17919977 0.13913019 -0.042762224 -0.06477043 -0.30996814 0.13188037 0.13246858 -0.31567988 -0.16488531 0.17785086 0.09187038 -0.0644354 -0.07468322 0.112840414 -0.24454352 0.16153997 0.05120789 0.101454586 0.025611421 -0.01617744 -0.04896694 0.19763003 0.0026214316 -0.4190988 0.20398459 0.025953047 0.75629467 0.046981886 0.008450754 -0.06762988 -0.0034029102 0.03752557 -0.12676737 0.13981627 0.013460908 -0.12799835 -0.05809291 0.38012338 0.06911336 0.035543114 0.060923018 0.15797894 0.15980898 -0.13615975 -0.24696098 0.07315328 -0.02324226 -0.14925945 0.013150408 0.1730484 -0.014927391 -0.31675705 0.13920271 0.06259436 -0.02101345 0.14249969
-0.15290214 -0.07292418 -0.0005773213 -0.034766074 -0.042170446 -0.012357392 -0.058075707 -0.03943407 -0.15893005 -0.26578447 -0.23536493 -0.03163965 0.10691494 -0.029953023 0.10608621 0.23420925 -0.12582241 -0.13234606 -0.14757669 -0.21613741 0.10968935 0.09180996 0.00015450556 -0.10782868 -0.07266085 -0.10976934 0.100072525 0.019807607 0.031752788 -0.06358474 -0.051267765 -0.15972751 -0.09828845 0.027589511 0.14913772 -0.11339353 0.045589462 -0.0293506 0.018114882 -0.05167387 0.05715959 -0.06795879 0.07938068 -0.0594977 0.10764241 0.22537214 -0.119720586 -0.03508913 -0.012152823 0.07571028 0.041262425 0.10636585 -0.046386074 0.10313823 0.04197131 -0.1027663 0.11896786 -0.05071179 -0.052846223 -0.07376149 0.026959162 -0.1515771 0.2575268 -0.12784456 0.08697472 0.032606367 -0.07100831 -0.042704303 0.1555271 -0.04314028 -0.0331641 -0.10460706 -0.09754747 -0.08593869 -0.02329965 -0.07379941 0.06737001 -0.044993628 0.06311907 -0.01777518 -0.08903255 -0.047901228 -0.122878306 -0.028148515 -0.04481488 -0.09362466 -0.12937167 -0.07844584 0.007068506 0.051075216 -0.15743504 -0.20738183 -0.014660016 0.22294958 0.007300879 -0.032175895 -0.073168874 -0.18718648 0.043866806 0.057806153 0.0077426913 -0.1058632 -0.09588371 -0.0022987488 -0.001606637 -0.13469125 0.03483567 -0.12177183 0.06561743 0.028220333 -0.049927454 0.16883999 -0.06531122 -0.1265329 0.25814357 0.12642409 -0.08284002 -0.059667464 -0.13580054 -0.13823819 -0.08262336 -0.00536558 -0.13052349 -0.083254494 -0.12676238 -0.16904128 -0.16010314 0.0832788
0.09437684 0.020586012 0.14719836 -0.14967269 -0.025140837 0.014899047 0.12696671 -1.0294027 0.15806948 -0.3042307 -0.065773875 0.10137134 0.04236001 0.45227233 0.16096015 0.14415282 0.19516087 0.13259445 -0.013533574 -0.010164673 0.052677345 -0.004734412 -0.098371305 -0.3251496 -0.0853414 -0.045832094 0.016943676 -0.038932223 0.3225337 -0.013618302 0.05602461 0.16216804 -0.18403186 0.195875 0.14828937 0.028444571 -0.1263961 -0.11146465 -0.0978183 0.11947762 0.40313345 -0.00086390896 -0.113774955 -0.041798912 0.12981476 -0.21333939 0.0009458316 -0.023644269 0.16052426 0.14690417 -0.11488545 0.15356645 0.064688325 -0.054943062 -0.403877 -0.00034594347 0.2387858 -0.1179576 -0.1533807 -0.027303396 -0.13055423 -0.15513754 -0.01573988 -0.19774559 0.22617 0.21967238 -0.031374007 0.18911774 0.56844807 0.0230577 0.24633801 -0.005461019 -0.031163225 0.019425398 -0.04804002 -0.10548375 0.20026168 -0.2273576 0.08387653 -0.12500834 -0.06654362 0.06914273 0.027227059 -0.15226059 -0.0031002953 0.102477 -0.22090152 0.0898969 -0.0424706 0.22471203 0.2832251 0.07224429 0.095356345 -0.12443666 -0.075836144 0.14602 0.11712494 -0.035008993 0.24341571 0.004783746 0.055212334 0.026626801 -0.18731578 -0.30844426 -0.009972348 -0.04170149 0.029287392 0.14590406 -0.19271778 0.07172661 0.116776474 0.12493419 -0.14140137 -0.0036582823 0.0074087856 0.06399172 -0.2376227 -0.23136187 0.08223832 0.049574293 0.07885529 -0.021846518 -0.10857283 0.13118361 0.07778706 -0.0643938 -0.023425952 -0.003078365
