-0.0022120625 -0.42759752 0.36243504 -0.034200914 -0.114811376 -0.15874225 -0.36113387 -0.091922656 0.10199388 -0.16590676 0.21465787 -0.021781282 0.034683857 0.3302533 0.173102 0.25854605 0.013779988 0.24679117 -0.09665216 -0.07627902 -0.82129574 0.0034224405 -0.007739582 0.16874687 -0.061078127 -0.061548248 -0.27902254 0.11954697 0.031221956 -0.12118128 0.05218808 -0.1674171 -0.002991145 -0.045717474 0.07816558 -0.24292417 -0.085879624 -0.12490124 0.1675259 0.29728895 0.19590458 0.3164643 0.14276637 -0.016911073 -0.27090022 -0.1750161 0.2723517 -0.2656808 -0.08060279 0.17336604 -0.27826387 0.14068049 -0.081703104 -0.028581433 0.053290576 -1.0116134 -0.13142428 -0.42790788 -0.08940104 0.9479601 -0.45761707 0.08685355 -0.01045923 0.14339541
0.09903619 0.33268178 0.22653554 -0.114169344 0.045042437 0.061095923 0.07273258 0.12257762 0.05294725 -0.34602043 -0.12411562 -0.14781517 0.16333869 0.19234894 -0.27616575 -0.1660593 -0.037642423 0.16836976 0.14069723 -0.017223705 -0.06350847 0.124794334 0.09572268 0.032356765 0.2067818 -0.13697745 -0.12596299 0.042711314 0.14766128 0.22606173 -0.16549025 -0.062189195 -0.078261755 -0.13120766 -0.0047450457 0.030145932 -0.021367885 -0.04695979 -0.012195181 0.14484994 -0.050693914 0.115600154 0.12680842 -0.059020326 0.07951058 -0.038627785 -0.04176105 -0.027144842 -0.04536561 -0.05480734 0.07088569 0.1626292 -0.06800131 -0.14531964 -0.041614003 -0.137642 0.24739058 -0.095567204 -0.0087009035 0.0708746 -0.2124764 0.101916224 -0.035331912 0.13341688
0.24315749 0.12770696 -0.96445984 1.1680466 0.029778708 -0.009097453 -0.72549564 -0.20429589 0.15427083 -0.32913953 -0.89012206 -0.5890107 -0.22714297 -0.07389854 0.017153934 -0.22729485 -0.1263962 -1.0216284 -0.14912507 -0.15141347 -0.41512412 -0.47082788 0.13683854 -0.9681347 0.34313732 0.12148414 0.4252819 -0.42849973 0.8707606 0.37895733 -0.65245074 0.23910598 -0.14873314 -0.13220707 -0.19122574 0.53554916 -0.6469106 0.21063241 -0.08548982 -0.08521596 -0.3434357 -0.5406217 -0.54137355 -0.36648795 0.27848116 -0.14950384 -0.42148855 -0.20855959 -0.029345866 -0.020358248 0.37283853 -0.30961356 0.5368756 -0.11420529 -0.27789813 0.6989173 -0.07962621 -0.18183 0.2691512 -1.0021532 -0.99773353 -0.4602485 -0.06297121 -0.5574018
-0.23654312 0.2433916 0.592702 -0.5684621 0.10395393 -0.12763806 0.10607095 -0.37875563 -0.14079931 0.120420896 0.28565502 0.26093152 -0.0472995 0.09200048 0.18386775 0.0007066747 0.09353747 -0.23140886 0.023741763 -0.20345345 0.0653071 -0.04959769 0.1411589 0.23582876 0.009345125 0.070685826 -0.11512389 -0.10581217 -0.4904306 0.18065684 0.053476844 -0.008329039 -0.15066107 0.09626329 0.63381046 -0.14176452 0.11265328 -0.038869508 0.017913848 -0.24335855 0.24330327 0.17968757 0.27768785 -0.025286144 0.07035363 0.27515748 0.10309441 -0.013873709 -0.012246612 0.06000456 -0.12444696 0.14606541 -0.07385663 0.0622245 -0.17000309 0.4113998 -0.02646682 0.05628788 -0.14545372 0.47453395 -0.003181537 0.36942443 0.105161004 0.0049563176
-0.6321682 0.10831026 0.7056937 -0.10368926 0.36652446 0.17236336 0.29422322 -0.1546573 -0.0581928 0.13011003 0.4931133 -0.08106554 -0.15038422 0.361845 -0.06624708 0.051181205 0.011602166 0.28219604 -0.22751376 0.15208732 0.10104372 -0.25593704 -0.09999184 0.27663192 0.12957424 0.11838771 -0.23212335 0.13409084 -0.22214445 -0.04825004 -0.0135033345 -0.23309138 -0.0018569954 0.014108234 0.33543876 -0.32412487 0.16394524 -0.13102232 -0.057334244 0.20576821 0.24732444 0.70312613 0.027725862 0.31083736 -0.0054268655 0.052964836 0.4816143 0.045620333 -0.034568988 0.46070465 -0.5025895 -0.0065287547 -0.50206065 0.0027058735 0.021389056 0.06545875 -0.07024974 0.078600615 0.16664408 0.9247353 0.33724913 0.34792382 -0.0250771 0.089047104
-0.044317484 0.012044005 0.3570687 -1.1468536 -0.16884917 0.2025645 0.10524902 -0.047673307 0.046632525 0.12556145 0.7868889 0.069289915 -0.011668123 -0.17190368 0.22746043 0.37191874 -0.00021894729 0.17314433 -0.15440284 0.15713224 0.6391802 -0.6318905 0.34672573 -0.1269999 -0.3407507 -0.15660697 0.1270487 0.1472018 -0.24081124 -0.43683305 0.29500133 -0.24681003 -0.015782459 -0.107246645 -0.07943642 0.20749687 -0.21322465 0.17890394 0.025961934 0.37846634 0.2993442 0.7053022 -0.06937877 0.6167501 -0.25190896 0.24236539 0.120990805 0.08445492 0.068049036 0.29814714 -0.4807934 0.08100253 -0.6033836 -0.049631283 -0.19747905 -0.44384927 0.07122257 0.045210876 0.054758582 0.77095944 0.29329997 -0.01183736 0.056864448 0.061829224
-1.5315839 0.04961129 1.0091888 -1.164903 0.18743314 0.041010823 0.20240623 0.2771256 0.04139881 0.3039513 0.8773239 -0.1556028 0.015445712 0.28402716 0.045299273 0.43826452 0.032319788 0.5420277 0.111296825 -0.0042823693 0.35485816 -0.019115392 0.05512702 0.37052983 -0.56814826 0.016281687 -0.42155817 0.3478547 -0.53212106 -0.94111973 0.21836919 -0.086765446 -0.28588948 0.24971215 0.36088374 -0.13751276 -0.036492545 -0.058988042 -0.0104450025 0.25823462 0.3179967 0.98955476 0.32804576 1.0436788 -0.017908022 0.34822318 0.95621955 0.010328653 0.18162687 0.20278305 -0.71032566 -0.12262669 -0.85426176 0.118792094 0.22382927 -0.058679715 -0.08426951 0.068581 -0.08421853 1.6123441 0.3006396 0.3782379 0.039071135 -0.019733477
-0.09304851 -0.053092405 0.4126523 0.028849583 0.08740207 -0.089384 0.17451821 -0.113068484 0.082607254 0.3662396 0.21170434 0.15558808 0.09252917 0.2290649 -0.100908265 -0.08161489 0.12281373 0.3267933 -0.053448103 -0.10632368 0.22546595 0.123688765 0.10945269 0.099846736 -0.038408063 0.1453526 -0.22508861 0.03845508 0.18443656 -0.3350658 0.03416788 0.03536119 0.16221018 -0.00785103 0.10063905 -0.15627052 -0.05418261 0.006208175 0.006305722 0.095755965 0.068466865 0.5225646 -0.03607478 -0.119963445 0.15663476 0.28577733 0.13469523 -0.15624696 0.047286972 -0.06367809 -0.22214055 0.07124391 -0.18125209 -0.122511536 0.059436597 -0.21421103 -0.019723423 0.40623787 -0.06598468 0.80802196 0.3582538 0.25324237 -0.052851085 0.07046462
-0.5009803 -0.04200876 0.69519734 -0.064401634 0.09052414 0.08781348 0.19184376 0.013525878 -0.016266998 0.33792832 0.6117951 -0.018511849 0.119156286 0.019004257 0.1672201 0.08895179 0.049425818 0.38534775 -0.07544418 -0.015102791 0.31967407 -0.024760524 0.25089052 0.06462042 -0.24102697 0.1642461 -0.30048108 0.15755293 -0.30542108 -0.47326034 -0.0036577126 -0.04505271 0.07900638 0.050944574 0.024871739 -0.36775887 0.04430879 -0.011550373 0.015439029 0.037108015 0.111260474 0.86490065 0.2839133 0.2956575 0.114729114 0.11394472 0.42349064 -0.014964505 0.08248944 0.058055483 -0.4660008 0.048624568 -0.6783575 0.04409668 0.12111552 -0.15661298 -0.13468239 0.076056734 0.08878055 1.0961791 0.29927856 0.19002342 0.11377614 0.2882971
-0.74058837 0.81583 1.536301 -1.034389 0.22438803 -0.060010668 0.85656506 0.59642446 -5.430732e-28 0.5014225 1.453444 0.6279257 0.12303838 -0.027703533 -0.093600884 0.51695883 0.21193236 0.8452761 2.4805568e-05 -0.72702724 0.32140803 1.0319206 0.10481005 0.7056258 -0.44884208 0.18975672 -0.726178 0.30384943 -0.6109886 0.20753713 0.52697057 0.01492528 0.001525264 -0.17902042 0.4516552 -0.45328295 0.55524206 -0.20443626 -0.23652488 -0.8136059 0.4876373 1.8063443 0.6329978 -0.23750913 -0.4715924 0.28747702 1.3712802 -0.41975346 -0.08036003 0.29848722 0.45150763 0.13929231 -2.1085863 0.20536898 -0.29873103 -0.6303113 0.088190526 0.34038395 -0.24536648 2.5829113 0.3976636 0.75443673 0.004657761 0.26024923
-0.14732301 0.03887236 0.30883694 0.28714365 0.3173786 0.25703487 0.08670785 0.20401008 -0.23674612 -0.030625362 0.28161892 0.12778836 0.09567121 0.052229766 -0.0502661 -0.22523622 4.287845e-06 0.41176933 -0.11409212 -0.04871468 0.23151213 -0.0031940835 0.08686854 0.04546848 -0.080725655 0.18159212 0.004460578 -0.028764544 -0.22233711 0.10564989 0.13333727 -0.020091347 0.33955657 0.19528009 0.0144608775 -0.5017544 0.27810547 0.19306408 0.1968343 -0.093757786 0.08481385 0.5652916 0.051008023 0.04460664 0.3106149 0.07764957 0.29341426 0.22919074 -0.12664442 0.13582484 -0.48847753 0.19498105 -0.42169163 -0.19725622 0.18006395 0.010564155 0.149532 0.18556122 0.01772453 0.66806114 0.10699176 0.22116034 0.100051135 0.09273802
-0.04825493 -0.08331755 -0.028912403 0.16259244 0.00090252334 -0.17794947 0.18574126 -0.021293323 -0.11823771 0.084318236 -0.08883182 0.06822243 0.02419861 0.02186061 0.06819651 0.016997304 0.041752685 -0.2682996 -0.15955456 -0.12947753 -0.16618395 -0.18163265 0.025193615 -0.22492398 0.081388704 -0.12499096 -0.48740974 -0.042543285 0.061591562 0.13040702 0.08179687 0.079877645 -0.20861311 -0.22284175 0.11850118 -0.35372445 0.15880996 -0.16099748 -0.040189244 0.027883401 -0.008839588 -0.16793816 0.15035896 -0.07373946 -0.31434947 0.035257917 -0.1398819 -0.0049042464 0.023090258 -0.03912819 0.012453318 -0.26200077 -0.16348757 -0.02410438 -0.022327015 -0.04141147 0.024437582 -0.21179654 0.0073379334 0.17437433 0.14221221 0.06473843 0.04395397 -0.2514005
-0.8268949 -0.09287253 0.67482424 0.006859095 0.2978598 -0.056800704 0.20044605 0.11849339 0.10461329 0.0029599883 0.436922 -0.14449486 -0.18872742 0.06149071 -0.081505984 0.10282946 0.010853086 0.098909326 0.31901613 -0.22076452 0.41853094 -0.122832306 0.03947928 0.1275933 0.21729119 0.21370631 -0.1339167 0.08937489 -0.029640567 -0.030933091 0.31113133 -0.091251336 0.018799843 0.15739661 0.19451313 -0.12703617 0.06419135 0.16198607 0.34689316 -0.29748705 0.254945 0.6979977 -0.047486804 0.36481506 -0.063658014 0.1463365 0.7870373 0.005322617 -0.17202188 0.06682997 -0.46707132 0.044900626 -0.7491639 0.11201629 0.028903814 0.32701197 -0.026462782 0.3495576 -0.017702792 1.1135342 0.2068039 0.1387663 0.049575202 0.1901236
0.112488925 0.28955132 0.26695377 -1.0624592 -0.052168395 0.067636296 0.21905017 -0.122545645 0.12395618 0.32718277 0.6723191 0.070865646 -0.115163796 -0.051837906 0.12638006 0.26452044 0.19437073 0.07291501 0.12260083 -0.07128672 0.23294587 -0.109131224 -0.16436443 0.34495324 0.079886794 0.29884142 0.11722706 0.16331309 -0.28110194 -0.19665559 0.034519967 -0.117368706 -0.24197738 0.021061432 0.122720435 -0.008575298 -0.0969636 0.16678731 0.095683776 0.10984647 0.21510999 0.5352113 -0.19771738 0.25400564 -0.037353586 0.2613354 0.16853729 -0.11724143 -0.006272353 0.0597467 -0.3556466 0.060443513 -0.33809617 0.086475275 -0.32676417 -0.55794555 0.017581481 0.0019046214 -0.0053415615 0.5392738 0.22446616 0.29619446 -0.014022082 0.28076753
0.11371777 -0.2361011 -0.0073726014 0.01951985 -0.12477655 -0.090535775 0.06730711 0.20673665 0.086942926 -0.09381325 0.13149074 0.07667119 -0.27095112 0.012186502 -0.23020948 -0.0004426451 0.11464817 -0.08599626 0.13593319 0.048291054 -0.21956287 -0.028190702 0.033889066 -0.075331345 -0.025935661 0.0020677398 -0.14997476 -0.017823633 -0.03364308 0.097624026 -0.034835063 0.2622507 0.027892774 0.15687485 -0.011853478 -0.060333785 -0.27671853 0.023469798 0.071075276 0.04908441 0.028996713 0.0069667725 0.03593138 0.19309337 -0.0059876065 -0.02848144 0.17591682 0.044038717 -0.20913778 -0.124968186 0.05001451 0.021781195 0.042187274 -0.1695194 0.03919083 0.053893358 -0.28011075 0.044857215 -0.035521172 0.31414506 -0.026835267 -0.16520196 -0.2314837 -0.046719354
-0.16148119 -0.10764078 0.015236062 -0.1058119 0.07947033 0.11455043 -0.039807044 -0.031061426 0.115123786 -0.16805461 -0.19715576 -0.10355007 0.07159176 -0.024851948 0.03668618 0.005453932 0.15935172 0.19436449 -0.25344455 -0.022900099 -0.23917404 0.13761167 0.22394949 0.17152806 0.103403494 -0.09705528 -0.07949079 0.09893486 -0.16088073 0.006595226 -0.049269836 0.13374415 0.13525099 -0.10490791 0.04400396 -0.22728789 0.0830987 -0.19328919 -0.1520163 -0.14225934 0.17312063 -0.07851021 0.041861173 0.26699877 0.11689128 0.22758214 -0.008702655 0.08470349 0.24443194 0.15166733 0.0036348705 -0.029868087 -0.31699228 -0.11743197 -0.099379234 -0.089659296 0.03553248 -0.2892388 -0.27720585 -0.06714422 -0.17856956 -0.040447433 0.034856737 -0.23738776
-0.26894996 -0.17062497 -0.78460264 1.250236 0.18652952 0.23067527 -0.3892973 -0.10230008 0.37115055 -0.22408375 -1.0359052 -0.3585629 -0.18249148 -0.024308156 -0.10924592 -0.00973429 -0.06503005 -1.1068542 -0.010516636 -0.17808777 -0.027619708 0.010967786 -0.0450178 -0.45040607 0.111551136 0.16714968 0.13433714 -0.0501338 0.6312754 0.04906535 -0.63314813 0.011095082 -0.0962457 -0.18723904 -0.43127632 0.3813813 -0.4485705 -0.1271189 -0.021424808 0.23242807 -0.34013054 -0.069090635 -0.16760607 -0.25633833 0.27350977 -0.06039448 -0.6215985 -0.022229057 0.16923717 -0.04430632 0.31522438 -0.1795758 0.0013904254 -0.014181195 -0.45289028 0.5785415 0.1874688 -0.002352991 0.36498526 -0.6969389 -1.1571327 -0.5538916 -0.06927542 -0.42156866
-0.19236942 -0.08383596 -0.06388307 0.061906278 0.06653387 0.028615857 -0.11367965 0.19361106 0.052776985 -0.1329849 -0.06364861 0.1504783 -0.019010458 -0.0060325707 -0.16947873 0.06841787 -0.2352245 0.056132056 0.026050346 0.20388502 0.06914157 0.0021235663 -0.009512159 0.06186106 -0.14526893 0.024805324 -0.12368723 -0.12549588 -0.051433478 0.3076213 0.080429055 0.13514236 0.017327555 0.109868206 -0.043928847 -0.015643245 -0.3037055 -0.16335255 0.039054397 -0.18702565 0.20867749 0.021947972 -0.02528409 -0.21339552 -0.18217005 -0.087922126 -0.21895234 0.17324965 -0.2860233 0.008818533 -0.01074463 0.22666632 -0.2613835 -0.010291804 -0.18080056 0.031345736 -0.0995442 0.05996503 -0.06847202 -9.006547e-05 -0.10895466 -0.06512335 -0.06225095 -0.10223124
-0.087929584 -0.179365 0.19556086 -0.011170906 -0.0049512 -0.12636994 -0.33091486 0.09908738 -0.15756974 -0.012728718 -0.1634537 0.15533732 0.00323147 -0.17588376 -0.15228619 0.02431331 0.37342 -0.13571952 0.033326045 0.14465989 0.22603223 0.049680818 0.22101247 -0.1480167 0.18542373 0.16870317 -0.073568754 0.31837523 -0.12711105 -0.19232158 -0.2324011 -0.102050565 -0.054072455 -0.17726886 -0.31936932 -0.20728596 0.033560716 0.0045723645 -0.13683075 -0.3396639 0.013791092 0.1723611 0.17761162 0.13731311 -0.053088754 0.29327735 0.2579201 0.17460693 -0.19322726 -0.13681214 -0.13169144 -0.13797553 -0.26734194 -0.073127896 0.28216875 -0.108824566 0.11417492 -0.09481155 -0.24534822 0.028484967 0.16604188 -0.056462612 -0.25451013 0.19083837
-1.2597326 -0.16144286 0.6126237 -0.069541946 0.014705373 0.043737154 0.25847247 0.1567849 0.0075302874 0.090349466 0.70907533 -0.058344223 0.14382355 0.17796022 0.023533443 0.07239756 0.011669777 0.21144556 0.14407817 -0.2708956 0.46739355 -0.08290039 -0.116968736 0.4181916 -0.5106005 -0.08784179 -0.20323978 0.22275704 -0.39889202 -0.14542122 0.11357072 0.13215084 0.1332776 -0.076900564 0.04472473 -0.105220914 0.16537535 -0.104552105 0.33531296 -0.039294735 0.11536719 0.80547273 0.15428455 0.5968398 0.15462571 0.13732752 0.6320967 -0.21451885 -0.019217098 0.388655 -0.5898002 0.21671909 -0.6502994 0.15253001 0.4808284 -0.03480323 -0.013775055 0.4616839 -0.157922 1.2511164 0.14774111 0.37485313 -0.10456604 0.35674012
-0.23699409 0.21133104 -0.8737932 -0.8307328 0.19491982 -0.061903004 -0.08431089 -0.5793753 -0.16661839 0.34197485 0.54321635 0.28246412 0.061584387 0.22147729 0.21546856 0.051132355 0.063593626 -1.8763356 -0.27283895 -0.34631062 0.44486365 0.10069275 -0.12198983 -1.0484004 0.7110977 0.18022104 -0.28781933 -0.53368205 -0.5118869 -0.2600021 0.14844008 0.046786826 -0.023706319 -0.10626595 0.21492685 -0.06830423 0.14783481 -0.061262317 -0.03781386 0.08725813 -0.02512994 0.027390823 0.16623275 0.21686055 0.5268403 0.30596405 -0.17762649 -0.06847263 0.24238364 0.17989452 -0.46748245 0.1384642 0.13857159 -0.07616989 -0.30363515 0.15029883 0.04888391 -0.02195797 -0.096820496 0.45106578 -2.032787 0.20904025 0.013620242 -0.39260787
-0.0043884707 -0.08358213 0.05557191 0.08899366 0.11932693 -0.051932454 0.008717736 -0.25931504 -0.11114933 -0.2953622 -0.0134526575 0.003958554 0.08812044 0.024277477 -0.1358847 0.006078325 0.024401048 -0.15705638 -0.2345981 -0.059863307 0.11172451 -0.2380122 0.22486976 -0.06975993 -0.12807083 0.28835565 0.18034379 -0.061661884 0.08149895 0.1255247 -0.09923005 -0.14012635 -0.055788692 0.13135004 -0.15080652 -0.27807832 -0.21014567 0.02970293 0.0190826 -0.10449512 -0.16511148 0.10974684 -0.041261364 0.14005451 -0.014056395 -0.13587107 -0.053402077 0.06298303 0.17555535 -0.29513535 0.076452814 -0.0117516965 0.005879232 0.09917769 0.08167357 0.07475206 0.064159095 -0.0148250265 -0.10657301 -0.03964103 0.24463128 0.12364522 0.0758797 -0.06534696
-0.13007288 0.13430859 -0.093836695 -0.29838014 0.23452547 0.037788317 0.14260508 0.51359487 0.0792085 0.23803802 0.3367513 0.017153405 0.029667258 0.082185425 0.14072669 0.12710471 0.45614296 0.1445667 0.010394834 0.30556595 -0.05340089 -0.3779961 0.016397195 0.3283347 -0.03247714 0.15055579 0.12677227 0.17596586 -0.34016097 -0.1784541 0.011016492 0.11282708 0.01115792 -0.025033893 0.024175346 0.04319389 0.09180267 0.17254718 -0.14234279 -0.14352073 0.09449212 0.040002406 0.1244426 0.044694383 0.101952784 0.123470776 0.20867994 0.038984075 -0.13347945 0.08820126 -0.3741413 -0.07090631 -0.04493826 0.12853082 -0.2916666 -0.2629484 0.1907297 -0.00440824 0.038296126 0.5059072 0.15450633 0.3026295 0.023387996 0.017789504
-0.17566308 -0.019853976 -0.27953655 0.70825577 0.16161704 0.19562435 -0.5840659 -0.001256309 -0.01683515 -0.16891871 -0.42928717 -0.5266662 0.07875903 -0.15973231 0.18122903 -0.16661038 -0.18710509 -1.5104342 -0.042657547 -0.30071643 -0.25744966 0.037874434 -0.03480493 -0.4162916 -0.08684343 -0.060306996 0.0011508341 -0.13216424 0.6272492 0.038677365 -0.31693652 -0.037648506 -0.13262066 0.08422593 -0.2571343 0.4727342 -0.17648463 0.19245292 -0.07514185 -0.23301421 -0.13140085 -0.4030382 -0.23431827 -0.26214284 -0.030274218 0.04033734 -0.25299942 0.06515585 0.09113436 -0.1474073 0.07817546 -0.017023724 0.14212847 -0.03789944 -0.008433111 0.3908296 0.08801868 -0.15565719 0.15260284 -0.6645089 -1.0534829 -0.6456706 -0.2379816 -0.27561694
0.24619967 0.017446524 -0.5257644 1.0385492 0.11635195 0.22565587 -0.7478826 -0.04098748 -0.23990323 -0.2802537 -0.6546954 -0.19943112 -0.28540564 -0.20847525 0.11534523 -0.29836893 -0.017870393 -1.1315864 -0.13645823 -0.16385497 -0.51676524 0.12855725 0.08082247 -0.7745924 0.28035462 -0.1326856 0.34200266 -0.3067187 0.7761245 -0.07466131 -0.16217451 -0.08616575 0.13996404 -0.053479783 -0.3344503 0.41096127 -0.77147686 0.22267199 0.112013206 0.025713902 -0.39994034 -0.36407727 -0.3493775 -0.3708941 0.15372224 -0.0040507214 -0.3967963 -0.13047113 -0.008027952 -0.22218342 0.3855182 -0.44691885 0.36899096 0.23489475 0.111428 0.4893975 -0.069461666 -0.40737206 0.008266718 -0.5950169 -1.1802793 -0.38942298 -0.05480059 -0.45112982
0.12420642 -0.14639512 -0.020756898 -0.40710637 0.08043421 0.135031 -0.0010877674 -0.08908779 0.11746117 0.15230323 0.34522688 0.18205035 -0.22304894 0.09701899 0.38384694 0.17673722 0.3090703 0.313654 -0.0001169439 0.17325647 0.394297 -0.02411464 0.30433977 0.19525269 0.004749838 -0.08704416 -0.07734335 0.066587 -0.06933698 -0.029602058 0.03839309 0.052722223 -0.047382835 -0.039531507 0.13829306 0.05857295 0.08687732 0.023127994 0.100583404 -0.13308915 0.25773785 -0.055935618 0.29153204 0.04750888 -0.21330664 0.2987106 0.18292958 0.28958467 0.13209382 0.3998872 -0.4131639 0.1320604 -0.4947132 0.08558429 0.10808382 -0.33017477 0.025016278 -0.11266271 0.076483436 0.22750509 0.32461268 0.28820235 -0.055273566 0.25824985
-0.1202355 0.095365725 0.030665746 -0.5625117 0.11290778 0.38850945 0.17422633 -0.12342912 -0.17818102 0.36522266 -0.25003067 0.18086599 -0.073270485 0.0027243812 0.19605814 -0.08772533 0.15297787 0.15388526 -0.060247973 0.22403198 0.22498912 0.04887537 0.14610144 0.018659817 -0.050110288 0.26397896 -0.20678239 0.04001513 -0.01869807 -0.2697384 0.20934017 -0.2750227 -0.15372421 -0.02502134 0.013781408 -0.17638715 0.24696489 0.06636372 0.17633823 0.1015052 -0.20670992 0.17949848 -0.13226692 0.02841997 -0.043802533 0.33870682 0.04820323 -0.09619034 -0.173319 0.20678523 -0.5177339 -0.06370021 -0.19743271 0.09495637 -0.011149245 -0.2514317 0.034815922 0.023573676 0.10241408 0.58922046 0.10849313 -0.06810376 0.035989888 -0.047562223
0.042698227 0.10019056 -0.02934961 -0.05983341 0.08958124 -0.20915446 0.13494666 0.062256537 0.08420158 0.16739833 0.412315 -0.03151336 -0.10398675 0.05760599 0.19671753 0.1611222 0.11015534 0.30518523 -0.06380958 0.16190796 -0.032414194 0.22632398 -0.18223232 0.2737617 -0.12883592 -0.26343763 -0.1904629 -0.029828114 -0.23075892 -0.26699033 -0.18782666 0.1424107 0.23967512 0.18584366 -0.010272915 -0.21754906 -0.027425146 -0.116910234 -0.10008273 -0.23888364 -0.02429207 -0.045432974 -0.00987734 0.14678933 0.16722706 -0.096691534 0.15081285 0.10397427 0.16335508 -0.08153322 0.07118014 -0.010114907 0.09892597 0.085593656 0.1810016 0.30188933 0.11399405 0.10426891 -0.042702604 0.23966888 0.018021729 0.20843135 0.15832901 0.12784852
-0.19188131 0.027829204 0.16297735 -0.20937566 0.015636312 -0.05302557 0.11005193 0.1438313 -0.027240826 0.0908763 0.41575325 0.013952144 -0.12494082 0.14103898 0.28752372 0.1273774 0.20958512 0.20181234 -0.32932246 0.13129789 0.07061304 -0.014158295 0.15501244 0.39825177 -0.19346243 0.1352716 -0.01411203 -0.0841369 -0.27711546 -0.18422091 0.2656157 0.1537348 0.17239895 -0.26713094 0.23686628 -0.01182335 -0.059480164 0.2181967 0.089451045 0.114521384 0.33885124 0.29219288 0.38452998 0.36765972 -0.11016029 0.28020602 -0.005906228 0.027583033 0.13807927 0.3143448 -0.6319569 0.23578192 0.003899138 0.08534697 0.0761277 -0.24855702 -0.21389015 0.0844728 0.11521941 0.22123782 -0.06813501 -0.035033107 -0.10415756 0.19981323
-0.098607995 0.15360697 -0.5710643 0.6103475 0.06392171 0.10437412 -0.47013038 -0.24365743 0.020908417 -0.20783427 -0.2429017 -0.26528063 0.06327794 -0.08883044 -0.09389379 -0.5492963 -0.24167049 -1.3165278 -0.202741 -0.15291142 -0.50933903 0.27566975 -0.051376797 -0.5287013 0.15137005 0.0052261073 0.29391584 0.0030376369 0.6714132 0.0017668671 -0.31349236 -0.1513864 -0.16410787 -0.070599064 -0.17446269 0.38809785 0.06977934 0.089999415 0.0570656 0.075316854 -0.20852688 -0.24958554 -0.264013 0.08000388 0.13708456 -0.1427815 -0.059569187 -0.13487907 0.114422426 -0.00084414135 0.042645007 -0.023642678 0.41640833 -0.15823445 -0.24113172 0.2949012 -0.084315106 -0.06572484 -0.02513069 -0.75469846 -0.5223194 -0.31962764 -0.20882751 -0.50441474
0.112675704 -0.18750621 -0.067971185 -0.024461474 0.122282654 -0.08627126 -0.0043399693 -0.05594907 0.016208699 -0.04477366 0.16968946 -0.15541385 0.26688433 -0.36116195 -0.30154407 -0.10165694 -0.06361875 0.14920825 0.0019756383 -0.036131155 0.071774505 0.15421584 0.22280556 -0.34906206 -0.11072201 -0.13103685 -0.2688707 -0.14572887 -0.2288092 0.04813816 -0.19265568 0.060213916 -0.05422513 0.08911706 3.3603657e-05 -0.15985255 -0.21081273 -0.111091815 0.205829 -0.0026527375 0.260721 -0.16251129 -0.09821843 0.2759779 -0.25181744 0.010270743 0.020484306 0.062411733 -0.022768749 -0.052853994 0.037192874 -0.15334064 0.101942815 0.1798779 -0.14738294 -0.00064879085 0.13900962 0.0036525591 -0.035512198 -0.20667394 -0.07657151 0.043136306 0.041464806 -0.019552844
-0.04843127 -0.17563425 -0.6940205 0.3113434 0.14813244 0.25139737 -0.7134807 -0.1386943 0.009584307 -0.018154653 -0.5304483 -0.75025946 -0.11530315 0.09605722 0.10557168 -0.112244785 -0.03280268 -1.1271254 0.040473152 -0.033799294 -0.14985307 -0.08107412 -0.16425897 -0.3593355 0.20110466 0.0854295 0.09056353 -0.37959886 0.79419065 0.20020548 -0.3187145 -0.010389087 -0.04745384 -0.18022375 -0.18607865 0.51911664 -0.2249177 -0.065487504 -0.011868969 0.14496225 0.010328254 -0.5387893 -0.48484388 0.0187846 -0.116515614 -0.25046533 -0.11975009 -0.52751374 0.06425555 -0.10169575 0.006306542 -0.068484634 0.2955319 -0.15368102 0.016762575 0.6726884 -0.088195525 -0.29881942 0.07185273 -1.0120872 -0.85237116 -0.59343106 0.05674878 -0.28950185
