-0.14106646 -0.077598765 -0.11982371 -0.013093065 0.028718876 0.25367635 -0.017270641 -0.18068385 -0.059342768 -0.43380895 -0.0283449 -0.013747122 0.35434332 0.023000522 0.09077951 -0.1292985 0.021139534 0.056034125 0.00936103 0.12378988 -0.023096105
0.052004717 0.37964267 0.2949087 -0.1274755 0.016542979 0.16347755 -0.009413603 -0.08134654 -0.020307686 -0.37757695 -0.096391104 -0.26581618 0.37840882 0.027645394 0.0029790988 -0.20353478 -0.067873746 0.0479206 0.19534093 0.29351258 0.010500452
0.030323388 0.028142557 -0.1054883 -0.010150056 0.2576993 0.124429636 -0.015200502 0.20610496 -0.015840717 0.25930142 0.33574796 0.080383785 -0.013773691 0.04191226 0.06601205 0.24461691 0.18526009 0.041552637 0.22772272 0.093401484 0.059539434
0.015572831 -0.038158137 0.35899925 0.4032112 0.0065348065 0.03924652 0.007840106 -0.016064974 -0.084515676 0.20882131 -0.39235088 0.12046468 0.12186166 -0.015412851 0.0041328985 -0.12820026 -0.33157808 0.28045547 -0.1282999 -0.14390966 -0.004963456
0.0010779619 -0.23290159 0.006805089 -0.084974706 0.061919473 0.09959162 0.011528759 -0.003937874 0.0027265584 0.12161649 -0.46408924 -0.15639685 -0.26733878 -0.01990914 -0.055107966 -0.1693895 -0.3605002 0.11773384 -0.18082799 -0.36928597 0.03652321
-0.03715482 0.10483567 -0.05647739 -0.15673056 -0.015703548 0.24912745 -0.041009013 0.10621822 -0.046696525 0.1048917 0.16248518 -0.0010253448 0.3761954 0.06481364 0.04143665 -0.27204764 -0.03655592 0.025855172 0.03972045 -0.08956241 -0.024378348
0.010484046 0.070124544 0.010366469 0.024959594 -0.0063661244 -0.5136057 0.038598794 -0.015767585 -0.08875593 -0.028797869 -0.42158455 0.033862967 -0.64151466 -0.07936759 0.0006432875 0.015753355 -0.018021872 0.15307267 -0.008467902 0.31774428 -0.020130321
-0.000977762 0.04986856 0.003694067 0.09451385 0.028378172 -0.33618537 -0.018994741 -0.0006858217 -0.099421345 -0.012684403 0.6629963 0.05385696 0.30036908 0.037945163 0.0074824453 0.010855411 0.033541344 -0.44635573 0.8608458 0.3056617 -0.0012764216
0.040983528 0.17582838 0.3943396 0.24644323 -0.08283219 0.014923588 -0.0016152239 0.13468811 0.27782238 0.35510024 -0.36132783 -0.008552969 -0.15759026 0.012845419 0.065525904 0.011340504 -0.30341828 0.21876554 0.08603524 -0.113321684 0.0032198238
0.0023287772 0.024282387 0.015260665 0.24323991 0.007391721 0.0047387723 0.0051461356 0.0014876302 0.21184187 -0.0100736115 -0.43223143 0.00272743 0.19288343 -0.007917966 -0.022999633 0.09767029 0.47092023 0.3282083 -0.08051494 -0.16533634 -0.008533391
0.02806823 -0.030992974 -0.08792167 0.0058511575 -0.005326657 0.15372062 -0.0034943025 -0.09591365 0.09998604 -0.08573177 0.038138315 0.29263037 0.026828779 0.010408249 0.07872207 0.12997521 0.04413908 0.07443448 0.16815136 -0.13402002 0.20077406
-0.20077504 -0.07352282 0.23798099 0.12874697 -0.052847926 0.12538102 0.0221362 0.18106289 0.11571415 0.24150524 -0.13979767 0.1778023 0.07870941 -0.06087846 0.15061411 0.37103647 0.21063264 -0.019344507 0.11760809 0.10815843 0.035617504
-0.0125940805 -0.016084854 -0.058780733 0.1896197 -0.08890553 0.29485068 -0.0024695888 0.022616114 -0.07078163 0.19808467 -0.24786225 0.011512169 0.0013446984 -0.0123074725 -0.008588952 0.12628178 -0.018130641 0.0033101283 0.20565312 -0.07184626 0.019124215
0.15878372 0.4027825 0.23619619 -0.09747519 -0.028729651 -0.10397748 0.003365683 -0.3007323 0.1879427 0.15095474 0.21290964 0.011459226 0.031728238 0.0042881 -0.17901355 -0.29250973 -0.34295845 -0.43646395 0.032608785 -0.18538786 0.0021264828
-0.0051875277 0.27134463 -0.142728 0.08705796 -0.19103518 0.16244918 0.016500466 0.0039888173 0.31136176 -0.38960183 -0.055238463 -0.30478492 -0.3894939 -0.03440138 -0.019886646 0.26230174 -0.17374758 0.09148608 0.08091997 -0.19909477 0.018543383
0.15093441 0.0883589 -0.020395735 0.21603999 -0.009978137 0.05741994 -0.0013658493 -0.2927653 -0.047701653 -0.056643993 0.071525455 0.004426391 0.004799994 0.00046138087 0.16593032 0.21509066 -0.5786959 0.05220989 0.013622896 0.114360996 0.0003406083
-0.016304811 -0.14156003 -0.04436948 0.07198052 0.0118709775 0.053141356 0.005911097 0.024705281 0.078420974 -0.29008046 -0.079788186 0.2105442 0.15157904 -0.008191089 -0.025553053 -0.007803317 -0.5197603 0.15074702 0.44132426 0.2965311 0.0048313327
0.06876116 -0.20333453 -0.17983937 0.11274101 -0.00040287734 0.15783171 -0.018019103 -0.14417714 -0.29124275 -0.007335472 0.085420504 -0.0035417362 0.16228758 0.03257443 -0.28798646 0.18619499 0.49706793 0.22852327 -0.14972818 0.05448274 0.003404104
-0.006732028 -0.088633046 0.045969337 0.09444281 -0.074132964 -0.0070978394 0.004830173 0.0058043627 -0.17536636 -0.19471963 -0.109010905 0.021513853 -0.008520386 -0.008925021 -0.0067326045 -0.022526758 -0.41884792 0.15229264 0.048152648 -0.20177297 -0.0046653138
0.0035976602 0.104801945 -0.0073841 -0.40423408 0.043773625 -0.143558 -0.0013433594 -0.017329585 0.14887191 -0.009316624 0.38892254 -0.17993419 -0.27220407 0.0063964496 -0.000550667 -0.2278095 0.4309222 0.0053057736 -0.10520471 0.11625659 -0.0031698023
0.0034865635 0.13748167 0.10762365 -0.055213016 0.008912372 -0.20844167 0.008702449 0.085367516 0.22967789 0.2437496 0.1324623 0.1020329 -0.5743266 -0.024677448 0.00047802384 0.20285231 0.035656597 -0.004550566 -0.022427991 0.08951256 -0.010454631
-0.004257348 0.2580541 -0.18650952 0.023028588 0.011693729 0.16630334 -0.021758286 -0.21875605 0.050898034 -0.22290154 -0.15774637 -0.12562318 -0.1283215 0.038426857 0.1440677 0.25342658 -0.3305155 0.31466842 -0.23433334 -0.13580295 -0.0060256775
0.040714096 -0.17802118 0.05024936 -0.0068257814 -0.011170905 -0.04766048 0.0074870703 -0.19279759 -0.07850603 -0.38067558 -0.02600062 0.06692884 -0.07187158 -0.018421395 -0.01845735 -0.5512979 0.13238545 -0.49564356 -0.060829032 -0.26371184 0.0012352145
-0.2530877 0.12218317 -0.38632095 0.07643713 -0.0143908085 -0.0086307665 -0.009042102 0.4647734 0.45253125 -0.098798916 -0.3385972 -0.0007324377 0.018306265 0.020282857 0.108874045 -0.20795292 0.14706612 0.12462566 -0.05686389 -0.01634368 -0.011539696
0.00022534152 -0.31184924 -0.10223577 -0.048236873 -0.039733123 0.09357545 0.011036109 -0.07934251 -0.038731646 0.14446734 -0.051175054 -0.031180829 -0.28722784 -0.025803553 -0.05322921 -0.041436456 -0.27009064 0.007920379 -0.37718824 0.03266126 0.007058567
0.037996147 0.13590553 0.13494615 0.04643025 -0.12848322 0.107337385 -0.02639054 0.03259238 0.36472663 -0.016053695 -0.17610411 0.08387184 0.07296988 0.049072314 0.13574372 -0.0058911145 0.5453669 0.17216569 0.06981164 -0.19684331 -0.012523597
0.25386256 0.04981388 0.2935429 0.15638559 -0.003942929 -0.084413506 0.0049932473 0.3554983 0.08730281 0.2930669 -0.34859753 0.02022326 -0.033619788 -0.004901998 -0.40655452 0.12368374 -0.20700458 0.060175087 0.044153843 -0.09082443 -0.0015369634
0.09102229 -0.028031927 -0.0066187163 -0.19211358 0.100109026 0.0073384605 -0.002412605 0.08740832 0.2207311 -0.033266988 -0.13514578 0.07758291 0.14639369 0.0011792073 -0.31492093 0.21427378 -0.072646156 0.29274753 -0.16161579 -0.0029089777 0.004436178
-0.10363871 0.3022307 -0.3988784 0.20130335 0.020193366 -0.077249594 0.0057946667 0.107755914 0.21916181 -0.15606564 0.05466933 -0.016948275 -0.100577 -0.012755802 0.012058819 0.31614852 0.10865305 0.285025 0.01210253 -0.120699875 0.0068662716
0.010300002 -0.1603643 -0.25026056 0.19072983 -0.20949438 0.057872195 -0.010586977 -0.09120841 -0.31431344 -0.29169032 -0.2192133 -0.26037988 0.39499292 0.027075078 -0.031557083 0.25749776 0.1149835 -0.22984843 0.30163282 0.32301345 0.0054316614
0.03171815 0.0658591 0.13785295 -0.0985896 -0.10375154 0.09223575 -0.003974713 -0.07561745 0.1666505 -0.084028535 0.12161287 -0.18279628 -0.0019628003 0.0031017808 0.035831474 0.18767829 -0.123235896 0.25632194 -0.2658956 -0.046058368 0.014088468
-0.02381111 0.07739744 0.031023715 0.04122892 0.021468015 0.10883594 -0.0046571163 0.056476653 -0.15349782 -0.11400436 -0.19679858 -0.016540494 0.18357557 -0.015147353 0.06360022 0.014731763 -0.07038598 0.10439887 -0.2220486 0.12878484 0.12243682
0.20561527 0.031918567 -0.09404423 0.12615973 0.033226028 -0.01565534 -0.006742874 -0.18395062 0.0923097 0.022954643 -0.20704067 0.066847466 0.19865029 0.0028581829 -0.17789571 -0.24070118 0.27267644 0.109552965 0.011790955 0.17717446 0.012700983
-0.01287048 -0.03755786 -0.050121635 0.23998703 -0.016067604 0.30304182 -0.013435099 0.036401775 -0.031296507 0.15399177 -0.21444553 0.20596659 0.0204112 0.023237977 0.012756404 0.28754118 -0.35760605 8.644431e-05 0.09285845 0.007245939 0.012775526
-0.041007392 -0.00313422 0.077119984 0.07751143 -0.019993698 0.13893797 -0.044688284 0.031796724 -0.10345981 -0.1728421 -0.06852204 -0.017545838 -0.14553082 0.10015224 -0.05764487 0.17112999 -0.19191368 -0.04349659 0.36615798 0.08600108 -0.025827777
0.2030228 0.2879857 0.3344617 -0.14875093 0.0133193815 0.11395812 -6.607261e-05 0.041576553 -0.09049721 0.102469705 -0.10722789 0.071785375 0.017810792 0.025930518 0.19555135 -0.21422888 -0.014737256 0.16773757 -0.17046596 -0.2512809 -0.036149498
-0.003352239 0.04235499 0.026781945 0.07534236 -0.18326277 0.12066867 0.014051797 -0.020280117 0.05920326 0.14283852 -0.21826234 -0.0950087 -0.2462288 -0.034840897 -0.019303318 -0.23769093 0.19407943 0.121955276 0.3272193 -0.242989 0.005099104
-0.071927235 -0.13978037 0.06428585 -0.040649746 0.008888558 0.059335116 0.011230114 0.0929939 0.050626613 -0.2734439 0.012871266 0.032684777 0.03190615 -0.0039497116 0.26636344 0.16407973 0.217718 -0.065702744 0.10355994 0.028817473 0.12445148
-0.044939283 -0.2984303 -0.4805868 -0.0061460207 -0.03378397 -0.0035088907 0.0030873383 0.14051065 -0.39487112 0.5690038 0.18296836 0.043633785 0.054391596 -0.005028274 -0.07526925 -0.27587906 -0.19629976 -0.14447008 -0.034852225 -0.07903201 0.004023456
-0.016428163 0.013178487 -0.046379343 0.1697961 -0.007105211 -0.017104555 0.0078089433 -0.057730205 0.17398372 -0.11140017 -0.44938555 -0.07541823 -0.28474748 -0.021444054 -0.01376229 0.0012447687 -0.2184317 0.092158794 0.41417176 -0.56583107 0.011712692
-0.04898387 -0.0042660334 -0.04147087 0.016915897 -0.20918007 0.07292451 0.0043339888 0.14829619 -0.41494495 0.23722182 -0.12001236 -0.15636483 -0.19687717 -0.013731621 -0.026782023 -0.047410913 -0.022433788 0.01855071 0.286535 -0.3927833 0.010994026
0.18917023 -0.057656936 0.16398141 0.009452799 -0.056442082 0.06894185 0.0021709355 -0.29623842 0.14246163 -0.031979866 0.079207815 0.2818198 -0.11830125 -0.007973131 -0.11446915 -0.23625416 -0.37806055 -0.14328907 0.016365578 -0.12931086 0.0010544683
-0.03043044 0.14073056 -0.2291086 -0.008949158 0.16199274 -0.021522278 -0.025766132 0.06713093 0.20862225 -0.12114761 0.03628098 0.17851226 0.29226294 0.052844167 -0.0010682163 0.07810631 0.2741434 -0.10928666 -0.2186713 0.52597815 -0.0003897029
-0.13563053 0.3115103 -0.11405007 -0.15828262 -0.010890639 -0.05924735 0.005605077 0.103298426 0.15954198 -0.5725231 0.22270504 0.037464086 0.067197196 0.006010857 -0.06506641 0.02117928 -0.6727059 -0.11115825 0.10388801 0.04390925 -0.0014665977
-0.0010590852 -0.19294454 -0.05945288 -0.00349969 -0.0049739005 -0.027684951 0.006645791 0.011807985 -0.111515395 0.37052527 -0.12699826 0.36114696 0.037199263 -0.019512042 -0.024930045 0.050640162 0.10528701 -0.023868268 -0.12798859 0.48491508 -0.015912455
0.048035376 -0.107962154 -0.23042497 0.14048673 0.025958793 0.26743698 -0.031237049 -0.034873 -0.116185136 0.29009002 -0.06467648 0.012113661 -0.31097817 0.063775636 -0.058393188 -0.020958554 -0.07505082 0.14252368 0.5442687 -0.3145019 -0.00843393
-0.035408877 -0.12829244 0.034696102 0.22476694 -0.1573514 -0.11350565 -0.0056788903 0.17761132 -0.3204089 -0.037645876 -0.17622347 -0.04626021 0.28174338 0.022632482 0.080517545 -0.03314901 -0.4617898 -0.0004279318 0.07677793 -0.005638919 -0.0035191097
-0.056178764 -0.18567692 0.3269775 -0.20153612 -0.018155873 -0.05502194 0.019451594 0.23333517 -0.24834503 0.05063116 -0.02260487 0.018772153 -0.13547431 -0.04233153 -0.0467217 0.18880479 0.16482414 -0.05342543 0.058942422 0.06447853 -0.006788276
0.0033149796 0.07620509 0.29923433 -0.018673634 -0.21071994 -0.14024222 -0.0110347485 -0.016566848 0.21616626 -0.19828244 0.13850589 0.13174753 0.06876005 0.021498596 0.03964404 0.124700144 -0.11582182 -0.12915906 0.20239682 0.37303105 0.006798442
-0.036185004 0.00040289023 0.0051104357 0.16368549 -0.017028984 0.14707208 -0.007833245 0.08231091 -0.02469999 0.26315272 -0.17385015 -0.13298339 0.22616796 0.017220758 0.04040972 0.07253836 -0.1738454 0.042448267 0.04340856 0.46808177 0.008567962
-0.04590213 -0.12324148 0.22484623 -0.15660058 -0.034880124 0.1964465 -0.010754816 -0.12890035 -0.10274137 0.49215916 0.0034572785 -0.12555662 -0.0101508 0.011636922 0.056901988 0.017607557 0.2163065 0.2512953 -0.07491236 -0.091916166 0.029877357
-0.06532555 -0.24848121 -0.15615928 -0.0050321016 0.20507228 -0.05090101 -0.0032769064 0.031725295 -0.2499044 0.16867588 -0.10871425 0.14619614 0.26325396 -0.0055114785 0.09559614 0.0087877195 0.06923736 0.058888525 -0.13787253 0.10928278 -0.012024375
0.0028956113 -0.08337178 -0.017654477 0.037840508 0.032412566 0.21197912 0.002683936 0.08998847 -0.23473856 0.25922856 -0.20925738 -0.028591746 0.07365618 -0.012036751 -0.020598978 0.26039395 0.042374793 0.26856622 -0.029140193 0.23378883 -0.008991713
0.005378822 0.09154739 0.16440512 -0.23713584 -0.0528528 -0.07174251 0.0033592547 -0.024694193 0.15779996 -0.14048357 0.45886156 -0.1676336 -0.3604954 -0.012370018 -0.020762429 -0.0531267 0.40227103 0.020141246 -0.019499354 -0.0561074 0.003142219
-0.0033875427 -0.18690105 -0.003912839 -0.057141 0.045006797 0.063653216 0.012596751 0.010540014 -0.18332662 0.02894247 0.26455456 -0.13576089 0.048848577 -0.02730175 0.0036002453 -0.42590925 -0.3717848 -0.17295471 -0.052093297 -0.2969714 0.00074085844
0.092329755 -0.3013431 0.024484565 -0.262198 -0.14610945 -0.022754269 -0.0063501024 -0.16272157 -0.04263941 -0.025571264 0.020350553 -0.03715421 0.12869397 0.010199766 0.0105144 -0.035559453 -0.27000138 0.3849299 0.09398676 0.13838243 0.007618249
-0.24672799 -0.2540348 -0.027496168 0.10036548 -0.007365607 0.01100508 0.000172629 0.21293889 -0.09680096 -0.60411763 -0.4186862 -0.00953012 0.0956975 0.008489235 0.24828018 0.19917405 0.27029797 0.32641765 -0.027066493 -0.007654479 0.005174002
0.13495177 0.10159489 -0.23268676 0.083732806 0.03350335 0.1693484 0.020187387 -0.07619191 0.13603765 -0.27732548 -0.15369682 0.026379101 -0.10109333 -0.05193993 0.003853093 -0.15567626 0.060014408 -0.0826216 -0.05698212 -0.1723506 -0.017349023
0.06410296 -0.20769848 0.08647337 -0.11208335 0.08387351 -0.0608709 -0.003595821 -0.06753234 -0.28863657 0.49673745 0.088543266 0.01827235 0.08672088 0.0064688125 -0.034332793 0.03150759 -0.42526847 -0.17149043 -0.014655725 -0.09281196 -0.0122625735
0.0016783015 -0.23446251 0.029230101 0.03965276 -0.013775706 -0.124618575 -0.003634305 0.013042552 0.13337673 -0.020012168 -0.5522594 0.050412614 -0.33905968 0.0057856543 -0.009236821 -0.46939573 -0.53861547 -0.015198692 -0.14380066 0.047569674 -0.003526257
0.005756805 -0.20099652 0.03998275 -0.1761417 0.025963718 -0.07010184 0.0014676902 -0.008260982 0.024821881 -0.018690383 0.53843915 -0.034551118 -0.019638874 -0.005310741 0.0062578265 -0.107353516 -0.3238371 -0.40117767 -0.051943555 0.03650952 -0.00016858801
0.17514208 -0.19550233 0.16480054 0.1789336 -0.011022598 -0.11091166 0.003571753 0.4299758 -0.14299105 0.0033870523 -0.1554585 0.10301134 0.03727768 -0.011282277 -0.16659147 -0.07907475 0.10128313 0.16517699 -0.011225198 -0.13745955 -0.0012299392
0.0061025983 0.10796483 -0.2607573 0.08182794 -0.18552557 -0.09540684 -0.008084903 -0.0106041115 0.040144622 0.33195898 -0.3591956 -0.1984406 -0.18786083 0.015241964 0.00534141 0.08418987 0.31682926 -0.23151259 -0.29170054 0.18696631 -0.006062302
-0.018338429 0.11501789 0.013951821 0.15634036 -0.011128509 -0.07197085 0.0069405306 0.04154997 0.0064712744 0.010453776 -0.5831372 0.1937183 0.070429996 -0.012435042 -0.004156844 0.09559249 0.41602114 0.26533523 0.20651229 -0.008666116 -0.00039621413
0.033755485 0.3426623 -0.02420708 0.17168356 0.0043088095 0.13378757 0.028789153 -0.06834575 0.0811701 -0.02099662 -0.09435375 0.017741008 0.23636977 -0.058084857 0.0016787247 -0.06601014 -0.41427976 0.24110581 0.07395927 -0.36541346 -0.0072262045
-0.0036782916 -0.16806729 -0.0088247685 -0.062628284 0.0028181397 -0.16083325 -0.010569162 -0.016367536 -0.20891117 -0.32012635 -0.19314629 -0.3399897 0.21836866 0.02177633 -0.029527878 0.03004397 0.07638054 0.16423959 -0.18414007 -0.017206395 0.0071716253
0.031692766 0.119313665 0.34927428 -0.20745517 0.0105261635 -0.08935476 0.0054893442 -0.084170364 0.093849994 -0.5359224 0.62629575 -0.059717868 -0.0035814354 -0.012598428 0.010277055 -0.34405383 0.10575771 -0.34222674 0.02405655 -0.055429142 -0.00036458415
-0.12859756 0.24638776 0.11445878 0.029351315 0.024721261 -0.0127417 -0.008277723 0.24895121 0.20427589 -0.3403521 -0.0692271 0.04281759 0.29803482 0.01970101 0.0826479 -0.16801503 -0.29397246 0.11090178 -0.097335204 -0.16886109 -0.02181672
-0.10312869 0.019826913 -0.2583265 0.28949425 -0.003192422 -0.099709965 0.0020190265 -0.1958701 0.39023122 -0.10268028 -0.20678084 -0.0010842857 -0.09502381 -0.009497464 -0.7348224 0.37502536 0.2364677 0.24929568 -0.045676053 -0.08961545 0.0037477699
0.023421798 -0.03482185 -0.035321787 0.0016211821 0.07026942 -0.0090723 0.012895865 -0.26060453 -0.3416679 -0.2916063 0.27461913 0.05072335 -0.10465337 -0.029423472 -0.11169774 0.14672688 0.25761217 -0.23912255 0.21105202 -0.13364445 0.013111619
-0.407365 -0.11484038 0.15214446 0.044678 -0.014350858 -0.12920277 0.0010058046 -0.31740275 -0.016028361 0.23797838 -0.014110029 0.039885696 -0.08199946 4.2283964e-06 0.70359594 0.12009042 -0.37291878 0.2256954 7.171085e-05 -0.13653645 0.0028417532
-0.023653597 -0.035124227 -0.15463938 -0.15510447 -0.1324884 0.14466609 0.00445059 0.04446363 0.042980764 0.21804409 0.1452917 -0.25078186 -0.13463022 -0.0044477456 -0.016710082 -0.16131534 -0.10553848 0.37813282 -0.30002165 -0.13760224 0.007279072
0.11836595 -0.16362432 0.3479736 0.12480412 0.35151866 -0.056858044 -0.014881946 -0.12480071 0.06664791 0.136974 -0.10794531 0.3176883 0.42538294 0.036733657 0.04216243 -0.02323751 -0.12796144 0.060148343 0.23622532 0.11805875 -0.004780485
0.018576141 -0.13714889 -0.16608214 -0.09989613 -0.11941927 0.099750414 -0.0065371883 8.699762e-05 -0.03881644 -0.1441386 -0.07876185 -0.22623138 0.153334 0.0070954254 0.04418717 0.15939237 0.11310995 0.22290023 0.03100761 0.0374515 0.06681393
0.26246688 0.14491485 0.20195006 0.16806558 0.097519174 0.002930614 -0.0019162743 -0.1249414 0.2851767 0.28022638 -0.23529458 -0.15918814 0.1310669 0.006848767 -0.26433587 0.24505053 -0.11692563 0.22191364 -0.10056834 -0.031678528 -0.0054561784
-0.016310068 -0.08104235 -0.0013362963 -0.2716319 0.006826789 -0.17767712 0.0016284916 0.06417902 0.029995685 0.010565303 0.6451741 -0.062380735 -0.580406 -0.012316962 0.0028704603 0.18321563 -0.07083929 0.07632555 0.054737967 0.13457392 -0.016399922
0.026649002 0.13586268 0.17 0.064972244 0.0108053805 -0.058397766 0.006193701 0.011329741 0.090017654 0.33845398 0.24307588 0.1390165 -0.21721095 -0.012964066 0.028541539 0.36310264 0.23664838 0.31653613 -0.08190333 -0.250116 0.0020176435
0.11449318 0.26415682 0.26731896 -0.0072952155 -0.029069435 0.06414781 -0.0042813458 -0.19323121 0.35821515 0.40576226 0.15651439 0.14472768 0.13078487 0.009967825 0.071974754 -0.36426678 0.43302998 -0.24422914 -0.0067675947 0.08925219 -0.004581932
0.056289222 0.044571575 0.054493573 -0.11981942 0.05596884 0.1454698 0.0031638234 -0.050028462 -0.010211785 0.0699147 -0.2612138 -0.11834716 0.30705005 -0.019420944 -0.16159816 0.08312667 0.3451808 0.104982205 0.102032915 0.18601051 0.12553681
0.009125274 -0.064942755 0.07240526 -0.36353576 -0.27001578 -0.16590267 -0.010665176 0.0032729043 -0.119170405 0.23656715 0.44932485 -0.20226179 0.041846357 0.020501621 0.0011610669 0.010401365 -0.5319088 0.15069744 0.29777917 0.35620624 0.0050976
0.26691192 0.05819333 0.2694136 -0.06848163 0.06868491 0.1283878 0.018439792 -0.37078348 0.19039477 0.2219238 -0.2659761 0.043320976 0.0021405006 -0.022928672 0.19445023 -0.032487858 0.1464406 0.18035981 -0.055627823 0.031231957 -0.025403155
0.038702313 -0.23524942 0.23827241 0.08713534 -0.013131251 -0.2523759 -0.007293307 -0.10241981 -0.09255798 0.12932976 -0.37854 0.10616504 -0.20444164 0.014737358 -0.006283018 0.37909928 -0.14835478 0.25998625 0.16788043 -0.055089936 -0.0026177047
0.047878817 -0.075552315 -0.26225567 0.17120866 0.055500302 0.25353178 0.02004866 -0.005750262 0.16472156 0.12441046 -0.0032267265 0.18839867 0.13125597 -0.07524895 0.19448417 0.19820324 0.07014778 0.042041637 -0.044612497 -0.11439483 -0.13729948
0.005285995 -0.24245706 -0.46467263 -0.0742903 0.011675621 0.08543008 -0.002418062 0.014209037 -0.30001038 0.08633812 0.23456238 -0.20490517 -0.20522016 0.0057378435 -0.006306644 0.18392341 -0.26658013 0.088770084 0.08073629 0.029131941 -0.0038751885
0.056317743 -0.24490778 0.283515 -0.0299052 0.009412628 0.09018728 0.009037959 0.43522695 -0.27496096 0.17317443 -0.17228009 -0.0028553286 0.07957554 -0.016373279 0.3639335 -0.120100416 -0.11621289 0.15291615 -0.0009426894 0.026557513 -0.005155572
-0.010038769 -0.14255525 0.18258801 0.12804015 0.046252236 0.07070112 -0.0062305997 -0.023532474 -0.0134265935 -0.15211444 -0.091973886 0.034531374 0.31073582 0.028468587 0.08680656 0.15076587 0.08820961 0.21289633 -0.18090826 -0.092115454 -0.011154414
-0.033682466 0.22360706 0.012002832 0.036829468 0.0020950527 -0.18309166 -0.0048551518 0.040401775 -0.037675414 -0.0051241145 -0.45791075 -0.05301371 -0.38662857 0.01814865 -0.078744344 -0.26687697 0.35510975 0.2521692 -0.13438626 0.1729057 -0.018435633
0.011444561 0.2018928 0.017965047 -0.11263371 -0.028536541 -0.18517393 -0.017299566 -0.029212544 0.24269915 -0.27390733 -0.12627676 0.27535734 -0.15041146 0.030867012 0.0053631044 0.34995517 -0.39700696 -0.114504546 -0.059106596 0.3261312 -0.0006718327
0.001656679 -0.31769183 -0.041650463 0.12786777 -0.009284286 0.03934619 -0.0017774941 -0.014157288 -0.08373114 0.16318344 -0.079000115 0.021304432 0.14304748 0.009407402 -0.021611586 0.071843274 0.57208556 0.36220518 0.030385861 0.014560453 -0.002928789
0.32365873 -0.15988287 -0.03336373 0.06513116 0.008543051 0.01502733 0.0059231096 0.37144786 -0.25895622 -0.6332656 0.028550433 -0.03138711 -0.0030256049 -0.02092339 0.49483395 0.0462999 -0.21199957 -0.052076366 0.028811667 0.06085153 -0.00798521
-0.029107578 -0.0051976233 -0.096988924 0.2293775 0.086346716 0.03531179 0.00096054643 0.009724802 0.09388023 -0.329372 -0.074739724 0.27682233 0.40272906 -0.019098677 -0.0006740423 -0.034199815 -0.3743133 0.11750728 -0.41009536 -0.08642469 -0.008541409
-0.0039764405 0.38224202 -0.19649222 0.010339047 0.0263071 -0.17029911 -0.012113777 -0.13650629 0.14715321 -0.0063118576 -0.16617094 -0.5439784 0.5767136 0.02240606 0.07646514 0.0256336 0.020034807 0.23934016 -0.5168897 0.2451034 0.01455196
0.0380306 -0.25766617 0.12442516 0.07584132 -0.047455404 0.13572752 -0.01875842 -0.024058895 -0.34251007 0.0459544 -0.0019112163 -0.010966523 0.044334855 0.032377686 -0.11431801 0.36799327 0.39525455 0.021073783 0.020890519 -0.052632216 -0.026045753
0.06395074 -0.033842042 -0.070119604 0.1904972 -0.011736711 0.02103387 0.010863713 -0.112470165 -0.09036459 0.20446767 -0.14826354 0.077186644 0.40397754 -0.0176957 0.04634582 0.106722616 0.14772469 0.29988793 -0.27662405 -0.17015721 0.008144445
-0.062138222 0.13942407 -0.17258207 0.10016715 -0.14862435 0.22683309 -0.0005991553 0.12668481 0.3002415 0.030770838 0.049252104 -0.28120628 0.20546374 0.0074188863 0.034810424 -0.30405685 -0.2678257 -0.0834257 -0.3470107 -0.14643742 0.003194096
0.00016741267 -0.23143303 -0.24563913 0.25189415 0.0027254736 -0.08332576 0.0038660516 0.016522218 -0.13126346 0.16128354 -0.4169022 0.029459953 -0.032017123 -0.0049806735 -0.0013046556 0.29559013 0.15658611 0.28860712 0.020352874 -0.09594672 0.0056970613
0.08456284 0.19793491 -0.08322018 -0.025445143 0.14977473 0.1264907 0.01455193 0.08834509 0.18496045 0.1171255 -0.015951984 -0.07705484 0.040386334 -0.030602913 0.01159329 -0.2700471 0.33120063 -0.15492335 -0.0432828 -0.40466464 0.0052756225
0.073144294 -0.16422996 -0.1813989 0.086106725 0.012036277 0.08190682 -0.011848868 -0.5110807 -0.11717313 -0.21495596 -0.15514353 -0.01619922 0.15878741 0.032285985 -0.16585384 -0.29936588 0.19442096 0.047498986 0.028807273 -0.103463545 0.014573697
0.46621072 -0.11329019 -0.22159755 0.33512664 -0.0023894587 -0.09289778 0.0002931959 -0.34612283 0.09527882 0.42384985 -0.15097465 -0.0074610007 -0.08911461 -0.000116384144 0.63976514 0.19320275 0.22215846 -0.023937728 -0.013843007 -0.089949735 -0.0007760272
0.069491915 0.07713437 0.036925394 0.15418585 0.124193974 0.114351496 0.019420978 -0.10357263 0.13122787 0.42325583 -0.20070632 0.24970487 -0.1398529 -0.041979305 0.04321909 0.047463693 -0.05812462 0.034340113 -0.20123847 -0.27177647 0.0037069798
0.023029203 -0.16746531 0.058699545 0.18769729 -0.38584366 -0.28556064 -0.004724243 -0.053750716 0.023947315 0.21266548 -0.4922942 -0.5524481 0.5242153 0.029745663 -0.028037073 0.2774538 0.04698006 -0.005009068 -0.32355013 -0.006064611 0.027534466
-0.034035344 0.082663365 0.103276685 0.05143204 -0.016825382 0.06872879 -0.013111385 0.40377864 -0.04006849 -0.43591133 -0.098111115 0.030579338 -0.04065587 0.01821462 -0.65350163 0.35621455 -0.056675825 0.21976973 0.041813117 0.14740814 -0.0068822727
0.009259568 0.056972772 -0.14203987 -0.011804369 0.013707128 -0.045099474 -0.020484447 -0.0019183675 0.013225127 0.052425407 -0.096333615 -0.23956016 0.1500774 0.042739097 0.033452008 -0.01707221 0.4242049 0.22450285 0.2836475 0.09053611 0.0056351456
-0.001725482 -0.24976529 0.010744591 -0.28553787 -0.011067508 -0.041820187 0.0010093177 0.03437436 -0.14406787 -0.09684008 0.31826857 -0.012985883 -0.072388165 -0.004801468 -0.39482087 -0.17381644 -0.04121525 -0.23311785 0.102705196 -0.115375556 0.0054079816
0.053391997 0.19930525 -0.104196995 -0.19944848 -0.05577326 0.31254867 0.03875113 -0.12571159 -0.052205198 0.030851603 -0.3230387 0.10898287 0.3060726 -0.11220791 0.011533448 0.033584032 0.22628385 0.026033217 -0.19675927 0.23348843 0.0718173
-0.006136304 0.0062989104 0.0016891138 0.01168684 0.00018369996 -0.005248192 -0.045319915 0.01045086 -0.003656128 -0.0068550524 0.130101 -0.00095002545 -0.055706102 -0.15681648 0.007441874 0.00621451 0.0061246976 -0.04352972 0.02452689 0.054227922 -0.68827844
-0.030881006 0.07906079 -0.039480053 0.13700362 0.05924478 0.16933122 -0.008659006 0.1840255 0.14015536 0.29344264 -0.21220914 -0.11914671 -0.05289976 0.01634561 0.025279278 0.38400224 -0.26861104 0.14323723 -0.18018919 0.10994702 -0.00014174986
0.0079270555 -0.24060644 -0.062444434 0.17903858 0.053954687 0.19389929 -0.0028916793 0.03108364 0.07566189 -0.35378468 -0.41809362 -0.29723346 0.01316958 0.0067563816 -0.017163165 0.24254173 0.025146337 0.03919111 0.6180734 -0.15808874 0.005620588
0.03878578 0.12194162 -0.17957205 0.274079 0.0002450315 0.026453523 0.0021894732 -0.26550832 0.2796932 -0.518728 -0.20294788 -0.042198163 -0.042750314 -0.0083258785 -0.11659605 0.45472372 -0.129741 0.43043754 -0.08175222 -0.09846368 -0.0040868917
0.056297097 0.14860457 0.46509123 0.1926714 0.0025090158 -0.019441249 0.002825754 0.20449251 0.18897524 0.01619267 0.035336137 0.055372857 0.04762628 -0.005196436 0.37746716 0.17058024 0.19089288 0.24002075 -0.025720181 -0.029138232 -0.0019432852
-0.03301565 -0.12153329 -0.08257511 0.0970384 -0.10825814 0.20770352 0.017154232 0.04884534 0.042271443 -0.13632502 -0.25524953 -0.12510617 -0.039570116 -0.039248835 0.005391738 0.19502331 -0.18625565 0.21090402 0.20678869 -0.023906555 -0.018748133
0.005773037 0.020052295 0.0022210795 0.1284406 -0.028642116 0.1254333 -0.0038680786 0.4615331 0.04890802 0.24971507 -0.060017098 0.035303824 0.029166168 0.004545672 -0.09898203 0.28187433 0.0027240769 0.07475122 -0.033593804 0.19138129 0.018198995
-0.05284753 -0.50226384 0.33635753 0.15261959 -0.08441261 -0.048164926 0.0037388513 -0.036605038 -0.07479257 0.032746628 -0.28082028 0.09221186 -0.09495587 0.007679884 0.097311445 -0.20656753 -0.42693835 -0.08917244 -0.13185118 -0.09807954 -0.03893089
-0.46160883 0.02757856 0.06218522 0.21672298 0.0047941855 0.10184499 0.0068687005 -0.14635643 0.1600637 0.15584892 -0.13110429 -0.009999349 0.085943975 -0.011859347 0.2999132 0.05452635 -0.2929755 0.24701253 -0.09143943 0.14396061 -0.00432012
-0.020161672 0.33367676 0.27197245 -0.27647194 -0.0027112688 -0.0054559815 0.0066316137 0.004041143 0.07912761 -0.2054984 0.30464628 0.0009790676 -0.025052732 -0.003691256 0.021008613 -0.18090603 0.14299291 -0.2511314 -0.02084176 0.025639461 0.009722441
-0.004580392 0.026636528 -0.2326191 0.07444087 0.012026104 0.04900267 -0.0039712978 -0.019374354 -0.041875448 0.35728127 -0.18286479 0.6065977 -0.047823045 0.0066358014 0.022059048 0.09026777 0.08467432 -0.16810453 -0.15877254 -0.10790951 -0.00027412208
0.027675012 0.32473055 -0.039330434 0.11777661 -0.015741283 0.036614366 0.012466722 -0.03409086 0.0848106 0.036890212 -0.097321704 0.0773219 0.15845631 -0.03191355 -0.008850537 -0.21841867 0.5806471 -0.14488858 -0.038373437 -0.204015 0.011257964
-0.27965984 0.18685012 -0.23413546 -0.07822799 -0.04714562 0.27546632 0.015692666 0.16250928 0.067889206 -0.35340095 0.055565875 0.03610976 -0.03869648 -0.047401126 0.35029224 -0.16123462 0.2280279 0.09423494 -0.3018071 -0.09628977 0.0531808
0.06346462 -0.043089766 -0.15908395 0.16906576 0.011606652 0.07595475 -0.005626381 -0.21318349 0.06107393 -0.5463683 -0.2369791 0.2902424 0.1271177 0.005509342 -0.0143432375 0.2165116 0.01248887 0.2885664 0.13257554 -0.010748771 0.0006173092
-0.18765387 0.08327037 -0.0109351855 0.031488568 -0.0777328 0.12516594 0.018920362 -0.16129488 0.04274454 -0.18268754 -0.3639361 -0.0493911 0.039597157 -0.04243262 -0.3426587 0.024071595 0.20370546 0.11006276 0.07625783 -0.115089305 -0.04450905
0.014566984 0.11425917 -0.101390876 0.04404424 0.004992635 -0.09931624 -0.0021999446 -0.06847519 0.36978137 0.042304177 -0.089412175 0.012245896 0.44558728 0.01775708 0.05685028 0.040092684 -0.3238721 0.27620113 -0.33171996 0.019970926 -0.0060202307
0.17780589 -0.039420705 0.019039482 0.033561617 0.010756108 0.12017414 -0.0038567688 -0.1208465 -0.04119116 0.48154044 -0.19425224 0.010112437 0.029519008 0.0122761 0.23694213 0.38063458 0.11078849 0.21742009 0.010216409 0.20283057 -0.0020294136
-0.1521796 0.14263643 -0.2381416 -0.15455972 -0.02673215 0.100607306 -0.0013448786 0.2174651 0.1674416 0.31728214 0.2467911 0.014942465 0.005664171 0.011333106 -0.12464099 -0.16645703 -0.23069657 -0.18720473 0.07961165 0.076858856 -0.003309545
-0.0069555943 -0.12023473 -0.290942 0.2585314 -0.014261353 -0.23856455 -0.0063403565 0.018663153 -0.20528615 0.13399838 -0.41391963 -0.15091355 0.24931687 0.020499313 -0.010583484 -0.29247996 -0.53505063 -0.033899873 -0.21102679 -0.18139566 -0.012591263
0.06137566 0.3147997 0.2897009 0.38380137 -0.0047496795 0.048169482 0.0018900747 -0.23198786 0.09560547 0.3633438 -0.10203209 0.033964273 0.021584857 -0.005173878 -0.40806293 0.19013269 -0.021860607 0.07188655 -0.0065702605 0.08389316 -0.006042996
-0.15934919 -0.34064686 0.067136265 -0.026876476 0.0243573 0.06585032 -0.003307291 -0.19391437 -0.07643118 0.05595443 -0.09480326 -0.091543145 0.040686246 0.0009862919 0.1935184 0.17232025 0.24300632 0.08115084 0.10331925 -0.025508393 -0.003015526
0.00094845 -0.043317594 -0.002591569 0.0740529 -0.0007617245 -0.016121576 -0.44417414 0.0009793725 0.056524638 -0.0049683205 -0.03822563 0.0034417931 -0.005672818 0.2525842 0.0009598134 0.0020104311 0.0013469903 -0.075464204 0.004445254 -0.03373406 0.70948917
0.34217027 0.013871623 -0.11039349 -0.005119005 -0.008786041 -0.021548359 0.005712286 -0.7531059 -0.065365784 0.23333801 -0.5715011 0.061186302 0.040035646 -0.009546762 0.3510923 -0.024317436 0.021138005 0.30855975 0.013465169 -0.15177467 0.0052694655
