-0.06871094 -0.004066572 -0.44294703 0.12322298 -0.026646387 0.17753665 -1.3682691 -0.041499376 -0.119246125 0.02077545 -0.01790572 -0.049004335 0.027096635 0.077428825 0.06241848 0.22061375 -0.35961267 0.1493675 0.009044633 -0.035907365 -0.8446416 -0.056830037 0.07908806 0.34639177 -0.0114381295 -0.053634275 -0.016176507 -0.032085054 -0.062168118 0.027487248 0.057627413 0.044310015 0.06395667 -0.014678709 -0.23760208 0.1589815 -1.6933036 -0.2170588 -0.1796423 -0.26337597 0.016342396 0.17262931 0.05802364 0.06545264 0.5882982 -0.8029196 0.12676682 0.012800707 -0.00860383 -0.3254372 0.28662956 0.003459255 0.040213272 -0.3978249 0.036246516 0.026593626 0.16753626 -0.0041938107 0.20471846 -0.15169494 -0.2042956 0.051218122 -0.4150485 -0.098050065 0.08667654 -0.057020854 0.010534574 0.25561756 0.093523815 -1.1582319 0.04605089 -0.2774911 0.18138579 0.24325831 0.08325348 -0.09142636 -0.079124324 0.07942661 0.052399747 0.11264942 0.024153428 -0.013346172 -0.17357603 -0.17245689 0.03388475 0.038299806 0.17459646 0.08948715 -0.15789962 -0.007232116 0.12156634 0.025699852 0.06253515 -0.14691675 -0.07346825 0.13263749 0.37500185 0.08827068 0.1093541 -0.09879159 0.0066120434 -0.113596536 0.031578377 0.11668325 -0.021961259 0.10909859 -0.6446135 0.04719646 -0.18835612 -0.13453265 -1.1942856 0.07744753 0.12049542 -0.075689375 -0.07794324 -0.4876819 -0.2212647 -0.057246704 0.0432302 0.3104762 -0.5810424 0.023076445 -0.0069718855 -0.3474984 0.0005091151 -0.07428705 0.08922662 0.05607623 -0.022418942 0.13358231 0.038788237 -0.2673194 -0.022614663 0.22200923 -0.0035543912 0.09448914 0.008266482 0.22928524 0.041536845 0.28741595 -0.1375017 0.24017093 0.03394775 0.15026322 -0.05365644 0.68188393 0.2257409 -0.018188301 -0.13478921 -0.11752939 0.11717434 -0.11599097 -0.031691786 -0.45659575 -0.013721561 -0.15485933 -0.054908257 -0.042167325 -0.06500131 0.07736324 0.02596532 0.21031286 -0.056022335 0.009719032 0.42607254 0.11364787 0.07608825 0.062650956 0.07683631 0.073257186 0.040390316 0.2415603 -0.14181294 -0.15303333 -0.03864427 0.0145115685 -0.087221935 -0.088874176 0.1094364 -0.12701993 0.07113468 -0.005346494 -0.12881415 -0.014191242 -0.03151823 0.07238667 0.12031677 0.02191402 -0.15571313 -0.40104273 -0.73503995 0.05759444 -0.0062905517 -0.04540217 -0.55792296 -0.01216037 -0.04518908 -0.16750512 -0.1275992 -0.0989912 -0.20509346 -0.21741089 -0.06533245 0.07308059 -0.04667218 -0.0041428353 0.3066266 -0.42795134 -0.07556481 0.03092687 -0.43749002 -0.44828475 0.0076273456 0.039476354 0.016763821 0.017342705 -0.15484211 -0.21856613 0.059435766 -0.074762814 -0.39047372 -0.0050147395 -0.07794576 -0.13651969 0.11338321 0.08761395 0.054498233 -0.46544155 -0.07759169 -0.027545828 -0.44283757 -0.121509746 0.088997155 0.12587722 0.0023567183 0.112839215 -0.004844947 -0.16857517 -0.17411406 -0.034394495 0.11014643 0.048950467 0.17670903 0.100788146 -0.6372182 0.36338717 -0.6563597 -0.07563134 0.08189425 -0.2374497 -0.15901397 -0.073553495 0.0035593633 -0.034639478 0.020839753 0.004085757
-0.26114976 -0.03761933 -0.9592033 -0.5453817 0.07311574 0.53062695 -0.48399386 0.16129516 0.11212645 -0.035101324 0.1209392 -0.10183219 -0.07501733 -0.0666581 0.019885361 -0.017278068 0.03627656 0.14909868 -0.11300389 0.21335769 0.41351113 -0.22170986 -0.05068584 -0.35016665 -0.07952686 -0.0040047737 -0.16604137 0.09130519 0.034789078 -0.44125777 0.05272293 -0.062203456 -0.12415662 0.018308667 0.011021757 -0.1531868 -0.17033665 0.041740544 0.24668358 -1.3444421 -0.13358346 -0.25062558 -0.52423334 -0.11182657 0.026207384 -0.4826659 -0.29610342 -0.063519 -0.01368509 -0.43720576 -0.3727957 -0.011745141 -0.118353456 0.19273452 -0.048060734 -0.0014538522 -0.17125952 -0.09013026 -0.16090152 0.03427704 0.0041475454 -0.04478791 -0.3079047 0.09855004 -0.16186786 -1.4718654 -0.29278034 -0.28914478 -0.13752446 -0.16507302 -1.7587968 0.28975287 -0.08619261 -0.19740185 -0.023738656 -0.065470204 -0.18925297 -0.05271781 -0.4020906 -0.104448006 -0.58127576 -0.036638886 0.08622377 -1.0827639 -0.10826398 -0.047813065 -0.045360576 -0.061646592 -0.042243123 -0.039254744 -0.12758355 -0.14698696 -0.18839611 0.13049148 0.03516274 -0.24494095 -0.17134067 -0.020933622 0.06750637 0.050915223 -0.045998055 0.10560748 0.09323979 -0.054484118 -0.03293807 -0.0818529 -0.5905615 0.13393588 -0.24500895 -1.869354 -0.8403276 -0.072644696 0.016500413 -0.010459549 0.11877087 -0.7039379 0.07621633 0.051719848 -0.009222292 0.16793002 -0.9278484 -0.17301542 -0.03925505 0.063090876 -0.04782351 0.070002444 0.018163962 -0.06468151 -0.0053977845 -0.09746118 -0.07158119 -0.15221563 0.0010905019 -0.017957676 -0.0071581616 -0.35972685 0.036640354 -0.1151743 -0.039127212 -0.7321253 -0.24311107 -0.48593205 0.02447766 -0.17460519 0.0005906117 0.08504938 -0.8507162 -0.11036237 -0.085663 0.040317014 -0.042586286 -0.73341703 -0.26809722 0.41012794 -0.1405037 0.023629162 0.04045113 -0.029543988 -0.041130017 0.0988223 0.005550958 -0.04980583 0.012703024 -0.047304634 -0.41125956 0.017526496 -0.062002666 -0.20367976 -0.10875457 0.028869476 -0.060348123 -0.39720732 -0.08488989 0.026219014 0.026859635 -0.036386725 -0.13631971 -0.055280443 -0.06695908 -0.31538445 0.17553993 0.062443465 0.09723695 -0.041072085 -0.0057602264 -0.03975124 -0.10044328 -0.11342255 0.13140428 0.04971409 -0.7802514 -0.014831389 -0.037483968 0.02109654 0.417597 0.10505553 0.067138165 -0.044661738 -0.6907673 -0.10778623 -0.10139484 -0.9036513 0.040982816 -0.020530995 -0.030618798 0.00439849 -0.6785229 -0.10820168 -0.107180186 0.81089 0.13375086 -0.09798416 -0.018888492 -0.08659067 0.18264164 0.03816488 0.1613993 0.00984138 0.070292175 0.12554185 -0.73116475 -0.13945608 -0.051235363 0.16900489 0.01119978 -0.041940194 -0.22355206 -0.54351354 0.0044098115 -0.04553613 -0.45841432 0.11162167 0.06690114 -0.1468463 -0.2854524 -0.45236075 0.012279745 0.40117675 0.08355927 -0.10715762 -0.09579794 0.0011842791 -1.1297202 0.8691932 -0.07861682 0.03904175 0.17994575 -0.6946937 0.08338571 -0.049914625 -0.01832354 -0.12372917 -0.09833648 0.08115844 -0.057483416 0.0069243005
0.16491422 -0.16709079 -0.45621535 -1.1709538 0.245545 -0.5022362 -0.284396 0.10892597 0.051800627 -0.1604149 -0.21992691 -0.08093822 -0.5720381 0.094684675 -0.21556406 -0.049303576 0.23877835 -0.97210306 -0.130482 -0.23556355 0.21071328 -1.8006922 0.030740967 0.15973416 -0.36988637 0.09658444 -0.67013633 0.066194594 -1.354793 -0.007222703 -0.26984105 -0.16837326 0.30884042 -0.017233396 -0.08954781 0.04068332 0.039005365 -0.2390659 0.38345847 -0.250271 -0.1348832 0.008977058 -0.060825944 0.12158508 0.9856585 0.61489695 -0.024385333 -0.40392658 -0.26825118 0.36649594 -2.1851196 -0.6863012 0.07232332 -0.015422546 -0.37726375 -0.67212313 0.16181612 0.35970852 -0.012716725 -0.045071602 -0.34351036 -0.0056020985 0.35420412 -0.38869643 -0.11727984 -0.19693112 -0.2076933 -0.72528505 0.05414794 -0.2550774 -1.5201677 -0.17631409 -0.5374296 -0.708768 0.2644454 0.21665888 0.108545855 -0.49547872 -0.20562991 -0.4312099 0.044402257 -0.19633538 0.43584085 -0.36118346 0.017039636 0.051534913 -1.6494379 0.068931736 -0.30513296 0.35006738 0.39071682 -0.29234886 -0.42753884 -0.6746855 0.21883276 -0.74044585 -2.0766258 -0.0613129 0.08299398 -0.020820798 0.109927885 0.08691738 0.09040716 -0.27362666 0.22303988 -0.019273017 -0.10325711 0.008529499 0.44806218 -0.29172418 -0.23405714 0.27964544 0.22791432 0.15913117 -0.01382728 -0.55508095 0.035836644 -0.05108294 -0.26622015 0.2439859 -0.2892718 -1.5733358 -0.38062117 -0.043088224 0.12016111 -0.22693299 0.18326801 -0.18332125 0.052855276 -0.90176445 -0.4928181 0.06763159 0.03735022 -0.18228912 -0.08528328 -0.036416307 -0.07372443 0.049603865 0.22798884 -1.1462498 0.027783101 -0.83712035 -0.35070714 -1.6001062 -0.7171389 0.49519607 -0.06828905 -1.8949317 -0.11894604 -0.8957915 -0.827141 -1.6645854 -1.4642332 0.08728626 0.11888242 -1.0894465 -0.89930755 -0.31883225 -1.3516064 0.11828864 0.022390155 -0.47125453 0.06423526 -0.2522271 -0.22231272 -0.0075562564 0.014454229 0.04161429 -0.12195764 -0.2748189 0.022591507 -0.39280033 0.02649081 -0.5376246 0.044573124 -0.09518625 0.09873548 -0.0605214 -0.057458956 -0.088797346 -0.308886 -0.7704304 -0.6424762 0.20430522 -0.006518627 0.20859197 -0.19748877 -0.36584073 0.38010654 0.017476866 -0.34852186 0.24531054 -0.055658694 0.037043348 0.30764654 0.019614676 0.054053925 0.09370144 -1.4118028 0.07259834 -0.396108 -0.024737481 0.071059495 -0.33524206 0.16407633 0.049144343 -2.54363 0.40496778 -0.52951014 -0.01122904 -1.3159207 0.6152254 -0.42095685 -0.53925043 0.4866417 -0.08280984 0.13731723 -0.035314716 0.025895193 0.12759885 -0.44706583 -0.026094932 -0.90884286 0.37713978 -0.6925376 0.17535101 0.19352597 0.57423097 -0.21143435 0.05233575 -0.13942498 -0.40636885 -1.0504779 0.23549214 0.53729135 -0.20823309 0.22137332 0.59004414 0.2020114 0.18081385 -0.108202375 0.17774989 -0.8157276 -0.61070997 0.16701393 -0.38361683 0.34906295 -1.1603345 0.07127224 -0.23338635 0.031518035 -0.24166012 -0.4656843 -0.36704332 -0.28989136 -0.017605295
-0.017813131 -0.083962396 0.007875738 -0.67626405 -0.8223176 0.066922784 -0.056843072 0.02423376 -0.15126278 -0.060916632 0.076024435 0.023680897 -0.022105467 -0.41810915 -0.31762412 -0.09927215 0.35416624 -0.5390459 0.060898133 0.7652424 0.28236008 -0.17546839 0.04608316 -0.15412292 -0.04729721 0.17414603 -0.045863252 0.09796586 -0.018007549 -0.033483915 -0.13973469 -0.043343484 -0.29037526 -0.38776734 -0.011009463 0.22025543 -0.018732961 0.004874363 0.07911145 -0.04664829 -0.02512546 -0.013538636 -0.08944071 0.08950591 0.3799919 0.2855568 -0.28337994 -0.099977344 -0.6655069 -0.28565007 -0.17714149 -0.171869 0.0032196546 -0.06451451 -0.011298791 -0.057211112 -0.089387394 -0.015518 -0.08607903 0.11647136 -0.58715206 -0.09051998 -0.083835915 -0.17972812 -0.05016629 0.35738903 -0.19051348 -0.07568058 -0.2859372 -0.10778595 -0.11641351 -0.19127026 0.028508827 -0.35527858 0.038458284 -0.051245432 -0.08183587 -0.09598752 0.14311047 -0.07740692 0.06584464 0.23955068 0.074143454 -0.36300623 -0.20765573 -0.069497116 -0.61742234 -0.008253823 0.079014644 -0.10237952 0.03711866 -0.39817953 -0.07425862 -0.04817989 -0.29159775 -0.27773663 0.2959484 0.0056917756 0.060618654 0.11147257 -0.03636206 -0.07398822 0.16422153 -0.074551865 -0.5832669 0.08664774 -0.3975513 0.16417226 0.01174799 0.08274832 -0.18188351 0.34038377 -0.013604808 0.21965772 0.15969455 -0.12020891 -0.057670232 -0.41120574 -0.8973939 0.1510485 -0.081097305 -0.08809496 0.0074908435 -0.1650733 0.22749811 -0.021741902 -0.025589773 -0.065029055 0.08976821 -0.019520577 -0.0011167334 -0.14300914 -0.30453756 -0.043342188 0.05596879 -0.020373343 -0.4347932 0.34087947 0.037813254 -0.08188771 -0.22024567 -0.5467416 -0.15254818 0.17624956 -0.5086677 0.023136688 0.33316672 0.12992263 0.028000798 -0.260018 -0.12456259 -0.1355588 0.088330425 -0.045156397 -0.3063046 0.08518376 -0.014326629 -0.062742785 -0.081809565 -0.02278117 -0.06833528 0.071305156 0.14194348 -0.10901082 -0.14236845 -0.10045061 -0.0036418014 -0.03199495 0.0065597435 -0.04774762 -0.012753164 0.09402153 -0.08874354 0.100565165 0.25797987 0.06564755 0.06147125 -0.0018496494 -0.026810277 -0.112747215 0.022001207 0.014373312 -0.12978424 -0.18002507 0.01894402 0.042224474 0.0483802 -0.314573 0.015808355 -0.60550433 -0.09592654 -0.026995094 0.026651237 -0.08584577 0.16851863 -0.034150045 -0.054806195 0.13838743 -0.019770473 0.111580335 7.4843716e-05 2.6854987 -0.016727254 -0.23233442 -0.16580945 -0.08144128 -0.677623 -0.41499287 -0.043237973 0.11964713 -0.4405431 -0.2085295 0.24544333 -0.09048867 0.21187852 -0.31236175 0.09528662 -0.010188641 -0.037373163 -0.09876087 0.06489477 -0.18803938 0.084379636 0.18411782 -0.5470289 -0.086882114 -0.32565188 -0.0021726452 0.030772254 -0.14241013 -0.23175687 0.0140753435 1.6557349 0.028959397 0.009648949 -0.33149388 -0.52732587 -0.22613251 0.233928 -0.23772524 0.08992325 0.07422196 -0.6558757 -0.026000237 -0.053063635 0.13230984 0.094484456 -0.002910376 0.10934816 -0.062292393 0.039702035 -0.06980268 -0.5419968 0.1421111 -0.18651924 0.003039841
-0.0927 -0.16774707 -0.89935535 -0.09214249 0.03627384 0.5924578 -0.09321778 -0.0029555107 0.29910251 0.0032732843 -0.017212253 -0.04790616 0.06568549 -0.09023348 0.0015123229 -0.09564775 0.058131043 0.059828874 -0.07977825 -0.80789113 0.0043270653 0.026716363 -0.029923119 0.36248073 0.012760056 0.00059594726 -0.018718833 -0.016989177 0.0433948 -0.88178164 -0.027551372 -0.03887326 0.038863532 0.008580975 -0.10295241 -0.004278934 -0.06741428 0.04190455 -0.08235891 -0.26561534 -0.06112742 0.112643436 -0.79157835 -0.1306669 -0.09625177 -1.1003077 -0.09249103 0.07385785 0.06157427 -0.8058382 -0.04514817 0.043245047 -0.006641879 -0.12403871 -0.032254178 -0.04253674 0.20795843 -0.071296565 0.22543034 0.07988115 0.09542777 0.1160307 -1.1548127 -0.35303202 -0.0036238253 -0.78650045 0.029090323 0.025502553 0.0522015 -0.0009431352 0.13237 -0.043498974 -0.10355635 -0.07106436 0.014588601 -0.035564356 -0.05873371 -0.07961104 -0.35770968 -0.037872877 -1.1372097 0.07279334 -0.16675365 -0.94994015 -0.020176057 -0.033518404 0.022423647 0.08298458 -0.09396467 -0.0374193 0.03990844 -0.15855521 -0.08234661 0.06740821 -0.021035511 -0.027223367 0.047431353 -0.08200385 -0.055113822 0.013484464 0.02953668 -0.0886994 -0.060245007 -0.04216518 -0.15563329 -0.028945835 0.12319531 0.09842442 0.066534825 -0.54817665 -0.15534015 -0.11441493 -0.06284385 -0.03159648 -0.22559488 -0.76905555 -0.067799196 0.0058336332 -0.11848034 0.23265895 -1.513219 0.079674825 -0.19999848 0.17984465 -0.11396684 0.021889117 -0.18795377 -0.034912482 -0.11625219 -0.28073898 -0.23843728 -0.07765956 0.017390383 -0.12565039 0.1247429 0.08675051 -0.00549391 -0.029645089 0.014266375 0.60845244 -0.32756045 -0.0020186338 0.0028118573 -0.25082153 0.10426114 0.46905813 -0.32928452 0.009720454 0.0867063 0.058291074 0.017381627 -0.43599388 -0.092442796 0.037679285 0.0044375104 -0.13814892 0.014151903 -0.058597617 0.020975841 0.11415668 -0.0071793213 -0.10468535 -0.16605166 -0.050801277 0.20045158 0.010876507 -0.11985382 0.24981655 -0.06863102 -0.7630626 -0.042044327 -0.16345765 -0.013514565 -0.05191338 -0.076074556 -0.08287153 -0.020412916 -0.06297674 -0.06366273 -0.17453955 -0.15151368 0.025378484 0.13501592 -0.0652568 -0.035195593 -0.014399961 -0.019405805 -0.030691944 -0.13743094 -0.23347425 -0.13600342 0.13623898 0.030709796 -0.024768053 -0.34891567 0.035735246 0.054940943 -0.041347113 0.52700126 -0.12762164 0.059412014 -0.11069468 -0.0144073265 0.025245456 -0.030036367 -0.027377523 -0.14122826 -1.5828514 0.43551427 -0.31969935 0.74070185 -0.02756812 -0.045015614 -0.12457711 -0.042505838 0.052565467 -0.08956755 -0.095022276 -0.07258379 0.049482748 -0.3979603 -0.22952452 -0.07587132 -0.031035673 -0.18317099 0.052651837 -0.011131758 -0.2077218 -0.03669156 -0.038425457 -0.42771825 0.018648868 0.023084396 -0.07557619 -0.114455834 -0.44948065 -0.039334167 0.5903488 -0.06294679 -0.06497981 -0.07251541 0.1461904 -0.2679112 0.74372 -0.05131009 -0.38599616 -0.41299403 -0.37738296 0.0061337007 -0.017543897 -0.03789127 0.15315841 0.0076969992 0.016010704 -0.05510663 -0.0037569667
-0.11698543 0.06929016 -0.8281882 0.0034914918 -0.005778366 0.7617978 -0.05076284 0.012752445 0.034933712 0.046278037 -0.011190706 0.0008198526 0.056125954 -0.014034453 0.010442872 -0.06424052 0.013207123 0.12774603 -0.0033994305 0.24675465 -0.12780365 -0.07596323 0.0051903063 -0.06436375 0.033520557 -0.015194382 0.012996475 -0.06696685 -0.0001347235 -0.15329635 0.017352147 0.012759188 -0.1020051 -0.015116986 0.20047586 -0.01301872 0.037458386 -0.12365849 0.041373063 -0.2740418 -0.03368588 0.09632808 -0.34127888 -0.08445287 0.5862219 -1.009669 0.31392726 -0.03636787 0.008549609 -1.0638711 0.19775836 -0.043553557 0.022530189 -0.088343374 -0.02600509 -0.028491793 0.09810462 0.031559512 0.05057901 -0.052868314 0.11180392 0.14068076 -0.46585363 0.091385856 -0.0030559334 -1.030603 0.015868919 0.30139497 0.0054103318 -0.27678996 -0.046992604 0.0054974575 0.08362389 0.13401489 -0.026917487 0.06189417 -0.06442066 -0.010837851 0.20590298 0.010791135 -0.35264596 0.18258145 0.06351695 -0.11546718 -0.011453585 -0.0031925829 0.011047609 0.0870481 -0.0887155 0.006585105 0.018671324 0.032417566 0.017141651 0.07744561 0.018067915 -0.018672092 -0.039117653 -0.06337643 -0.033058025 -0.032961797 0.013455473 0.05618564 -0.02745106 -0.013511012 0.0008789041 0.0526821 -0.15318617 -0.0969684 -0.062455673 -0.6605934 -0.10062942 0.023294903 0.19427715 -0.003921682 -0.027774513 -0.30590805 -0.23637255 -0.010481348 -0.012002479 0.26152378 -1.2485383 -0.027990634 -0.026348263 -0.049060583 -0.00067431637 0.105599284 0.0820271 -0.019553937 -0.27186105 0.06287791 0.021451196 -0.028142765 -0.06183548 0.027120044 0.025646474 -0.07378269 0.008580995 -0.06563676 0.18872213 0.050599664 -0.25424588 -0.24563375 0.068278566 0.08517165 0.008495329 0.45375425 -0.053596977 -0.05410305 0.036313727 0.020269267 0.024073495 -0.18672404 -0.1849333 -0.003428411 -0.060769953 0.07193913 0.03886996 0.014077773 -0.02100561 0.114388086 0.008922538 -0.0062697087 0.022827672 -0.04343044 0.0021682351 0.068350166 0.015735596 0.0033440718 0.0050639417 -0.11566343 0.051223774 -0.026218636 -0.04356451 -0.0561982 -0.025950259 0.01374988 -0.10519108 -0.02418165 -0.017366845 0.0423777 0.030634515 0.004031815 -0.036078364 -0.006630969 -0.007081724 0.016021207 0.015675768 0.21431033 0.054974575 -0.05379253 -0.0450445 0.17350972 -0.011195455 -0.014280461 -0.114917636 0.113557436 -0.028316433 -0.09109887 -0.12297947 -0.13687928 -0.08345098 -0.029900398 -0.06361055 0.11309756 -0.0037514844 -0.034762066 0.2522502 -0.5465078 -0.045931034 -0.15961906 0.07087833 -0.29663453 -0.030563064 0.030970352 -0.059584856 -0.06377764 -0.030263303 -0.09278376 0.04672841 -0.02790219 -0.4824278 0.09234707 0.010901172 -0.066644385 -0.04184095 -0.06614723 -0.004016343 -0.08401862 0.04656054 -0.048024897 0.0071954457 -0.08169873 0.039409902 -0.0059174914 0.00630142 -0.14521205 -0.036433514 0.6539024 0.06724221 0.09382647 0.014446238 0.1942968 0.12982441 0.7561052 -0.0017767078 0.08372839 -0.23342693 -0.30752522 -0.008493779 -0.040442277 0.0017239113 -0.10718276 0.014999632 -0.05109558 -0.014847042 0.0393531
0.1275094 0.039658524 -0.8903776 -0.092215225 0.032056645 0.49593925 -0.076425835 -0.095313825 -0.019486638 -0.065709785 -0.03639232 0.0033788495 -0.020160086 -0.0056560934 0.034891795 -0.061924037 0.013117416 0.040645868 0.06894643 0.0029611276 0.090571284 -0.13858332 0.018082444 0.043168955 0.010052544 -0.029598108 -0.011642939 0.045674376 0.008618439 -0.2118538 0.016423719 -0.06453719 0.08223459 -0.01528627 0.12580325 0.017773345 0.04971141 -0.06136446 0.043836962 -0.28530395 0.001664955 0.038445566 -0.11851598 -0.07603921 0.010393969 -0.6716524 0.18312818 -0.039126374 -0.018219126 -0.8469377 -0.083535664 0.078741655 -0.045315843 -0.013120423 0.0504166 0.034438916 0.012312864 0.026059853 -0.052003205 -0.047922052 0.2368373 0.11096688 -0.27047902 0.02702148 -0.015249597 -0.9353418 -0.03691546 0.07546389 0.008908962 -0.27583396 -0.20011565 -0.03048453 0.086200945 0.16517408 -0.034767665 0.1691761 0.061981488 -0.042087283 0.32584333 -0.032034826 -0.11678352 0.20697112 0.1530931 -0.22460535 0.014637644 0.008663125 -0.06676901 0.0053616907 0.03212776 0.007962834 -0.03168101 0.036021274 -0.05042455 0.009881682 -0.002988347 0.004052154 -0.16830637 0.033769563 0.017037168 0.009195042 -0.0025740203 0.09573181 0.0029514793 -0.035193626 0.06072176 -0.020848298 -0.05145572 0.04346251 0.028097115 -0.6777383 -0.11319171 0.09524797 0.219796 -0.051655147 0.030851811 -0.6408245 -0.034555074 -0.0064911544 -0.04066123 -0.041714408 -0.97165203 -0.10812466 -0.01333969 -0.049490374 0.04975709 0.07408067 0.071197115 -0.034291282 -0.024771558 0.056370936 0.08721566 -0.04731782 -0.027866881 0.14503877 0.0018043497 -0.08287123 0.080165066 -0.04727035 0.13724452 -0.043179594 -0.14556444 -0.25429377 -0.028452436 -0.028960614 -0.024459997 -0.025419222 0.09368872 -0.08304331 -0.062027603 0.009107537 -0.030589309 -0.4629112 -0.051318035 -0.053348318 0.075127564 -0.007457548 0.0024579586 -0.039253753 0.020012839 0.20825425 -0.041041996 0.0052196262 0.0843837 0.04307286 0.13240433 0.07605145 0.057247773 -0.010134018 -0.053540744 -0.02088392 0.008954964 0.04155721 -0.028119793 0.0022279122 0.06938634 -0.055437427 0.032295775 -0.06319437 0.008893131 -0.023245297 -0.008532264 -0.021001413 -0.017480353 0.03676414 0.0039868467 0.032784026 -0.053651907 -0.025759593 0.010318958 0.007206529 -0.06321619 -0.028980978 0.023437232 0.008555906 0.13103756 0.016461505 -0.056516994 -0.027787974 -0.08969508 -0.059306473 0.0125844795 -0.04006326 0.04891527 -0.011243858 0.11679545 0.033789583 0.05948223 -0.39270553 -0.08903379 0.47219276 -0.37876025 -0.16036788 -0.0062253694 0.049345233 0.015157841 0.042642936 0.024207879 0.08715474 0.03838986 0.089532614 -0.4639418 0.12658732 -0.060474504 0.025188996 -0.027345512 -0.11685547 0.02070097 -0.05931616 0.053046655 -0.027544934 0.027320651 -0.00043894327 -0.0688378 -0.04935204 0.07962243 -0.1413299 0.008454337 0.29777044 0.023250874 0.04600954 -0.03556292 0.12426142 -0.13644476 0.44442442 -0.0037897888 -0.005588063 -0.098578185 -0.10407115 -0.013806217 -0.036975022 -0.011312441 0.023537476 -0.015307523 0.008138485 -0.013238267 0.0010719156
0.16665703 0.24665494 -0.104293056 0.04795701 -0.3628133 0.017104821 -0.008449335 -0.7658151 0.07220041 -1.5210999 -1.3489964 0.102402 -0.3251968 0.07875635 -0.30865017 0.082877 0.03788341 -0.12615763 -0.1263127 -0.04465124 -0.24532528 -0.030633109 0.06223483 0.17025922 -1.9485 -0.8256851 -0.23042269 -0.27771723 0.060902663 0.026386134 0.34183764 0.10497208 0.116577215 0.22357619 0.07576385 -0.36548945 0.004864376 -0.08188463 0.12888874 -0.07800685 0.05434468 0.29300478 0.2506063 0.07643282 -2.2499018 -0.112067476 -0.027858665 -1.1047695 -0.60274863 0.18380201 -0.1412303 -0.2676261 -0.10151102 -0.036993112 -0.13382837 -0.33524176 -0.21424642 -0.7167161 -0.1738283 0.0058957194 -2.103268 -0.03358703 0.1258797 -1.1416512 0.16557755 0.8038358 -0.13507834 0.80939454 -0.026967425 -0.07159231 0.18990217 -0.15472504 -0.044860896 0.12501377 -0.1564072 -0.11030932 0.050257266 0.09921084 -0.25294852 0.011459217 0.020869752 0.09882733 -0.35765472 0.37900946 -0.73802495 0.07637319 0.10621604 0.28777173 0.21359378 -0.027147606 -0.1638427 -0.25749904 -0.34895378 -0.17452466 -0.6910347 0.24750966 -0.047003217 -0.48095328 -0.037531238 -0.5490196 -0.8684456 -0.31663194 -0.30394676 -0.15766203 0.03615526 0.045672905 0.06256874 -2.294504 0.15609977 0.8738253 -0.106848784 -0.12522008 -0.1617998 -0.06303087 0.069005735 0.8600662 0.12777856 -0.041496314 0.04812351 0.30925667 0.5274157 0.1877896 -0.6076303 0.032426737 -0.39768603 -0.5622705 -0.41765532 -0.27464932 0.0065969266 -1.2378153 -0.39673367 0.09259962 -0.31684512 -0.003644796 -0.18943496 -0.024873802 -0.45572695 -0.016871994 -0.101804145 0.43516934 0.16965532 -0.7003711 -0.5433065 -0.32189843 -0.2302213 -1.6057518 -0.2686064 0.19450587 0.17114054 -0.23631625 0.2771871 0.2423074 0.27674153 0.05395199 -0.11067647 -0.008280453 -0.16882713 -0.09495121 -0.2196152 -0.046324488 0.07648003 -0.52720153 -0.14010254 -0.17861293 -0.002464209 0.13368465 -0.10596375 0.37584063 -0.5297039 -0.03105077 0.020785784 -0.059452757 0.10906219 -0.14530416 -0.8771369 -0.27730396 0.015133847 -0.09142748 -0.09633434 -0.5867417 -0.31887138 -1.2848094 0.45108792 -0.5083008 -0.013423483 -0.27786994 -1.4999386 0.052826125 0.03361908 -0.978477 -0.17734595 0.1926488 0.009171368 -0.19871539 -0.42500642 -0.8328141 -1.5381155 -0.29539004 0.35837847 -0.33589798 -0.03903399 0.043849234 -0.24156532 0.015375361 0.032483887 -0.049774334 0.29673198 0.1861383 -0.1254895 -0.15049325 0.20473264 0.16805638 0.04113755 -0.32138175 -0.31125534 -0.1572839 0.001955746 0.015882445 -0.07690011 -0.98579663 -0.057473607 -0.02819209 -0.1051884 -1.6106117 0.17840834 0.12900907 -0.03606452 0.35229132 -0.29196405 0.09217557 -0.41328079 0.46271783 -0.07192531 0.25253287 -0.28781384 0.19858389 -0.43637422 -0.28896013 -0.43915147 0.023808556 -0.35923856 -0.03521348 -0.3163187 0.01804898 0.0012697767 -1.6134319 -0.11806094 -0.12928359 -0.86395746 0.097676806 -0.023281118 -0.0047212844 0.2527983 -2.5382078 -0.32957906 0.007150442
0.03478239 -0.1425982 -1.1111468 -0.07407657 0.00279415 -0.06862417 -0.24361783 -0.028024733 -0.1439808 0.010978314 -0.07802108 0.062879294 0.0235292 0.034028906 -0.0027672264 -0.2675347 -0.11726571 -0.2628397 0.09249248 -0.19347046 -0.706012 0.17235367 -0.025928983 0.18045774 0.07696519 0.0029989462 0.025484549 -0.032460738 -0.028858433 0.12998076 0.03662539 0.019503102 -0.06952199 -0.047936678 -0.09732447 0.055491503 -0.1293324 -0.090463206 -0.096967295 -1.1585437 0.011417459 0.0398259 -0.2509092 0.12674443 0.5707501 -0.6369918 0.08814503 0.061503734 -0.0162338 -0.4768685 0.15013841 -0.0315265 0.116263136 -0.29783514 0.0257767 0.02119626 0.061704617 -0.04618342 0.054741256 -0.04456531 -0.056886747 0.053033702 -0.37673876 0.052882213 0.14410965 -0.12962626 -0.04308819 0.15763666 -0.046569124 -0.15170304 0.20471625 -0.2035881 0.033823743 -0.094239846 -0.04707232 0.09647042 0.07540901 -0.03293539 0.4781745 0.044114538 -0.12986244 -0.15228896 -0.066023074 -0.37226775 0.007877581 0.0041781412 0.09096185 0.09751292 -0.036028363 -0.01610916 0.080768555 -0.09202202 0.12566365 -0.06233041 -0.04478276 0.09082299 0.29665974 -0.0064061806 0.030872602 0.026327157 -0.013793755 -0.005402367 -0.054452986 0.006954637 -0.040744506 0.1057461 -0.7807144 0.06661008 -0.02532383 -0.17025122 -0.4517704 -0.122572966 -0.046114985 0.021206567 -0.051331595 -0.32696047 -0.06725434 -0.03897442 -0.013395841 0.23539609 -0.4150775 0.16154014 0.006802237 -0.56077904 -0.047470357 -0.052284066 -0.100468546 0.026109012 -0.003610296 -0.07224778 0.05391467 0.2826577 0.045998707 -0.015647313 0.11265619 0.29240385 -0.076561645 0.06834187 0.008426197 0.34902698 -0.3890572 0.5882205 0.07235129 -0.3452582 -0.0066893008 0.65259093 0.08255088 0.09284888 -0.07994333 0.034847528 0.06651697 0.18469019 0.08146992 -0.2103935 -0.008572627 -0.11978154 0.005595785 -0.008497804 -0.027983896 0.056997932 -0.03762066 0.10027911 0.03212326 -0.0046374123 0.056354336 0.049541563 -0.030347882 0.34463874 0.041381046 -0.1522712 0.060569663 0.26723054 -0.31060737 0.0046130815 -0.06184721 -0.020182882 -0.0025610987 0.037102547 0.005198197 -0.18595266 -0.024330083 0.011038101 0.1168462 -0.062497187 -0.0042797434 -0.007268274 0.016082823 0.03802715 -0.010034206 0.10972704 -0.73667854 -0.06662493 -0.029396173 0.008041903 -0.72100854 -0.044271424 0.017308673 0.110924274 0.25955662 0.020682968 -0.031787906 -1.1997055 -0.035502512 0.1133778 -0.011236384 0.068438515 0.12655936 -0.42996773 0.16679983 0.12784827 -0.37369183 -0.30619285 -0.04733175 0.022890272 -0.05090875 -0.02143479 -0.10983072 0.022927139 -0.008456523 0.0005804489 -0.5232371 -0.12612899 -0.06313612 -0.07335871 -0.15065138 -0.007568211 0.00916227 -0.117701374 -0.12670621 0.031916212 -1.8941698 0.002563076 0.03614574 0.100559704 0.047570907 -0.5734369 -0.032858204 -0.14787866 -0.07047064 0.031669468 0.14083743 0.05956105 -0.41379902 0.25673038 -0.06886576 -0.12776631 -0.6858311 -0.032010943 0.0036956416 0.03047077 0.028923199 0.045124482 -0.04986295 -0.006538979 0.05267823 -0.0062917043
0.028013615 0.06513342 -0.13644314 0.27181232 0.010739205 0.04460215 0.21065952 0.022211218 -0.08205014 -0.015534813 -0.0020625195 0.0029958903 0.02230314 0.08481486 0.021981176 -0.4481635 0.040923867 0.21138114 0.0009247748 0.23729324 -0.68995124 0.0068093445 0.09718964 0.28501505 0.1015029 -0.0074344655 0.029668108 -0.013049324 -0.054163978 -0.33171013 0.021551868 -0.0010316952 0.094139315 0.0028335282 -0.049924355 0.045803834 0.38281396 0.024467396 -0.08561532 -0.25801316 0.045326404 0.16083488 -0.21053635 0.0046677114 1.186052 -0.3142724 0.33553106 -0.019639036 -0.0022047758 -0.6953641 -0.21489373 0.017843291 0.011596644 -0.18403341 0.031360712 -0.02287831 0.23664358 0.018282237 0.3442843 -0.041810606 -0.002858056 0.04957503 -1.4338065 0.19753885 0.02451387 -0.85665303 -0.0031556662 0.89472103 0.048816375 -1.5396818 -0.49480638 -0.05213577 0.10200155 0.0012039993 0.0032072861 0.07417444 -0.01506427 -0.02001568 0.6729701 0.04528076 -0.25597218 0.036568657 0.0069094356 0.16297767 -0.016115185 0.07490003 0.023552224 0.0687235 0.04192708 0.048172075 0.060742088 0.048186958 0.044845507 -0.114577256 0.016842531 0.027015671 0.013047377 0.02186863 0.036602058 0.0028655834 0.018708408 0.044290677 0.014673344 0.017687168 -0.008639289 0.022174068 -0.7875777 0.014655237 -0.00092330447 -0.5622782 0.14583227 0.09404971 0.11398313 0.00064426276 -0.27524063 -0.0062134396 -0.22937877 0.011246163 0.028420819 0.2615984 -0.9052707 -0.061639942 0.041299935 -0.1992192 0.049034633 0.030141722 0.14431852 0.015853334 -0.017665291 0.08019945 0.19908258 0.06423156 0.00013986425 0.06548277 0.005612767 0.026234765 0.04149024 -0.05986806 0.060111526 0.59901357 0.16799615 0.016165998 0.007610314 -0.10224382 -0.06465241 0.92766976 0.8414864 0.030029723 0.27812082 -0.08276182 -0.01788485 -0.25370643 -0.21057679 -0.06429251 0.08341837 -0.07347564 -0.029564612 0.029759686 -0.0019212171 0.08021 -0.008684602 0.44286788 0.043251745 0.022007257 0.41548944 0.038060818 0.05435379 0.17713219 0.032636616 -0.35612804 0.007245035 0.098747134 0.35913497 0.024564117 0.018452004 0.017821988 0.039084096 0.042412218 0.016860902 -0.30073407 0.21138857 -0.038209144 -0.045077763 0.027096681 0.021260642 0.022175226 0.049226463 0.05060513 -0.32398903 -0.022752678 0.5252333 0.10575564 0.00977397 -0.022574462 -0.6054535 0.02189146 0.027981285 -0.14996475 -0.17521691 -0.04637636 0.009338285 -1.2697126 0.018432423 0.044996396 0.016760748 0.0048790057 -0.0439672 -0.6662612 -0.124547884 0.661093 -0.09531651 -0.46898353 0.021168267 0.03162491 0.047665313 -0.008373511 0.004724092 -0.06948139 0.058329433 -0.016013002 0.1992437 -0.11507033 0.029674776 0.023588985 0.01720185 0.036993597 0.06160512 -0.272202 0.06010464 0.0044522304 -0.6403845 -0.06284296 0.021563096 -0.10307249 -0.12927686 -0.13601929 0.013846211 1.5752506 -0.032775886 0.090100855 0.1816821 0.16235593 -0.3838798 0.0645113 0.117092304 0.15830883 -0.21266885 -0.69947726 0.010750023 0.0052625868 -0.0014580438 -0.057407033 0.005638631 0.053222395 0.02002936 0.026106995
0.022738842 -0.020936502 0.39823997 0.43834642 -2.4966733 0.07631207 -0.03027676 0.0035743027 -0.10819698 -0.21835212 -0.14420195 0.21468267 -0.35443494 -0.10713505 -1.9903724 -0.28234327 0.05604646 -0.15485543 0.11760461 -0.06557339 0.052059222 0.0060575088 -0.02809194 -0.14391655 -3.7624648 0.011560691 -1.2343796 -0.034281608 -0.33888465 -0.46142223 -0.06357292 -0.63316417 -0.8348523 -0.011383349 -0.71368027 -0.30899116 -0.032084078 -0.38024879 -0.5863868 0.084336825 -0.3714409 0.1975592 -0.62938434 -0.7111148 -1.3489528 -0.7476037 -0.10631126 -1.6952975 -1.8577417 -0.40237072 -0.079264954 -1.8529857 -0.057469342 0.05258088 -0.032294467 -0.27054325 -2.6741111 -2.2619143 -1.7724863 -0.10115483 0.14588895 -0.011407551 0.12649006 -0.027103463 -0.1729017 -0.39678687 -0.034898013 -0.4816042 0.05486488 0.17424202 0.2922122 -0.004201886 -0.53864664 0.0005138126 -0.1527135 0.01747988 -0.014090445 -0.5773003 -2.0036585 0.1773231 -0.24967314 -0.013660683 0.34012705 -0.47663772 -2.056159 -0.020742059 0.03080147 0.09061407 0.030778388 0.1969337 -0.5714529 -0.019518813 -0.014202065 0.17029387 -2.1123931 0.16933279 0.0018752906 -0.24763158 0.20704749 0.4034887 0.13849477 0.13859992 -0.08959658 -0.5751155 -0.05616581 -0.12562084 -0.1438123 0.16483328 -0.044484545 -0.52078146 -0.07485306 0.16479385 -0.115327865 0.15248153 -0.13439566 -0.14460857 0.12907554 0.19914705 -0.020316888 -0.055989385 0.2731165 -0.11345043 0.28578606 -1.521945 0.116558954 0.18980612 -0.014101096 -0.014954772 -0.92121553 -0.92202824 -0.29907128 -0.110947326 0.052484956 -0.1364949 0.010589951 0.23376796 -0.29766127 -0.8533788 0.01087954 1.3440418 -0.22059241 -0.092794344 -0.38912204 -0.26752317 -0.7712002 -1.7775058 -0.036812127 -0.06194207 -1.4687357 -1.1903238 -0.11941759 -0.026204024 0.12453255 -0.16736385 0.0919079 -0.057945963 -0.46066004 -0.33262444 -1.0344894 -0.028375637 -0.94573456 -0.43616673 0.05291498 -0.62041086 0.26103178 -0.25902167 0.03521145 0.40640736 -0.13927346 1.012272 -0.54301625 -1.169165 -0.41438904 -0.24389991 -0.1114518 -0.17970835 -1.0060304 -1.7492695 0.25628996 0.00083633064 -2.3612442 -0.6100836 0.4595688 0.056278713 0.062042512 -1.637982 -0.5915441 -0.08708 -0.11911486 -0.76701206 -0.19135675 -0.16087751 0.14622925 -2.9058049 -0.163413 0.1251194 -1.0675712 -0.1523924 -0.47632042 -0.21167842 -0.08503403 -0.107104406 -0.037685707 0.05691433 -0.018671118 -0.014637877 -0.08833273 0.32006973 0.3564164 -0.59973735 -0.4035168 -0.18544444 -0.039546825 -0.3451008 0.12526192 -0.041754436 -0.7216006 0.10812052 0.06575483 0.09171433 0.18247832 -0.13398243 -1.0002365 -0.11441289 -0.121198654 -0.015608312 0.056624427 0.16324542 1.001711 -0.022070091 -0.48652458 0.23080769 -0.07973136 -0.34795496 0.09203914 -0.66460663 -0.06465052 -0.37475693 -0.2715062 0.01860075 -0.9197259 -0.025215177 -0.5251692 -0.004892985 -0.013906633 0.56350094 0.063265026 -0.004705311 -0.009698261 0.023315052 0.067821555 0.009283798 -0.0039722472 -1.8273839 -0.022623254 0.01694689
0.2460276 -1.639136 0.04086052 -1.6169184 -0.06827966 1.6143348 -0.2654573 0.036051527 0.25909394 0.043800052 -0.16834445 -0.014980915 -0.15156198 -1.079126 -0.07951908 -0.118811056 -0.1053887 -0.28678092 -0.06721708 -2.7314718 0.16533689 -1.4198147 -0.08545285 -0.092867576 -0.2113822 -0.026228048 -0.008945071 0.4495657 -0.108909726 -0.31202054 0.0016705722 0.010237423 -0.28829503 -0.3294947 0.13699065 -0.0065404368 0.28776285 0.19689624 0.047587693 0.1549206 0.026447019 -0.5543536 -0.10269547 0.2474208 0.60901845 -0.30081183 -0.92806447 0.0678567 -0.10512033 -0.44795275 -0.54628354 0.07145629 -0.06568792 0.031355817 -0.080860235 -0.14382592 -0.11303483 0.18705553 -0.061935898 -0.024288915 0.015215877 -2.1099553 -0.1445779 -0.02411128 -0.0203355 -1.7793181 -0.3432307 0.6338008 -2.597678 -0.48832572 0.044568464 -0.049981657 0.030031318 -0.5368626 0.10470988 0.19370215 -0.057326566 0.09777189 0.018059423 -0.59475577 0.015931988 -3.4677632 0.30708137 1.8293915 -0.08046727 -0.27105185 -1.4867532 -0.4152558 0.13314113 0.11220732 0.18998596 -1.1654501 0.056995578 -0.25231957 0.033699673 0.041385114 -0.27101907 0.096533604 0.07372472 -0.0050066835 0.351129 0.059284978 0.02927183 -0.059745356 0.19640647 -0.11226517 -0.11082794 -0.3949433 -0.006464571 -0.088881 -0.382575 0.051972277 -0.0015311196 0.14923167 0.07968607 -0.30938634 0.06997163 0.22938298 -0.07608265 0.11857851 -0.8835829 -0.5101493 0.14562844 0.18084998 0.051301736 0.9252364 0.079568006 0.061646584 0.07475445 -0.014454266 0.2618872 -0.09133413 -0.076316856 0.12486906 -0.07905969 -0.08003725 0.2996331 -0.076308586 -1.6268771 -0.48285332 -0.11822586 0.066080526 -0.12892893 -0.4256407 -0.09166235 0.552081 -0.321805 -0.32089165 0.13423365 -0.19098061 -0.81900454 0.0935953 -0.30267394 0.11763159 0.1284836 -0.12515531 -0.12839812 0.060321365 -0.059015427 0.14525099 0.11494339 0.007592205 0.0928 0.13109909 0.015380288 -0.096424595 0.13968278 -0.044724416 0.048475284 -0.07838063 0.005235338 -0.07780723 -0.028199863 -0.15283269 -0.09274215 0.02340901 0.17412741 0.0027189455 0.03589555 -0.31293273 -0.014898133 -0.16746062 -0.79026484 0.22430617 0.06763178 0.20723417 0.30211407 -1.5856172 0.1783341 -0.19707084 0.525987 -0.68612874 -0.016633254 0.03575778 0.10738475 -0.15784852 0.35836992 -0.014739393 -0.33458325 0.02674386 -0.07324948 -0.4173535 -0.03615818 -1.572334 -0.69684833 0.21863085 -0.4559905 -0.15689602 -0.36518437 -0.056605954 -0.40683874 -0.010843419 -2.578298 0.038266692 0.27009448 -0.088480756 0.11466986 0.042028308 0.05944546 -0.25246042 -0.20408429 0.16406786 0.13104264 -0.27334067 -0.7831642 -1.9748808 -0.3547302 -0.052755352 -0.007549133 -0.62696594 -0.3078957 -0.19897513 -0.7555879 0.034163896 0.47355404 -0.16694212 0.11194627 -0.1248339 -0.14352532 -1.0395716 0.18787804 0.37134624 -0.6865931 1.3996049 0.044456318 0.030572165 0.0457346 -0.032038808 0.060138177 -1.433543 0.0026360527 0.043019596 -2.4225328 -0.1071756 -0.037776124 0.067553036
-0.0075553595 0.05461643 -1.2467803 -0.02178299 -0.005553254 0.24372892 -0.12946257 0.076154456 -0.142884 -0.06366781 0.06109285 0.097157836 -0.032111943 0.10024637 0.017912777 -0.03979255 -0.015397439 0.012993604 0.0049868617 0.0010072157 -0.055061817 -0.18004194 0.046576854 -0.044310383 0.0121963285 -0.04496601 0.0429352 0.02268223 0.038544454 -0.16986434 0.08780747 0.15100382 0.019862594 0.014527301 0.15841089 0.016710052 0.036026392 -0.04932581 0.07392661 -0.44598088 -0.051941298 -0.0028496305 -0.10779609 -0.049187224 0.09311735 -0.6156322 0.16648677 -0.03380962 -0.077285536 -0.6338144 -0.0768191 -0.011896892 0.049193475 -0.07069559 -0.0062530013 0.09352266 -0.00930122 0.050135408 0.027067237 -0.023799649 0.25337428 0.14193696 -0.29111663 0.092712276 0.037820637 -0.9079131 0.029210089 0.10620077 -0.02787161 -0.40103623 -0.12632741 0.010431276 0.056493036 0.2223829 0.020471398 0.12646505 0.09990093 0.037840985 0.15743229 0.016753113 -0.11306884 0.07106728 -0.061564203 -0.14095837 0.050546322 0.033180412 -0.06327959 0.007925785 0.036552507 0.107459396 0.023971671 0.068792954 0.02480553 0.0510628 0.042559605 0.004390345 -0.07070929 0.065815054 0.049051907 -0.033256803 -0.0193725 -0.014058686 0.0501298 -0.07387612 -0.09093585 -0.013598823 -0.041783754 0.04274899 0.06860243 -0.5399376 -0.2387784 0.104992345 0.1955941 0.028961478 0.0018962433 -0.42041168 0.07349046 -0.003177765 0.017537449 0.047762953 -0.7629674 -0.0025345106 -0.065204896 -0.024457324 -0.021338742 0.113729835 0.03744101 -0.00072896713 0.03547139 0.11345551 0.10139855 -0.011651766 -0.05473958 0.18734679 -0.0626099 -0.053558625 0.015026241 -0.033308517 0.10578631 0.012889174 -0.098888196 -0.07653007 0.017924335 -0.034661938 -0.045619532 0.06750877 0.10180189 -0.042108886 -0.040551018 -0.07616389 -0.025052117 -0.23075478 -0.06383481 0.013008712 0.06509288 -0.049204763 -0.03952906 -0.0070483736 -0.022956202 0.18629071 -0.03754859 0.054326974 0.04091756 0.044092815 0.02197729 0.15189347 0.13385099 -0.037450098 0.06159965 -0.057107285 0.1014969 0.08813135 -0.025599057 0.015482967 0.0076118973 0.05522634 -0.032975294 0.040196292 -0.028654205 -0.041637886 0.037996083 -0.05478742 -0.06972461 0.029764432 -0.00176259 0.04972639 -0.06687263 0.0778078 -0.105363294 0.16006193 -0.14773524 0.07818262 0.050887305 0.074861966 -0.0120974295 -0.06749121 0.0124756275 -0.02197272 -0.097800456 0.03235246 0.06427945 -0.11629773 0.02996638 -0.04048191 0.053160846 0.046130482 0.084837876 -0.31114537 -0.039958835 0.19475375 -0.15107809 -0.19995174 0.030101009 0.020314239 0.13392077 0.025648823 0.082785375 0.18663096 0.027121197 -0.007831133 -0.54788 0.1467852 0.023277026 0.02997819 -0.02865105 -0.08073189 0.15704964 -0.081884876 0.02830858 -0.046486285 -0.101127155 -0.041585106 0.008741206 -0.061272804 0.10680548 -0.16475797 -0.022245169 0.48157322 0.085415006 -0.03885414 0.030970532 0.113506 -0.11164626 0.33480337 0.00880347 0.22364391 -0.11339026 -0.116845205 -0.03692659 -0.043338064 -0.02200256 0.049243912 -0.023162715 -0.022032386 -0.019734873 0.008808364
-0.10098135 -0.102617994 -0.283902 -0.082416356 0.04120326 -0.30049714 0.023241876 -0.43445316 0.06287355 -0.6425013 -1.7463806 0.033500638 0.475647 -0.033788893 -0.18811294 -0.019314434 0.03805994 0.04459288 -0.12158294 0.12566675 0.27371 -0.024608314 -0.105993114 0.6626128 -0.6529609 -1.1176226 -0.50017804 -0.02358261 -0.47627598 -0.6758455 0.44533503 -0.56068975 -0.0345653 0.06450859 -0.35829917 -1.0089204 0.106585585 -0.43433103 0.29235253 -0.06641208 -0.11952418 0.32858503 0.045899317 0.07849982 -3.867002 0.87717026 -0.038684092 -2.184787 -0.7694956 0.30436277 0.2011234 -1.2327453 -0.16832323 0.03930013 0.027361223 -1.7008711 -1.7391082 -0.31533414 -1.1043024 -0.25399214 -2.8311381 0.19629885 0.14000896 -0.9856433 -0.3644581 0.30267125 0.15175614 -1.3858138 -0.06290393 -0.031048251 -0.071050614 0.43236277 -3.723142 -0.106314056 -0.104368664 0.06878267 -0.0028663243 -0.22769912 -1.8180369 -0.11324004 -2.2037363 0.17604345 -1.3720984 -0.115925446 -2.0508432 -0.01799529 -0.043359865 0.20074044 0.0306922 -1.4261404 -0.2204244 -0.066500686 -0.43154857 -0.17842984 -0.48047715 -0.14773422 -0.0824019 -1.092612 -0.44072375 -1.0170527 -2.3971596 -0.053645883 -2.0805883 -0.28591666 -0.124803014 0.030965356 0.025204921 -2.296054 0.10800146 0.3778458 0.066672236 -1.8025658 0.13633879 0.006890107 -3.4797802 -0.82758707 -1.5587026 -0.48231477 -0.03843677 -0.05359241 0.3075831 0.020209717 -1.2903546 -1.5164006 -0.7611373 -1.3174334 -0.5022775 -0.4756293 0.20510912 -1.5358136 -2.7324002 -0.8497267 -0.054513447 -0.05073873 -0.01662204 -0.2486047 -0.71048975 -0.39237228 0.047587994 0.50947076 -0.032184802 -0.8971396 -1.5146253 0.3596826 0.2339276 -3.2630064 0.07081398 0.009730611 -1.2521 -0.559136 -0.09851468 -0.14348091 0.053347975 -0.0040865806 0.021442974 -0.19011168 -0.28748322 -1.1878219 -0.5571809 0.12054347 -0.083284155 -2.548842 -0.7326392 -1.2303224 0.04247845 0.08485221 -0.055864733 -0.13115534 -0.9942446 -1.8178124 0.23571138 -0.14032383 -0.204377 1.0768063 -1.4567999 -0.55134296 0.2633373 -0.1982596 -1.054673 0.096091636 -1.875012 -0.6541504 0.6421826 -0.6445713 -0.004957427 -0.3956408 -3.0847168 0.039645594 -0.073289156 -0.40755686 -0.04696488 -0.0950308 -0.027540281 -1.2169954 0.6102337 -1.0662106 -2.4005456 0.093300946 -0.3952245 -0.4105148 -0.1713748 0.050029505 0.030237162 -0.08115461 0.49106896 0.12682463 -0.13011113 0.08799097 0.43970594 -2.1272895 -0.29637787 0.11204805 -0.1165737 -1.2116927 -1.5346061 0.14435396 -0.29733837 -2.423639 -0.018203223 -1.9634129 0.030382134 -0.011831158 -0.7311076 -1.8768691 0.06639205 -0.08254799 0.0151415905 0.051086586 0.34849292 0.1979181 -0.52635044 0.47380957 0.26089683 0.19370627 0.09187993 -0.07343781 0.2539923 0.46242192 -2.253516 0.012433011 -1.6400774 0.055385627 -0.3065282 -0.34090924 0.12807554 -1.9022973 0.101729855 0.062031884 -2.9584606 0.22029299 0.021750193 -0.062892914 0.016961236 -3.3717494 -0.45802173 -0.054044746
0.00653277 0.049400803 -0.37603143 0.23091573 -0.09377706 0.16277571 -1.0907921 0.019943677 -0.08534316 0.056765866 -0.17560647 0.058733787 0.054859784 0.073729776 -0.003033777 -0.16914676 -0.15661299 0.09486255 -0.008594165 0.005393327 -0.51539207 0.09385851 -0.06313024 0.06631076 0.0942882 0.027656794 0.11848234 -0.03303115 -0.054522682 -0.1904991 0.022913057 -0.03791218 0.09457592 -0.05413134 0.08336731 -0.13695605 -1.1383429 -0.011852739 -0.15953638 -0.17170164 0.057800826 0.060181014 -0.17475165 0.07543334 0.75147796 -0.5153846 0.07333667 0.042596936 0.03646283 -0.47213992 -0.0046479804 0.10219273 0.054177612 -0.108621955 -0.028628841 0.02102265 0.13247809 0.1459207 -0.0055805 -0.10724906 -0.024928963 0.10243693 -0.114968605 0.07930563 0.013554207 -0.32637456 0.11366128 0.5066108 0.024089722 -0.73849165 0.091820404 -0.05525085 -0.060304396 0.1687083 0.04112735 0.019338164 0.03166725 -0.003080449 0.35096005 0.04909292 -0.14751606 0.016970903 -0.058036845 -0.22576064 -0.013265836 -0.07938196 0.060424868 0.15367219 -0.049006578 0.033497564 -0.029253969 -0.005318176 0.07652158 -0.12544502 -0.007099496 0.04335652 0.23439595 0.03339006 0.032598853 -0.007886846 0.08457129 -0.050190188 0.11064075 0.048319966 0.18367514 0.006261696 -0.13774565 0.014744472 -0.26633078 -0.23786913 -1.0131438 -0.12638652 0.068141975 0.057685886 0.12334619 -0.17774524 -0.12293257 -0.03465642 0.051585153 0.14821735 -0.27075964 0.046981286 -0.09276709 -0.6577869 0.03814533 -0.023857156 -0.001076065 0.050871186 0.0037370888 -0.0076921037 0.008682917 0.15286906 0.051671557 -0.028547607 0.047175393 0.085651785 0.026991729 -0.017807055 -0.004220616 0.08551737 -0.051283985 0.41490507 0.1330671 0.09992382 -0.04357369 0.44229674 0.45336637 0.082869045 -0.12820578 -0.029823529 -0.030385002 0.05615916 0.04377313 -0.29219618 0.13130476 0.017006624 -0.05765639 0.14867237 -0.1559654 0.02609822 -0.010075524 0.30289423 -0.050268386 0.15316571 0.06774618 0.013071006 0.00069579796 0.1337767 0.14690946 0.13977778 0.04072264 0.09986499 -0.2602741 -0.14266808 -0.03383884 0.07239949 0.007515576 -0.0028248108 -0.044308476 0.16827159 0.1697676 -0.02684742 -0.050793 0.036353152 0.0037337565 0.00058403827 0.066517495 -0.02998498 -0.10035136 0.0006701011 -0.46691728 0.12666862 -0.009797408 -0.07085401 -0.2708597 -0.04882683 -0.035920486 -0.023687784 0.05527635 0.054412935 0.07078472 -0.32741585 0.0763577 -0.03865138 0.0057802973 0.12392185 0.14859243 -0.32734296 -0.0004742845 -0.2376831 -0.26047722 -0.2872059 0.02389442 0.06401571 -0.12975991 -0.0073394272 0.008235774 0.011339405 0.11494968 0.08409981 -0.4266707 -0.064280085 -0.0006173893 -0.10125779 -0.07669958 -0.043035716 0.046650995 -0.19456694 -0.07327123 -0.1486404 -0.64027417 -0.09001308 0.058133114 0.072986774 0.063175865 -0.27078742 -0.015975274 0.63885105 -0.079910316 0.048481137 0.08465802 0.055448793 -0.5792297 0.053388275 -0.54409814 0.15134436 -0.31148127 -0.023339503 0.092949905 -0.22588897 0.095010035 -0.095696524 0.0016147814 -0.09016492 0.066084154 0.07877175
0.29190376 0.011337656 -0.08398372 0.5942397 -0.90728676 0.2675689 -0.04002736 0.067919075 -0.17958315 0.19200194 -0.14724745 -0.30939507 -1.4952298 -0.054860193 0.26250982 -0.7193184 -0.045679763 0.2955558 0.06972464 0.1206394 0.3962599 0.047124296 -0.09171133 -2.667673 -2.781819 0.035557132 -0.09287228 -0.14810275 -1.7151762 -1.2632614 -0.10746165 -0.32211176 -0.07326291 -0.07429548 -0.36248076 -0.98522145 0.018142965 -0.57224673 0.24345551 0.0055922014 -0.25895348 0.097589664 -0.6580284 -0.06424688 -0.27501607 -0.49830124 0.070280805 0.08268551 -1.7362221 -0.794947 0.12573907 -0.3764034 -0.32479116 -0.013688923 -0.5002951 -0.0110755805 -1.1884052 0.7459043 -1.0441729 0.23804961 -0.024948217 0.050269898 -0.38482267 -0.606044 -0.25465804 -1.3489397 -0.016359573 -0.7389668 0.06535709 -0.042291213 0.19311903 0.560155 -0.89185417 0.06926423 0.058394685 0.042760156 0.13623825 -0.6216513 -1.4592355 0.09923205 -0.90437376 0.0654296 -0.13665959 -0.00502003 -1.2912276 -0.11766969 -0.0063439105 0.110184446 -0.14256395 -0.008125778 0.5468113 -0.0026808116 0.053995635 0.037078846 -0.35405725 0.29860017 -0.057959333 -0.31648996 0.13051969 -0.70849884 -0.39224234 -0.004846851 0.08102681 -0.12429968 -0.011217215 -0.05908042 -0.07470544 -0.06965398 -0.03147965 -1.0131397 -0.034926232 0.107012674 0.050626267 0.18422642 -0.82363 -0.8058827 0.037275918 -0.82445544 -0.0946129 -0.030567417 -0.36609975 -0.04479752 -0.51292 -1.55397 0.047280863 -0.0918957 -0.28076723 -0.35085043 -1.0931224 -0.54100114 0.038470645 -0.92508274 0.079798356 0.26378506 0.07489137 -0.1564401 -0.7954667 -0.4691927 0.028121905 0.4174637 -0.176368 0.5951661 -0.40951166 0.059991557 -1.6803356 -0.61127704 0.52882576 -0.16687721 -0.6448687 -1.0211146 -0.06286966 0.10750609 0.07596753 0.007774612 0.05787223 0.6043798 -1.4509399 -0.23048484 -0.49552658 0.102444984 -0.11170384 -0.5011325 -0.012546377 -0.50224686 -3.1232855 -0.08348885 0.01192738 -2.0657573 -0.5281045 0.3084827 -0.04436692 0.0074161957 -0.32479823 0.1559997 -0.009374941 -0.19615257 -0.38487 -0.24869399 -0.078957625 0.22176567 -0.80178356 -1.2733054 -0.4486363 -0.22762553 0.07017159 0.93251145 -0.3242936 -0.043188352 -0.100178145 -0.27292144 -0.04117804 0.08622636 0.18746579 -1.8271214 0.38555807 -0.12041681 0.12803328 -0.15964597 0.025442095 0.0211233 0.07941002 -0.015005551 -0.042825602 -0.025982635 0.0015490069 0.020333368 0.13700217 -0.79864776 0.6932139 -0.83985394 -0.3239396 -0.32368407 0.04227459 -1.1155843 -0.13626061 -0.046212368 -0.17046332 -0.5924541 0.02637714 -0.10642193 -0.1776012 0.2521265 -0.83356166 0.026894756 0.0519656 0.01201112 0.052845284 -0.18535817 0.24656922 -0.059983537 -1.4453145 -0.12522383 -0.07073012 -0.24630228 0.36459816 -0.43209735 -0.06438079 -0.14286582 -0.15535614 0.036278035 -0.43256614 0.23454797 -0.31591263 0.4264058 0.031656772 -0.5564537 -0.22571415 0.6616641 -0.12957783 -0.027331319 0.03946503 0.028104968 -0.008684931 -0.12231187 -0.5593868 -0.016199585
-0.10245846 -0.02941205 -0.84494126 0.42734462 0.00042859456 0.08088242 -0.49289557 -0.13484913 0.058744114 -0.042383596 0.040684428 0.07612644 0.003099025 0.09343699 0.028510714 -0.017556734 -0.051005755 0.112405874 -0.03887382 0.14560504 0.06759398 -0.0641872 -0.0049921977 0.028136607 0.024818236 -0.05299384 -0.020232305 -0.014250461 -0.07795821 -0.20911318 0.044991378 0.057265453 -0.026713364 -0.022370625 -0.07991178 0.0761445 -0.321882 0.029294346 0.010408633 -0.6280756 0.015944988 0.084928654 -0.13694526 -0.029875198 -0.70987445 -0.5278226 0.082151115 -0.017037552 0.00830733 -0.4395593 -0.12471986 0.012347691 0.0019525054 0.0007737933 0.007967085 0.0329714 0.0034431203 0.038513992 0.031249408 -0.0823447 -0.016771618 0.09378087 -0.38254085 0.035275612 0.011714496 -0.56431895 0.13266622 0.11373747 0.019873006 -0.7475069 -0.03201508 0.0262705 0.0779305 0.11376068 0.09493158 0.026956601 -0.015015566 -0.052481603 -0.081799604 -0.028925028 -0.10627187 0.054393586 -0.11164802 -0.18547845 -0.084635384 0.0044513964 -0.018225018 0.06581705 -0.1730608 0.07023035 0.029072935 0.1765554 -0.0066895527 -0.025628198 -0.004504483 0.024427248 -0.084853075 0.009305236 0.06203309 -0.031956173 0.011490406 0.029261984 -0.013906371 0.02594735 0.046605494 0.056741446 -0.102833696 -0.046243373 -0.16084607 -0.371057 -0.6897505 0.03274059 0.018028343 -0.07861536 -0.0146522 -0.17175035 -0.24066992 -0.023347812 -0.0008929144 0.0006580608 -0.6617103 0.0018285213 -0.016363021 -0.10799763 0.021520358 0.029438552 -0.044484295 0.0042118467 0.08381326 0.119981654 0.050778802 -0.10392732 0.07274876 0.07744071 0.040550422 0.0070074294 0.11647083 0.011331616 0.03594903 0.05669074 -0.018629085 0.07083949 0.024666363 0.27063623 -0.0814257 0.0045234216 -0.034808703 -0.038028426 0.08538788 -0.11000207 0.016812999 -0.116608456 -0.059343863 -0.12086441 0.04145704 0.12973402 -0.05525797 0.10910422 -0.004290935 0.011453747 -0.016844492 0.09189569 0.043265626 0.09997273 0.24181785 0.12724306 0.018039066 -0.031778697 0.0075927293 -0.12874313 -0.04592169 0.024159815 0.09033805 -0.065498345 -0.017454201 0.013988255 -0.012810097 0.047371507 -0.04842989 0.042644367 0.07831377 -0.052457277 -0.049573887 0.058614295 -0.02476955 -0.018052854 0.053473815 0.11438133 -0.18006821 0.06148432 -0.8294496 0.014845649 -0.023228943 0.033883147 -0.018395271 0.12071562 -0.040107537 -0.07822944 -0.06652645 -0.07958138 -0.011107653 -0.06181225 -0.019625852 0.05164397 0.040836394 0.030455396 0.11407534 -0.58842564 0.036480773 0.10792022 -0.071084805 -0.2508564 0.07137222 0.036147226 -0.07934473 0.008480765 -0.044455342 -0.16907492 -0.02002494 0.012007709 -0.76975775 0.02068872 -0.017962711 -0.0011744832 0.12414185 0.07988678 -0.04111057 -0.189029 0.06764241 -0.071815 -0.078743614 0.033976972 0.078601785 0.028443204 0.051549885 -0.11434096 -0.03511777 0.16325122 0.06667149 -0.07317438 -0.10652434 0.065282404 0.07400243 0.0848931 -0.06369953 0.080782965 -0.21349697 0.008595939 0.00049659086 -0.10104539 0.008406272 -0.057548057 0.07975146 0.016584232 -0.010823408 -0.005452155
-0.03957778 0.08810001 -1.1538415 0.051601592 -0.036284827 0.25989807 -0.15020342 0.13966851 -0.09402839 -0.024716925 0.081161745 0.07251275 -0.026172252 0.074732006 0.03957353 -0.0709738 -0.06788766 0.022801373 0.03697895 0.041238204 -0.19992143 0.021714944 -0.031944137 -0.013465025 -0.024588335 -0.018978253 0.081562236 0.0719758 -0.025611004 -0.18080908 0.05797653 0.045714103 0.048128244 -0.016919345 0.095967636 -0.009889001 -0.059817433 0.0999051 0.040747844 -0.4996317 -0.014980892 0.06461803 -0.056360055 0.026657537 0.122614555 -0.54936713 0.14657171 0.018989172 -0.020883407 -0.5782186 -0.03486921 -0.057496473 -0.042092595 -0.053460374 0.021820923 0.051740568 -0.007018809 0.010750863 0.07474885 0.042470336 0.19474089 0.08028275 -0.20499939 0.15299311 -0.016196724 -0.6459649 0.070082024 0.19570246 0.045544483 -0.3349685 -0.014994154 0.043625247 0.07287281 0.17848773 0.0037303853 0.13346866 -0.036561154 -0.058711663 0.17668743 0.052478656 -0.032746967 0.20518707 -0.06770653 -0.061915 -0.01791634 0.010453362 -0.026287302 0.02436539 0.020761566 0.028912261 -0.0819056 0.1774891 0.17633991 -0.07336431 0.04483223 0.05840502 -0.103242345 0.051057763 0.066160575 -0.0289994 0.051044416 -0.0073652556 -0.03134825 0.09348785 -0.022590868 0.04692894 -0.09726099 0.078432344 -0.17090337 -0.4497975 -0.32430604 0.042577308 0.11925202 0.045048308 0.073063284 -0.30743593 -0.064756475 0.012857988 0.0670752 0.008010514 -0.537359 -0.02317462 0.04353772 -0.010609027 -0.007917147 0.03061039 0.07765388 -0.0036628582 -0.02168632 0.12557857 0.04818127 0.0059025944 -0.05033943 0.14875515 0.13200806 -0.020763902 0.016205536 -0.017772801 0.1322082 -0.00018292642 -0.10918222 -0.012516883 0.006763062 -0.045583628 0.055545673 0.17507136 0.2645844 -0.040737186 -0.017685454 -0.04571365 -0.022171736 -0.17336111 -0.026988849 0.039243583 -0.113104604 -0.13663982 -0.033703305 0.018605486 0.007305577 0.0010318918 0.014179746 0.014606882 0.12208512 0.059065428 0.03524924 0.15468653 0.04801464 0.06191899 -0.09425671 -0.09203807 -0.028973173 0.01438461 0.023333244 -0.009425546 0.055754006 0.040338665 0.020552283 0.0794828 0.0644386 0.038893864 0.010614254 -0.039817147 -0.014640274 0.035727754 0.03521941 -0.017373223 -0.006992724 0.18484272 0.025978792 0.02430022 -0.31013367 0.079716556 -0.013384505 -0.015155175 -0.033924907 0.04069515 0.032113723 -0.02385183 -0.091813594 0.001404548 -0.0052389 -0.08738249 -0.027654745 -0.03231677 0.01743165 0.01955163 0.080856 -0.43631232 -0.0069212513 -0.04977085 -0.20943923 -0.13770859 0.010359659 -0.01429973 0.06151271 -0.016151307 -0.046873044 0.054682598 0.061591443 -0.057360012 -0.5825116 0.03301964 0.06786706 -0.018873926 0.0004691484 0.043625195 0.041527204 -0.13491057 -0.08464802 -0.025628196 -0.25288618 -0.02434773 -0.040231336 -0.09382014 0.0011563944 -0.14713056 0.041215744 0.22812057 0.02615969 -0.011773128 0.08054037 0.05850862 -0.033442665 0.231658 -0.014878334 0.23401994 -0.26219445 -0.15391442 0.008864023 0.0019054592 -0.042244658 0.012012087 0.029701702 -0.10739252 0.024324276 0.032012448
0.061825197 0.11443478 -0.008023213 0.35077223 -0.38189563 0.3116049 -0.11044242 0.035847828 -0.17617628 -0.11160421 -0.17319193 -0.06806329 -0.18150848 0.039330024 -0.26489788 -0.06937384 -0.011710359 0.13327909 0.009183409 0.23692755 0.3647759 0.11413539 0.05109161 -0.156686 -1.8899044 -0.052650295 -0.46574572 0.023972198 -1.1707745 -1.0262547 -0.18084702 -0.018655265 -0.28482383 0.017248483 -0.3893054 -0.8493865 -0.1473119 -0.40485948 0.27428067 0.17568421 -0.21722592 0.058770567 -0.2788494 -0.19950046 -0.99549997 0.15447679 0.11094575 -0.46963227 -1.248414 -0.5205678 0.38478398 -0.28564358 -0.045108378 0.086613216 -0.2849337 -0.08377214 -0.7034672 0.017190075 -0.52901894 0.050892264 -0.55576605 0.086238965 -0.23880282 -0.38268852 -0.23428443 -0.86494064 0.09354259 -0.9960218 0.038152393 -0.07087368 0.19409737 0.12339393 -0.9964632 0.30178374 -0.045500226 0.077426404 0.024307001 -0.8355922 -0.73007673 0.1108689 0.0067927344 -0.019683765 0.09368586 -0.31172773 -1.0735992 0.024909643 0.02696061 -0.10032705 -0.1367974 -0.38369092 -0.25612512 0.10290601 -0.24662985 0.1464079 -0.21524884 0.09175693 -0.08898551 -0.10349905 -0.06658423 -0.61866724 -0.15472011 -0.16276626 -0.04120577 -0.20062019 0.110636175 0.029365053 -0.09946444 -0.30854684 -0.13326034 -0.07684524 -0.06527698 -0.5002861 0.0038393836 0.09351961 0.02919729 -0.4743559 -0.09733656 -0.33234695 0.023886498 0.04514982 -0.33890945 0.03196821 -0.6314197 -0.4483462 -0.17808743 -0.11971619 -0.22695714 -0.17786442 -0.39680657 -0.3122881 -0.4205128 0.20384741 0.10725313 0.21213302 0.04634049 -0.34720513 -0.128684 -0.38460326 0.064226605 0.27757636 0.049293656 0.70104116 0.014097647 0.396309 -1.6896822 -0.42928278 0.69218826 0.05537393 -0.3053455 -0.7713432 -0.026127608 0.029336786 0.28478786 0.08348224 0.110403515 0.30446962 -1.1059073 -0.027718121 -0.27058256 0.07725758 0.01152256 -0.5022597 -0.096431196 -0.2417009 -1.4865352 -0.0018126566 0.027459612 -0.47115937 0.0063428003 -0.12133527 -0.011005332 -0.41312754 -0.05193678 -0.015697975 -0.104688324 -0.07423018 -0.34631875 0.0070808907 -0.10380276 0.20805234 -0.47702911 -0.95045614 0.024252396 -0.082957864 -0.026301498 -0.45320567 -0.09965469 0.081908606 0.06441165 0.7831881 -0.0029131656 0.1508874 -0.107035674 -1.1955839 0.21053766 -0.3176576 -0.25013414 -0.36083448 0.08505004 -0.119028606 0.1677803 -0.19967155 0.060504217 -0.052517276 -0.032411475 0.060815733 0.37543812 -0.23421738 0.41492638 -0.5439445 -0.574171 -0.035962954 0.13483882 -0.048708387 -0.3937337 0.0024848091 -0.1246 -0.21953087 -0.09891912 -0.32457212 -0.15115045 0.07902433 -1.3548728 -0.09642207 0.05802011 0.011879866 0.14407773 -0.25949445 -0.122033894 -0.038438328 -0.41105676 0.4024021 0.038753457 -0.102649756 0.03183343 -0.11878681 0.032230664 0.46269178 -0.118748985 0.085623115 -0.21580847 0.13412154 -0.24848166 0.3075645 -0.14020373 -0.56306094 -0.03375396 0.4717675 -0.34987056 -0.02665846 -0.0013436998 0.12156361 0.057673372 -0.52615666 -0.3719615 -0.012260653
0.06645224 0.11693973 -0.3785804 0.3511023 0.024002718 -0.09935614 -0.58487004 0.040053345 -0.23204418 0.07675785 -0.009630321 0.027898103 0.048622977 0.122201085 0.08360841 -0.12425528 -0.3626147 0.075594306 0.042821575 0.35265517 -0.045141134 -0.08891599 -0.068443574 0.27410918 0.015355322 -0.11819272 0.09762602 -0.03931005 0.023673367 -0.06952176 0.04805883 -0.054543093 0.17511156 0.020615404 -0.027936393 -0.041125268 -0.6981736 0.10337913 -0.072690114 -0.2983069 -0.0070314026 0.050710414 0.08816372 -0.03228587 0.27568248 -0.5122303 0.17398562 -7.796778e-05 0.08148485 -0.24891692 -0.11520647 0.03437531 -0.023056313 0.0020615691 0.08023494 -0.019027987 0.090761945 -0.0183402 0.103747636 -0.1706415 -0.043907534 0.0074121663 -0.023407614 0.020327454 0.087074585 -0.5766425 0.012410422 0.47281078 0.04368957 -0.3525511 -0.1334539 0.028008401 -0.028912108 0.20574193 0.04824758 0.028677113 0.0061165225 0.10636148 -0.077012025 -0.03599233 0.064085685 0.13642095 0.119582474 -0.098749734 -0.012891416 -0.31604436 -0.09843875 0.052756023 -0.1387494 0.044538327 -0.0021194231 0.15305273 0.1292265 -0.2553424 -0.0015399911 0.044269364 -0.2094888 0.07986968 0.1198991 -0.18644829 -0.0032898649 0.049114943 0.008794828 -0.035585456 0.0073959087 0.06311733 -0.0874661 0.055987723 -0.15380959 -0.47464564 -0.27591288 0.024793802 0.13708264 0.018692708 -0.06267586 -0.44700158 0.06729973 0.02872681 0.030850196 -0.021246005 -0.25179014 -0.083427384 0.14463824 -0.10242398 0.056105953 0.046603713 -0.044927463 -0.0085972585 0.19620875 0.18653405 0.11929395 0.094740085 -0.022030758 0.07115523 -0.019108819 0.038719956 0.075729005 -0.09978054 0.08968318 0.03921818 -0.028371215 -0.07421774 0.044743925 0.16342506 -0.12599525 0.021430153 0.28698584 -0.07374662 -0.07824837 -0.20871438 -0.06608668 -0.1398064 0.053135816 -0.50788236 0.05277012 0.14391032 -0.09445539 -0.12275649 -0.10935497 0.1441347 0.025706448 0.15854782 0.11161846 0.019003058 0.27811188 0.015395451 -0.016826455 0.032143414 0.039952252 0.026998574 -0.013966021 0.07766922 -0.037390128 -0.12209983 -0.045110192 -0.010985397 0.049843214 0.06842257 -0.03692432 -0.11672909 -0.067762665 -0.1277726 -0.12505983 0.15964425 -0.011040862 0.11329125 -0.031724133 -0.02173857 -0.17171335 -0.36495483 -0.21888772 0.11212734 0.05250852 0.095500134 -0.098090984 0.063225366 -0.01893116 -0.037736066 -0.40276137 -0.054850396 0.0041566556 -0.053112663 -0.028799823 0.08867411 0.026935674 0.02560588 0.005966908 -0.2616369 -0.08429668 0.5764449 -0.48699787 -0.071291395 0.051965807 0.07677962 0.14671221 0.0036463072 0.10525496 -0.023206253 0.09429831 -0.016584491 -0.30583102 0.06262823 0.07583574 -0.09767 0.0064855716 -0.10235991 0.09529751 -0.42973715 0.052555844 -0.65844053 0.10175715 -0.16600208 -0.15601566 -0.002784897 0.10564458 -0.10401669 0.07414842 0.16663969 0.03343885 0.09745927 0.106317006 0.15598913 -0.10096819 0.03036778 -0.80020374 0.04534386 -0.11379014 -0.22595988 -0.16250527 -0.66946137 0.014881965 0.032204967 0.018074999 0.025654372 0.025655678 -0.035172053
-0.41198194 -0.23973805 -0.4891452 -0.13549083 0.0049819234 -0.11430691 -0.11820096 -0.022490934 -0.8187233 -0.037898146 -0.0069546057 -0.057797816 -0.09852692 -0.061055254 -0.0046006306 -1.9611443 -2.7413466 -0.22459112 -0.059653733 -0.10289334 1.1612822 0.23904116 -0.630103 -0.20832714 -0.24057569 0.050993025 -0.027654415 0.062469054 0.025478799 0.36102664 -0.0151846 0.004513639 -0.15866339 0.0020352972 0.5799744 0.053950228 -0.8174378 0.28137332 0.45445725 -0.4912192 -0.061389316 -0.27303594 -0.79723316 0.13614665 -0.8963046 -0.81375134 -0.35790965 -0.019151514 0.09425578 -1.4722708 0.029739091 -0.061044775 -0.13742651 0.5780136 -0.04392085 0.038740225 -0.2552726 0.017802468 -0.5322725 0.40633214 -0.020402277 -0.078052975 -3.1476912 -0.00616876 -0.048674006 -1.3241509 -0.051484548 -0.5996565 -0.09988454 -0.6864632 0.7198798 0.38642004 -0.05245058 -0.2556693 -0.05303937 -0.16483 -0.01817764 -0.08344009 -0.4599869 -0.06668776 0.1574903 -0.08367353 -0.0714576 -0.9610727 -0.042461228 -0.95654225 -0.054589517 -0.076930605 -0.64162713 0.03816851 -0.16348036 -0.13361254 -0.07677501 0.41378787 -0.053168863 0.030764015 -0.034189142 -0.043089826 -0.1523545 0.14080374 -0.013480337 -0.08387421 -0.011858667 0.0017762432 -0.00539387 -0.09206214 -0.5997629 -0.040978696 -1.283864 -1.5105667 -0.018309928 -0.03642247 -0.1593778 0.071070306 0.044371903 -0.25102425 -0.23551168 -0.01877333 0.003551635 -0.41865814 -2.6049442 0.096165836 -0.26653877 -1.5078903 0.0074726185 0.06586949 -0.15900695 0.006152505 0.16220345 -0.1937981 0.09976307 -0.0032272784 0.021696318 -0.333274 -0.06946523 -0.11701951 -0.019111859 -0.056519575 -0.15406285 0.065905534 -1.4030479 -0.1965592 -0.10346966 0.13157691 0.018654948 -0.7332989 -0.518128 0.049585003 -0.77885705 0.12298587 0.06775538 0.8631935 0.33825564 -0.45919093 -0.076229006 -0.043990966 0.01773406 0.032693043 -0.1510443 -0.30924702 0.0002982161 -0.14016934 -0.10126703 -0.019010603 -0.28163794 -0.106954835 -0.1452298 -0.21647292 -0.051621906 -0.29218248 -0.050718106 -0.19235054 -1.4435915 -0.11610097 0.00071594276 -0.01552343 0.09700682 -0.009238176 -0.12108678 0.18734246 -0.15146314 0.0081267385 0.16438432 -0.03326077 -0.0415356 0.0025763088 -0.031883005 -0.13704273 -0.055449944 -0.12916712 -0.7280453 -0.289233 -0.021960145 0.015873251 0.7542821 0.036524903 0.0026932582 -0.012048856 0.73961693 0.015585618 0.10415 -1.2616043 -0.012315791 -0.15730953 -0.026943125 -0.0062692757 -0.1435213 -3.1196277 0.38667616 -0.41266185 -1.9972103 -1.1953559 -0.016107716 -0.04659769 -0.036067642 0.052882425 0.008404202 9.3255774e-05 -0.17595145 0.02429535 -0.42970335 -0.83167243 0.038736112 0.08287108 0.09991629 0.0004143549 -0.19008034 -2.5821927 0.0747608 -2.063946 -2.3293328 0.34411305 0.06444761 0.0016882288 -0.34031507 -2.5742455 0.002669681 -0.68368906 0.03160056 -0.18690194 -0.17583832 -0.36708853 -0.3521572 -0.26506618 -0.97374797 -0.29921725 -3.092305 0.5670835 -0.032551132 -1.3146857 -0.048924882 0.12884115 0.029020814 -0.11904561 -0.11038159 -0.058895502
0.1259257 -0.03894749 -0.94923365 -0.17865518 0.01099384 0.44224346 -0.08227931 -0.08547575 -0.047672924 0.03541259 0.02241321 0.045699313 -0.044841245 0.024113487 0.0067232386 -0.184529 0.011359247 -0.010338461 0.005895431 0.06263684 -0.06600879 -0.04111223 -0.01503919 0.07836779 0.045837842 -0.01187816 0.103801355 0.045421503 0.002745319 -0.18126217 0.00527362 0.008693079 0.13468193 0.009567988 0.105405636 -0.058910556 -0.04004243 -0.06562795 -0.027600104 -0.29272133 -0.018824846 0.12444017 -0.14107421 0.040646248 0.26411492 -0.6808068 0.2410486 -0.006050457 0.0016141733 -0.60611415 0.078774124 0.018189263 -0.018057797 0.04999622 -0.019523425 -0.027828285 0.029730039 -0.013585855 0.039524585 -0.058323886 0.11724689 -0.008165968 -0.16152552 0.049653497 0.09208535 -0.79171157 -0.038432196 0.22937573 0.044754963 -0.25583604 -0.118164204 -0.096973635 0.13313782 0.12289549 -0.010061542 0.18269263 0.017819723 -0.020157833 0.31974384 0.024498252 0.10986886 0.133475 0.13708177 -0.29190442 -0.013003281 0.013483 0.0014275939 0.041279614 -0.044325095 -0.06816316 -0.0040729316 0.027739475 -0.008455823 -0.09899373 0.02178335 -0.065538496 -0.14889865 0.058860928 -0.008103487 -0.03167138 -0.030325519 0.09109856 -0.060889773 -0.015174607 -0.055890545 0.020030167 -0.016254352 -0.0758451 -0.21171692 -0.3741885 -0.10053286 0.00164039 0.11651464 0.015467046 -0.049113743 -0.46699345 0.05257301 -0.02041163 -0.0058664978 0.05327391 -0.87217164 -0.03761726 -0.028959319 -0.10665335 0.052603196 0.08905233 0.030481875 -0.031147847 0.1406819 0.061325215 0.03328569 0.11058827 -0.01832518 0.11451817 0.04635812 0.051112253 -0.044008646 0.034182172 0.17413571 0.09574719 -0.0328641 -0.17505002 0.01574845 -0.17732546 -0.045660734 -0.07432444 0.47998324 0.02267872 0.09311159 0.031041779 -0.0075930366 -0.25948995 0.04996065 -0.07249083 0.063160665 0.08577659 -0.000111894275 -0.00013011685 -0.04181985 0.111339524 -0.018929163 -0.08417238 0.051233247 -0.03211912 0.09335995 0.072798066 0.11831837 0.10619529 0.11923235 -0.33223468 -0.06263171 0.08479566 -0.06054675 -0.07063979 0.0008663888 -0.030685779 0.028269328 0.0070846193 -0.04296257 -0.1605337 -0.01905838 -0.017967269 0.11051068 0.057551034 0.019348796 -0.026229236 0.020683551 0.028487086 -0.07388098 -0.3004356 -0.11954047 0.04609316 -0.006686237 0.0051664966 0.013249381 -0.04452747 0.024900595 0.15210316 0.018787585 0.10910585 0.046742506 -0.07020154 0.018400311 0.031907298 0.034166563 0.039549567 -0.012046931 -0.47828797 -0.04724966 0.49711937 -0.35002878 -0.14693622 0.034554873 0.080383286 0.064632975 -0.084366605 0.033585258 0.063808866 0.024594927 0.023615096 -0.45938286 -0.019670732 -0.05426261 0.05044149 0.046791513 0.043152675 0.042430975 -0.11448053 -0.08515868 0.052446302 -0.070897795 0.024738569 -0.115511335 -0.00069745234 0.07088318 -0.30054295 -0.0024917086 0.4993581 0.019704096 0.042245418 0.012171977 0.31780902 -0.1879646 0.2992804 -0.005170333 -0.09371734 0.065979324 -0.025641235 -0.123601355 0.01571838 0.0061260303 -0.014010905 -0.0087666195 -0.018724084 0.010365946 0.040577196
-0.008126752 0.1102165 -0.5569366 0.1658693 -0.022921804 0.025587998 -1.0487357 -0.0027747983 -0.25454885 -0.020508347 0.029351857 -0.02610196 0.03999996 0.10809263 0.04256788 -0.03200692 -0.2659602 0.080723755 0.05898456 0.6437421 -0.13537115 -0.02487356 0.06924598 0.20256947 0.1462099 -0.03564809 0.04667443 -0.03954976 -0.017346693 -0.07491423 0.05633536 0.049702875 0.2117284 0.005918602 0.103053555 -0.033260923 -1.3963875 0.08127028 -0.039063655 -0.48379248 0.057124667 0.25663608 0.014838999 -0.0036412752 0.21115589 -0.45025507 0.30100748 -0.023423938 -0.024839485 -0.354239 -0.015202448 -0.023797669 -0.015279707 -0.012902327 0.02063298 0.011610788 0.095190436 0.057985898 0.15940307 -0.1484663 -0.021460604 -0.03835677 -0.122096226 0.12409386 -0.0067158514 -0.7065159 0.15608439 0.24358222 0.101027966 -0.66652566 -0.06424462 0.004311591 -0.02804211 0.25684935 0.042036563 0.034172155 -0.053733964 0.062408432 0.10220633 0.010676033 0.10725546 0.02485105 -0.21616897 0.059835546 0.06335662 -0.13178013 0.051778212 -0.037042163 -0.22288814 0.022211459 0.06435972 0.20927054 0.018136263 -0.23832422 -0.020612197 -0.030035386 -0.08653825 -0.009941198 0.027315456 -0.16248429 0.0057712514 0.057921417 -0.0027705762 0.113600835 0.07537393 0.013847891 -0.21693213 -0.020756766 -0.28276166 -0.5302116 -0.73779905 0.16821624 0.08554794 0.013779357 -0.07212329 -0.4070022 -0.053074464 0.016709091 -0.012508236 0.24361297 -0.45494398 -0.09630827 0.27808884 -0.14085771 0.0261041 0.030269314 0.016351372 0.07165794 -0.0007675401 0.19577529 0.12318448 0.08893633 -0.014178468 0.08557001 -0.072066925 0.107757 0.070661865 -0.09944145 0.027036283 0.05525925 -0.102674045 -0.11258804 0.07123742 0.2393189 -0.11813189 0.14287196 0.21288191 0.016743967 -0.09672874 -0.18660456 0.0049256138 -0.1484248 -0.015475692 -0.39864883 0.011242776 0.09695465 -0.10191452 0.07157773 -0.11304158 0.042915553 -0.0076855524 0.18436773 0.06459272 0.10873794 0.31074828 -0.005283296 0.026451133 0.14358199 0.12205101 0.06719431 0.028039176 0.16515256 -0.09774174 -0.22955228 0.06991186 0.035395656 0.02962813 0.0638165 0.050415967 -0.031160504 0.017298916 -0.060901653 -0.055963352 0.06598642 0.03229256 0.053403646 0.0075747315 0.14127715 -0.090223506 -0.6345009 -0.7601633 0.17141505 0.0049418486 -0.046181172 -0.06545935 0.102525316 0.041882806 -0.031349555 -0.30918455 0.015002713 -0.13289505 -0.088870816 -0.011159129 0.08361714 0.009970146 -0.040659234 0.13607916 -0.17690346 -0.21234296 -0.16335821 -0.35113826 -0.22655055 0.049594108 0.09274253 0.03374603 -0.07083693 0.032620594 -0.23808135 0.057274193 -0.04792516 -0.48003468 0.058128703 0.09000674 -0.103899024 0.124497935 -0.04505149 0.12505083 -0.4247713 0.012492324 -0.24257448 0.09213012 -0.105531506 -0.020482123 -0.012866552 -0.020864656 -0.12268443 0.029302169 0.42681497 0.009542686 0.12811469 -0.017571606 0.09047503 -0.076842904 0.10838303 -0.90851974 0.13857801 -0.326959 -0.047085192 -0.10430955 -0.4322432 0.015086611 -0.07657211 0.083088495 -0.043566357 -0.025168043 0.025578886
0.30574954 -1.1850786 -0.035813488 -0.86936635 -0.97108495 -0.49009037 -0.012520671 0.06595259 -0.2744719 -0.1164406 0.36309022 0.004614714 -0.53499913 -0.00881586 -0.04317625 0.09154079 -0.068087384 -0.61640835 0.11762237 0.68350387 -0.0152208535 -0.39406136 0.05239495 -0.160263 -0.23111063 -0.30718297 0.055148643 -0.5166879 -0.1293223 -0.74805975 -0.2710361 0.011513875 0.1176842 -0.45190832 0.30811977 0.09254894 0.056348972 -1.1521157 -0.029545369 -0.009788761 0.03581547 0.13582556 0.12280706 0.056218028 0.34434333 -0.9222323 0.13156742 -0.5219621 -0.1031019 -0.40627572 0.28318056 -0.20217392 -0.18503188 0.45474476 -0.022950213 -0.017905796 0.9470338 -0.008858051 0.028664546 -0.016101541 -1.3763118 -0.9860123 0.031269237 -0.029695496 0.072346345 -0.47715217 -0.54438645 0.20564428 -0.12707685 0.017037697 0.029829822 0.07782248 0.034448802 0.10767493 0.09657363 -0.036193028 0.0703654 0.10463584 0.17980273 -0.41978958 0.048139073 0.09492536 0.092766464 -0.044403996 -0.06109976 -0.043192036 0.71990114 -0.45388696 0.1623609 0.21198863 0.056115273 0.48118457 0.11811992 0.21002844 -0.4053404 0.0013818424 0.35025978 -0.17895386 -0.21682894 -0.16855662 -0.8211906 0.20705672 -0.3994178 0.17312117 -1.5155572 0.23457795 0.02926165 -0.6611466 -0.13784002 -0.65985954 -0.12334619 -1.0174395 -0.45199648 -0.31433183 -0.057419784 0.29906958 0.5128364 -0.48347196 -0.9820015 0.9667783 -0.61767584 -0.14148371 0.0038550782 0.14154735 -0.49591982 -0.50278395 0.050123867 0.036442995 -0.84262574 -0.07069384 0.09468317 0.06124714 -0.8207492 -0.6186701 0.02708282 -0.0130563425 0.011510489 -0.12500566 -0.058667324 -0.0023745145 0.025547486 -0.36038348 0.26666278 0.42278185 0.008424042 -0.36391538 0.24950133 -0.0026725563 0.08205365 -0.41807896 -1.0078176 -0.08328319 0.06363618 -0.44596556 -0.5209633 -0.4368765 -0.15184753 0.10074009 0.00090131065 -0.3020466 -0.5525416 -0.16971834 0.14077234 -0.009046367 -0.08875902 0.1431856 -0.027183395 -0.3531216 0.22938426 -0.2314172 -1.0048364 0.03847742 0.059355486 -0.08662162 -0.8236246 -0.2689014 -0.22243422 0.057328764 -0.06249908 -0.38038832 -0.077248186 0.09196211 0.83852 0.12471978 -0.041323185 -0.3353515 -0.006101833 0.6555122 0.062679335 -1.1526064 -0.028904876 0.23717205 -0.20378354 -0.21641377 0.20382878 0.23982514 0.06069685 0.014619726 -0.030100577 0.06142128 0.0824431 0.03508309 0.08244498 0.27918598 -0.39599434 -0.25810793 0.0381379 0.10697345 0.06504265 0.27761838 -0.94530535 -0.068119384 0.0754542 0.17082153 -0.57471526 -0.1977045 0.015106184 -0.6827498 -0.03688781 0.25270185 0.07493137 -0.047364417 -0.15766981 -0.51132804 -0.9403794 0.0093572205 -0.6076711 0.04426346 0.010954022 -0.46037006 -0.009586907 -0.13444112 -0.8541407 0.02950112 -0.44810462 0.14973134 -0.24003711 0.11396658 -0.23728785 -0.030428126 0.18855415 0.074393414 0.55335045 -0.30957878 0.043155927 -1.0434703 -0.44561276 -0.098777 -0.077581115 -0.6531919 0.25429937 0.30543333 -0.18914095 -0.217917 -0.5478231 -0.09814178
0.2677596 -0.16522606 0.03708928 -0.19809717 0.7366184 0.10804397 -0.08054935 -0.030956399 -0.044673383 0.08477987 -0.29733223 -0.10484133 -0.07474444 -0.026398478 -0.32012194 -0.07353529 -0.14308822 -0.041645017 -0.18411107 0.25496718 -0.47029886 -0.075477995 -0.07358429 -3.0043397 -2.6606941 -0.117289305 -0.44444564 0.10317401 -1.9114336 -0.16570146 0.020549279 -0.08799385 0.2758302 -0.02749575 0.016009811 -0.63780206 -0.06337233 0.5814705 2.0359511 0.03565901 -0.13369896 0.20841867 -0.12089307 0.019241592 -1.8367811 -0.4908363 0.11892041 -0.49442178 -2.008352 -0.39043048 -0.120097645 -0.066630684 0.06800154 -0.20119639 -0.23110716 -0.061907105 -0.06659104 -0.87946707 -3.5962503 -0.006128938 -0.21241729 -0.03569518 -0.24473071 -0.031821977 -0.071881324 -0.070654556 0.15991776 -0.5696007 -0.06758848 -0.03531512 0.053164434 -0.012893388 -0.66186935 0.15090293 0.031622086 0.016992176 -0.11011498 -0.7559958 -0.7008992 -0.07232581 -0.33332297 0.045959257 -0.97347754 -0.09207515 -0.2267735 -0.0677036 -0.1287105 -0.091039926 -0.21672 -0.66438663 -0.4403668 0.01376941 -0.060431138 0.21640153 0.28400478 -0.18705538 -0.17085458 -0.1496231 -0.39042753 -0.41472894 0.19069202 0.07292938 -0.31482333 0.0060150125 -0.055632286 -0.0030366608 -0.083706915 -0.123018965 -0.26307955 0.047946606 -0.13646388 -0.04326665 -0.027137917 -2.2781203 -0.21814391 -1.5731179 -0.73911524 0.20056349 -0.038938563 0.037561096 -0.65326184 -0.009200565 -0.9656607 -0.40977806 -0.107230015 -0.21455014 0.13464859 0.06607344 0.16693272 0.39735132 -0.42872596 -0.5200137 -0.009300093 -0.047604423 -0.09375466 -0.021421067 0.02622202 -0.32179347 -0.0032232362 -0.29423374 -0.14648007 -0.5941508 0.08313385 -0.13111036 -2.1733675 -0.4317992 -0.011084021 0.0021057774 -0.49055344 -0.5153554 -1.8899767 -0.28160176 0.21386577 -0.1976675 0.12186326 -0.31340396 -0.7463502 -0.2770495 -0.6887699 0.006730054 -0.052264225 -0.7373167 -0.57886297 -0.4962093 0.35798308 -0.04467117 -0.0089428 0.2127664 0.11984088 -0.26303124 -0.054082073 -0.008802513 -0.15431224 0.28528088 -0.15447885 -0.15836279 -0.3670494 -0.35874933 -0.09139283 0.90002364 -0.41151005 -1.6060425 -0.15960303 0.0006123851 -1.3199989 -0.15950479 -0.096006565 -0.0065506096 0.15391223 -0.18136664 0.11717894 -0.05987656 -4.4525523 -1.2231588 0.5196068 -0.01840327 -0.25220433 -0.50338745 0.27295858 -0.24797873 -0.17313983 -0.08123572 0.0023912855 -0.007497129 -0.02647777 -0.0020912392 -0.18516994 -0.4082855 0.80888593 -0.61714894 -1.0491887 0.07688381 -0.10037917 -0.10766701 -0.541289 -0.005340064 -0.1369984 -0.10437658 0.07545009 0.095993124 -0.06704408 -0.03606827 -1.4616808 -0.180268 -0.111035265 -0.040600847 0.019280378 -0.1568384 0.018173728 -0.04282643 -0.31890428 -0.25139016 -1.7194822 -0.5372611 0.20553543 -0.25331673 -0.06342647 0.38277444 -0.12952256 0.005278474 -0.9932797 0.15392365 -0.4260414 0.035342366 -0.01613655 -1.0058894 -0.26605222 0.13295962 0.052959036 -0.01710385 -1.4349874 -0.25057596 -0.15755653 0.17738761 0.014424406 -1.6877004
0.05756907 0.043616865 -1.1607898 -0.026718456 0.028612603 0.2833077 -0.143596 0.11226603 -0.0017233406 -0.018286115 -0.04453234 -0.0029784797 0.021638287 -0.026567236 -0.04062566 -0.017166117 0.024605958 0.017292712 0.01177485 0.0479794 -0.32356542 -0.009425427 -0.038959783 -0.06159026 -0.0035677997 -0.018418524 -0.06658682 0.034440063 -0.0029195952 -0.1907191 0.031876933 -0.022814477 0.17154606 -0.03549132 0.14572233 0.015271428 -0.010087015 -0.07818461 -0.044294525 -0.4345955 0.006274719 0.04289341 -0.15600124 0.08904436 0.49911726 -0.5164287 0.18524021 -0.0017548967 -0.004079174 -0.705744 0.12986806 0.096447326 0.0027778018 -0.047575608 -0.051591814 -0.013798256 0.03508834 0.04238548 0.111910544 -0.07528796 0.14571266 0.073166534 -0.19605315 0.17319949 -0.013602683 -0.59942394 -0.033510055 0.31756902 -0.0026515303 -0.2868801 -0.11075697 -0.072575755 0.044928942 0.05571642 0.036307335 0.20270868 0.07638275 -0.014778774 0.39562535 -0.010541848 -0.17560798 0.18363547 -0.055050157 -0.08454517 0.0010493369 -0.0011923541 0.039124385 0.066600785 -0.0079984795 0.112927064 0.056415975 0.09377959 0.023709156 -0.026816577 -0.020072747 0.0059922687 0.06271968 -0.011634514 0.027268147 -0.09837192 0.027823089 -0.05920606 0.12374201 0.017239207 0.09448721 0.11864487 -0.17428276 -0.024297835 -0.111685544 -0.2036385 -0.18531777 0.058316402 0.05228253 0.067876324 -0.022941345 -0.39801595 0.001661078 -0.004595085 0.017589992 0.13477133 -0.6134681 0.012357218 0.070679545 -0.07346522 -0.05780445 0.058120508 -0.12920333 -0.048104256 0.017621085 0.05996832 0.02518029 0.002957524 0.020854237 0.11448838 -0.006265567 0.013696769 0.02114692 0.022989646 0.071582615 -0.15454684 -0.17723629 0.0075576426 -0.035527665 0.003051501 -0.039427336 0.13098426 0.49221116 0.0056961393 0.018335717 -0.05922377 -0.032596834 -0.15492888 -0.01348543 -0.116367124 0.09794719 0.12083221 -0.0376204 0.077810615 -0.044377964 0.12017572 0.0050069764 0.16615069 0.08977441 0.044978403 0.006014408 0.08189135 0.07980942 0.017893441 -0.008571209 0.11721599 -0.004362978 0.069360405 -0.011396724 0.036927234 0.07152469 -0.0406819 0.020363994 0.027389668 0.15332015 -0.03515396 -0.028668018 -0.032983348 -0.008612578 0.07003325 0.04106402 -0.022520464 -0.03565798 0.056130037 -0.03919344 -0.09407145 -0.19340403 0.058176614 -0.007637281 0.045696225 -0.12011034 0.12494928 0.005418387 0.083923094 -0.07901466 0.01484958 -0.0789171 -0.14933637 -0.0008530567 0.0019980543 0.0635414 0.07713392 0.07177186 -0.33081517 0.03341802 -0.2697914 0.00716525 -0.15159902 0.026560161 0.09386638 0.18027027 -0.043969832 0.047479574 -0.06883603 0.069952935 0.06282785 -0.55807245 0.042599916 0.0074853715 -0.06544259 -0.0004883785 -0.04787975 0.09812318 -0.10707957 -0.057311974 0.029179722 -0.07047197 -0.11976789 -0.02195689 0.15169896 -0.098737754 -0.13408889 0.015114934 0.35768443 -0.027838977 0.054688435 0.116428606 0.10982475 -0.1358386 0.1885543 -0.01694221 0.22453901 -0.1283898 -0.01422071 0.08795191 -6.5884386e-05 0.1184199 0.068996675 -0.015323863 -0.026268007 0.045817856 -0.05758954
-0.04172521 -0.068743974 0.001187324 0.050908335 -0.016103052 0.054023225 0.013190105 0.019519841 -0.05082156 -0.08581886 -0.04796264 -0.05423417 -0.029823838 -0.109175675 -0.037336275 -0.07097722 0.0716431 0.02005834 0.019082857 0.06303418 0.0050573694 -0.041887898 0.047944758 0.064227544 -0.051429156 -0.06449134 -0.12437718 0.107778035 -0.01965062 0.024743149 0.013119334 -0.010705056 -0.0028834827 0.025701135 0.03469988 -0.044308152 -0.0308414 -0.03164335 0.002382165 0.06252734 -0.04915079 -0.059164472 -0.08401653 -0.086552605 0.0022963912 0.023423616 -0.06493491 -0.10848329 0.0059306775 -0.05537005 -0.04533942 -0.08649147 -0.13176405 0.021369264 -0.08469671 0.030595792 -0.025316847 -0.060988072 0.12130199 -0.0703887 -0.069590405 0.13624856 -0.03952777 -0.06694656 -0.13629168 -0.04469118 -0.036226172 -0.020202337 0.020968124 0.042161852 0.008952976 -0.025432799 -0.032418974 -0.09568523 0.013859883 0.0070312633 -0.09058766 0.047978807 0.04986057 -0.07600265 0.04586616 -0.15668157 0.008227364 -0.01802406 -0.03387732 -0.12329036 0.039703123 -0.035232563 -0.015875136 0.06877033 -0.07318488 -0.023979828 -0.026054105 -0.050027747 -0.07471285 0.031298485 -0.053896867 -0.07667435 -0.11868733 0.0641584 -0.1021757 0.06695541 -0.26343283 -0.06717324 -0.02065458 0.095774576 0.002858495 0.12154008 -0.004254323 -0.16422078 -0.0047933217 -0.08605133 0.071018204 -0.03742413 -0.007862197 -0.003634765 -0.079856016 -0.06973429 0.025071042 -0.11687307 0.029282179 -0.009142057 -0.0192583 -0.049709905 0.082884915 0.10951581 -0.008710139 -0.0017244491 0.043698918 0.0047925916 -0.06830973 -0.018469099 -0.0798859 -0.13630454 0.023599302 -0.036308467 -0.005905741 0.023460656 0.018711958 -0.0009457839 -0.07341712 -0.0010057784 -0.015575391 -0.034382924 -0.040137585 -0.06670063 -0.075503744 -0.052173723 -0.045183532 -0.013977667 0.15024939 0.014772851 0.008212381 0.023483565 0.004149905 -0.07896316 -0.031467907 0.07011115 -0.031769916 -0.10133576 -0.06656034 -0.12558042 0.015912022 -0.060094133 0.012128301 0.027483374 -0.03157543 -0.011524772 -0.014132853 0.050089285 -0.06541206 0.070072174 0.022575378 0.032082807 -0.04142559 0.042519372 -0.032182418 -0.0439391 -0.15080671 -0.05218797 0.017354982 -0.034360215 -0.12886585 0.014752832 0.009917837 -0.096414834 0.10118722 -0.14444995 0.0034665626 0.04463131 -0.033247594 0.042890877 -0.046007864 -0.10763271 -0.085239895 -0.08530049 -0.06642167 0.079034574 -0.02736362 -0.031377822 0.0127964495 -0.009925795 -0.14511718 0.0115411775 -0.0091701485 -0.10853301 0.018871522 -0.01376877 0.053270772 -0.07670795 -0.08881673 -0.0029143123 0.11074494 -0.010771378 -0.0010667316 -0.09518508 0.035284203 -0.03293175 0.0005879062 0.13901633 0.010907674 -0.018821051 0.047560837 0.024582058 -0.14033984 0.1357911 -0.0020069783 -0.0065453057 -0.042697236 -0.023454625 0.0025443328 0.10928332 -0.049786866 -0.041428868 -0.05691784 0.049930826 -0.030163923 -0.00086764526 0.13334015 0.02122502 -0.13241808 0.011640099 -0.100569434 0.0478567 -0.01375429 0.0051027467 0.069773704 -0.076060675 -0.11139908 -0.032144077 0.031500883 -0.0021964575 -0.0338863 -0.05561176 -0.03995425 0.047186382
-0.10902979 -0.43868634 0.1907204 -0.14889857 -1.0840322 0.33260763 -0.16073193 0.07278201 0.20323455 0.33202875 0.34962296 0.132802 -0.55355334 -0.60604894 0.0725567 0.19027713 0.10229389 -0.26496196 -0.03810725 -0.19015352 -0.09647574 -0.43295 0.1504114 -0.45468515 0.051375326 0.2849395 -0.11861506 -0.11380646 -0.15216835 0.6668049 -0.31412128 -0.023845231 -1.2112219 0.08978928 -0.04945846 0.02005148 -0.006600737 -0.010371553 0.35571042 0.031104907 -0.084000915 -0.016376972 0.09498672 -0.6087814 0.25906673 0.5069531 -0.35509327 -0.28892916 0.011269219 0.37980774 -0.41264674 -0.6651885 0.11064746 -0.10282493 -0.1731649 -0.46940637 -0.5587744 0.01826889 0.28481948 0.115402475 -1.3664942 0.1750162 0.1960146 0.42070162 0.14765677 1.1897128 0.11162427 1.2734314 -0.07334165 -0.35629103 0.15243845 0.010005529 -0.30298504 -0.36042577 -0.24207619 -0.24104343 0.022106223 -0.2184461 -0.23293656 -0.08483425 0.06468145 -0.68448687 0.018831829 0.40215698 -0.4102487 0.1841679 0.25140402 0.00044359363 -0.11814005 -0.03710725 -0.34450093 0.6259732 -0.112302445 0.28438905 -0.9167133 -0.2232053 2.260791 -0.3288035 0.21721679 0.2709147 -0.32080108 0.096199006 0.009005624 0.11692192 -0.15304998 -0.36700308 0.049318943 -0.31764522 -0.15399472 0.30227584 0.028048968 0.12986733 -0.16540733 -0.01811415 0.061470866 0.25273156 0.24056408 -0.3030998 -0.032040685 0.20939177 0.14931932 -0.40936726 -0.04689244 0.23556028 -0.08717565 -0.21848796 0.006693502 -0.14788659 -0.0186679 -0.082295194 -0.2691304 0.009841753 -0.15482774 -0.14227866 -0.17578502 0.027280735 -0.68809706 0.47773424 -0.053461667 0.34298515 0.08142294 -0.6745634 -0.040781703 0.2714384 -0.7294789 0.07130611 -1.3961804 0.6164729 0.11389062 -0.08896936 0.031203218 -0.56665444 -0.12049663 0.0071241963 -0.18779646 0.19212027 -0.41215578 -0.14270851 0.03483556 -0.17842102 -0.5540439 -0.44697374 0.056297187 -0.20445961 -0.013788788 -0.85475296 0.19696915 -0.088877685 -0.5522501 0.26061207 0.26654318 0.054389022 0.10211974 -0.04554922 0.05237208 -0.27787372 -0.24458967 -0.105339065 -0.059690457 0.47831336 -0.1838801 -0.11265271 -0.08024994 -0.020123864 0.058663372 -0.7339745 0.06047553 -0.003059042 0.03360843 -1.7607539 -0.05310598 0.18413803 -0.10487934 -0.40948448 0.06672631 0.3038322 0.10995899 0.33079627 -0.15295437 -0.024777517 0.013470656 0.058643866 -0.11368088 0.18788657 -0.07500297 -0.46530247 -0.1632486 0.15973566 0.25476724 0.33548746 0.48183033 0.11626358 -0.1293751 -0.5873949 -0.04942337 0.35559464 -0.13367884 0.07566662 0.061569273 0.41499427 -0.31774 -0.06614733 -0.057446405 0.33243042 0.1047383 0.005801036 -0.16801682 0.0070297588 -0.08282351 0.06269155 0.06902528 -0.2168207 -0.28495285 -0.14864072 -0.046159618 0.3488117 0.30154908 -1.4091798 0.3049395 -0.26209643 0.0069721495 -0.1549136 0.80121756 0.15636614 0.10932229 -0.62029254 0.22145939 0.31307313 -0.12228109 0.05000465 0.08935769 -0.16626994 -0.06246953 -0.32779408 0.050917435 -0.00756937
-0.48999265 0.06964204 0.045609895 -0.12882681 -1.7263293 -0.2051797 0.06529331 0.18355483 0.5371678 -1.7138215 -1.7283971 -0.09430358 -0.7863429 0.39308277 -0.5968214 0.14917423 0.19297756 -0.11863556 -0.22579853 -0.996535 0.035204925 0.19159158 0.3010309 -0.012674148 -0.98601764 -1.8693606 -1.518695 -2.478472 -0.4800486 -1.7701731 -2.5084965 -1.3679056 0.16264856 -2.5661788 -0.82983667 -0.7217334 0.12750061 -0.63585263 0.6625238 -0.04350106 -1.8101679 1.8270137 -0.98413193 -0.5952473 -1.7824622 0.42360017 -0.065969534 -1.3734231 -1.4234043 0.50997216 0.21266498 -1.1568255 -0.5654043 -0.16236556 -1.3584296 -3.7111983 -0.6355184 -1.4734776 -0.6180133 0.48022684 -2.4320035 0.13829912 0.2274885 -1.3310881 -1.3921139 0.14518206 -0.115805715 -0.45563573 0.3815758 0.26761216 0.3717798 0.0129621895 -1.4288553 -0.07826693 -0.15456511 -0.012252439 -0.4509386 -1.2451934 -1.0656734 1.6601124 -0.010983282 -0.3789653 0.49449646 -0.43616116 -1.1324025 0.26480335 -0.050219133 0.48078015 -0.0039782166 -0.5752264 -0.6086275 0.1501566 -0.23100582 -0.51107603 -3.3892076 -0.076077715 -0.010672091 -1.8787875 -0.039377924 -1.1155903 -1.6743952 -0.07007054 -0.26688495 -1.520488 0.29456934 -0.28517637 0.04370729 -1.1722621 0.026407268 0.697256 -0.052567743 0.3124951 0.044467464 -0.686526 0.29073086 -0.40162382 -0.24595368 -2.0726624 0.17927685 0.30451316 0.43196893 -0.014979631 -0.9628783 -1.3175107 -0.16669078 -2.565722 0.48787364 -1.5536302 -0.44151738 -2.1863146 -1.1864909 -0.60150933 -0.13754141 -0.18329145 -0.3105448 -1.6634734 -1.1742747 -1.74253 0.19123109 0.37098685 -0.26477587 0.839477 -2.9741669 0.14859086 -0.7239713 -2.6932285 0.3403995 -0.12085988 -1.0046719 -0.9942935 0.16778609 -0.2278347 -0.032592747 -0.082761 0.08583356 -0.11543078 -0.7990353 -0.7462393 -0.95352346 0.22866248 -1.9623352 -1.1907791 -0.19910738 -1.8073982 -0.027305145 0.031314317 0.09686408 -0.2984585 -2.5117607 -0.29768583 -1.7189182 -0.48288935 -0.47525814 -0.40137008 -1.7982042 -1.902759 -0.46547878 -1.2956681 -0.086355 -0.57135856 -1.21066 -1.020236 1.2156876 -1.8420337 -0.0363966 -1.2810422 -1.3894862 0.29172853 -0.41962376 0.009846695 -0.013235289 0.32989967 0.056601405 -1.2171257 0.649206 -0.4110568 -2.2660015 -1.1480621 -0.1666041 -1.3988631 -0.29380915 -0.19078742 0.014686579 0.1656349 -2.207196 -0.009774777 0.8868848 0.16325916 0.1079008 -0.82313454 0.019761076 0.14821139 0.103979975 -1.4525151 -0.61270607 -0.26991802 -0.7167539 0.22602393 0.036770415 -1.5650736 0.108742334 -0.12083022 -0.93266994 -2.8481572 -0.06633845 0.4278005 0.35365307 0.11448503 0.438949 0.13583374 -0.7638269 1.1495568 0.08232589 -0.913493 -0.11967714 -0.033319157 -2.5957139 -0.2756457 -0.16922744 0.34921584 -2.0652409 -0.18321957 -0.09840413 -0.3876675 0.106726475 -1.2955282 0.12765495 0.15905835 -1.2510382 0.10443997 -0.12139885 -0.23614629 0.20230566 -1.6130435 -1.7285494 -0.012684768
-0.066063374 -0.105214864 -0.23530807 -0.1662814 0.032401316 -0.2520716 -0.42684063 -0.026975568 0.010986272 -0.01683747 0.0021899072 0.03197405 0.107622586 -0.049847946 -0.010610725 -0.57136154 -0.1376044 -0.4314622 0.0855896 -0.22716855 -1.0175533 0.033338495 -0.23952165 0.38058528 0.13034454 -0.007313025 -0.064156786 -0.048463453 -0.01742027 -0.042590328 0.014975616 -0.012397601 0.04415024 0.0021287065 -0.055198893 0.23798461 -0.43730804 -0.37116128 -0.35556298 -0.15413056 -0.008057395 0.09940826 -0.3463845 -0.099952005 0.5470489 -1.2446873 0.019306697 -0.038358953 0.06902968 -0.857382 -0.1938158 0.04199055 0.12353029 -0.56649804 0.055545185 0.030435756 0.36251357 0.032927755 0.33812463 -0.21265094 -0.10448906 -0.039129443 -0.28482565 0.04100023 0.04412937 -0.08443619 0.040761456 -0.014751112 0.084612034 -0.28322288 0.090670384 -0.28306067 -0.035382543 -0.15717612 0.047736593 -0.020112474 0.04789897 -0.10008359 0.13504143 -0.000139059 -0.05891799 -0.09071067 0.09391474 -0.20221432 -0.046769857 -0.32291204 0.042447757 0.01249127 -0.32536456 -0.223493 0.15854624 -0.013152626 0.030918991 -0.17430988 -0.060871966 0.038555626 0.26563248 -0.06331533 0.045842804 0.050076228 0.011263777 0.048989993 -0.049341306 -0.00086051435 -0.14138132 -0.055569436 -0.94917244 0.08401043 -0.5309969 -0.0632506 -0.047734603 0.1354779 -0.031120436 -0.01469523 -0.21955435 -0.2790534 -0.04313775 -0.015551077 -0.04902322 0.03524605 -0.24967991 0.0314268 0.11010189 -1.1433171 0.0017667094 -0.08168439 0.1508854 -0.011801248 -0.13209778 -0.05347293 -0.12805428 0.14650092 0.043899342 -0.042967267 0.005595022 0.23780017 -0.10527814 0.27439252 -0.049527317 0.8681662 -0.77758306 0.5964412 0.0253683 -0.890356 0.016396767 0.49582887 -0.16303185 0.13831228 -0.21835521 -0.02319639 -0.008014699 0.21111579 -0.17543767 -0.6784352 0.06556983 -0.14915198 0.0110921655 -0.030688696 -0.19045857 -0.050941393 -0.030976305 0.075985074 0.03166258 -0.032752834 0.2956999 -0.108882494 0.044443637 0.40898368 -0.012068741 0.30334148 0.030217519 0.31891254 -0.796895 -0.23506272 -0.01797418 -0.034528513 -0.03349015 -0.055576347 0.11903431 -0.1744313 0.008447086 0.011067272 0.10872738 -0.078910954 0.0390272 0.020817498 -0.06650136 -0.10958267 -0.047383342 0.049074654 -0.25846988 -0.054698806 -0.009739064 0.023082055 -0.9645118 -0.0041107303 0.00274726 0.5361524 0.4494336 -0.048590586 0.009264334 -1.2568026 -0.04945013 -0.013005 0.0012902233 -0.0088380845 -0.1696797 -0.6269053 0.099857874 -0.023794053 -0.44660708 -0.5392529 -0.0385542 0.04830094 -0.15792654 -0.00784449 -0.019037616 0.10143098 5.7998768e-05 -0.059304457 -0.2970192 -0.23236977 -0.16559917 -0.044296995 -0.17163697 0.026265036 0.036253314 -0.20880207 -0.011282002 -0.86058825 -2.0411892 -0.050147835 0.05660432 0.102111086 0.16553332 -1.2966304 -0.010774336 0.062649265 -0.056995787 -4.8386206e-05 0.20316549 -0.019430298 -0.3680899 -0.286786 -0.59482473 -0.20064908 -0.77831477 -0.0290323 -0.08544311 -0.69366443 0.034454085 0.044378586 -0.034865487 0.18140909 0.04965434 0.038557626
0.102786 0.03934497 -0.02182485 0.5855743 -0.313886 0.31665188 -0.002442147 -0.078168415 0.030419873 -0.38949165 -0.12119534 -0.009327571 0.09989012 0.03515725 -0.19094624 -0.11086844 -0.0049162493 0.2263332 0.013980302 0.23480599 0.15365298 0.020120326 -0.054245383 0.29288962 -2.1851592 -0.112727754 -0.53026605 -0.054776005 -1.7340771 0.5986169 0.024132332 -0.027144207 -0.46152985 0.01341581 -0.17626993 -0.89517987 0.13166577 -0.09322401 0.2677407 -0.08610654 -0.13104056 0.049035117 -0.1432177 -0.14578767 -0.8771778 -0.30437693 0.097167656 -0.2593021 -1.4662559 -1.2758579 0.38046995 -0.50237215 -0.052326087 0.10064768 -0.30555907 -0.088074334 -0.96403235 -0.40108585 -1.0544695 -0.0562023 -0.55055445 0.047877472 -0.27547932 0.2178171 -0.18030186 -1.0141313 0.10125829 -0.88387775 0.011066426 0.14317793 0.082016885 -0.04420605 -0.90929395 0.21373853 0.025612209 0.060652293 -0.028456813 -0.8282805 -1.1806879 0.07418826 0.01974746 0.06200262 0.14759071 -0.09090497 -1.2041229 -0.089806736 0.02694775 -0.07909298 -0.23036055 -0.6219709 -0.6493814 0.27810732 -0.34547338 0.3050197 -0.26335406 0.13997477 -0.06022709 -0.0058133197 -0.30801898 -0.38239202 -0.029484369 -0.19338262 -0.09447245 -0.14486912 0.06027084 0.04325622 -0.039014418 -0.40525734 -0.05488496 -0.18430942 0.07370332 -0.42031327 0.08992904 0.009146333 0.0512926 -1.2931736 -0.10648087 -0.32208833 -0.019786702 0.19843745 -0.7177552 -0.009781723 -0.7254283 0.2911881 -0.26325938 -0.22697042 -0.30605158 -0.19376661 -0.36013275 -0.21268132 -0.49401823 0.08967391 0.025734825 0.04107764 0.052517068 -0.18966031 -0.16606241 -0.57018197 0.07154647 -0.08914595 -0.019872019 0.40197203 0.13601546 0.6007488 -1.9394202 -0.5488686 0.42617688 0.036012966 -0.027723456 -0.9518346 0.091952756 -0.06280278 0.19444315 0.072324425 0.05642566 0.43845338 -0.89262587 -0.060664963 -0.8387906 0.044783823 -0.021992194 -0.7570127 -0.15522091 -0.26596949 -0.26459607 0.048822116 -0.00059994374 0.07837136 0.040683325 -0.2479264 0.013345152 -0.45956352 0.004382352 -0.2372074 -0.117768824 -0.020176165 -0.34312177 -0.06880034 -0.09582482 0.6477675 -0.53760576 -1.1348544 0.17167683 -0.04310376 -0.055321995 -1.7176951 -0.12947376 0.1425887 0.039247252 0.37643912 -0.10566974 0.13190371 -0.18157394 -1.6358178 0.31982487 -0.25880823 -0.31434682 -0.4816743 -0.0133518325 -0.16557297 0.31332248 0.019058041 0.082722664 -0.016094819 -0.022796975 0.04458148 0.6410955 -0.5375538 0.4216386 -0.54467046 -1.0501552 -0.21900228 0.09303151 0.23604587 -0.39903462 0.009264435 -0.11426511 0.014205415 -0.13845152 -0.27911156 -0.00021844411 0.14667077 -1.8942126 -0.14834593 0.114395715 0.008376576 0.1039228 -0.27560604 -0.23060773 -0.17354612 -0.07947167 0.16224682 0.113806054 -0.032084968 0.14478454 -0.24338713 -0.0013929365 0.4828958 -0.15657552 0.070368335 -0.25226337 0.10886718 0.02715155 0.40100366 0.041679863 -0.4746231 0.00794416 0.5035706 -0.10359191 -0.10043588 -0.039166562 0.08576872 0.02182024 -0.51311094 -0.05834063 -0.027541723
-0.062243022 0.31607792 -0.32896814 0.3107752 0.11247724 -0.15076682 -0.5882233 0.086313434 -0.31875795 -0.04798857 0.15912533 -0.009437075 -0.06826751 0.10432169 -0.053828314 -0.057178114 -0.12619877 0.016906487 -0.10671455 0.42693624 0.3116909 -0.46345633 -0.036999933 -0.35436925 -0.21673776 0.011518511 -0.0471845 0.09147393 0.091278955 -0.11174489 0.030847779 -0.046023797 -0.13677883 -0.018549142 -0.07666443 -0.13137493 -0.63181335 0.12532163 0.1164994 -0.32488823 0.0213496 -0.20892334 0.05263073 0.028027998 -0.03410956 -0.2027842 -0.03770021 0.08711388 -0.21483523 -0.27807927 -0.22332306 0.044917423 -0.07976069 0.0948015 0.0107967155 -0.15540147 -0.19507436 -0.049434528 -0.06691211 0.053629264 -0.20739065 -0.097291164 -0.033411216 -0.16005175 -0.11861647 -0.32013196 -0.12017379 0.0770563 -0.006018084 -0.38346297 -0.41672602 0.13150425 0.03790705 -0.014685348 -0.0237107 0.049136493 -0.07276286 -0.025288306 -0.24279553 -0.08127521 0.07051639 -0.10472701 0.08960938 -0.06723394 0.10211466 -0.17460068 -0.18491599 -0.1651772 -0.5189252 0.017892642 -0.04881251 0.11852245 -0.04663153 -0.024472984 0.1932205 -0.19774748 -0.46410117 0.05530225 0.05923771 0.0646055 -0.07027823 0.06754493 0.06963415 0.036872484 0.15379624 -0.002359409 -0.06274922 -0.22678873 -0.2222504 -0.61065006 -0.2233189 -0.0058716196 0.07617381 -0.14247863 0.024828054 -0.56152946 -0.034158975 0.0823825 0.035644364 0.15969257 -0.22672619 -0.25106826 0.079952955 -0.14265984 -0.012734184 0.10680876 0.116362385 0.059460536 0.13068105 0.07147433 0.09815688 -0.101838775 0.0052061384 0.06482801 -0.009020423 -0.30796465 0.13445598 -0.3503983 -0.0069751395 -0.8521209 0.0031019268 -0.3193352 -0.14553614 -0.16811499 0.14143343 0.18115146 0.21975334 -0.4228673 -0.14367713 -0.008950378 -0.16519746 -0.5414231 -0.08313771 -0.056156766 0.048870273 0.007384279 0.09625519 -0.06777199 -0.19246514 0.024386397 0.03317168 -0.32264912 0.1266205 0.08915088 -0.36183962 0.0066725914 -0.041461535 -0.26332322 -0.11414763 -0.12302925 -0.08923241 -0.16014685 -0.12757461 -0.20836382 0.0313755 0.02955749 -0.11975308 -0.008344617 -0.014060233 -0.078234054 -0.017688958 0.10495248 -0.13365257 0.085778676 0.0035395941 -0.0968015 0.00514745 -0.07629331 0.22491753 0.25078064 -0.5091144 0.03485205 0.00039819503 -0.11742921 0.23350838 0.08333035 0.041293103 -0.15720901 -0.96370614 -0.07390216 0.033718534 -0.052859135 0.0711245 -0.09075332 -0.004089425 -0.0370074 -0.16670491 -0.07248843 -0.32506436 0.07972386 -0.7388365 -0.15375659 0.0077315876 -0.03547572 0.085277915 -0.043672666 0.2565602 -0.0765605 0.010195615 0.03528187 -0.29961166 0.036452267 0.13043012 0.039299928 0.071227565 -0.00269975 0.029765932 -0.43686333 0.07329534 -0.5905724 0.11662438 -0.25682244 -0.16145676 -0.17216416 0.14218399 -0.08601508 0.0153796915 0.04995823 0.20545672 0.07750966 -0.008950764 0.16206898 -0.1545581 -0.097501524 -0.6351347 -0.16417634 -0.20143092 0.04868079 0.048609395 -0.69814163 0.016853487 -0.14642549 -0.008111525 0.07045895 -0.017389696 0.037786994
0.21647355 -0.08175824 0.30317563 -0.42568243 -0.14092268 0.06771523 0.48827222 -0.1712419 -0.24470963 0.030799592 -0.11121785 -0.0236087 0.058504976 -0.11008268 -0.09100749 -0.27986097 -0.17152558 0.17847697 -0.10540094 -0.4520884 0.20083101 -0.07044325 -0.08635374 -0.32605186 -0.063745804 -0.013122283 -0.05421996 -0.047078643 0.0059736045 -0.09504989 0.26148465 -0.2528898 0.014023147 -0.14079545 -0.079080395 -0.10935896 -0.09794688 -0.23574252 -0.22320114 0.19717689 0.042888384 -0.0003489577 -0.13326938 0.12365651 0.06989544 0.051045932 -0.07927556 -0.008243756 -0.01993005 -0.32874185 0.014502716 -0.17811869 -0.012618363 -0.065281145 0.03372186 0.06479881 0.07813711 0.063983895 0.16077851 0.023878884 0.0010612279 0.0015349819 -0.23707119 -0.09362893 -0.1609741 0.009640841 0.06532688 0.9856391 0.14039466 -0.2595917 0.005090968 -0.033030573 0.06286753 -0.07719578 -0.12772545 -0.29612136 -0.28766766 -0.0007108371 -0.17805327 0.043595165 -0.0793694 -0.31720576 0.03684468 -0.20600471 0.05178337 -0.28031778 -0.07036232 -0.0631386 0.08215892 -0.07982474 -0.070074536 -0.03810892 -0.06559363 -0.018706938 -0.0026198034 0.052981045 -0.44898534 0.04980044 -0.037413146 0.20253317 -0.019664342 -0.075077325 -0.2831122 -0.02728448 0.043579776 -0.044269234 -0.099230565 -0.049130455 0.057511114 -0.1167919 1.0234782 -0.6038791 -0.09045673 0.010400299 -0.2029495 -0.7023752 0.0016508676 -0.11448318 0.11285515 -0.06762342 -0.058158215 -0.13747744 -0.020065695 1.2628856e-05 -0.16050479 0.06821571 -0.1354846 -0.10450841 -1.3543372 -0.02533301 -0.11406647 -0.09991353 -0.07192417 -0.041724406 0.0009161301 -0.17311394 -0.03078486 -0.14191045 -0.004723863 -0.07421147 -0.30779195 0.512899 0.042397387 -0.16284078 -0.028864218 -0.018437093 -1.8736475 -0.047714002 -0.019990396 -0.63860106 -0.021704374 0.036688227 0.058296964 0.08320941 -0.13561253 -0.47503367 -0.38311344 -0.040352397 -0.18285939 -0.07775176 -0.10765441 0.043301303 -0.41015023 -0.023663351 -0.039112452 -0.074549064 0.065023966 -0.1320592 0.041326214 -0.07960858 -0.09836322 -0.11526675 -0.056391925 -0.48381206 -0.013178395 -0.012653073 0.15518297 0.018007927 -0.08173717 0.047388848 -0.08759171 0.0078863 -0.11017617 0.025088986 -0.18717985 0.01798802 -0.13619202 0.08365847 0.028187683 -0.07279958 0.25778723 -0.039444663 -0.057637285 -0.018117517 0.15713404 -0.70313656 0.04452495 -0.027615428 -0.05316944 -0.54351366 -0.019184552 -0.43874273 -0.1126302 0.02941072 -0.13616349 -0.12553057 0.019432873 -0.07908068 -0.117054395 -0.4598326 0.028872425 0.025668783 -0.21029176 0.097848386 -0.050267763 -0.19339976 -0.22298414 0.21226276 -0.24101731 -0.12012274 -0.36615947 0.019508645 -0.22772285 -0.08213024 0.082986124 0.12761709 -0.09571387 -0.025817158 0.00480807 -0.36563113 2.9427054 -0.07026866 0.2772269 -0.05425327 -0.08636389 -0.35941437 0.20727278 0.024296036 -0.16393575 0.03467796 -0.05624858 -0.015074509 -0.70698315 -0.016864514 0.17741348 -0.02354777 -0.33534634 0.027502345 -0.050738443 -0.5768444 -0.0072178845 -0.09387393 -0.33428928 -0.028122824 0.031069914 -0.042977955
