0.023541935
-0.04894011
-0.054542482
0.007407094
-0.23755777
0.10280176
-0.19410025
-0.32997268
-0.048087984
0.13358812
0.15175502
-0.06318282
0.2060286
-0.25942022
-0.21982521
0.0490854
0.19015248
-0.026903005
-0.14982867
0.04346086
0.2635865
-0.18606623
-0.100907356
-0.08612462
0.09366211
-0.07903298
-0.15633169
-0.037824817
0.02329261
-0.043190174
-0.09170373
0.21781889
-0.0756757
-0.037031014
0.13589089
0.073688895
-0.07899561
0.22754335
0.2011985
0.1419369
0.033436205
-0.09595281
0.19177026
-0.040963303
-0.043465722
-0.0727833
0.084820285
0.04393412
-0.105880484
0.08753891
-0.061320737
0.22833338
-0.09383178
0.256035
-0.038760547
0.063966215
0.046097614
-0.19738653
-0.16268978
-0.14257085
0.052766237
0.16685644
0.020636505
0.12973614
-0.08152214
0.13398902
0.0527019
0.078897566
-0.037655488
0.017420482
0.08414739
-0.014662559
-0.22099951
0.12073477
-0.22489591
0.10683406
-0.16132411
-0.23478933
0.17039104
-0.02609303
-0.12160039
0.3264139
0.21999252
0.08029533
0.0047576474
0.13181618
0.062368333
0.14313817
0.2981805
-0.041380785
0.23353676
-0.10024018
-0.02160222
-0.13964885
-0.02003667
0.014026454
-0.20813905
0.011727094
0.036361534
0.10208691
-0.0713863
0.067710705
0.03522487
0.19690543
0.23054904
0.15865842
0.02945215
-0.10928908
-0.2441943
0.009426378
-0.06912189
0.20648612
0.17358956
0.19717495
0.026809268
0.06416082
-0.3888567
-0.21121189
0.12783955
0.006240142
0.0991701
-0.18360934
0.030968694
-0.2941693
0.10581537
-0.1539481
-0.053312358
-0.22710915
