-0.15911835 -0.05822398 0.016187351 -0.012235163 0.054414358 0.26118118 -0.101314425 0.16794461 0.007555133 -0.012187741 -0.036852475 -0.004312142 0.25806817 0.10623792 -0.067477815 -0.022288619 -0.07767505 0.09384491 -0.13028014 0.23447739 -0.0867934
0.009084342 0.096181296 0.22084318 -0.15280701 0.11852781 0.16587149 -0.008970216 0.0062845233 -0.17077324 -0.2848274 0.117599875 -0.23865305 0.44846976 0.024066133 -0.026620062 -0.16601753 -0.17879635 0.09102968 0.43182808 0.37802193 0.0058404077
-0.064897574 -0.11342345 -0.21372567 0.060144857 0.33969256 0.12549041 0.013105614 0.28098723 -0.30802494 -0.23621404 0.15835117 -0.03766098 -0.39661065 -0.02311842 0.13367969 0.0903862 0.2316526 0.05474224 -0.32422248 -0.2670762 -0.0029228146
-0.02256084 -0.1475827 0.34321806 0.39340618 -0.036526978 0.09575663 0.0024481385 0.07692426 -0.12372474 -0.19947119 -0.4360944 0.06502722 0.04411057 -0.007974011 -0.13733795 -0.31329566 -0.33283615 0.32624614 -0.08469891 0.041129958 -0.0050358376
-0.02261742 -0.07690756 -0.0731471 -0.13031207 0.009721176 0.011329235 -0.00520967 0.090686314 -0.046991304 0.287574 -0.434057 -0.15921925 0.044369355 -0.00020615757 -0.030485986 -0.021663118 -0.32131526 0.15258741 0.4108575 0.12123624 -0.012424431
0.03806891 0.07553987 -0.04577385 -0.17731576 0.012128099 0.2908235 -0.04769007 -0.003910289 -0.025330087 0.22655918 0.5306833 0.005225764 0.30637646 0.12965257 -0.09699245 -0.090490974 -0.15750647 0.05615606 0.076259084 0.07014273 -0.0010927846
0.00011877428 0.012696481 0.0001847937 0.11092667 0.0004939478 -0.14176065 0.118282214 -0.001366474 -0.016167361 -0.0019199243 -0.031174216 0.00307423 -0.12785172 0.65270084 0.00010638623 0.007816438 -0.001058657 -0.12540896 -0.00023599181 -0.0892852 -0.2661389
-0.0066740937 0.09238431 0.040036164 0.09661243 0.040574163 -0.21197625 -0.013873727 -0.012298184 0.036607575 -0.1114673 0.04251908 0.19296458 0.16427267 0.032078248 -0.020180356 -0.002388912 0.29272383 -0.21275328 0.80445296 0.30920208 -0.011120825
0.13613105 0.09397673 0.27854788 0.2229217 0.013873259 0.030244341 0.00601131 0.09407151 0.347553 0.250406 -0.32965183 0.018515924 0.08938782 -0.010709718 -0.06957476 0.2825791 -0.23170424 0.32639974 -0.04394451 0.037139248 -0.0027914275
0.038994662 0.1317418 -0.1479302 0.11605943 0.0019032434 0.04590598 -0.00074215943 0.1869843 0.30364347 -0.29320994 -0.22617897 0.018088784 0.13436726 -0.00561411 0.14043309 0.13153611 0.53234 0.28187546 0.002665282 -0.10855739 0.008228275
0.027867468 0.29230273 -0.1971905 0.06850124 0.024204778 0.18503366 0.012885013 -0.16116154 0.3828424 0.15474343 -0.13370974 0.24266952 -0.09570043 -0.019792572 -0.23137653 0.10623115 -0.099722326 0.16219825 0.22285588 -0.05161305 -0.008222847
-0.17131418 -0.05596714 0.2363697 0.11064781 -0.25258797 0.16222696 0.003779489 0.0019236815 -0.055564858 0.12929435 -0.11043235 -0.02459316 0.05860955 -0.019873396 0.2501039 0.33648682 0.26234508 -0.04264393 -0.0052874833 -0.020212019 -0.018484855
0.007834527 -0.13726328 -0.03762207 0.16212386 -0.1100285 0.2951891 0.020653548 0.027510326 -0.1514268 0.20944367 -0.22885418 -0.016956713 0.0121311 -0.03323185 0.13275221 0.0976511 -0.13323532 -0.05136324 0.124228925 -0.10543607 -0.028380211
0.0266736 0.1909931 0.18965578 -0.18353553 -0.004277039 -0.1299481 0.0069192974 -0.21103248 0.16195855 -0.048392493 0.28391868 0.002650193 -0.064136036 -0.010824698 -0.16481766 -0.47807294 -0.44767627 -0.6232183 -0.03549932 -0.20647328 -0.0031018383
-0.0599471 0.08612886 -0.19026864 0.00042906546 -0.076516494 0.16124256 0.0006069314 -0.08160148 -0.03849825 -0.21240371 0.0202402 -0.20542009 -0.20145424 -0.0052246414 -0.025986172 0.22672363 -0.5397327 -0.07515262 0.22865398 -0.22223444 0.0021256034
0.08872478 0.22012259 0.07158931 0.14096123 -0.021963337 0.117766984 -0.01063237 -0.004750862 0.18941234 -0.45501453 -0.03390199 0.0646697 0.036879033 0.020091482 -0.06576205 0.16481747 -0.4335525 0.08013314 0.042631995 0.24927302 -0.003560686
0.01597095 -0.09327001 -0.104689576 -0.087300904 0.003382924 0.100003965 -0.0007081329 0.09204413 -0.03275245 -0.32009727 0.31472322 0.013631298 0.039938927 0.0025088678 -0.0017467191 0.021073285 0.0049619065 0.004097748 0.0843601 0.17337936 -0.0017484803
-0.018668633 -0.3667935 -0.021955337 0.09668007 -0.001782785 0.12567727 -0.005840716 -0.3466688 -0.36061418 -0.5877959 -0.01816768 -0.018914698 0.061252076 0.01626975 -0.4211909 0.16749841 0.3249316 0.19098116 -0.0013050844 0.19163571 -0.0047383257
0.018136743 -0.102539234 0.087629244 0.092924744 0.049763825 -0.027983133 0.010934718 -0.057842083 -0.17752321 0.0143596325 -0.19617188 0.23528428 -0.08844633 -0.021199254 0.02116796 -0.11383355 -0.561963 0.02214021 -0.14128712 -0.2604914 -0.0029202737
-0.0239378 0.15574671 -0.07106066 -0.41060233 0.027827773 -0.127038 0.003524432 0.0017817813 0.13176553 0.07011553 0.40306148 -0.09275277 -0.21724723 -0.0044984585 0.008163549 -0.20280501 0.45713192 -0.012506823 -0.036735874 0.09186025 0.006411404
0.02080684 0.0112108765 0.056330506 -0.10801117 -0.0009761489 -0.18640532 0.029075086 -0.021366464 -0.026157074 -0.09097547 0.18953405 0.23321652 -0.59974754 -0.0833044 0.01770626 0.17339434 0.004745633 0.09545634 0.05290519 0.13769017 0.020506516
-0.015287218 0.24930722 -0.0647902 0.068221785 0.030339133 0.123378284 -0.0060714916 -0.15942857 -0.037248302 0.24570101 -0.24412265 -0.109508924 -0.053675372 -0.0021909846 -0.040512647 0.22816716 -0.34190288 0.27629572 0.37160623 -0.2788453 0.011619053
-0.00014276222 0.016260363 -0.0043594018 0.12082361 -0.004333074 -0.09583527 -0.25595936 -0.0038894727 -0.018422684 0.0029268628 -0.044386256 0.010848087 -0.05277571 0.39891312 0.0070352997 0.0064592315 0.0017372619 -0.13198712 0.0030770202 -0.111004405 -0.25131863
-0.049839884 0.20506951 -0.4012658 0.061919395 0.011549208 -0.06924893 0.0043727406 -0.015105404 0.41273096 -0.028768463 -0.26024416 -0.17989586 0.14793427 -0.007923322 0.00012707939 -0.14474687 0.18198597 0.014502926 -0.034722753 0.016657924 0.0017666317
0.0041753924 -0.20872974 -0.061936162 -0.08981535 0.0093974145 0.06227637 0.013946653 0.04034698 0.008592883 0.031929087 -0.0074738627 0.21880011 -0.2802516 -0.03182471 -0.040825676 -0.024008 -0.45724562 -0.061820198 -0.114426054 -0.006903498 0.005741939
0.20218477 0.08056151 0.335905 -0.0119382255 -0.020550234 0.024232829 0.005242182 0.47988993 0.22068152 0.30102557 -0.09713283 0.01384307 -0.015358377 -0.015506594 0.103368305 -0.12401908 0.6185703 0.07820209 -0.009991914 -0.058908165 0.010500403
0.27639773 -0.0076961163 0.29986468 0.10166434 0.010025484 -0.052365344 -0.00074130297 0.18227598 -0.148461 0.5054253 -0.38168487 0.045811653 0.0020299985 0.008056611 -0.52297926 0.1795543 -0.28204 0.0319324 0.058914296 -0.12252611 0.006357081
0.10380388 0.021587832 -0.03452291 -0.15354833 -0.021399995 -0.03693821 -0.00016161286 -0.122570254 0.18544856 -0.13161643 -0.14426723 0.2657841 0.17303565 0.029062523 -0.03542346 0.14596352 -0.12421954 0.32054654 -0.12204033 0.071934305 0.030788234
-0.24114357 0.23337434 -0.34216815 0.16835093 -0.009092138 0.011337747 0.0016609433 0.01623071 0.075747274 0.14913052 -0.10864228 0.0034733093 -0.050201528 -0.004810356 0.31257048 0.45751002 0.23182318 0.4085993 -0.0016203916 0.112030394 -0.002152539
0.04205705 -0.24137245 -0.21361333 0.20610045 -0.1739266 0.08000766 -0.025322841 0.027922738 -0.35827944 -0.18869123 -0.19287744 -0.39273468 0.37885636 0.04987203 0.1153199 0.17380568 0.08889986 -0.18981144 0.043711588 0.41662 0.0025577215
-0.021133874 0.11897706 -0.048396382 -0.15254694 -0.039459288 0.150649 -0.00015582435 0.045900535 0.041792978 0.05166442 0.27579564 -0.20819116 0.0042584017 0.00711121 -0.049337264 0.035175316 0.38603008 0.2642168 -0.4128631 -0.06673849 0.0012154175
0.0657035 0.18470252 -0.17597555 0.014347904 -0.016059041 0.11474769 -0.015245269 -0.016847009 -0.09979756 -0.013665839 -0.1764502 0.0031338541 0.13518819 0.032594535 0.11464679 0.07907945 0.3962962 0.057566524 0.046911124 0.06720976 -0.0204675
-0.03507731 -0.14860813 -0.054989584 0.06709033 -0.035499215 -0.10239695 0.008152547 0.16169417 -0.058083937 -0.52109015 0.047379732 0.17574418 0.061532315 -0.017788848 0.10407282 -0.31706443 0.15082793 -0.07873909 -0.00672707 -0.19743629 -7.895434e-05
0.021578318 0.15341154 -0.17953055 0.15809032 0.09429358 0.31000638 0.008413605 -0.010692054 0.10697069 -0.068723604 -0.14822732 0.2811795 0.12495441 0.0021024635 0.030395653 0.27200133 -0.15485011 -0.07695853 0.09948515 -0.017426137 -0.013754815
-0.09017214 0.052789345 0.021010417 0.09843293 -0.08691835 0.13015927 0.0044882055 -0.0033066596 0.073793806 0.19359009 -0.050101724 -0.07796042 -0.0774715 -0.012976363 -0.101952985 0.2018922 -0.17540304 0.05472918 -0.30196807 0.076765984 0.0019958254
0.068262264 0.169907 0.34606892 -0.16625622 0.22144052 0.13778935 0.022813823 -0.21694987 -0.19321108 0.068072885 -0.072059706 0.14340243 -0.01741536 -0.04178128 -0.10377113 -0.09519274 0.006649483 0.2033923 -0.12780862 -0.26938507 -0.006323537
0.06621768 -0.16489755 0.17407764 0.06525009 -0.18601894 0.057431143 0.013809653 -0.32902178 -0.20864461 0.36887753 -0.053972714 -0.12798953 -0.36152494 -0.02851765 0.20063409 -0.07164241 0.1733545 0.09997762 0.12525833 -0.20714538 -0.00027999797
-0.061529 -0.08289858 0.074702315 -0.055041857 0.070368186 0.058444783 0.040146228 0.20866613 0.09719989 -0.23083971 -0.031972025 -0.13592052 0.06249232 0.002209519 0.02373664 0.20653223 0.020380825 -0.08067432 0.009233111 -0.067901604 0.0182856
-0.03603346 0.051636204 -0.24504603 -0.05555574 -0.10565715 0.054456223 0.007825365 0.18180859 -0.0006385893 0.4790046 0.2819575 -0.010709341 0.063967906 0.04337602 0.187615 -0.14858784 -0.03463732 -0.2512393 -0.16128698 0.015989928 0.02092209
0.08778728 0.025127374 -0.23626512 0.1282065 0.02515345 -0.049904644 0.0023641319 0.30611768 0.20600763 -0.22421621 -0.39502966 -0.04403943 0.2600072 -0.0034617635 -0.38477138 -0.11106216 -0.1597831 0.2089722 -0.06300638 -0.2495435 -0.014490432
-0.020031696 0.33991832 0.0598867 0.014626806 -0.21638694 0.13758443 -0.008955402 0.049301226 -0.34209785 0.14137548 -0.04543256 -0.11127067 -0.12747173 0.016810833 -0.037311587 -0.0051851245 0.13534498 0.12838624 0.5259528 -0.61355007 2.4539135e-05
0.47900555 0.081920885 0.5229498 0.014571863 -0.020400984 0.007508536 0.0030660848 0.045096032 0.19766667 0.36512956 0.10389856 0.044829775 -0.03289261 -0.0025621708 0.2958023 -0.011649631 -0.09135137 -0.089983396 0.041081455 0.07849988 0.0007607024
0.03236267 0.09025985 -0.10544121 0.061860636 0.09397385 -0.071995184 -0.014231906 -0.09572562 0.15962757 -0.07272651 -0.33758166 0.37579897 0.32502255 0.02921788 -0.079645514 0.053159174 -0.09863403 0.05467614 -0.46924338 0.5648385 0.008418362
-0.05699403 0.45427173 0.014777302 -0.1222699 0.05203458 -0.09755944 -0.016595254 -0.03567328 0.34969074 -0.4129705 0.075252615 0.13279448 0.124371134 0.03447093 0.3187456 0.058184884 -0.35651863 -0.11692228 -0.01725125 0.04418809 0.013716026
-0.17014445 -0.17034134 -0.24391818 -0.0020674283 0.0016262676 0.067653775 -0.005554519 -0.3351147 0.025949024 0.2842705 -0.043510348 -0.038727503 0.04133341 0.0046833404 -0.27037826 0.1310984 0.41895172 -0.13769022 -0.027557442 0.1416745 0.0019981263
0.004383798 -0.018399457 -0.045635045 0.12804411 -0.0081637185 0.286011 -0.035779156 -0.0052716616 -0.11132101 0.011244142 -0.15485507 -0.04015347 -0.124130666 0.073409595 -0.025901768 -0.122669 -0.23482308 0.033040583 0.5512899 -0.299838 0.012422319
-0.0037615024 -0.19148226 -0.2437685 0.15610303 -0.10084095 -0.04993115 0.00082851993 0.0065782415 -0.2847406 -0.017950473 0.059964564 -0.13671343 -0.0040686605 -0.0014025855 0.017576747 -0.36068022 -0.25234845 -0.19923845 -0.15026654 0.030755877 -0.012734853
0.016633017 -0.11287447 0.36380038 -0.16001455 -0.051381823 -0.15015535 -0.017409861 -0.34858593 -0.2682433 -0.04121535 -0.07070466 0.2483172 -0.0052602044 0.02188605 0.059454735 0.20912057 0.072854586 -0.020058885 0.22085842 0.035913683 -0.009619555
0.023133466 -0.19421867 0.23798606 0.07878398 -0.19010949 -0.15016702 -0.00082560314 -0.0561186 -0.12832041 -0.13639107 0.015299634 -0.145862 0.113041826 0.014780351 -0.06005619 0.21424969 -0.34030852 0.10146942 -0.19207227 0.14420007 -0.015780455
0.010558623 0.33446267 0.15316842 0.1643088 0.0033513918 0.06980034 -0.027443916 0.25953677 0.06320089 0.31779617 -0.18535164 -0.15974623 0.19185117 0.062970884 0.47341698 0.14012368 0.002448875 -0.01143035 -0.015121834 0.24986939 -0.0056062764
0.087601624 0.01421039 0.065729454 -0.15339805 -0.033940088 0.19534408 0.0027356658 -0.013744217 -0.098623835 -0.10685072 -0.014239478 -0.08580493 -0.045205113 -0.017350178 -0.069328964 -0.019085318 0.19604445 0.3073067 -0.12589101 -0.009779313 0.010831708
-0.034720447 -0.21698087 0.053693756 0.038629677 0.21531099 -0.09601762 -0.00590328 -0.022706553 -0.24193431 0.301397 -0.103049845 0.30843055 0.41151226 0.012073705 0.12500195 0.11036116 -0.16742481 0.16136713 -0.10252065 0.030010547 -0.0029858672
-0.0077536386 -0.3704403 0.13718672 0.043847226 0.0021903687 0.045761187 -0.008637258 0.32475537 -0.40265965 0.35132113 -0.051971216 0.12071455 0.04342644 0.0070968657 -0.4821078 0.36794454 0.2829355 0.14061008 0.078260824 0.40456387 -0.010050167
0.16732582 0.09867606 0.032012776 -0.30410966 -0.012992079 -0.038447373 -0.0041412334 -0.14486352 0.13104783 -0.07309762 0.57645315 -0.009528813 -0.24571301 0.0077006947 -0.18997365 -0.086287774 0.4360455 -0.03631889 0.028672295 0.15312867 -0.0016621418
0.020836491 -0.19316597 -0.00824394 -0.023894742 0.062344197 0.079400524 0.0152535355 -0.035199527 -0.25821424 0.042116374 0.18404956 -0.1299091 0.003987569 -0.030783594 0.016003767 -0.3838303 -0.35650936 -0.12803657 -0.068028554 -0.35430753 -0.0036377688
0.045447916 -0.18011521 0.081877716 -0.16766277 0.024246702 -0.2242578 -0.021983402 -0.06934418 -0.08060247 -0.3347988 -0.19531675 0.61762166 0.106308386 0.03798874 -0.00514672 0.0287775 -0.40372348 0.2674701 0.23942032 0.27471554 0.0030126225
-0.13678835 0.065771624 -0.3543731 0.06457079 -0.009179206 -0.060905974 0.0046904646 0.5449554 0.19643034 -0.6132326 -0.09505966 0.0028290346 0.06068309 -0.012147969 0.177011 0.0578119 -0.07289755 0.16006187 0.011143783 -0.098151885 -0.0014733028
0.15221436 0.011305925 0.10897356 0.1251811 0.13446641 0.110540375 0.014254186 0.10700611 0.16640933 -0.26621076 -0.13575761 0.07749187 -0.08065872 -0.019448088 -0.08585832 -0.14867623 0.13660516 -0.023578657 -0.04603068 -0.16247848 0.0070921485
-0.15563464 -0.20849013 0.036576606 -0.025836727 -0.020843327 0.0102978265 -0.0119458465 -0.12792784 -0.2719326 0.26229396 0.013995375 -0.126127 -0.09478542 0.05527293 0.42904794 -0.068514414 -0.38745388 0.0043759174 0.030715536 -0.13105012 -0.0040225172
0.076772325 -0.23052748 -6.9486625e-05 0.077030264 -0.015863473 -0.09977755 -0.0011489517 -0.11540569 0.1464039 0.012974154 -0.53836155 -0.03504725 -0.37329468 -0.0020762105 0.24129899 -0.47978503 -0.4362401 0.04759564 -0.02079653 0.10040604 0.014099864
0.021313502 -0.22603977 -0.0021992798 -0.20586371 0.006766134 -0.051480208 0.0038549358 -0.013193158 -0.07936358 0.005412771 0.45326078 -0.06519478 -0.04531127 -0.010153223 -0.009063599 -0.1568128 -0.4752622 -0.3936112 0.014529023 0.081230804 -0.0014811483
0.228166 -0.36346036 0.06149258 0.09688218 0.0037759638 -0.047284156 0.020022077 0.022920584 -0.070265085 0.29561934 -0.22600119 -0.06451816 0.065347716 -0.04590036 -0.35315043 -0.19424239 0.056578755 0.024379075 -0.061634712 -0.30822387 -0.0058064447
0.10986828 0.23329258 -0.01841562 -0.03061667 -0.005276814 -0.035692237 0.00072927243 0.13022372 0.2341161 -0.06330886 0.0067156623 -0.08962446 -0.03845388 -0.0046667843 -0.2701157 0.16219361 -0.6809274 -0.44163564 0.07559775 0.02044601 -0.0042883973
-0.04885199 0.03649027 0.017707214 -0.015604579 0.13867295 -0.33715168 0.004133117 0.17499411 0.01799201 -0.0033222684 0.07209903 -0.0012545767 0.4392227 -0.004351951 -0.09485817 0.12767823 0.04762647 -0.38703826 0.7951968 -0.0045106397 -0.027433604
0.02533856 0.29030398 -0.1252054 0.15840825 -0.002902347 0.05546871 0.0072995755 -0.27525008 0.120664634 0.22675113 -0.049410794 0.11062364 0.24067491 -0.016395383 -0.016205521 0.20087475 -0.42008555 0.3241458 -0.01600839 -0.09384447 0.003195163
-0.036517713 -0.27833802 -0.19509792 -0.03061879 -0.007946582 -0.21499027 -0.008974647 -0.12589587 -0.18149027 -0.42361775 -0.011785831 -0.2483148 0.049240522 0.015049204 -0.27725768 0.30288222 0.05752948 0.08836812 -0.00020533368 0.13604623 0.0069940398
0.017928153 -0.06819461 0.32053372 -0.17375705 -0.015516795 0.011281308 -0.0031080456 -0.006724595 0.097956784 -0.35917842 0.7488871 -0.01971813 -0.09300973 0.010241745 0.016375175 0.11919786 -0.29507992 -0.18366681 0.076902494 0.018459056 -0.011055454
-0.056875277 0.27937788 0.05614025 0.01088741 -0.022605881 -0.0737847 -0.022391193 0.06445849 0.2485648 -0.049117368 -0.15434861 -0.048068535 0.29316708 0.03291883 0.098231204 0.15474087 -0.30176967 0.19020979 -0.2033822 0.18151195 0.0010085286
-0.0076646702 -0.2625533 0.02010759 0.25456867 -0.009800706 -0.026530772 -0.0013987414 0.013054488 0.25415403 -0.004575417 0.25508192 0.030204222 -0.004071149 -0.0028626996 -0.30963275 0.41193154 0.76651794 0.26444978 -0.038815156 0.006901557 -0.0014428584
-0.09199665 -0.09915993 -0.07152703 0.042474836 -0.04018149 0.048016295 0.015881035 -0.15050688 -0.20356543 -0.18098538 0.18646413 0.21435109 -0.15803908 -0.035383027 -0.058250938 -0.15301552 -0.3990315 -0.083132684 -0.029736016 -0.3119636 0.0059631513
-0.14173307 0.2669153 -0.040748954 -0.021648468 0.01966694 -0.105334945 -0.0063182493 0.16041447 0.25267732 0.18978275 -0.34104922 0.027770242 0.1665512 0.009475597 0.09986015 -0.0077879364 -0.0977817 0.13682912 -0.11624177 -0.18130349 -0.0016449292
0.027452441 0.01707373 -0.025897808 -0.15507612 -0.21035604 0.15937449 0.0075508547 -0.09271161 0.01270422 0.04585776 0.13020399 -0.13824075 -0.07811612 -0.006768273 -0.009877652 -0.18819699 0.1754556 0.3475057 -0.40931055 -0.16108333 0.004842632
0.15595707 -0.16080202 0.26051354 0.05009831 0.21782094 -0.1010245 -0.0023500011 -0.48640785 0.12424078 0.35644707 0.06766713 0.35733706 0.35968682 0.028120654 0.16170715 0.08169787 0.03832308 -0.024063824 0.14959575 0.19986704 -0.0067539103
0.038130023 -0.05549325 -0.103494205 -0.08268545 0.010369934 0.06753642 0.005060906 0.03754566 -0.13286337 0.008754366 -0.16426733 -0.08598543 0.1459358 -0.00797236 -0.20947087 0.11188335 -0.031369142 0.26223993 0.20700265 0.28064397 -0.036227304
0.24300483 0.062026627 0.27697825 0.2658278 0.012414318 0.016850496 -0.00025403616 -0.16664809 -0.011473328 0.047761936 -0.432648 0.045742948 -0.02429283 -0.000624114 0.31001988 0.15299715 -0.4347666 0.12583 -0.028776689 -0.009072081 0.004053458
-0.3736482 -0.047404975 -0.07419535 -0.15705392 -0.029026154 -0.13603905 0.01693483 0.16018616 0.032147955 0.28194004 0.39608315 0.08899058 -0.32874188 -0.016784731 -0.087233424 0.19167815 0.17586409 0.08682775 -0.11720775 0.07092679 0.0019221483
0.04486858 0.0879497 0.2201712 0.006242363 0.0031814163 -0.009654009 0.003361668 -0.24425806 -0.10964239 0.41243276 0.39805323 0.026109673 -0.04933479 0.003200497 0.042092994 0.19326133 0.3103805 0.085809484 0.021592155 -0.050215654 -0.010754108
-0.2262042 0.20308016 0.041314106 -0.089405246 -0.011004799 0.102746285 -0.00091970316 0.02348137 0.36676335 0.38666156 0.1903113 -0.0044157105 0.066084266 -0.009760757 -0.15569735 -0.27987692 0.41020423 -0.43002746 -0.11154505 0.16232178 -0.004063731
0.08199107 0.07195335 0.07763957 -0.14654756 0.0010873748 0.14655572 -0.018631596 -0.28352064 -0.07232924 0.054601904 -0.25229588 -0.06513506 0.3209516 0.04568761 0.0018577762 0.060078617 0.32133222 0.08402556 -0.0064523504 0.19217253 -0.052505374
0.011437932 -0.12738426 0.08377147 -0.3428314 -0.3786206 -0.14054185 -0.017977178 -0.1371923 -0.18272007 0.19420317 0.2893396 -0.1895312 0.048938256 0.045449607 0.07339201 0.061689828 -0.5314708 0.21579032 0.47449258 0.45424184 -0.0029199338
0.108807124 0.08370822 0.203675 -0.09935265 0.087267265 0.09303912 0.030238647 -0.28260943 0.19714123 -0.27269435 -0.2629017 0.056683075 0.080776505 -0.07496175 0.09319956 -0.08319152 0.40358755 0.06115751 -0.05180189 0.09576271 0.044730313
-0.0065421835 0.024710227 -0.0017995577 -0.014014103 0.0010720555 -0.5602442 0.015132682 0.01195736 -0.023407033 -0.012090099 -0.19125272 -0.06067094 -0.4760625 -0.065655954 -0.00104895 -0.012257019 -0.005849926 0.11475762 -0.031642143 0.35810742 0.04309185
-0.04633731 -0.3468555 -0.28981286 0.21846896 0.052435566 0.26311925 -0.0058418876 -0.03355996 -0.12487381 -0.28301233 0.007487408 0.15051891 0.059719034 0.009312137 -0.15818042 0.18087894 -0.023887917 0.14429824 0.13100463 -0.032619957 -0.019814067
-0.05564359 -0.33647382 -0.50142246 -0.038668346 0.010446864 0.07008354 -0.0011728458 0.007748163 -0.3153592 0.094640456 0.17390898 0.006252213 -0.074850544 -0.0005354444 0.02218688 0.20110579 -0.2180234 0.17867206 0.08562105 0.112333156 -0.007613016
-0.0321014 0.0899234 0.23788199 -0.09394687 0.10863378 0.14622375 0.0079988 0.26811358 -0.22577581 -0.29313067 -0.21959856 0.045647874 0.044211954 -0.04318469 0.25456476 -0.11638807 -0.08374434 0.10143783 -0.08463409 -0.08792082 -0.011569522
0.06477707 -0.12682521 -0.101992704 0.1034852 -0.0030817813 0.09302482 0.002918099 0.2601899 -0.11849455 0.21940695 -0.034808964 0.015715482 0.22828835 -0.0024370092 0.19358063 0.13783367 0.1471731 0.22038789 0.030564902 -0.06662203 0.0020049997
0.019051246 0.21709684 0.0153521225 0.09979503 -0.024584249 -0.15511194 -0.009927673 -0.06713742 0.09977509 0.047956694 -0.49377856 0.06621875 -0.40269417 0.021028956 -0.17649725 -0.095703445 0.34656247 0.35669526 -0.041492667 0.29379806 0.006828824
-0.012928485 0.041139264 0.051373206 -0.11845799 0.007830563 -0.13719645 -0.0055560335 -0.102300555 0.1333813 -0.0018235545 -0.11719158 -0.056610163 -0.45837116 0.012378252 0.07169588 0.34723008 -0.13462016 -0.10788755 0.18155117 0.33528796 0.0011284471
0.015864741 -0.30561692 -0.1272087 0.069703616 0.0020945498 0.058534805 0.0019356153 -0.21646859 -0.11979478 0.3059963 -0.037345186 0.03455693 0.043756418 -0.0044048857 0.043092523 0.034859084 0.48693353 0.34077793 0.05820056 0.04586958 0.004494352
0.22306278 -0.14532486 0.4098103 0.041359957 -0.09203376 0.08194151 -0.015763458 0.21097247 -0.32957983 -0.46749833 -0.1968053 -0.051766254 0.22221644 0.038918436 0.096639894 -0.28858274 -0.17775834 -0.018112708 0.18372558 0.13700478 0.003986101
-0.023913858 -0.14735195 0.019134669 0.16185501 0.14605781 0.10983707 -0.0090903435 0.016726892 -0.20965846 0.14382096 -0.25258377 0.2037951 0.33464563 0.02592807 0.07821386 0.23685616 -0.10540248 0.1112686 0.010132873 0.13670339 -0.005176546
0.0029970715 0.43243462 0.038830534 -0.09037941 0.018566707 -0.027493099 -0.009230475 -0.049128406 0.05860595 0.5311049 0.012903421 0.35374117 0.38198265 0.014621734 -0.05766194 0.20449656 0.34217486 0.36348063 0.14344414 0.10907029 -0.009696652
0.0075567234 -0.3710475 0.19149193 0.072126396 -0.044864323 0.08715537 -0.007055744 -0.049447753 -0.41052967 0.02291596 -0.013290178 0.018233005 0.097215526 0.016177796 0.0076127863 0.35580078 0.35674787 0.043955687 -0.093165874 0.040873155 0.014132699
-0.02350661 -0.0012998693 -0.018082522 0.30807197 -0.016424147 -0.040652625 0.008087995 0.05793389 -0.23475465 0.053961787 0.20421308 0.061744813 0.009053078 -0.015953757 -0.46186715 0.114450105 -0.8202416 0.18123037 -0.0021334745 0.007096921 0.0017396699
-0.045347385 0.24757518 0.010857347 0.11777312 -0.16868769 0.1998461 0.009691874 0.021634439 0.5897721 0.022950616 -0.11397236 -0.32025453 0.32933304 -0.012016259 -0.082403906 -0.24781087 -0.107549496 -0.05120066 -0.15777014 -0.09207039 -0.0019299953
0.0006716795 -0.25370413 -0.2885088 0.27091798 -0.021845063 -0.019321848 -0.00074929994 -0.066952705 -0.11669113 0.31340882 -0.50183254 0.12374916 0.054147176 0.0020415406 -0.019158592 0.30881923 -0.068385884 0.19801712 0.017409027 -0.066802986 -0.00081528985
0.37576014 -0.17369448 0.09007513 -0.052883096 -0.06317227 0.07246016 -0.0072837397 0.28988993 0.10311047 0.5703508 -0.016522774 0.14298943 0.20444702 0.025666783 0.10041584 -0.46356186 -0.099248536 -0.10350217 -0.039222423 -0.07195421 -0.002337038
0.023108557 0.07325727 -0.2354449 0.08063178 -0.027122628 0.07135077 -0.018368647 -0.12454488 -0.12112443 -0.56049305 0.017626567 -0.053586725 0.15015443 0.04830434 0.23467502 -0.16432823 -0.031083684 0.07057424 0.06875066 -0.032924134 -0.016493427
0.34817 0.14186668 0.09880225 0.32072395 -0.037227657 -0.00198495 -0.010658836 -0.43040198 0.09776179 -0.17246747 -0.10687349 0.0060632206 -0.063432105 0.022947254 0.32595307 0.4062258 -0.4016308 0.17768554 0.020130092 -0.0013818067 -0.0032159484
0.15804337 -0.1680492 0.1746018 0.101470515 -0.020485895 0.020258434 -0.0020284033 -0.10423578 0.023999728 0.4539096 -0.15767738 0.01639549 0.020693602 -0.002101969 0.5861221 0.21963622 -0.014682604 0.046550974 0.02067531 0.022464184 0.002821127
-0.019953717 0.04641644 -0.24177878 0.07064714 -0.43490717 -0.23309323 0.0052484483 0.07586258 -0.0010493885 0.36863852 -0.31240147 -0.34013355 0.09886013 0.0066607934 0.042220913 0.09219536 0.08730868 -0.19251613 -0.3404074 0.29507187 0.034597695
0.20486194 0.21273483 0.26709777 0.04330421 -0.18416362 0.033296403 -0.024040962 0.03554939 0.13477945 -0.2024007 -0.21468818 -0.019210713 -0.13335711 0.01375933 -0.32063854 0.35926926 0.49287325 0.0076059103 -0.05689996 -0.21296616 0.038480483
0.19521959 -0.19573598 -0.08383967 0.0035647796 -0.004176037 -0.14412239 -0.005426563 6.129956e-06 -0.1533299 0.27901512 -0.12284404 -0.16590089 0.23630638 0.009833164 0.2107742 -0.19314261 0.27772486 0.078861594 -0.1710823 -0.0054898127 0.0033544356
0.049066037 -0.21004544 0.06002822 -0.28980744 0.033087544 -0.09537703 0.015404795 -0.109550364 -0.08090064 -0.16492994 0.4279921 -0.10683783 -0.28151226 -0.03304694 0.12582858 -0.251153 -0.15201575 -0.2225098 -0.06438389 0.12562983 0.010320256
0.018778406 0.15256816 -0.14624482 -0.21717119 0.016401421 0.32293627 -0.0027464044 -0.100697584 0.03624762 0.054166585 -0.30289736 0.067908384 0.15306993 0.0106192175 0.14206713 0.07494246 0.12665318 0.0028611158 -0.11233474 0.16819336 -0.028655449
0.051169813 0.10054944 -0.10170377 -0.049352605 -0.13247377 0.10824037 -0.10363931 -0.019714313 -0.05382415 0.19686969 0.27131474 0.19517943 -0.002802131 0.06480967 0.18315512 -0.099447064 0.12846574 -0.015604012 -0.253187 -0.062250923 -0.14239217
0.023995697 -0.029963536 -0.059990652 0.16569117 0.0006680085 0.097896926 -0.0013405815 0.16166732 0.21688575 0.3672889 -0.13006152 0.014113092 0.030648172 0.002753984 -0.20217109 0.48521748 -0.44560573 0.22260323 0.022337308 0.16731921 -0.007472421
-0.042016692 -0.20319441 -0.04565981 0.24897 -0.013391811 0.16042455 -0.005077669 0.14539436 0.04916863 -0.30241355 -0.3757515 -0.2802529 -0.00063148816 0.014951331 -0.12078246 0.23224927 -0.20468426 0.059441663 0.36684343 -0.2728036 0.008406538
0.012775934 0.21466948 -0.1610122 0.15814939 -0.004435217 -0.07901065 0.0028134715 0.20606445 0.22304901 -0.65090674 0.21572907 0.009507439 -0.2698964 -0.006745292 -0.023183873 0.16702943 -0.2394698 0.2439511 0.15628394 -0.071078695 0.0038963868
0.18717954 0.22571266 0.40544087 0.19446106 0.0005270163 0.016922425 -0.0012799982 0.10883578 0.08306722 -0.29908264 0.089970574 0.03258213 -0.004556654 0.0008768335 0.25045648 0.4686894 0.29767272 0.34001955 0.011144747 0.10964911 0.0006957644
-0.016400866 -0.2461168 -0.07161004 0.09363254 0.0218126 0.18201622 0.05351774 0.09426473 -0.19030678 0.036221467 -0.27157256 -0.008403007 -0.051444888 -0.105775654 0.018036297 0.18844156 -0.2954429 0.18310261 0.18296891 0.05286888 0.051060915
-0.040018763 -0.026603391 0.043181103 0.077161975 -0.0052633067 0.17662482 -0.019274306 0.09028425 0.022494575 -0.028881384 -0.1012874 0.025827738 0.122898996 0.1239516 0.10299019 0.15658829 0.03673499 -0.046561487 -0.06889168 0.11410688 -0.08813079
-0.18335007 -0.27788833 0.3557695 0.14141284 -0.070448406 -0.04192581 -0.0063599166 -0.19075215 -0.013566203 0.108202346 -0.40281263 -0.052866474 0.21140593 0.012783536 -0.13297614 -0.09503796 -0.15840168 -0.046347443 0.07435232 0.12534662 0.008855746
-0.45519042 0.16479197 -0.023844816 0.23837367 -0.026537236 0.052994426 -0.002312761 -0.05293261 0.1286216 0.39935645 0.05844962 0.075743 0.05039725 0.0022722352 0.46111688 0.03617579 -0.22996627 0.28838935 -0.018493177 0.06672499 -0.0021176375
-0.10158137 0.34125742 0.054458432 -0.24992824 -0.11346146 -0.04915848 -0.007107946 0.09707415 0.09590314 -0.017082373 0.2522462 -0.15867668 -0.019295592 0.014557558 0.0030189692 -0.06274531 0.18102117 -0.18796065 0.097156495 0.2290332 0.0064309645
-0.024526594 0.08387367 -0.14325973 0.07047028 0.15610908 0.042264864 0.0006325299 0.0038822407 -0.085049056 0.10455593 -0.26156586 0.38743606 -0.024193164 -0.008296356 -0.00758358 0.07417565 0.40930277 -0.18407586 -0.05470392 0.09819519 -5.3785694e-05
-0.0059296084 0.31386912 -0.041228514 0.0963097 -0.0076079173 0.04508856 0.014142065 0.0077639394 0.07544778 0.03317213 -0.07884288 0.09921162 0.15754208 -0.027714802 0.0071395137 -0.23701976 0.56412387 -0.18979688 0.018830683 -0.13026114 -0.0076908516
-0.46822158 0.022566952 -0.53215927 -0.0046990933 -0.006876337 0.11795193 -0.0024044253 -0.19294107 0.3219332 -0.41349697 0.17794561 -0.0075308816 0.02206572 0.0067455308 0.20265418 -0.04954883 -0.1600775 0.13998245 -0.026095005 0.13014005 -0.0064907363
-0.083145104 0.056631893 -0.1885084 0.12443072 -0.04505356 0.01835682 -0.0129374955 0.3247597 0.18250467 -0.5442352 -0.22729976 0.31962493 0.23688698 0.024591679 0.35280967 0.1870842 0.022650199 0.14978385 0.09927048 0.092301466 0.0035863016
-0.04871295 0.0419006 0.04745698 0.051576935 -0.1603697 0.10079668 -0.04689155 -0.08041948 -0.060596637 0.021342082 -0.29778257 -0.25881022 0.08298364 0.04572831 -0.1274035 -0.032443315 0.18811214 0.17677155 0.07391994 0.07557291 -0.022579007
0.052063365 -0.03912228 -0.01693054 -0.022112304 0.021739123 0.039697357 -0.017571466 -0.03776585 0.20534453 0.023952693 0.12424394 -0.13252819 0.06936215 0.055213057 -0.10288125 -0.06268627 -0.52331156 0.26578528 -0.071503796 -0.17586695 0.00378866
0.1689899 -0.003747086 0.017270168 0.025286151 0.0010887138 0.022958346 0.0063123982 0.26215333 -0.107576996 -0.16813806 -0.26290312 -0.015427207 -0.03825776 -0.014260835 0.28361157 0.22795746 -0.2848392 -0.06953655 0.06953946 0.10778126 -0.0059391777
-0.043261953 0.022147363 -0.09376956 -0.12662023 -0.015961554 0.08727862 -0.004922009 0.17466272 0.022870786 0.4431376 0.2998261 0.059086535 0.0131427245 0.017384412 0.20776749 -0.26343954 -0.3951788 -0.15599129 0.030134872 0.041013557 -0.008090093
-0.21679245 -0.07200363 -0.23466302 0.29254907 -0.02505536 -0.18108688 -0.011345463 0.07780681 -0.18082143 0.110205 -0.57632214 0.03910408 0.04304739 0.01728126 0.11423978 -0.15293863 -0.38222295 0.29901427 -0.17341141 -0.06880974 -0.005473169
0.10214632 0.25108644 0.25372595 0.30900568 0.007081774 0.058192268 0.0065923776 -0.5209942 0.064860314 0.4861452 -0.08486419 -0.020226179 0.04767938 -0.018676676 0.026910208 0.12836216 -0.23194943 -0.029525872 0.0070054987 0.028810428 -0.0030037817
-0.2226387 -0.16441463 0.057621457 -0.045642707 0.03630971 0.046792813 0.014036921 -0.24331579 -0.08158771 0.11686804 -0.01821613 -0.07114852 0.0018882775 -0.016356776 0.25114113 0.2933427 0.22211373 0.062159095 -0.019868856 -0.0052072853 -0.00915883
0.059554256 -0.24417466 0.10787707 0.03097954 0.13681185 -0.15190418 -0.11563701 0.08100809 0.26112148 0.08858242 0.5006649 0.10522727 0.024240334 0.2153864 0.12828279 0.14868309 0.061760154 -0.046956584 0.6386651 0.38246128 0.06381506
0.14160064 0.010628609 -0.10479373 -0.050557546 -0.023442943 0.051977172 -0.0022449668 -0.3181467 -0.19178897 0.22830278 -0.5157636 0.04643203 0.013265282 -0.0012953652 0.13503768 0.06472211 0.3199394 0.39208218 0.011964598 0.0775083 0.004105404
