0.08037852 -0.32366455 -0.27736267 -0.038990583 -0.027137296 -0.044420023 -5.847677e-09 0.058805138 0.10775893 -0.18889493 0.09564442 -0.00017144637 0.034823213 -0.29007035 0.029082658 -0.1114527 -0.14966756 0.028597139 -0.094385795 -0.07280927 -0.100939654 0.027650552 -0.013951928 -0.05463438 0.036029156 0.09976358 -0.18683918 0.09309417 0.088956095 -0.17601083 -0.05369144 -0.16728798 -0.008129209 -0.04549331 -0.05990644 0.031567704 -0.12090238 -0.22248045 0.17063226 0.30278885 -0.054675616 -0.020137744 -0.14961255 -0.018508233 -0.2890215 -0.12964411 0.12307369 -0.22012666 -0.080560856 0.11948296 -0.03144428 0.0077300435 0.0827209 0.041035995 -0.05706546 0.2441171 -0.13118494 -0.0010970766 -0.1425175 6.62919e-40 -2.6004194e-05 -0.0019918657 -0.011081494 -0.026951162
0.10196227 0.30664787 0.24362557 -0.11286423 0.043792382 0.04844255 0.08216747 0.115107365 0.0530552 -0.34665838 -0.120267205 -0.15463717 0.16336182 0.19105946 -0.22382069 -0.1663455 -0.038813226 0.17987208 0.14055818 -0.017084548 -0.16910282 0.1231717 0.09244407 0.0413473 0.20766285 -0.14421523 -0.14531249 0.04452171 0.12902442 0.23087792 -0.16919844 -0.062274147 -0.078240015 -0.13128531 -0.011199422 -0.032177772 -0.024319755 -0.049586967 -0.018240662 0.14044736 -0.044549253 0.14373569 0.12408972 -0.05899639 0.07922981 -0.046023488 -0.030070582 -0.029009767 -0.045380894 -0.059638377 -0.00017053248 0.16956016 -0.054275736 -0.15142147 -0.03940238 -0.13836342 0.24714418 -0.099972874 -0.010957844 0.05305101 -0.20677616 0.14996931 -0.03531959 0.12845767
0.07887378 -0.13992219 -1.5466778 0.43367875 -0.20723255 0.072179474 -1.4259418 0.050060924 0.15441416 -0.24018444 -0.39993384 -0.38304964 -0.22714956 0.17039432 -0.66708815 0.29751775 -0.08839279 -0.6072881 -0.14898595 -0.09162785 -0.2641624 0.16840845 0.1471467 -0.62984836 0.5916929 0.3103679 0.4081823 -0.48469272 -0.3430568 0.40276587 -0.77507186 0.23917551 -0.14855099 -0.13052915 -0.36759022 0.5212003 -0.82691914 0.22804707 -0.046473853 0.03939358 -0.34363687 -0.63549787 -0.38819823 -0.6045306 0.11427178 -0.1428216 -0.2844033 -0.22280304 -0.810889 0.13020793 0.40365782 -0.62514496 0.8184022 -0.28903216 0.48895115 0.38811973 -0.07941959 -0.0013266293 0.23982204 -0.0059374603 -0.93382215 -0.7775776 -0.326583 -0.64928466
0.028595774 0.1040046 0.21973372 0.028561125 -0.031948257 -0.19458137 0.031756565 -0.26588953 -0.14099233 -0.025758322 -0.14352497 0.075631656 -0.047217138 -0.046536367 0.043937463 0.012063704 0.026489273 -0.30019623 0.023831582 0.012769884 -0.22334474 0.065651216 0.06375636 0.2256994 -0.031376094 -0.14928338 0.0045733782 -0.02365954 -0.3972879 0.05603672 -0.2816612 -0.008552649 -0.15062338 0.09613489 0.37209353 -0.018761484 -0.06544283 -0.116228156 -0.06698612 -0.22226398 0.122741364 -0.043079637 0.09398681 0.042796083 0.038318004 0.21863486 0.041457172 -0.0031264315 -0.011624538 -0.10810205 -0.25759265 0.1243893 -0.09832746 0.009933948 -0.20037578 0.13632543 -0.026985193 0.08037204 -0.14215389 0.069809966 0.040236283 -0.09806237 0.105131984 -0.078634635
-0.49219808 0.17521784 0.46976733 -0.09301939 0.39737824 0.19060652 0.3685578 -0.19185132 -0.058354072 0.1495649 0.49707606 -0.068863645 -0.15083645 0.36371094 0.26579267 0.09045308 -0.009686394 0.31720814 -0.22705966 0.07538787 0.15951903 -0.29772213 -0.101347774 0.2446405 0.13952899 0.13863568 -0.25880218 0.4348302 0.035996877 -0.07364218 -0.028105116 -0.23287787 -0.0018596186 0.01430936 0.3440467 -0.3780502 0.20278291 -0.1568421 -0.05833661 0.1528055 0.28968424 0.20250033 0.10563226 0.38728952 -0.015145835 0.05335135 0.36455452 0.0367693 0.014756232 0.46020362 -0.51523143 -0.017748827 -0.46920568 0.019899903 -0.42377314 -0.086281724 -0.06810316 0.067162946 0.16213207 0.09511445 0.35758516 0.28102192 -0.011618934 0.106330566
0.0037053425 0.04455427 0.19922166 -0.4227277 -0.06772985 0.16176188 0.11661487 -0.42623362 0.046141993 0.09630499 0.32105708 -0.08208313 -0.012475948 -0.18336682 0.0700377 -0.14975381 -0.0072202403 0.21165994 -0.15388961 0.05407833 0.86498153 -0.75705606 0.3536802 -0.117732435 -0.5511316 -0.20492654 0.14144348 0.20474388 -0.016666748 -0.27000672 0.30139205 -0.24616428 -0.01836523 -0.10753898 -0.09476558 0.22550312 -0.23635988 0.19022253 0.027534515 0.4085028 0.27317393 0.36573538 -0.07240095 0.6883146 -0.27778137 0.22611848 -0.115795165 0.03642085 0.49595937 0.29115695 -0.18871498 0.014447162 -0.7768639 -0.03394713 -0.31104338 -0.13362446 0.07879947 0.04326223 0.07275382 -2.6418715e-23 0.3178611 0.029143827 0.2360137 0.0448417
-0.9953237 0.14187206 0.4306619 -1.370615 0.13925123 0.12325221 0.24413063 0.75607103 0.039282184 0.215048 0.5110026 -0.3774116 -0.009963704 0.35694742 0.13919353 0.028362919 0.21285821 0.43606436 0.11040162 0.1690458 0.29671487 -0.28170758 0.10030489 0.38313633 -0.6848046 -0.015089195 -0.21139723 0.94927585 0.18159632 -1.0593818 0.22625828 -0.08619463 -0.28575808 0.25136888 0.38484603 0.07196095 -0.08785106 0.017112246 0.019161327 0.2879054 0.4577213 0.9581778 0.32344112 1.2998799 -0.20062667 0.3411797 1.2628744 0.56380683 1.1695832 0.21387962 -0.79458064 -0.2201057 -1.4163079 0.24976692 -1.0891776 0.027727542 -0.050162617 0.0105701955 0.018613027 0.029349955 0.27810577 0.337496 0.51101106 -0.056720827
-0.037796326 -0.06534969 0.010581279 0.02128234 0.084544696 -0.06710449 0.2094694 -0.11905006 0.082083434 0.3710548 0.21565463 0.17742783 0.09231932 0.2397374 -0.1410141 -0.15011674 0.101386406 0.32628694 -0.05319867 -0.07526997 0.36921147 0.2078595 0.12304772 -0.0077948906 -0.032115217 0.19506223 -0.23986588 0.08137578 0.43181977 -0.25609004 0.0409765 0.035683416 0.16215108 -0.007594117 0.065597944 -0.19243509 -0.039909262 -0.017593222 0.011217339 0.09176713 0.041561957 -0.20425083 0.042739637 -0.11306385 0.15911241 0.32006162 0.008010772 -0.14753161 0.037774768 -0.060872547 -0.10255859 0.058912884 -0.2690289 -0.1085012 0.06973011 -0.24289334 -0.018500026 0.39124525 -0.06821872 -0.05053374 0.36724406 0.17931734 -0.027405553 0.08219666
-0.40066957 0.05085095 0.46019268 -0.07474705 0.09040379 0.13448276 0.2618094 0.015522799 -0.01711398 0.35844776 0.327763 -0.062072203 0.11880618 0.03970622 0.36699924 0.1802804 0.056431938 0.3480122 -0.07490944 -0.03895617 0.34959862 -0.040295526 0.2538442 0.15322171 -0.27274066 0.1900452 -0.2924054 0.60231304 -0.0015360577 -0.46073896 0.050662365 -0.044716965 0.07879838 0.051211294 0.088197544 -0.34971553 0.11222523 -0.037790377 0.024220133 -0.008238717 0.26100534 0.2558318 0.3887428 0.3380142 0.10025198 0.14452253 0.33022097 -0.034568053 0.14083277 0.06627377 -0.5864685 -0.0007687761 -0.55883896 0.048276875 -0.37430426 -0.14349161 -0.13290969 0.086138 0.09035364 -0.084544316 0.32968992 0.25222304 0.12649018 0.3332259
0.1985096 0.90157485 0.53357804 -0.1837307 0.5872417 0.10854785 1.1379421 0.3488699 -8.713215e-28 0.5286749 -0.28291976 1.0130608 0.20408122 0.07040668 0.925456 -0.6162628 0.32386136 0.9941595 6.657145e-05 -0.43542182 -0.16642243 0.10772598 0.19187014 0.8456943 -1.199669 0.29398018 -0.7556772 1.1466342 1.5300263 -1.1005899 0.8097172 0.014868974 0.0011592204 -0.18252699 0.7124281 -0.5777122 0.75601673 -0.1919109 -0.1738652 -0.86609066 0.802471 1.355801 0.59681296 0.51863253 -0.3633836 0.47067177 1.292946 0.16299698 0.767101 0.3122117 -0.19169147 0.8979221 -2.1578944 0.16284566 -1.4947786 -0.32975015 -0.25854632 0.35903174 -0.23015842 -0.001810676 0.55945104 1.1394389 0.8565635 0.5184745
-0.05363025 0.13261375 -0.66941917 0.30254656 0.34224203 0.2792428 0.09337407 0.2208756 -0.23693354 -0.024515996 0.08361429 0.122692846 0.0955372 0.04252899 -0.015444842 -0.21369499 -0.012832567 0.39845064 -0.113926545 -0.0909223 0.21988243 0.04342994 0.11366982 -0.0133550465 -0.073294416 0.2581691 0.02546154 0.031157484 -0.033471745 0.19462252 0.18971981 -0.019869497 0.3395222 0.19539663 0.077017576 -0.50420713 0.31591538 0.16414471 0.19728592 -0.12525067 -0.03121203 -0.21705483 0.12401661 -0.0016345112 0.31029558 0.18470296 0.29103607 0.21752752 -0.14254008 0.1529168 -0.47694874 0.19411217 -0.41612792 -0.14495115 0.2669305 -0.2119576 0.1502949 0.19329752 0.035588507 -0.15583941 0.107330754 0.1372722 0.10659195 0.119574055
-0.048216403 -0.083813354 -0.028672345 0.1628376 -0.00038005706 -0.17795421 0.183714 -0.021303993 -0.11800655 0.08322773 -0.088651076 0.06768967 0.024209961 0.020907098 0.069519185 0.016823048 0.04154124 -0.2686049 -0.15975368 -0.13037753 -0.1650341 -0.18175286 0.023615222 -0.22539806 0.08146439 -0.1267837 -0.48797214 -0.042456057 0.06105325 0.1301092 0.08121914 0.079705395 -0.20851552 -0.22306526 0.114459604 -0.35562503 0.15839323 -0.1615861 -0.041308347 0.026940215 -0.011981577 -0.16804674 0.14950769 -0.07378771 -0.3141996 0.033928413 -0.13973844 -0.0045197005 0.022921516 -0.03931271 0.012629454 -0.26187825 -0.16345555 -0.025179837 -0.02209643 -0.04131074 0.024295572 -0.21247725 0.0061239963 0.17542273 0.14142399 0.06383456 0.044055577 -0.25293761
-0.7338937 -0.04767482 0.393885 0.114548355 0.32073018 -0.020546911 0.26120573 0.15339445 0.10438233 0.048603885 0.1701721 -0.1502204 -0.18956482 0.06346725 0.08975655 -0.010482244 -0.042715754 0.12838395 0.3193543 -0.32459778 0.41453734 -0.13982855 0.025797984 0.09936948 0.1722941 0.27195892 -0.17478165 0.1730283 0.21082717 -0.08365237 0.36551756 -0.08962784 0.018759398 0.15830876 0.20798245 -0.19545965 0.13321435 0.12556045 0.33645356 -0.39945155 0.24359734 0.9018701 0.08930493 0.5293798 -0.0938793 0.1645799 0.36969408 0.031760145 0.15925221 0.048221 -0.47348788 0.050090857 -0.80092394 0.13044561 -0.49373424 0.23866466 -0.024363764 0.37495148 -0.026959224 0.04490777 0.21956505 0.16701563 0.07206725 0.22435488
0.121052 0.3132549 0.16093004 -0.39159086 0.026265832 0.029485064 0.22632281 -0.30287766 0.12354346 0.30373996 0.22892682 -0.048895262 -0.11574837 -0.06338649 -0.032038104 -0.12399998 0.18397915 0.109311685 0.122973025 -0.16830169 0.43639827 -0.05860903 -0.16087723 0.3506581 0.022601577 0.2554002 0.10566144 0.20231538 -0.12838034 -0.078720614 0.040228777 -0.117140256 -0.24196301 0.021003338 0.10972577 -0.038248558 -0.11809491 0.17295244 0.095083356 0.13418877 0.1851864 0.20068307 -0.20738728 0.26927653 -0.034964655 0.24885054 -0.062333312 -0.146287 0.11881163 0.05169973 -0.10186407 0.003956405 -0.5238276 0.09622217 -0.47248185 -0.2696516 0.01968637 -0.0017509798 0.0036573028 0.0025188802 0.24446318 0.33119744 0.053669296 0.2671159
0.1141979 -0.23516764 -0.007358922 0.019738736 -0.12482451 -0.088928506 0.06664564 0.20685971 0.087042 -0.093755014 0.15834962 0.076647334 -0.27087492 0.012286096 -0.11155468 -0.0016663336 0.11544734 -0.086063035 0.13594048 0.047915008 -0.21951388 -0.0282217 0.03392507 -0.07533634 -0.025861926 0.0020250846 -0.14190215 -0.017791474 -0.03369495 0.10307396 -0.028138882 0.26223025 0.027937317 0.15683156 0.003738631 -0.049906693 -0.27670908 0.025821632 0.07280229 0.050730042 0.03404297 0.0047008656 0.035967015 0.19315223 -0.0059380713 -0.028534653 0.17603497 0.044090956 -0.2092297 -0.1249487 0.08797664 0.02367243 0.057433896 -0.16895072 0.03933144 0.11123734 -0.28013137 0.044863053 -0.03538567 0.25979605 -0.02705104 -0.121244885 -0.23149917 -0.046596747
-0.16151117 -0.10766248 0.015237265 -0.10581567 0.079481706 0.11458604 -0.03999891 -0.031062515 0.11517513 -0.16811226 -0.19716725 -0.10360455 0.07159424 -0.024932347 0.036730457 0.005447084 0.1593163 0.19439666 -0.25339764 -0.022975031 -0.23902865 0.13754588 0.22390716 0.17148572 0.1033905 -0.09705171 -0.079549715 0.09896519 -0.1608538 0.006613964 -0.04925095 0.1336868 0.13526413 -0.10490586 0.04391564 -0.2275896 0.083027005 -0.19333352 -0.15212946 -0.14226487 0.17306012 -0.07851961 0.04180833 0.26696885 0.1168481 0.22758505 -0.008664572 0.08469885 0.24440013 0.15161957 0.0036431106 -0.029931854 -0.31716436 -0.11745923 -0.09940291 -0.08964421 0.035529386 -0.28930512 -0.2772629 -0.06743315 -0.178638 -0.040373567 0.03485043 -0.23741014
-0.29488847 -0.24317543 -1.0903845 0.35239232 0.033876527 0.23314334 -2.2330496 -0.0497993 0.37128705 -0.25633472 -0.28263164 -0.2646582 -0.18247385 -0.018836383 -1.0167825 0.2969545 -0.06384119 -0.20204443 -0.0104391 -0.22463502 -0.14529373 0.22757521 -0.052145522 -0.1951505 0.13494228 0.19226897 0.22254056 0.34197772 -0.06579222 -0.298134 -0.7827216 0.010992332 -0.096223876 -0.18734306 -0.84507287 0.4575883 -0.49495226 -0.15846567 -0.052866664 0.30831861 -0.24187236 -0.3428295 -0.18911216 -0.35994655 0.24710464 0.12405926 -1.1184946 0.018789412 -0.08218232 0.10516064 0.28116542 -0.3917211 -0.65397763 -0.03291049 0.4464161 0.67191964 0.18748082 0.07198268 0.38380745 -0.27806392 -1.3463607 -0.91430867 -0.13461436 -0.80716026
-0.12512249 -0.07438845 0.20834352 0.029481912 0.078775756 0.03287689 -0.110254124 0.38075936 0.052904636 -0.12548113 0.11385443 0.28464648 -0.013398515 -0.12975082 0.102157414 0.3154309 -0.29247594 0.074292965 0.025972057 0.33409673 0.0011234744 0.05667402 -0.050556745 0.07871358 -0.15705132 0.03387272 -0.04957243 -0.008888097 -0.124459706 0.29894245 0.050729316 0.13506578 0.017560672 0.10830282 -0.011621831 0.107407555 -0.26499125 -0.2939185 -0.045872927 -0.34864137 0.05965697 0.22667511 -0.04703018 -0.20726393 -0.1547349 -0.14729288 -0.0432408 0.1892288 0.3377206 -0.06287046 0.26212367 0.32484233 -0.8785768 -0.0056353617 -0.061940156 0.0043623904 -0.10178619 0.13901018 -0.14994392 -6.0885355e-05 -0.09906302 0.06586689 -0.08379121 -0.17923553
-0.087918915 -0.1795549 0.19550505 -0.011031114 -0.00497588 -0.1262121 -0.33186564 0.099112235 -0.15762894 -0.012828567 -0.16344345 0.15527695 0.0032888714 -0.17607303 -0.15218179 0.024327524 0.3733218 -0.13562852 0.033349086 0.14458384 0.22602583 0.04963511 0.220896 -0.14799444 0.18542686 0.16861182 -0.07365583 0.31839952 -0.12698993 -0.19223222 -0.23225169 -0.10203205 -0.05401297 -0.17725243 -0.31940785 -0.20820566 0.03342471 0.004499012 -0.13705747 -0.339683 0.013673065 0.17233038 0.1773564 0.13732567 -0.05310572 0.29322785 0.2580798 0.17464155 -0.19320971 -0.13703626 -0.13170338 -0.13807707 -0.2673363 -0.073323205 0.2822622 -0.10889054 0.11413738 -0.09500424 -0.24545607 0.028248271 0.16585273 -0.055462908 -0.25448635 0.19065271
-0.87791276 -0.0764146 0.3321082 -0.116733134 0.1268262 0.051220722 0.31754243 -0.07205809 0.007062387 0.09987763 0.6794206 -0.12402025 0.14147864 0.16342178 0.28819484 0.43547732 -0.0009443962 0.25335994 0.14476934 -0.45873183 0.48276773 0.014492554 -0.1308109 0.41049168 -0.5475443 -0.04939675 -0.2696058 0.4943044 -0.1471543 -0.25944945 0.086927034 0.1341329 0.13308322 -0.07670172 0.086304076 -0.20062333 0.20295452 -0.16230328 0.34601808 -0.15868399 0.24696825 1.0056577 0.20655613 0.90467834 0.09442486 0.14998141 0.4539666 -0.1406347 0.3290288 0.3463662 -0.6383766 0.23414208 -0.65496546 0.120489165 -0.43432948 0.08108759 -0.0045457245 0.48708126 -0.1689683 -0.09656549 0.17010333 0.40109393 0.11265166 0.40385747
0.05245385 0.048614927 -0.023384979 -0.26464117 0.02981805 -0.027263789 -0.074901 -0.22746246 -0.16449824 0.11058221 0.051593345 0.21421207 0.06154032 0.02354997 -0.05506575 -0.14782013 -0.08547693 0.0041743442 -0.27234104 0.1649062 0.20673068 -0.0036852716 -0.21104586 -0.29464602 0.22675383 -0.048777703 -0.1534242 -0.23969053 -0.04606852 -0.19622764 -0.15189317 0.046606485 -0.025442924 -0.10634108 0.055388223 0.030870594 0.07831136 -0.119742066 -0.11861198 0.090506606 -0.10542092 -0.32316858 -0.09433578 -0.016574573 -0.043319523 0.017436659 -0.12898505 -0.034478776 0.2422136 -0.056317106 -0.09863373 -0.16081227 0.13325144 -0.23651959 -0.17935573 -0.0096181845 0.048496574 -0.11062364 -0.078917705 0.010679353 -0.12116135 -0.13919953 0.013638838 -0.1786698
-0.0062761353 -0.08472712 0.055587087 0.08917226 0.11885125 -0.053310636 0.006614997 -0.2595581 -0.11078066 -0.29546943 -0.013132624 -0.0006933077 0.088150166 0.023655424 -0.15717271 0.0059483075 0.024085946 -0.15816227 -0.23473528 -0.059970725 0.071943454 -0.23810177 0.22417684 -0.06973965 -0.12817216 0.2654809 0.16671456 -0.06175527 0.0800137 0.1157997 -0.11458294 -0.14010307 -0.055801228 0.1314686 -0.16325225 -0.3189751 -0.21069154 0.020619309 0.01079861 -0.10675618 -0.1673118 0.10769856 -0.041658707 0.14000677 -0.013991378 -0.13746157 -0.05290932 0.06283342 0.17575061 -0.29748353 0.046305723 -0.012140559 -0.034051415 0.09749507 0.081389636 0.07481265 0.063912444 -0.017027682 -0.10766319 -0.038861416 0.24378756 0.12217289 0.07590159 -0.06507628
-0.21356428 0.19069359 -0.12203498 -0.11280218 0.28671739 0.020078508 0.1844608 0.48466164 0.07901358 0.19399819 0.16418315 -0.06703877 0.029513486 0.060217623 0.026797108 0.116707385 0.431074 0.18495785 0.010574031 0.26413262 -0.01623142 -0.31767097 0.02253371 0.36383787 -0.060877666 0.11035486 0.06045921 0.3696941 -0.18682085 -0.21380551 0.07992553 0.11311996 0.011122529 -0.024993448 0.072587304 -0.05453127 0.09242262 0.12934886 -0.15575431 -0.19166765 0.093165904 -0.18074961 0.09645305 0.048273038 0.10360665 0.1424625 0.3429893 0.027951272 -0.076957576 0.086297855 -0.3833361 -0.12425944 -0.43859944 0.12661642 -0.55723727 -0.19672109 0.19137345 -0.008751195 0.038585875 0.094866365 0.1798379 0.34561992 0.03542117 0.017282113
0.078921646 -0.49202353 -1.7926579 0.55748534 0.038200237 0.038053527 -0.121704005 0.077633694 -0.016761838 -0.36291027 -0.06671427 -0.42018348 0.07881131 -0.32739902 -1.1428187 -0.042380277 -0.3190848 -0.47350505 -0.042616263 -0.24703512 -0.5820729 0.24122311 -0.18743986 -0.28959402 -0.039667986 -1.108241 0.29221347 -0.0011189966 -0.013000463 0.037735663 -0.9679119 -0.03764967 -0.13278618 0.084186986 -1.192145 0.8737721 -0.37188587 0.22204429 -0.2221914 0.0443676 -0.78220624 -0.35796538 -0.73763365 -0.25051922 -0.082462095 -0.032327194 -0.45566246 0.15702222 0.027496396 -0.3261068 0.8837533 0.040612336 0.112474926 -0.10567143 0.28223047 0.0057598944 0.088043876 -0.6951561 0.2128901 0.0037384303 0.14422415 -2.2913775 -0.23185387 0.027891817
0.19326413 -0.04833649 -0.87874097 0.12487726 0.0156849 0.29174826 -1.205995 0.10851807 -0.23978253 -0.25879315 -0.07970071 -0.034280334 -0.2856403 -0.07176369 0.008904076 0.09394206 0.041739676 -0.6952933 -0.13642427 -0.13616401 -0.36637166 0.19770768 0.1096473 -0.4019362 0.3594212 -0.03640624 0.36642924 -0.30858836 0.02221729 -0.026885293 -0.29169422 -0.0863597 0.13999794 -0.05313715 -0.4988875 0.46659872 -0.84483975 0.27405587 0.15673871 0.11861891 -0.35190964 -0.34185162 -0.29865265 -0.50134397 0.11107966 -0.019882727 -0.4195416 -0.10076117 -0.5860725 -0.14484513 0.5164547 -0.6068583 0.6527482 0.14577122 0.7911368 0.11045176 -0.06951707 -0.33252892 0.005576805 0.14226693 -1.1674461 -0.7392263 -0.10485187 -0.39107952
0.11932459 -0.12863831 -0.06554581 -0.22969511 0.14382294 0.09818396 0.0036635818 -0.14228934 0.11725388 0.13226694 0.0498544 0.07756998 -0.22320832 0.08613657 0.23511012 0.06798143 0.29720426 0.34492433 0.00011287921 0.13225788 0.5655891 2.220671e-05 0.3049118 0.19623342 -0.01498343 -0.13078606 -0.09526314 0.08613678 0.03983359 0.059764415 0.043027572 0.052968986 -0.04739842 -0.03940264 0.12590137 0.021162823 0.068275176 0.026945967 0.09884968 -0.11314121 0.2139842 -0.24154377 0.2789316 0.05258855 -0.21190962 0.28685296 0.08229573 0.2767832 0.17023057 0.39156958 -0.23624335 0.09310157 -0.661953 0.09218498 0.07556174 -0.21726906 0.025679452 -0.11859396 0.08288637 -0.18216482 0.34220955 0.32007712 -0.035008796 0.24569185
-0.20207825 0.18210174 0.2316895 -0.16194618 0.15970981 0.3455754 0.2181346 -0.12667973 -0.17827827 0.3458952 0.11988573 0.13402048 -0.07344143 -0.012774172 0.29737642 -0.14429711 0.1342205 0.16523105 -0.060042568 0.08811846 0.16623016 0.13933195 0.13259825 0.04227592 -0.020338863 0.24577938 -0.3237067 0.30691352 0.02865193 -0.28579435 0.28250617 -0.27480325 -0.15372673 -0.024823472 0.06664125 -0.35866547 0.25410017 0.021694608 0.16165711 0.026120408 0.030674892 0.5448958 -0.11180955 0.10731694 -0.03795465 0.30810174 0.3581842 -0.122799374 -0.1393012 0.17831807 -0.49230707 0.022716789 -0.4321815 0.09945861 -0.3983429 -0.00064319157 0.03572116 0.024068046 0.065339945 -0.044663906 0.1462567 0.14604357 0.046645552 -0.042826835
0.051140927 0.0839125 -0.07983039 -0.0078301495 0.06713406 -0.19040075 0.1564128 0.06497041 0.08427191 0.15708983 0.28292 -0.07253474 -0.104006484 0.053843554 0.08021958 0.1608407 0.11174146 0.16518871 -0.06373103 0.17224029 -0.031637523 0.21939924 -0.19855069 0.22183779 -0.119022965 -0.26755965 -0.12179433 -0.03569897 -0.22091551 -0.2715719 -0.13849533 0.14218764 0.23972121 0.18578114 -0.094093084 -0.1730975 -0.04662944 -0.13028263 -0.112665966 -0.22921042 -0.034244675 0.008032848 -0.020303717 0.16722716 0.17019054 -0.09609849 0.18252327 0.10788386 0.16341087 -0.093804486 0.023497805 -0.031209998 0.0553405 0.082197785 0.19497795 0.08419172 0.11394101 0.11199109 -0.04831883 0.15624355 0.02291165 0.1462736 0.15839955 0.050522815
-0.21771757 0.03545821 0.1094869 -0.085373215 0.08026565 -0.07147343 0.11366934 0.10088775 -0.02762765 0.07230243 0.14434932 -0.0788742 -0.12507373 0.13643132 0.0968091 0.04025635 0.20137301 0.23215818 -0.3289948 0.091181606 0.16269754 0.01953748 0.15592037 0.39771092 -0.21932283 0.09973622 -0.030436791 -0.07582367 -0.16809933 -0.11975481 0.26247835 0.15396619 0.1723712 -0.26706085 0.21955784 -0.049567703 -0.07780949 0.22853133 0.08639998 0.1445978 0.26939118 0.090858966 0.37190557 0.3700206 -0.10866756 0.2709953 -0.07407562 0.014704945 0.15914924 0.30778155 -0.53273606 0.20170487 -0.22341645 0.09598925 0.099770166 -0.2028093 -0.21321309 0.08187908 0.12503658 -0.18275014 -0.05133247 -0.0037674413 -0.083487205 0.18748744
0.006135871 0.04487949 -1.639582 0.36061102 -0.22290112 0.13177311 -0.9101357 -0.052963443 0.021179149 -0.31207895 -0.15338552 -0.35169002 0.06322623 -0.10821241 -0.6441495 -0.5995832 -0.30315527 -1.3722253 -0.20299843 -0.117787115 -0.3883361 0.36474222 -0.035482973 -0.19705932 0.39637324 -0.043549698 0.41955584 -0.20756894 0.31315142 -0.059815705 -0.4093397 -0.15151773 -0.16433915 -0.07059479 -0.4101985 0.5408091 -0.040669482 0.075487755 0.023598567 0.12576836 -0.52617395 -0.46844977 -0.4214555 -0.03748738 0.11945057 -0.15624811 -0.024710732 -0.14215773 -0.028585458 0.048541576 0.19271222 -0.77341187 0.27484056 -0.21259956 0.6224518 0.64935255 -0.08453269 -0.06277499 -0.047210723 -0.025628401 -0.47951588 -0.8664507 -0.21916959 -0.5516429
0.113068804 -0.18784854 -0.06809908 -0.024254797 0.12226283 -0.08431145 -0.0056717177 -0.055963967 0.016269632 -0.04514745 0.19272968 -0.1559317 0.2668964 -0.36166796 -0.20361869 -0.10143083 -0.062355578 0.14861688 0.0019614997 -0.03619735 0.09181677 0.1547639 0.22276802 -0.34904966 -0.11076217 -0.1345453 -0.26432252 -0.14273861 -0.2287124 0.052970536 -0.20425291 0.060153503 -0.054251328 0.08900692 0.00484578 -0.14524172 -0.21093687 -0.10710759 0.20673493 -0.00043934636 0.26668978 -0.15785684 -0.09865926 0.27597335 -0.25199127 0.010274355 0.020531518 0.06235176 -0.022823142 -0.052188653 0.07158038 -0.1518857 0.12764096 0.18042031 -0.1476742 0.047717333 0.13888852 0.00270437 -0.03564123 -0.20680994 -0.07730706 0.11443616 0.04154294 -0.019609103
-0.07545012 -0.29152018 -0.91755825 0.07083333 0.025918463 0.24108055 -1.1103342 -0.009931522 0.009840689 0.08896243 -0.22493887 -0.4470501 -0.11527861 0.14267588 -0.327441 0.13240598 -0.036964357 -0.7073955 0.040378816 0.022773793 -0.07174445 0.06870918 -0.15311119 -0.23500992 0.3081462 0.14443165 0.07304592 -0.3491812 0.18354923 0.080710754 -0.26235718 -0.010390302 -0.04724247 -0.18022124 -0.27993375 0.51381916 -0.1760814 -0.067886665 -0.050596282 0.15547125 -0.056005005 -0.6262032 -0.33754915 0.019423768 -0.15826763 -0.26220226 -0.13506036 -0.4557535 -0.06500132 -0.027747199 0.2869598 -0.1193959 0.37139636 -0.20744567 0.3375499 0.33309683 -0.0884113 -0.1919884 0.04819144 -0.2793058 -0.77604926 -0.82765585 -0.0067650606 -0.1838888
