0.21158853 0.06280379 -0.107638486 -0.13575053 0.19742627 0.19866306 -0.012834033 0.6328024 -0.07817316 0.23144485 -0.10239459 -0.13420898 -0.022912651 -0.42031625 -0.16581057 0.01736344 0.17995007 -0.15404867 0.10421208 0.059218008 -0.036994692 -0.13449414 -0.3820482 -0.013123375 -0.022846106 -0.33567825 -0.16571411 -0.006220455 -0.3604342 -0.044392407 0.06653181 0.026615249 -0.0541596 0.026376037 0.095410585 -0.006544484 -0.07039408 0.17810754 0.06457701 0.0044644144 -0.2165291 0.22874007 -0.059895363 -0.1258271 0.009171267 -0.052084755 -0.16788863 -0.2709123 -0.078381605 -0.1851235 -0.021202885 -0.22254361 -0.12409863 0.21080631 0.19187848 -0.020592637 -0.2050678 0.013423822 -0.03349266 0.0829137 0.6430161 0.048848275 -0.25571877 -0.08788597 -0.2485974 -0.29341862 0.41636673 -0.029094856 -0.18498626 -0.08415635 0.0020198715 0.17872775 -0.12876257 -0.007241378 0.1167624 -0.10190087 0.30629253 0.21157409 0.065649554 0.3085929 -0.076731436 -0.7584629 -0.03548546 0.20628545 -0.07567091 -0.097758695 0.12142587 -0.1457172 -0.33498824 -0.2625372 0.029890442 0.17600708 -0.0020893703 -0.019360682 0.12299254 0.26151818 -0.03908211 0.11745534 -0.08224976 -0.1816386 -0.40042865 0.09936856 0.1501111 -0.08992814 0.02403384 0.10495777 -0.121898755 -0.08146916 -0.2636698 -0.055842374 0.011923816 0.035505384 -0.09240222 -0.03651378 0.114341356 -0.11532017 0.13091244 0.20711876 -0.18506731 -0.15910184 -0.041130416 -0.023222553 0.17279029 0.35616514 -0.21842872 -0.024302952 0.19861454 0.079909734
0.15885897 0.014835877 0.08368796 -0.505025 -0.20022169 0.12906803 0.17560641 -0.0543118 -0.27602756 -0.25812376 -0.06769456 0.1666866 0.16474028 0.60134697 -0.09954548 0.2099248 0.16948245 -0.053743955 -0.46856782 0.03813478 0.088804 -0.1896935 0.17234975 -0.096960634 0.16082442 0.0189392 -0.20344163 -0.08554685 0.2142867 0.102767766 -0.026601871 -0.05351877 0.16475238 0.09047678 -0.15810362 0.29737264 0.093467064 0.11646425 0.28263506 0.13527988 0.08511104 0.094839334 0.062250387 0.24022643 0.14003897 -0.13965112 0.12819184 0.07131485 -0.10372226 0.18799196 0.0028486494 0.09541181 0.09971914 0.12076068 -0.061143786 -0.09197009 0.33798695 -0.013352138 0.158826 0.15481824 -0.021491801 -0.030805416 0.207705 0.0138975065 0.2850977 -0.09707955 0.012840688 -0.037497967 0.03998635 0.15688878 0.17062868 -0.04840188 -0.0052317968 -0.12005646 -0.86389375 -0.26817277 -0.21685565 -0.032801952 0.094119 -0.20985366 0.059735052 0.56548584 0.16194037 -0.46254605 -0.028589142 0.042243235 -0.13287213 0.08586952 0.24005525 0.070057996 -0.22123693 -0.15636693 0.06395827 0.04183254 -0.024167346 -0.534899 0.16539255 0.020970264 0.0053495103 0.05960972 -0.015478165 0.07675263 0.22111405 0.07080469 0.1781054 0.060703922 0.24450548 -0.005035289 -0.21936277 0.24568251 0.11352194 0.16669667 -0.07173508 -0.13609168 -0.0076989103 -0.10708784 -0.04785823 -0.26147863 0.17096162 -0.0014552753 -0.12203742 -0.0058832304 0.023125703 0.1195942 0.2820315 0.2624419 -0.027809737 -0.18502131
-0.065111116 -0.074493 -0.13201818 0.2656177 0.12516207 0.03700582 0.07288407 0.30198842 -0.22005375 0.1227655 0.04349463 0.08890101 -0.1090106 -0.24698898 0.117875814 0.043205213 0.109227516 0.23175976 0.17777418 0.046388786 0.022993581 -0.00095117284 0.15979138 0.2758364 -0.21221289 -0.021934705 0.17338015 -0.14367236 0.088205874 -0.3590112 -0.11950607 0.1521813 -0.08658265 -0.08340871 -0.19868997 0.074093886 -0.1414897 -0.07445689 -0.16247115 0.16256605 0.1491434 -0.3996363 -0.06349883 0.12290837 -0.059574515 0.065014794 -0.3044484 0.060167756 -0.11019128 -0.088190965 0.022112079 -0.0913574 -0.11367875 -0.14346337 0.2016778 0.14215723 0.18278559 -0.0132758375 -0.25401694 0.23699437 0.15980008 0.23970445 -0.04660189 -0.3596276 -0.25007424 0.064318255 -0.08917949 0.04664735 -0.023543386 -0.04067871 0.10705109 -0.046164006 -0.04594337 -0.1201802 0.24515255 0.019690374 0.03363078 0.08573407 0.085392 -0.0076517966 0.023653017 -0.1851736 -0.4523853 0.18106885 0.008146366 0.11034484 0.17112058 -0.25543058 -0.078312695 0.18480802 -0.1348006 -0.042647693 -0.008808324 -0.15450317 -0.05312784 0.24415888 -0.15642372 -0.30961666 -0.05345515 0.23365699 0.34157062 0.015517412 0.09815379 0.008765892 -0.021958677 -0.07037667 0.14200734 -0.064619556 -0.34806177 -0.064974144 -0.024689985 0.079801574 0.11437673 -0.13372183 -0.06747924 0.21968606 0.41236663 -0.8336491 -0.10467108 -0.050303362 0.03775457 0.017297916 -0.57610315 0.2508241 0.26208028 0.24832171 -0.0053103534 0.084409416
0.11059924 -0.12462583 -0.20707445 -0.1719277 -0.15323886 -0.08726859 0.036593642 0.10638886 -0.0032779425 0.18744299 0.08092067 -0.07892366 -0.034927644 -1.059487 -0.09689157 -0.30157006 -0.07247645 -0.11890179 0.08556749 0.18359579 0.02529071 0.008389352 0.01749322 0.2830452 0.028698215 0.0029983749 0.1435765 -0.30123577 -0.19352031 0.018625468 -0.18961951 -0.14565706 -0.04945592 -0.005927618 -0.015415532 -0.07816692 -0.029937848 -0.010180057 -0.014182659 0.14292571 -0.025051545 0.11359729 0.07209368 -0.13565803 -0.06518917 0.1834571 0.08575745 -0.21588269 0.17331907 -0.043445766 -0.09438068 -0.15216365 -0.14914295 0.048616797 -0.13627829 -0.27932477 -0.3922532 -0.12539683 0.13730063 -0.013472934 0.103849985 0.2038628 -0.088287555 0.16039969 -0.062986165 -0.1720544 -0.050315566 0.061314285 -0.059065193 -0.027940521 0.22559942 0.0445807 -0.2516223 -0.12140908 -0.027678458 -0.14711078 -0.31338516 0.08666399 0.06958579 -0.1308416 0.032298036 0.1900867 -0.19597983 0.115722105 -0.15316585 -0.1037971 0.050864797 0.029600311 -0.19323145 -0.5890019 0.044460647 -0.089590915 0.026005095 -0.046031382 -0.10857484 -0.02802597 0.07257474 0.006055235 -0.05593553 -0.10773802 0.006910899 -0.0022005977 -0.17752112 -0.15680647 0.09724 -0.11077956 -0.16788293 -0.14945096 -0.3526858 0.013317363 -0.093498535 -0.12278735 -0.124606416 0.12752731 0.15885325 0.04689471 0.22001345 0.036687303 -0.14525883 -0.010351768 -0.10168991 -0.3097495 0.06743112 -0.164322 -0.9098409 -0.05739191 -0.0328271 0.04057604
0.08222829 0.08232986 0.039286874 -0.21070933 -0.04676331 -0.18032098 -0.15104778 -0.5870332 0.18144484 -0.32753977 0.0779138 0.03438945 0.12082745 -0.013264105 0.15285224 0.07846452 0.028742393 0.02520912 -0.019575631 -0.060515765 0.056697827 -0.046700574 0.12413225 0.044208534 -0.050177906 -0.03164598 -0.19007339 -0.08218792 -0.011080602 0.062713526 0.03346857 0.22388794 0.115738526 0.14908561 0.21089113 0.11018685 -0.020212658 0.21314628 0.09560054 0.08503427 -0.08240428 -0.05205445 -0.13143303 0.23903027 0.062734924 -0.00879022 0.16783543 0.22126707 0.09734824 -0.11895721 -0.04445088 0.036337953 0.12312039 -0.12576503 -0.09815089 -0.073474266 -0.025531987 0.10934803 0.026597137 -0.06241139 -0.29693595 0.02482296 0.06288143 -0.31596497 0.045882445 0.27635664 -0.2122222 0.092053905 -0.26886958 0.16433297 0.020025749 -0.16340205 0.058556136 0.041532863 -0.16679041 -0.20481494 -0.15341033 -0.027035953 -0.042027265 -0.050138623 -0.109825015 0.20750394 0.10941347 -0.0960254 -0.05045864 -0.02017459 -0.0008039567 0.22199321 0.14176758 0.06842847 -0.15078585 -0.21560952 0.1485638 -0.06786797 0.03829655 -0.20041673 -0.022222709 -0.10313988 0.18546166 0.08467438 -0.026634652 -0.0013739283 0.005904748 -0.26717478 -0.14332029 -0.13409762 0.4082652 0.035354666 -0.513527 0.18424137 0.2533462 -0.092887804 0.011437011 0.0006115062 -0.080876 0.16763483 -0.18448758 0.046869855 0.026311811 -0.023231208 0.19290732 0.15202184 0.016615849 -0.066954255 0.1526464 0.0031458416 0.10972738 -0.11633141
0.06291392 0.10424882 -0.016150663 -0.030942177 -0.038244452 -0.04643547 0.12215899 -0.2574168 -0.07356038 -0.25515693 0.13652095 -0.039062228 0.03996507 0.5084457 0.09060473 0.070380576 -0.018398963 0.043679688 0.08023243 -0.16669202 -0.04275713 0.037708804 -0.0013128731 0.18813285 0.19952306 0.2499713 0.10207068 0.15341681 0.4206046 0.047107875 0.09808266 -0.037210923 0.16747016 0.06879966 -0.018000672 -0.19459614 0.12326563 -0.11317539 -0.26100302 -0.05071497 0.13506313 -0.0025648016 0.2799132 -0.06744467 0.15363012 0.059941884 0.26607594 -0.073586226 0.18613671 0.16991135 -0.14654243 0.10011177 0.35525644 -0.1300963 -0.07259585 -0.06626355 0.2733091 -0.09571471 0.08684293 -0.2861556 -0.18850356 0.04535366 0.13244334 -0.13519801 0.32698566 0.13040727 -0.21376263 0.19860242 0.28024504 0.024071649 0.07091027 0.057400666 0.040467717 -0.03693087 -0.07191674 -0.06630188 0.20487548 -0.097456306 0.14333011 -0.08617062 0.057359766 0.047517527 0.114835694 -0.25898325 -0.027750663 0.14779164 0.168064 0.23409168 0.20125954 0.04598361 0.12159411 -0.043983042 0.17549466 0.25864598 -0.07371379 -0.1438123 -0.028526666 0.056750458 0.08945093 0.024557456 0.17953104 -0.045804124 -0.11490073 -0.087668456 0.06982961 -0.085154764 0.11379284 0.08952538 -0.08683095 0.34540856 0.08318256 0.0750618 0.09545433 0.19294396 -0.020585556 0.02151813 -0.036255557 -0.24193174 0.026356611 -0.017526982 0.25223595 0.19120273 -0.052868843 0.068074934 0.16171445 0.16490199 -0.045165733 0.1577499
-0.09296455 -0.02813611 0.24704507 -0.39871353 -0.14483206 -0.24758174 0.035873853 -0.6659115 -0.2768814 -0.33327052 -0.18246916 0.102149755 0.108575866 0.67001224 0.1556693 0.24108686 0.2027975 0.33761322 -0.2058319 -0.15596445 0.21970665 -0.05046132 -0.021272205 -0.18067722 -0.039261755 0.43250728 0.30414775 -0.058277566 0.6340152 0.2435757 -0.3098667 -0.09209923 -0.020026404 0.25817066 0.06025303 -0.19235754 0.029834606 -0.040845282 0.0023096537 -0.055699844 0.20000638 -0.510641 0.14261921 0.259652 0.31613487 0.24303073 0.07386106 -0.030227402 0.1421391 0.07737505 0.07565095 0.059557185 0.13167351 -0.17457882 -0.3191923 -0.23841809 0.3980236 0.24002816 -0.27514228 -0.6228687 -0.32772732 0.16214488 0.17918691 -0.010577581 0.5273161 0.29077688 -0.28069273 0.35152838 0.8454158 0.1162912 -0.02172727 -0.093379624 0.19516185 -0.15223402 -0.54461 -0.24595451 0.0702535 -0.2544985 0.15207872 -0.3703024 -0.1301835 0.04239341 0.025537705 -0.2888966 0.095871575 0.16785634 -0.72630954 0.07339885 0.4429832 -0.004832042 -0.018259745 -0.19790773 0.30489585 1.0676088 -0.029254016 -0.6825399 -0.10154789 -0.07489364 0.7315447 0.34617588 0.13730727 -0.13321155 0.107784666 -0.3011316 -0.02213798 0.028393352 0.39932206 -0.10530146 -0.5723096 0.5769357 -0.020805376 0.071066454 0.069954135 0.33143282 0.086418435 -0.018594284 -0.42331305 -0.48421842 0.19176719 -0.091369994 -0.03539148 0.089390464 -0.06390617 -0.34777027 0.5564302 0.23912589 -0.080732234 -0.13821569
-0.25119698 0.007098104 -0.11533209 -0.0035581647 -0.027002558 0.025218816 0.0852855 -0.037427843 -0.060357783 0.035480335 -0.09300041 -0.026185608 -0.037437703 -0.27244222 -0.04885001 -0.029601287 0.008711956 0.019321099 -0.09895194 -0.0412264 -0.06743287 0.0043843626 0.49907294 0.11505847 0.08759772 0.12876627 -0.059521377 -0.036776215 0.31655577 -0.009631062 -0.01692004 -0.031950768 -0.02829576 0.059879195 -0.015683303 0.09557377 0.0070924433 0.14096797 -0.13788417 -0.06670451 0.015758822 0.072865285 0.042271245 -0.06404403 -0.023240054 -0.027441582 -0.06962917 -0.09933853 0.047105826 0.18186523 -0.22746043 0.004563021 0.112916656 0.06698178 0.122510925 0.48777485 0.12779719 -0.014485445 0.023130547 0.2614249 -0.028473472 0.039697472 -0.060655683 -0.08436191 0.16082805 0.04430631 0.072970085 -0.29084802 0.11610989 0.0062996196 0.09992068 0.15955167 -0.09940052 -0.08611674 0.09018526 0.07279377 -0.06638067 -0.12124443 -0.24831581 0.06866953 -0.0056044827 0.94598687 -0.0030191268 -0.04362224 -0.1778922 -0.0011574863 -0.02667099 0.10386608 -0.060810275 -0.023751667 0.10168552 -0.20743425 -0.09917052 0.036944695 -0.04190474 0.13376507 -0.16053593 0.07057874 -0.06073374 0.115327515 0.03802296 0.09787699 0.08795738 -0.18782866 -0.1406592 0.038272474 -0.09712029 -0.031234596 0.0014859786 -0.06615861 0.0637097 -0.073983654 -0.18155022 -0.23222904 0.091938615 0.16168827 -0.19076163 -0.11079303 0.038095735 -0.14184047 -0.03429077 -0.008716519 0.23556004 0.16068083 -0.064125314 0.11793579 -0.109287694 0.06159976
-0.025518203 -0.020738335 0.008294371 -0.040537138 -0.0015295824 0.048264116 0.02973951 -0.040354416 -0.059746087 0.0413188 0.0954211 0.16643311 -0.14995496 -0.043908868 -0.005301135 -0.08714821 -0.12618193 -0.13844545 -0.10512314 -0.09205843 0.13778833 0.14041716 -4.72337e-40 -0.056412358 -0.09304928 0.02386444 0.017180301 -0.014610796 0.11225418 0.029874079 0.16672337 -0.13038903 0.15021144 -0.099616535 -0.09430045 -0.14352697 -0.04858074 -0.23605618 0.09597161 -0.062487874 0.052109234 -0.0047295988 -0.037436202 -0.0026278493 -0.041141797 -0.11003108 0.062187113 0.07416961 0.00861622 -0.032839414 -0.18015112 -0.057189487 -0.04864214 0.030965975 -3.8575245e-06 -0.07199762 -0.020271232 0.009584175 -0.2105917 -0.31706786 0.02467266 0.01333309 0.04869548 -0.12620988 -0.008314347 -0.12269993 -0.13861144 -0.027923202 -0.039930727 0.00077584956 0.06425602 -0.04691223 -0.09131148 0.02768689 -0.03261372 -0.10995163 0.025646694 -0.01280522 0.16418588 0.031427447 -0.09576608 -0.10908154 0.0815783 -0.08365881 0.16109493 -0.0071643023 0.053613644 -0.08224988 0.06977072 0.03466322 -0.15607567 0.087420896 -0.09618143 0.059293643 -0.08411235 -0.010943143 0.052122228 -0.042747322 0.091261335 -0.079723716 -0.08457323 0.023896819 0.008263055 0.13089085 -0.11976115 -0.0139341755 -0.08935611 -0.12517045 -0.05687676 -0.039442517 -0.0107708555 -0.05534343 -0.07695566 -0.12390748 -0.052106608 -0.053084902 0.10512684 0.10579895 -0.25239632 -0.06015301 -0.03238898 -0.004059967 -0.10114114 -0.04357367 -0.049794335 0.0014657414 -0.12260272 -0.06692853
0.05061812 -0.15031596 0.0293949 -0.11081303 -0.0619004 -0.04040489 0.006174973 0.2744364 0.059244826 -0.108846925 0.017762696 -0.013468431 0.10721334 0.024266634 0.023460349 0.22615686 0.096729144 0.033859883 0.06342442 0.084644176 0.0394877 0.019339485 -0.09739957 -0.079030074 -0.10236419 -0.01778506 0.27112386 0.063783586 0.09451738 0.051985063 -0.0033273322 0.19984461 -0.028743157 0.064559065 -0.054141436 0.09752751 0.35299996 -0.07109335 -0.04980914 0.0056522093 -0.004688318 -0.02058248 -0.0072017973 0.097307816 0.08552204 0.19927964 0.10852868 -0.05981812 0.13526328 -0.123851605 0.13447171 0.20079266 0.2598818 -0.27729195 -0.110743724 -0.23575102 0.12974884 -0.08764806 -0.21258698 -0.056555342 -0.5527943 0.21257532 -0.04200745 0.03891598 -0.013605562 -0.042939104 -0.2092633 0.10149612 0.005668258 0.033363447 0.33361474 0.10047169 0.020133339 0.052359372 -0.023483813 -0.42664537 -0.14729175 -0.29033288 0.06614656 -0.05892325 -0.13825747 -0.01345829 -0.0047439565 -0.13749707 -0.05424589 0.15339948 0.09334197 0.01375875 0.0979753 -0.020299727 0.062105242 -0.032392208 0.09922859 -0.025185479 0.1733372 -0.058503438 -0.16644616 0.08477917 0.086956866 0.059846543 0.05966471 -0.18691441 0.04363351 -0.23618667 -0.052982513 0.021810127 0.085999995 0.04700092 -0.19624577 0.31243807 0.18916683 0.039240927 0.14674865 0.10654047 -0.0626534 -0.03919961 -0.12796356 -0.051238388 0.13093412 -0.119057745 0.02759503 0.09340943 -0.056463752 0.36864984 0.31696895 0.04046316 0.07818135 0.016055811
0.053577576 -0.18685983 0.022237955 -0.21291116 0.15153316 -0.018226758 -0.16228642 -0.009070107 0.1112584 -0.20384707 -0.022536568 0.056213047 -0.11431182 -0.2433981 0.13020648 -0.0054819933 0.15514456 -0.021376994 -0.38305324 -0.011327726 -0.032462742 -0.0030334098 -0.1446717 0.012316328 -0.0358701 0.06566653 -0.01837026 0.0030208642 0.2461248 0.041738898 -0.007575038 -0.063575484 0.17959289 0.08260303 0.102929495 0.12114832 -0.026975159 0.023166494 -0.29481322 0.006343105 0.056118414 0.15201946 -0.019127708 0.082417615 -0.24955133 -0.12937517 -0.048464004 0.05652396 -0.051702566 0.028474243 -0.13193968 -0.06496907 0.10938562 -0.03475118 -0.36356452 0.040185887 -0.042508766 0.0025360095 -0.029173449 0.20544466 0.017932039 0.036502358 -0.103617325 -0.12868272 0.048164953 0.07567594 0.1960992 0.19109856 0.079978615 -0.06562846 0.063602164 0.0038198938 0.107457295 -0.10375142 0.02479724 0.26652285 0.37827092 -0.4454429 -0.093279846 -0.025906716 -0.23188049 0.38333613 -0.04794773 0.05075581 0.031756707 0.11217603 0.32536778 0.045319527 0.091852315 0.015355014 -0.023956638 -0.09609534 0.12363814 -0.18163222 0.024695082 0.67272335 -0.16836506 0.12710708 0.03755917 0.05222886 0.024577687 -0.015621923 -0.050175928 -0.23174849 0.10481878 -0.06441483 0.025694478 0.06668059 0.25956962 0.22838958 -0.11115661 0.018783985 0.02862333 0.13617434 -0.10199889 -0.056602027 -0.38975438 -0.01308139 0.023925677 0.025612524 0.06807725 0.0035753837 -0.03235799 0.14389367 0.10513852 0.08941893 -0.028073946 0.020228237
-0.08377495 -0.09476798 -0.013068675 -0.09163018 0.25729242 -0.58397424 0.49182144 -0.045264523 0.038304694 -0.078122094 -0.07511509 -0.10357487 0.031464025 0.14664567 0.001725074 0.19335671 -0.09952232 0.14897546 0.010057813 -0.19274648 0.54732484 0.09101924 0.55644953 -0.24931805 -0.014776841 0.117220975 0.34761363 0.033275694 0.056374818 0.047722578 -0.19733033 0.11100268 0.40943435 0.107670926 0.0028798468 -0.12762937 0.02011938 -0.12750633 0.017187802 0.057174988 0.024749635 -5.727543e-05 0.251767 -0.039466247 -0.030306375 0.07300386 0.08804379 0.08074026 0.12007689 0.007459208 -0.07551887 -0.077881224 0.13821854 -0.29575586 -0.0119597735 0.21435912 0.033193145 0.1358896 0.19639917 -0.28321886 -0.89171934 0.18350041 0.059056964 0.03258858 0.092435494 0.23381406 -1.0358491 0.10325388 -0.15590279 -0.06149827 0.24825488 -0.0950184 -0.003980842 -0.09654756 0.0141639635 0.23983203 -0.20925428 -0.1595308 -0.18383649 -0.047913387 0.13720858 0.9662715 0.017034257 -0.13844913 0.23895217 -0.028734352 -0.08578775 0.40489933 -0.018497568 -0.054102767 0.09563333 -0.10923388 0.06672555 0.4781259 0.07893006 0.19538553 0.00301927 0.15923518 0.1052448 0.039974093 0.19491057 0.09712982 -0.09220426 -0.11181879 0.14907241 -0.005608324 0.017119026 0.24563728 0.117815405 0.16417012 0.09909119 -0.08540519 0.26084492 0.21549255 0.018979415 -0.09990972 -0.18345699 -0.11855966 -0.02551566 0.03240897 0.20118786 0.14247257 -0.19785537 -0.1492064 0.2934963 0.23991251 0.17289928 0.18888299
-0.07230202 0.070526965 0.04341293 0.056709517 0.07960247 0.061477568 -0.14404118 -0.17256546 -0.16265185 0.10255851 -0.104505636 -0.11135821 -0.14429145 -0.05342892 0.021157628 -0.041110918 -0.028566739 -0.09327408 0.123470806 -0.12558606 0.044571698 0.04196079 0.388588 -0.026084658 0.009639596 -0.008160937 -0.23397228 0.019414667 -0.008288933 -0.09667019 -0.12966609 0.18029118 0.11395352 0.052333582 -0.07845903 -0.18425877 -0.029279111 0.17622311 -0.056489646 -0.15297914 -0.11189965 0.032461334 -0.04602405 -0.11133194 0.042948153 0.013543452 0.043862805 -0.09250087 0.106862605 0.032250013 -0.0586483 0.120790936 0.043794688 -0.22138198 0.103597835 0.004218859 -0.06896834 0.022004511 -0.054737303 -0.03570339 -0.020783195 -0.049417082 -0.02937929 0.07239957 0.12168474 0.011508296 -0.0126530705 -0.15314224 0.010696895 -0.04638642 0.015698988 -0.014028482 0.06284102 -0.029463852 0.18728694 0.004066142 -0.17810723 -0.24241535 -0.064748906 -0.13337548 -0.04900914 0.43790218 -0.029281689 -0.098571934 -0.16276054 0.005884212 0.15673424 0.103065215 -0.053104356 -0.1568793 0.09963948 -0.10919472 0.04636123 -0.14516513 0.11739961 -0.1474449 -0.04653693 0.10674895 0.03861645 0.058577534 -0.10579487 0.033220932 -0.0858566 0.025714612 -0.087519266 -0.16398604 0.17482059 -0.13195515 0.26631203 0.12112544 -0.16088787 -0.07869412 -0.1618907 0.070635825 0.019010281 -0.19360581 -0.013342141 -0.088419035 0.11695519 -0.0798698 -0.020460319 0.1044874 -0.03888849 -0.012325214 -0.10618336 -0.11183018 0.0023906296 -0.0087789
-0.0555092 -0.059742536 0.22872111 -0.09904555 -0.16058645 -0.15902546 -0.270993 -0.18892512 0.13457717 -0.22035706 -0.050481584 0.108801395 0.18864535 0.15861136 -0.090721235 0.23635323 0.014633458 0.19917817 -0.09962581 -0.03818698 -0.06302066 -0.0376186 -0.22433658 -0.059058707 0.011903661 0.18473414 0.19311787 -0.04758931 0.042208593 0.1565304 0.1276332 0.08035303 0.085499905 0.11552248 0.07272185 -0.21351734 -0.018388022 -0.0014347883 0.09414524 0.2056417 -0.10332501 -0.20367523 -0.019628583 0.20745008 0.07825941 0.019660361 0.00086770306 0.120851144 0.11807488 0.09855047 0.17488076 0.15071444 0.12771371 -0.11908509 -0.1052764 -0.24951623 0.031719983 -0.119630486 0.1376914 -0.07446606 -0.23462716 0.048713278 -0.025226163 0.011544888 0.2484661 0.3089784 -0.19356915 0.06395354 0.13003697 -0.04143253 -0.13398789 -0.21462725 0.15184228 0.015590039 0.105500035 -0.0204695 -0.016281445 -0.09565434 0.17715178 -0.17203692 -0.02668313 -0.35926366 -0.096269004 -0.26075834 -0.029216837 0.11228803 -0.065610304 0.23972775 0.23043157 0.064845346 0.08689273 -0.17824754 -0.04690214 0.13464683 0.06279993 -0.25992265 0.0920419 0.045597132 0.055947706 0.18971299 0.2170228 0.0101813385 0.014414882 -0.09226784 0.06982441 0.030129902 0.23473267 0.15170547 -0.09045867 -0.0026704741 0.1475495 0.1338312 0.055636965 0.029842412 -0.00087910984 0.008390217 -0.21542206 -0.042315654 0.06673876 0.07320365 0.0067597455 0.15478025 -0.18027456 0.06427759 0.061550982 -0.0043382864 0.038942095 -0.09811911
0.029347988 0.037915118 0.33383614 -0.36556044 -0.052163962 0.40386957 0.07644733 0.15814906 -0.47941333 -0.17575495 -0.025156042 -0.10564547 -0.071806274 0.73223716 0.08190694 0.14923151 0.1326072 -0.088760376 -0.28362095 0.11433375 0.20354395 -0.05487468 0.15820378 -0.11870325 0.09774298 0.23386449 -0.17897297 0.098035246 0.10734512 0.055357147 -0.12429616 0.12920815 0.017214686 -9.332118e-05 -0.20219833 -0.09199275 0.549959 0.02938963 0.30559447 -0.4064213 -0.20212549 0.022327648 -0.26273108 0.26392132 -0.2665435 -0.2864951 0.052013524 0.12062127 0.11069861 -0.14964549 -0.014398867 0.22475313 0.06296422 0.13746367 0.06269599 0.09064466 0.30282417 0.052588746 0.11504879 0.1457342 -0.03010979 0.0283345 0.1062558 0.36856946 0.020220684 0.23214263 0.024537351 -0.11431768 0.44179615 0.4217192 0.007346792 0.055475242 0.291947 -0.07043337 -0.3719185 0.16278537 -0.11424824 0.13100693 -0.14079799 0.086392574 0.1811751 0.4564179 -0.10037475 0.13166305 -0.095320605 -0.21844092 0.050775707 -0.107752785 0.42187455 0.22241588 -0.34951445 -0.09369495 -0.1343944 0.8338518 0.14036801 -0.45878455 0.07499747 -0.22279994 0.53372973 0.2854397 -0.27824482 0.0263265 -0.1634934 0.43435758 0.0119571965 0.25127164 0.18567458 -0.26052263 0.59466374 0.33628055 -0.06392329 -0.046380974 -0.33018178 0.17740732 0.33505297 -0.20524462 0.057117082 -0.045586288 -0.14886522 -0.09023074 0.03730903 -0.18396409 0.13531433 -0.6076511 0.16019024 -0.0394529 0.13709919 -0.56627035
0.058416612 -0.051298175 0.24771218 -0.6133552 -0.09436649 0.15751308 0.057989772 -0.0665098 0.043079216 -0.16811107 -0.06302369 -0.00723646 0.010393525 -0.0036833286 0.16804275 0.23757508 0.24705327 -0.045295067 -0.02803733 -0.0035963168 -0.023238057 -0.07346898 0.15661219 -0.10821467 0.01948109 0.02768032 -0.0044509615 -0.06340373 -0.120925605 -0.014307798 -0.014831028 -0.21800022 -0.020265628 -0.04794652 -0.082176335 0.07829038 0.039499205 0.1955623 -0.03101193 0.14597401 0.07868567 0.0345 0.023423728 0.08908341 -0.11742549 -0.011638218 0.11102893 0.08505041 0.122558676 -0.1540414 0.037932158 -0.1675289 -0.22926329 -0.049044874 0.24007578 0.02892841 -0.09742688 0.08350299 -0.08191217 -0.111913495 0.13402222 -0.3071396 0.14432365 -0.15874568 0.14895895 -0.044789515 -0.0012530951 0.0070464113 0.0020319952 0.19748595 0.2733923 -0.036847435 0.051422246 -0.06694502 -0.45287034 -0.02847573 -0.011916158 0.04026564 -0.16997555 0.18069828 -0.028515324 -0.5681638 -0.10161726 -0.104862526 0.20490628 -0.109645255 0.097379275 -0.15214795 0.0092266165 -0.04211039 0.11528297 -0.120864175 0.042423923 0.12421802 -0.027034078 -0.44815674 0.023229571 -0.18179122 0.043993086 -0.030045787 -0.022740718 0.061823837 0.029874075 -0.0373222 -0.20228045 0.09318873 0.07423579 -0.094317146 -1.3278702 0.22262941 0.0065242187 0.18534051 0.11480528 -0.06392037 -0.088389434 0.004724284 -0.005013401 0.020096967 0.14243606 -0.20667042 -0.055282608 -0.112614885 -0.19527581 0.09473394 0.2366471 -0.061978966 0.02734619 -0.054590482
0.03804371 -0.056423955 0.099225424 -0.28118572 -0.025770191 0.26184636 0.13255134 0.05930263 -0.060699817 -0.035330158 -0.0305961 0.1944168 0.07402375 0.31313816 0.11709533 0.032612205 0.11963708 0.2395068 0.022812344 -0.113260776 -0.040831275 0.05458897 -0.050963104 -0.12186886 -0.043544102 0.12214976 0.0073138885 0.15413727 0.18416274 0.14296694 -0.06489547 -0.09904082 0.008385417 -0.023700334 0.08682036 0.22619887 0.056376394 0.23597676 -0.10675974 0.11220969 -0.098837316 0.0013938489 -0.026366998 0.028994428 -0.03239173 -0.057723545 0.044735644 -0.004549477 -0.0756489 0.11844311 0.013964557 0.08070317 0.052768763 -0.06481164 -0.23371004 -0.029255971 0.17468843 0.15309803 0.16037142 -0.09939168 -0.3676714 0.023271222 0.12032439 -0.14162204 -0.061636087 0.40644562 0.04817829 0.0113267265 0.12382896 0.023909785 0.102663085 -0.09418159 0.05223329 -0.10761643 -0.010821577 -0.11105218 -0.35387254 0.010427997 0.012319385 -0.03618373 3.266153e-05 -0.38216576 0.069540106 -0.12207836 0.022532165 0.0038762905 -0.12380634 0.13399716 0.1633758 0.01719064 -0.101289794 -0.14119466 -0.1479145 0.1483997 0.25585994 -0.2492288 0.08818545 0.08762715 -6.23882e-05 0.056601673 -0.0014078452 0.04889692 0.26799 -0.027651465 0.22107984 0.00063742325 0.048305944 0.09819424 -0.11475207 -0.043184217 0.028676394 0.020391423 -0.012362782 -0.1208504 -0.14847939 0.077424005 -0.24442571 0.024394616 0.2217996 0.046425644 0.1716528 -0.081916235 -0.15383482 -0.03330258 0.18554744 0.05431615 -0.013946515 -0.049619626
0.110627756 -0.07376875 0.12091994 -0.41510645 0.0017467941 -0.10244117 -0.11575185 -0.7605747 -0.16705568 -0.12851243 -0.07914257 0.10346175 0.3235934 0.4098017 0.17302452 0.25454167 -0.06854801 0.09114358 -0.1048791 -0.69888014 -0.08424439 0.10097047 -0.07779304 -0.5048427 -0.005701687 0.07279327 -0.07739381 -0.08611654 0.31404835 0.16160318 -0.19710487 0.026813148 0.3920978 0.13612512 0.034913287 0.040741798 0.0814008 0.23188284 -0.04790957 -0.011362737 0.04910437 0.1004505 0.14183691 0.084536254 0.23690659 -0.009877778 0.22998922 0.3014605 0.4023555 0.095263466 -0.011694712 0.12896638 0.059074283 -0.18711041 -0.23430054 -0.36325932 0.18883431 0.044691116 0.13804987 0.054189105 -0.5119376 0.1674975 0.101440586 -0.00078396744 0.21648714 0.19100559 -0.40467188 0.2587668 0.97491205 0.11487493 0.03785101 -0.30981404 -0.1930756 -0.22028281 -0.37492624 0.09529479 -0.47583443 -0.43666548 0.013677117 -0.07414291 0.026249213 -0.09208165 0.093839414 -0.15821427 -0.07242998 -0.09785938 -0.5924209 0.12107676 0.36346605 0.057400037 0.028282557 -0.3200744 0.15822613 0.33617353 0.3421132 -0.43337345 0.15689819 -0.103864305 0.4148655 0.030766884 0.1315235 -0.053997107 -0.22097188 0.036439665 -0.09611683 -0.04148588 0.21673428 0.008660367 -0.3260956 0.41818586 0.16281322 -0.004842843 -0.13114546 0.21605697 -0.037306715 0.011892121 -0.36978787 -0.18218812 0.53372675 0.05575919 0.090727866 0.11699449 0.03270844 -0.048457585 0.5281566 0.06873496 -0.08389189 -0.29708463
0.060453855 -0.0016472585 0.020518944 0.064256355 -0.012324023 -0.023627099 0.0702187 -0.21585561 0.031477544 0.028709173 -0.034617066 0.05824801 0.09572391 -0.07042881 -0.111435585 0.0015509118 -0.020229552 -0.095364235 0.04949642 0.10967009 -0.2211757 -0.1768652 5.2100395e-19 0.068602644 -0.045642897 -0.017567817 0.09253224 0.029413996 -0.063564785 0.06967276 -0.11159523 -0.0005855284 0.01756867 0.049985167 -0.21965477 -0.27401745 0.046889145 -0.011414336 -0.13718757 0.04760648 0.14553304 -0.061813995 -0.09811031 -0.14206342 -0.11234653 -0.24319442 0.094499886 -0.07782607 -0.122897275 0.051159017 -0.14927457 -0.010631509 -0.055500284 0.0704529 -0.010384548 -0.086374104 -0.15831988 0.021433849 -0.09757079 -0.02491184 -0.010280782 -0.08221041 -0.003426892 0.05984562 -0.12141167 0.050733745 -0.04978226 -0.11676169 -0.10610951 -0.15016592 -0.0043437956 -0.046304643 -0.10000135 -0.027767831 -0.066040486 -0.038152114 0.036596566 -0.0034098497 -0.022446616 -0.10856892 0.09170094 -0.22933118 0.00078536134 -0.14535095 -0.10850504 0.069821306 -0.17104499 0.09712659 -0.17334948 -0.08239385 -0.052521616 -0.20171697 0.07368115 -0.10215607 0.20056891 0.017996827 0.06604853 -0.07798292 -0.068678156 0.055654895 -0.121259674 -0.13778357 0.025493344 0.09497185 -0.04283675 -0.019536197 0.054233294 -0.0557287 -0.06604436 -0.09242064 0.057368305 0.03855754 -0.13449487 -0.0047860383 -0.17619559 -0.09946852 -0.067116 0.014537731 0.020400662 -0.14837596 0.0051165977 0.025546923 -0.05187518 -0.031019732 -0.13446543 -0.08948527 0.065734535 -0.2337595
0.15101707 -0.07525251 0.051976405 0.019472992 -0.0098467115 0.1540365 -0.01801913 -0.376352 -0.039443854 0.06665738 0.082277015 0.08754741 -0.09041559 0.41238913 -0.25969818 -0.0057731234 -0.20649514 -0.041621983 0.045743324 0.033204123 -0.16868718 0.031767093 -0.26185077 0.15605237 -0.027788877 -0.1363677 -0.01653891 0.0054199677 -0.03171077 -0.15979968 -0.08694756 -0.029698944 -0.009931576 -0.107531995 0.0629636 -0.0005105466 -0.062568724 -0.10797403 -0.15630056 0.028034931 -0.025111226 0.13899845 -0.25115386 -0.21417505 -0.022447547 0.068387695 0.03226176 -0.018625688 0.106581844 -0.021697594 0.033127323 -0.020582566 -0.0106936 -0.29674837 0.15559606 0.20811664 -0.17305925 -0.02884253 0.010596264 0.072737694 0.033165302 -0.15458299 0.026553981 0.1470936 0.12102824 -0.32376575 0.05887014 -0.0005185576 -0.22626391 0.037837587 0.011168682 -0.031413883 0.065874584 -0.13594553 0.19088168 0.12311966 -0.054945983 0.057126377 -0.13042443 0.081715874 -0.050704792 -0.33242515 0.08560219 -0.23999615 -0.026041478 -0.13512526 0.12239014 0.25811926 0.1027011 0.006525461 -0.011822259 0.03097635 -0.051921092 0.027588107 0.11521074 0.35461885 -0.038115673 0.055504955 -0.25419173 0.033219617 -0.0028018851 -0.058188442 -0.17303655 0.14411856 0.011308193 -0.10199687 0.025854921 -0.14641443 0.01386755 -0.10763212 -0.14834282 0.12169795 0.08875283 0.041334372 -0.08781394 -0.0764108 0.14474602 0.25356683 -0.17802255 0.13554834 -0.030974042 0.06630978 -0.07696328 -0.13514447 0.108591594 -0.17096794 -0.043334123 -0.031084327
0.18032084 0.23779123 0.15700558 -0.13335161 0.31095916 0.16986276 -0.24849229 0.17236833 -0.062069762 -0.23602496 -0.044198155 0.029676767 0.2318008 0.57757986 0.12124246 0.24600352 0.20442851 0.0753879 0.020654535 -0.1174719 -0.09729959 -0.1562704 -0.373823 -0.19243757 0.24545872 0.012813877 -0.038469534 -0.13135284 0.08915668 0.16009335 -0.026276134 0.07666499 0.061359555 0.09688003 0.055519532 -0.0045141582 -0.031580802 0.033957943 0.30942103 0.12029196 0.06173129 -0.04821223 0.069900304 -0.0080276225 0.14259857 -0.046011634 0.120250404 0.14442334 0.15547858 0.07241697 0.0764491 0.15442233 0.1315124 0.07256435 0.20656237 0.09183226 0.36568612 -0.043920945 0.3988817 -0.3605574 -0.09431559 -0.022698458 0.4933658 -0.011500555 0.18775596 0.3010933 -0.084821895 -0.055773836 0.75041294 0.18920968 -0.07602454 0.052366197 0.29195753 0.12318819 -0.28478748 -0.08697107 -0.51441205 0.19196479 0.12595703 0.14128576 -0.037366066 -0.8470879 0.0020756747 -0.05569564 0.14074919 0.12775347 -0.66890967 0.4504017 0.25191584 0.13096972 0.004131012 -0.17480132 -0.007691377 0.51078933 -0.04944477 -0.32600462 0.21123171 -0.0012707852 0.26963955 0.10400719 -0.10239118 -0.034707207 0.06822651 0.14486915 0.1471592 0.2111927 0.16695796 -0.052384313 -0.11013808 0.41565657 0.049963087 0.25199297 0.086534545 0.24700834 0.16470207 0.00896117 -0.12271345 -0.03210785 0.26180574 -0.07767272 0.030934032 0.16817431 0.12883374 -0.23383951 0.2990718 0.21549182 0.27064556 -0.21110134
-0.014504529 -0.061089803 -0.17651437 -0.015559602 -0.1582352 -0.089687385 0.11756198 -0.09874666 0.027310302 0.037087336 -0.027926985 -0.15661973 0.17702457 -0.21994366 -0.012813018 -0.21955322 -0.099055335 -0.066961065 0.02267314 -0.016061675 0.065040626 -0.16143773 0.6392272 0.15941352 0.1253665 -0.055849887 -0.041335676 -0.019365517 0.03408905 -0.001937402 -0.191802 -0.009904648 -0.12600772 0.15263261 0.17919725 0.13598229 0.08573428 -0.16879618 -0.11508575 -0.028506394 0.162279 0.1509568 0.13757545 -0.01803705 0.11855833 0.08819032 0.04693477 0.06853711 -0.09769883 0.0339954 -0.032128334 -0.087933786 0.054578897 0.042207625 0.01874382 -0.10059597 -0.13941634 0.09667478 -0.016347239 -0.07299229 -0.009110367 -0.035995547 0.11352615 -0.016005578 -0.060795248 0.112664476 -0.11104225 -0.06743853 -0.15693614 0.05086947 -0.0711782 0.084748484 0.09400034 0.039040685 -0.023145001 0.15267435 0.22128603 0.16134363 -0.18049821 -0.056627963 0.034698043 0.6887561 -0.1706913 0.1370619 -0.063476436 0.03151132 0.15715529 0.24671187 -0.030363439 -0.09485602 -0.116716534 0.15682127 -0.03820482 0.0077615036 0.009322177 -0.14935997 -0.019776924 -0.086891375 -0.022220664 -0.021236809 0.16283974 -0.03582111 0.13084242 -0.030784786 -0.06554108 1.577896e-05 -0.045621365 -0.036576144 0.14784797 -0.08825753 -0.070279315 -0.201906 0.0075231786 -0.21517332 -0.16302736 0.103118226 -0.034529537 -0.005642635 -0.05522561 -0.006561842 -0.068661824 0.23992316 -0.058815386 -0.03033814 -0.034495838 -0.033981595 -0.06893551 -0.06443725
0.16643248 0.08830024 0.14028919 -0.20798804 0.039802846 0.17087494 -0.15676472 -0.17268488 0.040710613 -0.084703006 0.13255416 -0.03463291 -0.049580116 0.27147365 0.1453653 0.17207251 0.048731774 0.05221796 -0.08506519 -0.05038056 0.08143674 0.18931244 -0.2605878 -0.094945624 0.11122339 0.038045283 0.25569013 0.051907964 0.16088642 0.1551598 0.074364424 0.14118053 0.07192496 -0.039754044 0.11420296 -0.064231515 0.21544987 0.1443332 0.12768804 0.031714913 0.015198782 -0.043678913 -0.029231127 -0.16430555 0.18753406 0.07699651 0.11461969 0.101637475 0.019950619 0.1931726 0.0029400229 0.0920687 -0.15884233 -0.09676716 -0.13372697 -0.05545111 0.1085875 0.11908123 -0.0069421134 -0.002386833 -0.1753674 0.07093036 -0.0615703 -0.05466191 0.08130445 0.13387084 -0.088183925 0.10940583 0.03273646 0.15271923 0.04382384 0.09903782 0.19930115 0.03719999 0.03871808 -0.17333674 -0.2065055 -0.14783628 -0.0010276053 -0.05627296 -0.06799688 -0.5200506 0.08284119 -0.31041142 0.057675067 -0.13483064 -0.012563509 -0.032076497 -0.016705848 0.08633231 0.11092028 -0.07226512 0.10363238 0.17125605 0.19455715 -0.29191497 -0.19923973 0.08877601 -0.1724357 0.041149795 0.013657827 0.16666692 0.07187027 0.13514398 0.0003477396 -0.22170593 0.0888876 0.027884608 -0.034973156 0.039700445 0.15879318 0.062368553 -0.016693192 0.24213795 -0.08567018 0.052303027 -0.093350336 -0.11327018 0.15363564 0.028086115 0.15054318 0.10679601 -0.10557583 0.1634777 0.12304636 0.052231327 -0.088453054 0.11206891
-0.17230535 -0.049181603 0.10618288 -0.51105785 -0.17948648 -0.09519775 -0.111923 -0.13100266 -0.31187207 -0.0761909 0.13976039 0.00908396 0.13501541 0.0059962184 0.025589919 0.13189943 0.09982366 0.18527189 -0.5440985 -0.327353 0.1011638 -0.06456238 -0.058553472 -0.06574996 0.055036604 0.08964427 0.16636917 -0.11027865 0.29616752 0.198554 -0.025279414 0.1543898 0.15982816 -0.019852368 0.08921626 -0.16793916 0.19853264 0.0593052 0.10728749 0.0634369 0.053116973 -0.1954451 0.27079093 0.08710627 0.16740304 0.15439796 0.021393757 0.2184475 0.14801495 -0.013988023 0.060590323 0.3589601 0.2538683 -0.068737626 -0.16380064 -0.11103971 -0.047489207 0.25070775 -0.030861791 -0.56670505 -0.26165012 0.13137463 0.18086684 -0.14364374 0.24228925 0.044394165 -0.06806254 0.18304643 0.21417412 0.21443363 -0.050477915 -0.0856809 -0.009604123 0.025989885 -0.40565816 -0.12639408 -0.13614015 -0.26022756 0.11503389 -0.19741455 -0.023801992 0.027959915 0.060944714 -0.26895586 -0.0069900393 0.10414914 0.04836267 0.08881147 0.21471262 0.057384513 0.051866084 -0.13575655 0.022836603 -0.0021214248 0.2764158 -0.6334906 -0.2346722 -0.22710203 -0.15418147 0.1966454 0.15847728 -0.012506188 0.005262133 -0.17466627 0.123706006 0.18467212 0.20912565 0.06530188 -0.46855086 0.16068757 -0.05083877 0.0038325666 -0.0701404 0.0330631 -0.051408023 -0.02500034 -0.23505604 -0.17660293 0.22168867 -0.10975445 -0.10577662 -0.052411266 -0.16777316 -0.43242472 0.13522433 0.10797586 -0.44494122 0.027095197
-0.30227044 -0.083958015 -0.047295574 -0.32241026 0.04253754 -0.01690681 -0.062828325 0.378767 -0.20931455 0.005108351 -0.23261297 -0.008233035 -0.046678692 0.06874028 -0.15337487 -0.13347858 0.15637596 -0.054381017 0.07044411 0.06719259 0.14510019 0.013871236 0.22217113 0.20173094 0.15970375 0.22980945 0.16001429 0.06471065 -0.15851694 -0.27945206 0.047152236 0.05571189 0.0019573104 0.1549954 0.013412395 0.0047018803 -0.17872149 -0.20497352 0.0010506641 -0.077653095 0.23301114 0.12473794 -0.036000676 0.073092565 -0.10464529 -0.15147026 0.092327185 -0.18806478 0.012701216 -0.1341724 -0.18496357 -0.041555233 -0.19018501 -0.08584691 0.09158513 0.101937115 -0.014776915 0.0190413 -0.14088419 -0.08117543 -0.009711445 -0.018511819 -0.049946208 -0.09124624 -0.08184647 0.14240299 -0.2176174 0.03534866 -0.16388196 -0.13897726 -0.064787075 0.07084756 0.04148698 0.06277235 0.035076417 0.26442614 0.005442903 -0.06346985 0.09650909 -0.55388325 0.09707697 0.10041266 0.020863071 0.28179625 -0.16425021 -0.2622528 -0.38668668 -0.042775698 -0.094714776 -0.16175167 -0.06178243 0.07070979 -0.0013764929 -0.03672522 -0.023346012 -0.19366193 -0.091077805 0.032854896 -0.037773326 -0.046672355 -0.06586563 -0.069846116 0.13147151 0.096069865 -0.008958456 0.089088835 -0.07422073 -0.001814789 0.057818994 -0.037997145 -0.024908217 -0.07488182 -0.294347 -0.00038447804 0.035071556 0.033300545 0.44977242 -0.08267062 -0.119040065 -0.04869806 0.052543007 -0.13115945 -0.0014222338 -0.16594608 0.112808034 -0.032248564 -0.14080252 0.018239377
-0.014885465 -0.004426461 0.03441999 -0.120273404 0.1635758 0.029754106 -0.062497273 -0.073386855 0.12144018 -0.2384829 0.0474906 0.050272807 0.0969337 0.5143042 -0.08429539 -0.022248713 -0.06429056 0.29651946 -0.20488591 -0.08129552 -0.026718693 -0.035297688 0.11961146 0.063397706 0.08432696 0.025063764 -0.053591922 -0.020235194 0.44368398 0.1510012 0.11422254 0.03373255 0.19301546 0.08627965 0.0010366102 -0.13891426 0.25584576 -0.041106597 0.13863952 0.22594857 0.010841153 -0.3352738 0.08025558 0.0446725 0.084064886 -0.0023142293 -0.09444369 0.17430505 0.04844251 0.13403822 0.13000019 0.23749751 0.11316783 -0.08770483 -0.048659608 -0.116654836 0.30368802 0.055324636 -0.1420215 -0.25688308 -0.3712811 0.046994604 -0.050773967 0.07295805 0.33045927 0.022512171 -0.07471163 0.03133962 0.46181762 -0.09593498 0.0041159303 -0.009865821 0.2631618 0.17355001 -0.13306925 -0.19294043 0.18165691 -0.12281254 -0.013707041 -0.18166088 -0.13641177 -0.12569676 0.09385721 -0.078382894 0.23659053 0.20984916 -0.1262419 0.08571454 0.2213326 0.006291858 -0.09674639 -0.062242717 0.044161458 0.2707957 -0.07354256 -0.23030873 0.016053787 0.031177457 0.2323599 0.1397375 0.04865758 0.18495601 0.035464846 -0.1492301 0.043637294 -0.08900235 0.24447487 0.035880692 0.09152658 0.18940957 0.101485334 -0.20217696 -0.0024495255 0.14029208 0.01487767 0.040644698 -0.18953432 -0.26126656 0.23522264 -0.009216745 0.14729258 0.048515514 0.06337189 0.09301253 0.37761006 0.09988564 -0.083071336 -0.07646759
0.0722427 0.24000129 -0.21561162 0.23311488 0.021423584 0.013540659 0.043269213 0.28985667 0.34790277 0.3103747 0.2573585 -0.024245316 0.025427606 -0.4692593 -0.16570318 -0.09294377 -0.007099868 -0.273422 0.21225679 0.3309144 0.045561578 0.08996752 -0.061485447 0.22778827 -0.07782366 0.09894009 0.1045007 0.22885755 -0.22248149 -0.01512297 0.10681089 0.21033822 0.05554075 0.10385222 -0.093491495 0.037647445 -0.08170868 0.061271265 -0.05594699 0.21415634 0.28913537 -0.05931617 0.14110976 0.023795452 -0.01366903 -0.013336822 -0.00902925 -0.10334413 -0.08197447 0.16768338 0.230314 -0.035398126 -0.10255219 0.1599434 0.34719682 0.2617752 -0.03604544 -0.016865011 0.013390154 0.26362827 0.28791106 0.032624885 -0.1671813 -0.105358824 -0.0026078033 -0.14086168 0.24327542 -0.007579294 -0.0013413785 -0.10741443 0.09709255 0.29049745 -0.09997081 0.1168372 0.15960008 0.018196758 0.5318407 0.26234603 0.23581971 0.17021592 0.11566296 -0.08929791 0.093152896 0.16860585 -0.11770957 0.09552774 0.2888784 -0.13354021 -0.17724639 0.11050118 0.30072448 0.2792162 -0.13857225 -0.46096048 -0.112892106 0.34014407 -0.047031872 0.120081134 -0.36758956 -0.017511817 0.23507234 0.115508996 0.187519 0.08756757 -0.040813647 -0.0032322719 -0.3541904 0.18106177 0.4302086 -0.254681 0.0022386138 0.07365008 0.24581616 0.11600738 -0.21668646 0.31272858 0.39648217 0.16301876 -0.022881297 0.25405028 0.02053971 0.11572024 0.0072231446 0.31719422 -0.10941483 0.091152295 0.15549661 0.28877884
-0.05454998 -0.009195235 0.017083438 -0.064141795 0.052966785 0.07218761 -0.062510595 -0.6964989 -0.084372714 0.25414422 0.25203636 -0.077041276 0.02263548 0.011366216 -0.08478257 -0.059903517 -0.17932907 0.0799639 -0.43965578 -0.28832275 0.05973462 0.08802719 -0.027972134 -0.14071427 0.018049046 -0.030379543 -0.018410524 -0.19234796 -0.25755313 -0.008226647 0.1001542 0.23129882 0.031236801 -0.0743147 0.08123201 -0.034032434 0.18607457 -0.006920159 0.14895877 -0.32414728 -0.12011885 0.0051454636 -0.23956236 0.1473659 -0.17760478 0.09826361 0.020167602 0.17922287 -0.08777109 -0.05250651 -0.07030586 0.17697468 -0.011754415 -0.13032235 0.09996629 0.11661032 -0.028963396 0.08859002 -0.031100277 0.016517188 0.6310993 -0.024269773 0.14780158 0.03116843 -0.08977194 0.10887473 -0.19752759 -0.1901252 -0.050051913 -0.012487873 -0.01572263 -0.13189368 0.28727272 -0.028308524 -0.477187 0.026141137 0.0042383913 -0.14451845 -0.018382765 0.4087626 -0.088933006 -0.5335372 0.058997434 0.18541205 0.07722682 -0.23011419 -0.25038102 -0.00403603 -0.019737806 0.026160894 -0.08778684 0.059711237 -0.12178829 -0.15034853 0.043857723 -0.10630875 0.030687416 -0.10599775 -0.15876624 -0.20846044 -0.10859024 -0.11179406 -0.24403359 0.10991016 -0.03949992 -0.059661623 0.19409128 -0.08734796 -0.029880356 -0.038010202 -0.04988381 -0.24503924 0.04179176 0.05166874 -0.11184569 -0.1811134 -0.10390345 0.015597618 -0.07628302 -0.005026436 -0.0029136299 -0.014828251 0.10485261 -0.39958757 -0.019021317 -0.1107488 0.05049082 -0.08442452
-0.011797439 0.24293537 -0.066433415 -0.22954516 -0.2351669 0.35546306 -0.35798723 -0.35830337 0.013177838 -0.11897761 -0.117817886 -0.0079766335 -0.08817114 -0.12136999 0.020972341 0.07070411 0.16933335 0.18196753 -0.27183348 -0.03508988 -0.2735683 -0.093406945 -0.5666579 -0.0026378853 -0.19836847 -0.059662864 -0.08876604 -0.019915435 -0.07898433 -0.058244623 -0.0021541116 -0.0007997552 0.13120769 0.009038552 -0.032155246 0.036119808 -0.04678318 0.10152614 0.29509556 0.05125422 0.12946783 0.0070113926 -0.11148579 -0.012780338 0.03878092 -0.16486603 -0.25170553 0.01681976 0.01398286 0.11631641 -0.026941992 -0.04352226 0.016612127 0.33131832 0.058406476 -0.06327521 0.06396522 0.03471312 -0.018774962 0.01358251 0.06936485 0.04215427 -0.011973301 -0.22303578 0.0432616 -0.08097857 0.6020575 0.10026031 -0.1761421 -0.10560144 -0.5108337 -0.19252123 -0.018792236 0.05617088 -0.34844843 0.08699778 0.36098385 0.21087319 0.050391022 -0.10185778 -0.39501518 -0.92202514 0.025232337 -0.08156186 0.011341661 0.056252964 -0.05777074 -0.3215431 -0.0011331398 -0.076811515 -0.034364574 -0.030927204 -0.060350474 -0.027872395 -0.116024464 -0.14470534 0.07545135 0.11212354 0.015920267 -0.027284786 -0.060628455 -0.20552613 -0.04012855 0.07609929 0.028921496 0.20437942 0.16051759 -0.041022614 -0.326861 0.061725654 -0.17544845 -0.12302886 -0.15458521 -0.060428854 0.049282014 -0.10039141 -0.4273111 0.049247134 0.1435806 -0.04046994 0.03400216 -0.17716512 0.051674806 0.10151095 0.17334831 -0.0009028885 -0.09360628 0.03937192
-0.05805519 0.061090183 0.20332557 -0.10913115 0.13777588 0.24785666 -0.25108916 1.0852164 0.06483572 -0.57500577 0.07772133 -0.1534174 -0.15657938 0.5028957 -0.021226482 -0.38575408 0.013661548 0.087654725 0.14410679 0.069756426 -0.09896543 -0.044719364 -0.55231863 -0.04103789 -0.02036017 -0.035108764 -0.0527569 -0.2153968 -0.2903353 -0.02680973 -0.061749525 -0.12192551 -0.19069533 -0.13293037 -0.07770825 -0.13207565 0.07390669 -0.026318325 -0.0071551953 0.04513674 -0.06920559 -0.022765186 -0.17710836 0.24727851 -0.11552916 -0.31585535 -0.13878874 -0.056898486 -0.096024185 0.058279973 -0.09702267 0.120306835 0.24455063 0.27407405 0.19325995 0.10020707 0.290635 -0.06373786 0.29487234 -0.12878755 0.38153532 -0.20413308 0.18048275 -0.27680475 0.03277764 0.12603804 0.14016011 -0.04903872 0.18563782 0.046171304 -0.1337283 0.3480125 0.16390395 0.087230094 0.018660618 0.02772889 0.33342257 -0.11716141 -0.18096326 0.15746458 -0.12627053 -0.66378295 0.008075919 -0.13805026 0.1677092 -0.039063156 -0.17345788 0.07018876 0.1324636 0.12123472 -0.05955723 -0.4493208 0.05334249 -0.090868846 0.020827824 0.3779565 0.028247416 -0.023424244 -0.38298038 -0.03648603 -0.19182417 -0.13578364 -0.095677815 -0.0039827554 0.07817733 0.03418835 -0.103577025 0.22601254 0.05913752 -0.10245898 0.04675813 0.042889602 -0.05929749 -0.10498271 0.12954304 -0.012336138 -0.30299795 -0.027685277 0.014628951 -0.018742884 0.08941026 0.010732592 -0.0297436 0.2751193 0.22936596 -0.030989893 0.14565893 -0.0064980295
-0.028542524 0.013047052 0.11993164 -0.5251405 0.0056813234 -0.05855871 0.04789351 -0.024595631 0.019643614 -0.07989595 0.25919002 0.1374409 -0.048618387 -0.3979941 -0.124777265 -0.038480584 -0.01478902 0.13200255 -0.5193772 -0.07792178 0.20775735 -0.1213886 0.1521629 -0.056888875 -0.0149443885 0.14240459 0.14776403 0.054858625 0.30173504 -0.09228808 -0.12256008 0.056352306 0.0011503327 -0.004963517 0.013084349 -0.19946012 0.02062965 -0.068548195 -0.05497195 0.07364239 0.16344436 -0.17584756 0.012239286 -0.057835236 0.15788947 0.095860966 -0.023543142 0.3125932 0.020769764 0.10807789 0.03747443 0.15728003 0.27580348 -0.19469838 -0.17864402 -0.018811079 0.21378244 0.0060399333 0.18693557 -0.06090801 -0.20209044 -0.15397105 0.09714475 -0.0041810707 0.1762159 0.26063296 0.048535872 0.035444245 0.06989319 0.041691054 0.1565592 -0.048599012 0.0025627129 0.09842121 -0.39998248 0.07721502 0.032637056 -0.111025445 0.05422175 0.05347135 0.03633752 0.086536765 0.070672244 -0.20899376 0.0777214 0.055908427 -0.07425964 0.16773644 0.15908831 -0.028991126 -0.24993148 -0.14883298 0.16671705 -0.14214829 0.0027505895 -0.27665633 -0.01095443 -0.05144773 0.37781596 0.1300144 0.082944 0.049122736 0.21725456 0.009054677 0.0322729 -0.08437941 -0.051187154 -0.077501655 -0.357183 0.12497876 0.14464223 -0.03457596 -0.2535546 0.052461166 -0.16347753 0.11481298 -0.10212396 -0.19487071 0.113026604 0.051431656 -0.24550699 0.18887791 -0.26590997 -0.2952918 0.10918843 0.03027762 -0.04752091 0.28971073
-0.06005999 -0.055905756 -0.05253454 -0.09953093 -0.17428915 -0.07852835 -0.10779763 -0.10591095 0.0121894805 -0.16087684 0.010857464 -0.2352307 -0.19511609 -0.009804968 0.11590625 0.1371065 -0.04025032 0.08623307 -0.05816787 -0.11935185 -0.06651323 0.051360104 0.073398 -0.0446561 -0.026236124 0.06646141 -0.0446148 -0.03026178 0.012125457 -0.18315548 -0.079959325 -0.032400016 -0.007472462 -0.09568579 0.09670493 0.022469062 -0.107040286 0.16238129 0.069767974 0.044152796 0.124307625 0.0859968 -0.120345354 -0.070482686 0.010553696 -0.10769067 0.04050189 -0.10131107 0.015473346 0.038994428 0.06075696 -0.042206794 -0.13030241 0.12723072 -0.07743341 -0.032753266 0.01628555 0.030249886 -0.07186619 -0.13333762 0.09920492 0.0053814915 -0.11334697 -0.0660368 -0.11107528 -0.111077696 -0.08340959 -0.053384576 -0.04528458 -0.025003744 0.06912562 0.15001543 -0.0950418 -0.15523215 0.049611073 -0.09778736 0.15199403 -0.1331028 -0.010724613 -0.30551794 -0.05758728 -0.15041211 -0.016571185 0.03617535 -0.0016399818 -0.111023866 -0.11742193 0.05304183 -0.14726086 -0.08623652 0.24313366 -0.07395206 0.17703317 -0.18352309 0.17293358 0.09144639 -0.077809826 0.032722495 -0.07201182 0.048824824 -0.030263111 -0.0291278 0.025196752 0.014094366 -0.0952573 -0.16463736 -0.033462197 -0.07020355 0.087301545 0.030358246 -0.02159859 0.031630423 -0.22335365 -0.059143912 -0.04180008 0.006035679 -0.030821983 0.10154661 -0.122019574 -0.26756147 -0.116204575 0.071802974 -0.016539875 0.084543966 -0.09703574 -0.05011933 0.064980865 -0.066134356
0.06137137 0.07790728 0.05041353 -0.03966852 0.011037708 -0.21484965 0.15751502 -0.13176513 -0.021659125 -0.04372134 -0.08089357 -0.13490546 -0.16015606 -0.014631885 0.04127057 -0.009774707 -0.1508523 -0.16274852 -0.03943372 0.034339502 -0.06249078 -0.1269912 0.0077818646 0.115159966 -0.2705739 -0.20234054 -0.075373694 0.03720652 -0.11788137 -0.070788175 0.1872376 0.040619805 -0.24162444 -0.030974325 -0.13770914 0.130897 -0.18920858 -0.08942227 0.08769129 -0.00090336497 0.060731668 -0.028054876 -0.23700038 0.0028750438 0.17077357 -0.009763494 0.046616666 -0.11322107 -0.021355644 -0.04512928 -0.11238385 -0.02650603 0.012281936 -0.08217921 0.034121808 -0.017283136 0.0378917 -0.045239978 -0.09657854 0.0681287 0.061219946 0.027079888 -0.05750632 0.040263433 -0.14446598 -0.08618805 0.051379405 -0.00361907 -0.003003169 0.051997613 0.0902812 0.08510716 0.105448276 0.002896496 -0.019409107 -0.012575254 0.009008609 -0.054785613 -0.027309371 -0.0035680283 -0.0814843 -0.11331209 -0.018282134 -0.03138257 -0.041947573 0.005353513 -0.11959457 -0.06170211 0.2190198 0.021557564 -0.059154548 -0.06656665 -0.12458916 0.07370524 -0.06465183 0.04077345 0.050217185 0.12178428 -0.10706755 -0.028905991 0.022723276 0.016484387 0.0122901555 -0.020337425 -0.11580459 -0.0067012375 0.09428034 0.10563355 0.115030244 0.05979634 -0.11301582 -0.054137044 -0.018120399 -0.121384874 -0.02327374 -0.15357694 0.03111545 -0.08583549 0.027172793 0.07825563 -0.16442811 -0.012562153 0.109722674 -0.057959434 -0.027957696 -0.1765427 0.009865505 0.1386862
-0.05363144 0.023950938 -0.14983566 0.06429057 0.017582294 -0.08471737 -0.014065779 -0.054146152 -0.045107584 -0.0074492553 0.13096616 -0.029817194 0.08910142 0.025930692 0.058285553 -0.13805391 0.08974582 0.07797707 -0.04581973 -0.024666764 -0.055574376 -0.0058508385 -0.050180074 -0.15934555 0.018263347 0.022642525 -0.009156814 0.18333982 0.03140267 -0.023345966 -0.05747609 -0.15104727 -0.1797357 -0.059763357 0.1064137 -0.093230635 -0.14900509 -0.1286107 -0.16314535 -0.009479785 0.17878832 -0.13282917 -0.1277435 0.012257486 -0.024596069 0.0013022863 -0.06640844 0.15184747 -0.16118789 -0.121057786 0.13848342 0.12256922 -0.25469112 -0.07126588 0.05808055 -0.021249793 -0.026280409 0.11949987 -0.054597337 -0.07992987 -0.028333575 -0.1438519 -0.04439082 0.029429639 -0.05378141 0.098173045 -0.09534701 0.053988017 -0.08940821 -0.0105531905 -0.057151888 -0.10671863 -0.12178798 -0.06410775 -0.055516325 0.10882725 0.08726113 -0.030919945 0.10858865 0.087900124 -0.0870572 -0.15781714 0.07151766 -0.27156386 0.06739871 -0.11731893 -0.07283657 -0.08072871 -0.0031650863 -0.23802777 -0.1661681 -0.102649264 -0.27839327 0.003535569 -0.18632258 0.13103035 -0.076515034 0.008770067 0.06871344 -0.012140892 -0.006190402 0.05874523 0.008291514 -0.020479813 -0.06692339 0.13664824 0.0186874 -0.021966899 -0.021196479 -0.09500343 0.07863493 -0.14417693 -0.0152030485 -0.06188897 -0.0008371255 0.04179518 0.051867966 -0.20966509 0.12425972 -0.10440353 -0.06607103 -0.20179074 -0.066540316 0.13017076 -0.056698266 -0.106775776 -0.023479685 -0.12084305
0.012374603 -0.17501111 0.038079873 -0.45140558 0.072407074 -0.05653841 -0.010386604 0.088287614 0.012103992 -0.31140938 0.010766113 -0.15130304 0.05122502 0.1424099 0.09030435 0.1178755 -0.2586952 0.24556224 -0.06481028 -0.40557238 0.033536583 0.34552437 0.16710193 0.017513666 0.04204893 0.18346636 0.5277551 -0.08484194 0.18103102 0.123023406 0.06948912 0.071318276 -0.07509559 0.21070488 0.06414865 -0.17959403 0.15814818 -0.062625475 -0.11246978 -0.10248152 0.052006047 -0.44456816 0.023825012 0.077193975 0.041502442 0.0026143864 0.040156256 0.1050376 0.0033251059 0.15268756 -0.078237005 0.1047628 0.019992495 -0.18703395 -0.31380916 0.09627409 -0.1600521 0.14769875 0.09983832 -0.27991897 -0.3565813 0.23389192 0.16843794 -0.22568631 0.16663493 0.33609638 -0.354651 0.163306 0.07118279 0.12774712 0.009536232 0.088914596 0.2813871 -0.104198344 -0.1943405 -0.2164709 -0.71225464 -0.037014376 -0.04951497 0.018592633 0.07161733 0.0498104 -0.15248506 -0.14121652 0.03186196 -0.2435031 -0.012141704 0.2504551 0.02648296 -0.33055815 0.0075415503 -0.074726425 0.11807117 0.43151686 -0.011990976 0.045788452 -0.230512 0.005746862 0.026333246 0.13377096 0.08328193 0.050316114 0.038481466 -0.034195293 0.06839213 -0.10943909 0.27846915 0.029294746 -0.3052521 0.09547338 -0.063349195 0.13948 0.06972665 0.34848654 0.07976375 0.2591075 -0.019703707 0.0199042 0.15102273 -0.018630542 -0.11402822 0.4381196 -0.3649271 -0.041177716 0.30506343 0.13756429 -0.19274113 0.18391408
-0.05186171 0.32184917 -0.14095835 0.31460434 0.09930389 0.093358666 0.3019313 0.14595526 0.540419 0.44228658 0.07279793 0.11251132 0.19037521 -0.45408502 0.11882151 -0.22003844 -0.1706655 0.017618235 0.26923358 0.22074057 -0.11094291 0.30261117 0.26454967 0.3635746 0.021572558 0.17297973 0.08633102 0.13083534 -0.018906336 -0.13548288 0.094626404 0.28036112 -0.16573617 0.020078378 -0.08367624 0.074394844 -0.20392565 0.01339007 -0.08832372 0.11371383 0.22069941 0.21954148 0.37034476 -0.17377223 -0.0068612397 0.009624107 -0.08236144 -0.13360387 -0.2560865 0.34644255 -0.07037758 0.05750346 -0.09515148 0.08309832 0.25805607 0.31166357 -0.16987792 -0.15776698 0.15937701 0.29938543 0.33361483 0.2657651 -0.22854799 -0.14826044 0.118445106 -0.10718866 0.07182899 0.17520022 -0.4562241 -0.15942578 0.3308695 0.13322918 -0.27533066 0.13080975 0.45103008 -0.14556572 0.45193928 0.23115097 0.2825361 0.09907911 0.32012558 0.49642017 0.11281263 -0.007916358 0.17507452 0.24641384 0.6247812 -0.25722915 -0.22461264 0.089579776 0.27404392 0.4554831 -0.04831351 -0.40589976 0.10684378 0.4576287 0.07791933 0.24369453 -0.3004004 -0.058511805 0.17782629 0.06516587 0.08814326 0.049886577 0.24971986 -0.0022825229 -0.41226444 0.08390908 0.063138984 -0.23107702 0.15473762 0.03661915 0.20077887 0.057665147 -0.18183747 0.118999206 0.49954635 0.22649863 0.036465455 0.41118008 0.20436576 -0.06368206 -0.04721155 0.13940325 -0.124408625 -0.05299063 -0.1823783 0.51193416
-0.1199509 -0.38093948 0.041415583 -0.72279125 0.09753542 -0.21071926 0.17383687 -0.03733418 -0.103728116 -0.06900812 0.07716908 -0.05368203 -0.12217556 -0.11538959 0.19679515 -0.14013323 -0.06340573 0.05392844 -0.2621348 -0.21296522 0.22081009 0.16980469 0.051503967 -0.094552904 0.1265418 0.17505954 0.22334978 -0.11502401 0.5503253 0.06851261 -0.17926787 -0.076032795 0.095815904 0.16512296 0.16374335 -0.13997322 -0.20771301 -0.045723427 -0.07795286 0.54385364 0.052098405 -0.29041708 -0.07867966 0.26382288 0.13117912 0.15561604 0.12001088 0.009958935 0.28741628 0.24476539 -0.1552377 0.17474373 0.37410355 -0.35057634 -0.38141719 0.00012220032 0.34053844 0.041638326 0.18091173 -0.21051764 -0.4891428 -0.091086514 0.1965841 -0.20728506 0.18835941 0.096097946 -0.10324182 0.26456627 0.33729106 -0.005097249 0.333583 -0.043563556 0.24215692 -0.06645413 0.33333236 -0.10410917 -0.2990704 -0.20001341 -0.20582119 -0.08401885 0.04792244 -0.08063381 -0.06666061 -0.14830822 0.061064355 0.29649094 0.2078455 0.397793 0.21259515 0.06878344 0.11152809 -0.12662806 -0.023291944 0.15792234 0.19472922 0.19791897 -0.10908837 -0.13649124 -0.19039278 0.3789151 0.1394528 -0.063352495 0.06488495 0.03387789 0.14519432 -0.06390235 0.1277034 0.25392875 -0.1611129 0.49234498 0.032789268 -0.10620079 -0.25783142 0.071152456 -0.050494287 -0.030301629 0.06660859 -0.35001794 0.0031784112 0.13861772 -0.05296304 0.138605 -0.07099535 0.3371388 0.49110073 0.12066027 -0.07263686 -0.017114446
0.18474479 0.06302836 0.16207725 0.07303335 0.07307645 -0.12557596 -0.1716412 -0.13602671 0.02101299 0.26179588 0.11041001 -0.0662325 0.16645335 0.04077115 0.069228746 0.17230198 0.0012571549 0.017696084 -0.094935715 -0.00993618 -0.25777298 0.09986492 -0.40962002 -0.056289624 -0.037886877 -0.13146727 0.13929877 0.13368958 0.1144577 0.053159308 0.036607467 -0.0040484145 0.056716543 0.06111644 0.011788529 -0.1163474 0.14203078 0.081605956 -0.030457243 0.038631175 -0.209147 0.19614463 -0.10327242 0.17482606 -0.006994125 -0.12545903 -0.087035984 -0.002016322 0.058420934 0.09722954 0.0074973335 -0.08468787 0.14318569 0.067989156 0.07864092 0.0013956322 0.017199485 0.16124243 0.07318787 0.011832395 -0.08417621 0.18543933 0.044250492 -0.14260752 0.1661977 0.13083817 -0.16939567 -0.023891851 -0.018667268 -0.08157682 0.089162 0.039208688 0.07066041 0.06866347 0.2241852 -0.03392114 -0.18521112 -0.1293426 -0.0066978177 0.07828553 0.09158976 -0.5812078 0.045239132 -0.24133812 0.10336408 0.076981135 0.03899525 0.09074543 0.1463352 0.27128616 0.09593282 0.046222225 -0.031091036 -0.08175453 0.019179683 0.044059414 0.07785006 0.22413945 0.07590341 -0.002524374 -0.14195614 0.09270085 0.026373016 -0.20877136 -0.058303397 0.09982476 -0.10373092 0.04929507 0.19566996 -0.08190459 0.23816419 0.19209835 0.09051776 -0.03316972 0.011687567 0.10645904 -0.0806554 0.21466811 0.016685892 0.07128369 0.12968189 -0.008531562 0.04019411 -0.064998746 -0.11604603 -0.009374302 -0.020874273 0.1418103
-0.026314056 0.00820191 0.18917513 -0.24120252 -0.043159317 -0.035461057 -0.12840734 -0.1096464 0.22617395 -0.31484255 0.039542917 0.016649371 0.09271148 0.29076615 0.06261826 0.034971237 0.022417806 0.021644203 -0.03663755 -0.046625465 -0.037059758 0.061128847 0.016418492 0.020586636 0.11250015 0.13861553 0.043317784 -0.030626511 0.0791225 0.10980177 -0.049297433 0.16199267 0.099507235 -0.0050873165 0.1102691 0.05512568 0.15774842 0.15427028 0.05854477 -0.053778928 0.06995802 -0.11514143 0.105560124 0.06352296 0.10929969 -0.10060159 0.16238339 -0.031592295 0.04704888 0.072596334 0.03835881 0.0021442242 0.047277853 -0.019140476 0.021709235 -0.061570395 0.062612206 0.067663684 0.009706231 0.16625005 -0.27170688 0.124928445 -0.049023755 0.24026527 0.16618308 0.07548498 0.033700775 0.031984054 0.09554184 -0.13428812 0.27876285 0.15966073 0.0026057907 0.083798334 0.19734828 -0.04450689 0.023564428 -0.030547401 -0.01759601 0.08105118 0.07312744 -0.3767318 0.018335609 -0.056061823 -0.11639306 -0.008237958 -0.09635708 0.022349196 0.087644935 -0.11571267 0.19376613 -0.018506866 0.1997724 0.028540606 -0.010824941 -0.26199394 0.12920028 0.07181403 0.058309738 0.03992951 0.11049341 0.121644445 -0.02416447 0.054723904 0.037126083 0.10991692 0.032494545 0.046298463 0.034549255 -0.15185826 0.19833893 0.2412308 -0.06477428 -0.18245752 -0.10207242 -0.103962384 -0.28284293 -0.12044091 -2.0227395e-05 0.14767535 0.028750535 0.031084038 0.04040671 -0.11620515 0.20068984 0.2536309 -0.059828926 -0.097053416
0.048562292 0.09945946 -0.12619552 0.09929773 -0.020293767 -0.13218164 -0.2751383 0.2697699 0.31879973 0.38956437 0.19043997 0.12588727 0.044623636 -0.25549525 -0.019786801 -0.08318542 0.17982723 0.022242242 0.30949107 0.048036247 -0.15122454 0.23577824 -0.36010543 0.12707618 0.023181941 -0.18582262 0.21831606 0.1346609 -0.075115494 -0.22491817 0.19122379 -0.23159693 -0.12528042 0.07122222 -0.24624284 0.111700006 -0.016003294 0.04390969 -0.1292807 0.13792753 0.0028484575 0.0210713 0.15428765 -0.062004164 -0.19964817 0.036903013 0.19151683 0.21466404 -0.25660852 0.011174405 0.06798607 -0.03703899 -0.018957462 -0.27939218 0.19089682 0.21642375 0.0014410788 -0.106709905 -0.1456591 0.049175493 0.114732064 0.040052373 -0.13025981 -0.060851935 -0.06728548 0.020130115 -0.6101369 -0.013556892 -0.10718583 -0.10329234 0.17978974 0.057284355 -0.044061407 0.09509958 0.30658236 -0.054651316 0.053384695 0.13375571 0.103827916 0.12429473 0.07736836 -0.9261742 -0.106790766 0.0093908105 0.2637946 -0.039576393 -0.14530522 -0.17085446 -0.13158943 0.32259476 0.1008903 0.23020576 0.090631194 0.017630255 -0.009557014 0.32729325 0.0043672724 0.048559748 -0.15822922 0.22422506 0.20259586 0.20677023 0.16840632 0.01631871 0.1095486 -0.029949998 -0.1555406 0.14263415 0.25899795 -0.27101898 0.16482115 0.22197591 0.3777278 0.012196481 0.1802687 0.18630412 0.23193625 0.10132736 -0.08322844 -0.10744354 0.1072202 -0.04512028 0.04981363 -0.039783653 -0.07799866 -0.022776077 0.031842396 0.17078277
-0.005159619 -0.075422615 0.11135429 -0.40918928 0.12873141 0.21117099 -0.19562171 0.31389144 0.16261707 -0.695059 -0.029848697 0.026926583 0.032692164 0.5613702 0.045536436 0.13889712 0.10053807 -0.029756535 -0.100052625 -0.22668394 0.015664918 0.10113236 -0.098978214 -0.17476098 -0.053453147 -0.05403542 0.16812594 0.17494255 -0.116257 0.14121568 -0.21102901 -0.099442065 0.075189054 0.09495155 0.11411816 0.081988774 0.32250422 -0.016479352 0.18337913 -0.12913285 -0.21568497 -0.119837604 0.09069796 0.079152696 0.017699854 0.066453144 0.17981052 0.1117548 -0.11811406 -0.1390884 0.20800339 0.07851112 0.19227389 0.26463142 0.12183577 0.117884405 0.035307717 0.08050675 -0.008574871 -0.06446086 -0.054017927 0.17854254 0.24189723 0.3392176 0.1515075 0.47239292 -0.24588883 -0.015416266 -0.017847968 -0.0875147 0.12681618 0.09127445 0.10263177 -0.0024257796 -0.36810216 -0.056653224 -0.07209266 0.25363624 0.2698412 -0.040335782 0.051527858 -0.37183604 0.11406087 -0.44433692 -0.084304206 0.11438444 -0.016492674 0.067367904 0.04428532 -0.098555475 -0.086355515 -0.08772226 0.14840303 0.070433795 0.066507414 -0.56656027 -0.021013085 0.17254327 0.08300377 -0.1575748 -0.0028259535 -0.15670289 -0.07690567 0.3232308 0.11738758 0.054357946 -0.014398749 -0.18630335 0.4093778 -0.11463191 -0.08835082 -0.10274548 -0.04159303 -0.3110233 0.05238625 -0.067168206 -0.12267795 0.0015418421 -0.20130673 0.037228942 0.028265504 0.03897122 -0.10965381 -0.44452807 0.2215737 -0.039035533 0.08897532 0.0022235531
-0.079674944 -0.32237533 0.49773544 -0.23754607 -0.16017713 0.0063354084 0.17546284 -0.0074222703 0.21164559 -0.19757922 -0.12937117 0.25491333 0.0038041295 0.002240855 0.29234076 0.37068707 -0.094564825 0.057786383 -0.06922435 -0.115332216 0.04486379 -0.12983234 0.09160619 -0.39967453 0.016797101 -0.21316414 0.09952025 -0.027550727 -0.54351866 0.13857971 0.14054427 0.037894953 -0.21920726 0.037610393 -0.13840714 0.060862668 -0.416359 -0.000451957 0.19445457 0.04040518 0.07459762 -0.016899211 0.13458109 -0.023508059 0.17273118 0.2113845 0.429847 0.14894299 -0.67049944 0.19059213 -0.12846075 0.17323157 0.00063731056 -0.016800249 -0.21438068 -0.107085295 -0.43373728 -0.19594797 -0.18259348 0.20129332 0.5099411 -0.06488144 -0.05675636 0.088037886 -0.26993853 -0.5528585 0.09421954 0.027432952 -0.5643914 -0.5774678 -0.02167808 -0.08773734 -0.009941984 -0.09551706 0.40038687 0.013689156 0.26891497 0.089839414 0.032580666 -0.016467238 0.023204464 -0.12359328 -0.04147862 -0.050735276 0.08371298 0.09842267 -0.0759983 0.06959536 0.09637208 -0.20928238 -0.10699708 0.37458056 -0.099042825 0.054272052 -0.087031126 -0.29068425 0.023196615 -0.5299525 -0.72437346 -0.13568759 0.19675404 0.12823917 0.5607855 0.19558412 -0.27729085 0.07136351 0.007911002 0.04634484 -0.019508865 -0.16695894 -0.4449732 -0.07112944 0.067478925 -0.048928183 -0.0049997307 -0.20988499 -0.6022408 -0.003554415 -0.26456612 -0.07215862 -0.095779374 -0.016946124 -0.2806018 0.080076315 -0.06614892 0.035347596 0.04510957 0.13764524
-0.03678915 -0.08787405 -0.08755818 -0.0216489 0.21655898 0.17242928 -0.043734644 -0.02013305 -0.06750209 -0.13207024 0.07007195 0.0070393444 0.11786817 0.093443014 0.10924386 0.13654657 -0.27025786 0.3641025 -0.06881467 -0.02860797 -0.1512922 -0.006053094 -0.027582314 -0.108825915 0.1505762 0.13504262 0.027508471 0.16531228 0.44767955 0.12024054 -0.08069157 0.03417729 0.22550035 -0.075078756 -0.008196106 -0.033718087 0.22813536 -0.077718936 -0.053749032 0.19956164 0.12703632 -0.22761054 0.12061967 -0.064894035 0.26468337 0.056222964 0.11193403 -0.062563196 0.37275097 0.20890753 -0.041218955 0.24552095 0.036151793 -0.1457841 -0.14017132 0.005791109 0.322164 0.05109225 -0.030106284 -0.105115496 -0.5544317 -0.048047785 0.02693138 -0.01528759 0.14556596 0.15384401 -0.20364614 0.033398625 0.45623246 -0.0019914526 0.045513548 0.020459408 0.42479786 0.025564732 -0.0057431133 -0.32781568 -0.4092796 -0.15100896 -0.0007134234 -0.10771456 0.035602007 -0.11582312 0.014843969 -0.28978294 0.2890334 0.09459186 0.084629275 0.24230777 0.18495741 -0.04050038 0.16866045 0.16076352 -0.1741205 0.31204206 0.058452763 -0.22543646 -0.0520353 -0.039028972 0.13142471 0.06791811 0.04133954 0.02865725 -0.018677 -0.27154258 -0.12486337 -0.022872074 0.19725907 0.18722689 -0.21232809 0.44428843 -0.08821297 -0.047814734 -0.07295377 0.1604877 -0.16406342 -0.08304186 -0.0332802 -0.1348164 0.12560707 0.03526779 0.20815407 0.3088241 -0.22179335 0.25028673 0.1211095 0.23854318 -0.07094868 -0.08774171
-0.048807524 0.071150586 0.07934647 0.048613302 -0.032497566 0.07465168 0.02876133 0.06599252 -0.65598094 0.20024116 0.04532463 -0.042441376 0.069516845 0.20557271 0.08210042 -0.3611073 -0.038051076 0.12477888 -0.015286107 0.3214366 -0.052641403 -0.1192515 -0.008010423 0.08368134 0.2380141 0.048222635 0.024780802 -0.06286564 0.07411326 -0.0036896132 0.004973915 -0.09653719 -0.15925315 -0.057050873 -0.03281223 0.09065144 -0.20054108 -0.11085569 -0.052642733 0.13938218 -0.14398415 -0.2585958 -0.25190407 0.025665954 -0.14093196 0.061158072 -0.045539696 -0.19558536 -0.104832985 -0.038467266 -0.13860305 -0.124753885 0.18160452 -0.10965051 -0.13082571 0.115118556 0.020419763 0.0015882945 0.05394129 0.0013295518 -1.0007015 -0.31118318 -0.13981788 -0.17340817 -0.0962991 0.13175352 -0.17808254 -0.06843647 0.045889962 0.16625184 -0.095187865 -0.019636983 -0.11266815 -0.17259182 0.044017818 -0.07567259 0.15958768 0.071437754 0.15760237 0.21732214 -0.020084951 -0.42458695 -0.28219116 -0.31355628 -0.09209523 -0.24309723 0.053565145 -0.18914464 -0.042838585 0.2315134 -0.20157678 0.17630796 -0.123090826 0.048981223 0.15392408 -0.24754602 -0.106108494 -0.2015938 0.21501094 0.15262309 -0.20883271 0.029383903 0.45115766 -0.23666015 0.124903314 0.015475473 -0.17578422 -0.257907 -0.13512091 -0.001142509 -0.17882703 0.03499736 -0.3541354 -0.06441504 0.10713451 -0.044936135 0.1665679 0.0006713531 0.14750177 -0.109165564 -0.21272495 -0.07186251 -0.29921356 0.06822485 0.20388038 -0.047571104 -0.10211364 0.1359741
0.052810412 -0.10919799 -0.0048358575 0.0827172 -0.120844185 0.038249023 -0.025132075 0.15020554 -0.046688326 0.070277184 -0.019873234 -0.10651987 0.0057033603 -0.08722546 -0.060577117 0.059574008 -0.23831078 0.023674922 -0.02465297 0.059446737 0.032378223 0.02647251 -0.028041828 -0.07530142 0.0016547205 0.10462203 -0.045774557 -0.101181 0.13295326 -0.04747484 -0.16019264 0.0570515 -0.014957522 0.022439891 -0.17492643 0.013773161 -0.07378646 -0.04522369 -0.10955213 0.017343216 -0.11373129 -0.04481762 0.018007427 -0.13437556 0.1936754 0.017808039 0.060920432 0.17016783 -0.07270896 0.12691997 0.092123985 -0.05359685 -0.14421913 0.056755893 0.019953718 0.0016233784 0.13201967 0.15219088 -0.2045155 -0.010815631 -0.09233382 -0.04929306 -0.028577065 0.10173966 0.23382536 -0.041346446 0.012895503 -0.29769439 0.09225819 -0.14072917 0.010257435 -0.11446737 -0.036450323 -0.04573792 -0.0017416934 -0.22565964 0.042904336 -0.10038157 0.09722759 -0.064485095 -0.10646064 -0.00014480323 -0.017269308 -0.03555873 -0.08604545 -0.11708307 0.06020145 -0.005259916 0.013304049 -0.08506666 -0.068885475 0.12884107 -0.023472413 0.086391 -0.01514952 0.34748864 -0.07328786 0.015087909 0.18698958 -0.061378397 -0.17307346 -0.004406468 0.019410519 0.006260682 -0.12584703 -0.19505008 0.05517803 -0.03293019 0.3139132 0.011662371 -0.10117237 0.1615154 0.014892261 0.060363207 -0.06490885 0.055230882 -0.0684143 -0.12923734 0.24223384 -0.06400664 0.046088338 -0.108720034 0.12995625 0.099128194 -0.22016284 -0.21589895 -0.06441801 -0.063184604
0.067007124 -0.21419191 -0.0070490297 -0.3118959 -0.020113751 -0.13787511 -0.14855339 -0.29234874 -0.16106911 -0.2514605 0.082144074 0.07474351 0.09797091 0.037607122 0.01284313 -0.10823209 -0.026369415 0.15790984 -0.20616822 -0.2139053 0.08803529 0.12804103 -0.19104987 -0.1634049 0.16645035 -0.05241779 0.013023608 -0.07119496 0.36084437 0.21725602 0.12746446 -0.039290514 -0.028563838 0.058081675 0.058561135 0.028473597 -0.024080854 -0.0740556 0.07565791 -0.09232749 -0.099956155 0.00988325 0.13900384 0.05094139 0.030399429 0.26498434 0.2839841 -0.09351447 0.04378415 0.15311311 -0.18034256 0.12577863 0.05462005 -0.15436502 0.050850987 -0.102463044 -0.05365178 0.26251733 0.17575663 -0.054273013 -0.19692597 -0.077281624 0.03528357 0.050641496 0.2262407 0.01693212 -0.16245677 0.021229282 0.04325958 -0.034631096 0.18219094 -0.2090287 0.110280044 0.17331544 -0.24747415 -0.15605584 -0.10475639 -0.10509326 0.15168042 -0.019052453 0.05416086 -0.06299745 -0.016465316 -0.21577603 0.107274875 -0.014892882 -0.005062167 0.12060252 0.08402206 -0.005213875 -0.026439736 0.050099246 -0.13507198 0.079080954 -0.07703183 -0.24390672 -0.12431132 -0.04998966 -0.109066695 0.05395654 0.15476654 0.14238624 0.090442464 -0.09487397 0.166223 -0.07897356 0.10962613 -0.0122231655 -0.14175297 0.12817746 0.1539194 0.07406139 0.19893172 0.13619007 0.0028234625 -0.009518632 -0.33681506 -0.13788351 0.040312603 0.106203794 -0.05096991 -0.011774705 0.09305347 0.11740526 0.050178412 0.09119887 -0.030720884 -0.0014426435
0.14387411 0.23666912 -0.1760448 -0.18018119 -0.06577311 -0.014030213 0.040951766 -0.050551478 0.27477577 -0.23346335 -0.063311115 -0.10397418 -0.19542596 0.5685949 -0.17377627 0.00814291 0.0111048315 -0.04550755 -0.23347962 -0.071209565 0.09798622 -0.10011337 -0.31028122 -0.14131023 -0.114085555 0.01760625 -0.17066206 0.2313362 -0.0126211485 0.05996536 0.041392233 -0.038136363 0.53263205 0.016142143 -0.19827487 -0.16735063 0.09020023 0.26448637 0.11034249 -0.17270903 0.115200505 -0.13723463 0.11856286 -0.309577 -0.03829605 0.011638544 -0.09217128 0.11086424 -0.036186997 -0.18652052 -0.0006908495 0.17209917 -0.011618541 0.059380215 -0.112968415 0.27906367 -0.05759471 -0.05637718 0.019881073 -0.00770649 0.06262155 -0.07924145 -0.12280237 0.21438205 -0.237253 0.19100086 -0.38272345 -0.16677663 0.0025593948 -0.071093775 0.0879597 0.17321284 -0.13521624 -0.13394502 -1.1220855 -0.22073846 -0.3473313 0.21297328 0.13331433 -0.1671101 -0.14485681 0.17262122 0.0034124553 0.25115332 -0.039432567 0.059002567 0.00018809205 -0.29579332 0.002559215 -0.13154422 0.30945724 0.028746884 -0.21214928 -0.4706565 0.13944869 0.24572837 0.17745505 -0.102967955 0.034121808 0.038529888 -0.4009987 0.17002086 -0.13057089 0.027021943 0.028414613 0.07699184 -0.041104157 -0.21592286 -0.3296353 -0.25002125 0.002350789 -0.11332446 -0.13820422 0.02033199 -0.24658735 0.04468484 0.17163806 0.023815341 -0.13818616 0.11388066 -0.31961516 0.16436028 0.028548168 -0.47692356 0.102936186 0.043088723 -0.124298595 -0.022685597
-0.1468146 -0.26462996 -0.05962282 -0.17047237 -0.024014065 0.032502938 -0.20575364 0.10667067 0.08722223 -0.04066376 -0.13048387 -0.027616266 0.024275666 0.08912236 0.1064272 -0.11321938 -0.09253886 0.026043124 -0.073840044 -0.12069964 -0.048306048 0.01840251 -0.13095498 -0.160334 0.14698306 0.17398395 -0.022182157 -0.11069084 -0.34464413 0.22649823 0.11038414 0.12740485 -0.0012905466 -0.12227347 0.002351165 0.1422483 -0.14232644 0.19688226 0.009329536 -0.13736735 -0.12519117 0.17725232 -0.051852304 -0.13772382 0.13020107 0.022730924 -0.17599441 0.07606693 0.08862011 -0.06336507 -0.06467658 -0.21544415 0.028817266 0.09712944 0.0026268682 -0.17707989 -0.1447637 0.27796367 -0.08154557 -0.016229386 -0.2869632 0.21272355 0.04630848 0.028365275 -0.14620514 0.2299543 -0.13030112 -0.29394272 -0.5157222 0.05460468 0.17853244 -0.035834707 -0.18984096 -0.14803097 -0.37877646 -0.068928026 0.12887585 0.107595585 0.029169789 0.09321625 0.026308022 -0.09385153 -0.02898677 -0.14681306 0.09322669 -0.08225896 0.030169083 -0.096105024 -0.14317612 0.15188883 -0.02925349 0.15212421 -0.11137776 0.035686933 0.048848096 -1.4218568 0.07472787 -0.10847703 -0.05775102 -0.028905576 0.22004302 -0.038007706 0.19670174 0.052468423 0.038473062 0.04481659 -0.15590277 0.063936 0.30937555 -0.12269909 -0.017799612 0.07801683 -0.17950445 -0.05380338 0.06856933 -0.15681112 -0.023122588 0.07221961 0.16833435 0.07242135 -0.09795974 0.003748516 0.085502096 0.08466785 -0.25374076 -0.018523732 0.04283479 -0.027017338
-0.04858052 -0.13568348 0.19884738 -0.045728426 0.0077108373 -0.14552753 -0.14975528 0.08094698 -0.10480722 -0.00868736 -0.07230393 -0.19910079 -0.046044506 0.24824613 0.025254158 -0.018471366 0.19216567 0.113208205 0.07797563 0.022510651 0.03537205 0.121642075 0.12806343 -0.13198784 0.006997692 0.086105786 -0.21367644 0.10491439 -0.14029975 0.037687562 -0.10240203 0.1123209 0.14548156 0.16937755 -0.04826893 -0.03619754 -0.15741646 0.02179434 0.080375485 0.11603919 -0.096577935 -0.20657456 -0.06447842 0.0054565 -0.065210745 0.09472015 0.056633733 -0.018212022 0.11481029 -0.031015709 -0.19758007 -0.20108107 -0.1461368 -0.037957236 -0.1582418 -0.04924786 0.14191341 -0.16295475 -0.19597892 -0.10687112 -0.22820953 0.12249505 -0.09580774 0.19486447 0.20008181 -0.2902218 -0.10794297 -0.06960982 -0.012643153 0.04617706 0.09804818 0.014105198 0.18855906 -0.12863979 0.0018209323 -0.047174238 0.05962247 0.16366886 0.021887586 0.07417922 -0.058863264 0.0006941331 -0.11440481 0.21601458 -0.20036645 0.02256768 0.18266042 -0.08540873 -0.09540113 0.18477097 0.015656184 0.005131806 0.11643944 0.116124555 0.048814204 -0.4784114 -0.045742452 0.19557661 0.004956567 0.26145592 0.13888125 0.030544873 -0.0068105073 0.03123606 -0.08056347 0.067116305 -0.09320754 -0.024493286 0.21092118 -0.14286405 -0.19090866 -0.081621796 0.1340609 -0.1886729 0.010189182 -0.27856094 0.11385252 0.1412598 0.024936302 -0.013978951 -0.38545683 -0.11286487 -0.07989194 0.19410406 0.6469055 0.09989031 -0.019831765 0.043328214
-0.08144364 -0.082229875 -0.026880678 -0.100095294 0.20286651 0.08740314 0.017430145 -0.05150803 0.016226266 -0.076371536 0.020481365 0.017849805 -0.0708447 0.095807284 0.050002232 -0.09441176 0.01465173 0.04648023 -0.21799861 -0.21805754 0.022531465 0.1057332 0.04816777 -0.2946864 -0.022924026 0.051843587 0.116366744 0.11560858 0.104114495 0.03691438 -0.11789482 0.014268227 0.035493005 0.020977689 -0.040431 0.00039959868 0.25619453 0.23463726 -0.096432984 -0.062144056 0.07095731 -0.17539535 -0.01614347 -0.049002763 0.099215634 0.13450865 -0.049970347 -0.05423095 -0.019408587 0.114327654 0.07603192 -0.024751842 -0.005280617 -0.069096655 -0.09654934 0.08487091 0.20206507 -0.013054692 -0.01236782 0.05512036 -0.1608062 0.03148086 0.11191368 0.12794991 0.26654437 0.21567696 -0.052857153 0.10870678 -0.0025384624 -0.07373623 0.036165718 0.020448996 -0.062432446 0.067153476 0.052176468 0.0752403 0.16657917 -0.13803507 0.09334837 -0.02142991 0.12279028 -0.34889704 0.21589513 -0.08078176 0.21028069 0.15535368 -0.007299476 0.21472971 0.04485703 -0.02879769 0.08575601 0.019902747 0.21006636 0.07734761 0.009574392 -0.19362484 -0.11774473 0.037181072 -0.019228455 0.09531864 -0.0734591 0.20998025 0.10717148 0.0018872068 0.08559175 0.04355705 0.027117282 0.19806711 0.084996134 0.10442147 0.019561287 0.03266969 -0.03222626 0.061539512 -0.14733118 -0.0056123952 -0.1974795 -0.047138028 0.31809095 0.11416409 0.21568602 0.06214822 -0.1801187 0.04353873 0.107622035 0.019132867 -0.029800069 0.09926882
-0.05889198 -0.033075903 0.1585223 -0.075258106 0.16062225 0.03350685 0.16614941 0.26585302 0.38757935 -0.3950756 0.076515235 0.16549519 -0.104337044 0.32106727 0.2595361 -0.058571648 0.065335035 0.041532665 0.05819721 0.09129263 0.052294698 0.19963509 0.08895429 0.10226639 -0.0066802907 -0.039162878 0.2198989 0.09193803 0.27240583 -0.038064573 0.34201413 -0.44262576 -0.12248974 -0.014702855 0.015369923 0.05264361 0.2597369 0.038086817 -0.16187899 0.028147617 0.041303203 -0.33159995 -0.20807104 0.07052475 -0.2173765 -0.32411167 -0.044399235 0.2731957 -0.07543398 0.14872694 0.18428892 -0.0029781198 0.086377285 0.1517042 0.074305266 0.03599523 0.33912817 -0.14048648 -0.14443932 0.15794621 0.50191087 -0.15643963 0.28908935 -0.14616677 0.34271872 0.31259933 0.40409496 -0.02639644 0.62433034 -0.0933564 0.18801397 0.13997383 0.33982307 0.04431787 0.35885206 -0.035027113 0.1296917 -0.2872293 -0.058514666 0.16455092 -0.22722876 0.4925277 -0.1033267 0.17774977 0.11782834 0.33627677 -0.24153595 0.1036038 0.052121982 0.16352996 0.093872026 -0.034862045 0.08262337 -0.30864918 -0.2769858 0.36850312 -0.23554215 -0.12772928 0.050319944 0.27409992 0.03000821 -0.024695177 0.0037311092 0.19825655 -0.23245117 0.05788591 -0.039026 0.14037676 0.2671044 0.09039141 0.22803439 -0.10449997 0.20542985 0.043097444 -0.06682124 0.09133167 -0.14264059 0.008408065 0.32880357 -0.15874328 0.38719672 0.050080728 0.10034918 0.1596035 0.020566432 0.033234827 -0.027753673 0.18236975
0.15574962 -0.21861814 0.21069172 -0.36349174 0.09456685 -0.09501704 0.28132677 -0.5121273 -0.16060965 -0.32685727 -0.054533396 0.14558032 0.16526845 0.24246338 0.24124613 0.38208756 -0.014391507 0.3527546 -0.4812384 -0.2444331 0.14405036 -0.12928005 0.1513333 -0.44106045 -0.050559122 0.0052270223 0.06498057 -0.03908317 0.435241 0.24494886 -0.1429661 -0.15102343 0.37978455 0.16291127 0.09626885 -0.15855972 0.12741582 0.13406754 0.12570538 -0.058590647 -0.097548574 0.14148562 0.3358272 0.013854832 0.12131555 0.26887083 0.41897312 0.04007818 0.22912146 -0.029199736 -0.058525406 0.3469621 0.16482787 -0.101597965 -0.32899642 -0.27306733 0.04907049 0.070962004 0.15695104 -0.28313333 -0.8100905 0.26257434 -0.1739555 0.22946344 0.05990645 0.33852875 -0.18007517 0.30001965 0.71061397 0.12170732 0.0364443 -0.37248373 0.05030021 0.06777377 0.08147864 0.07802347 -0.32306072 -0.26114383 -0.21684745 -0.46303198 0.15048853 0.44507718 0.054999154 -0.5390881 0.043956358 0.28088233 -0.26669505 0.55440414 0.22526643 0.2341031 0.019284334 -0.18225724 0.09339338 0.27400446 0.18149415 -0.124344125 0.14473513 -0.05478749 0.41136795 0.07001496 0.21127616 0.13939826 0.030723684 -0.22270034 0.03638715 0.010017527 0.18164645 0.059122726 -0.06198577 0.40910584 0.03219432 -0.06280491 -0.10234753 0.31209955 -0.30507216 -0.066422045 -1.1781385 0.051221628 0.4000023 0.16604242 -0.15294896 0.17628077 -0.029629681 -0.35046488 0.3023119 0.12757534 0.15363233 -3.663896e-05
0.010433216 0.0810086 0.18181656 -0.16080865 0.1766777 0.15418509 -0.50944203 1.0615286 -0.16928838 -0.6083544 0.060798988 -0.16901848 0.11355412 0.4365135 -0.117520615 -0.038133156 0.09107156 0.13031453 0.21588217 0.24591242 -0.4571978 -0.03744481 -0.26907837 -0.069552384 -0.16627616 0.048437748 0.030748136 -0.105084606 -0.38013354 0.119580105 0.69247675 -0.07752919 -0.462621 -0.041769758 -0.20705016 -0.10983613 -0.04709633 -0.10958661 0.21320188 0.041159473 -0.27505532 -0.16970038 -0.29596934 0.16678196 0.15107264 -0.2390808 -0.007074079 -0.11425322 0.009460944 -0.16634983 -0.030501848 -0.14191326 0.20006472 0.4566114 0.26916465 0.021797342 0.20439814 0.32086822 0.11202049 -0.6551363 0.4113829 -0.3509842 0.06092404 0.21439052 -0.07828188 0.13937983 0.5371247 -0.2833784 0.14655443 0.0638173 -0.15216197 0.30472827 0.2689488 -0.014640585 -0.6567456 0.12253587 0.30900243 0.035205662 -0.23882373 0.37963727 -0.25377196 -0.6231273 -0.058048416 -0.065740764 -0.2316615 -0.047884777 -0.74161935 0.04268278 0.11419402 -0.23096485 0.044541 -0.36935902 -0.037286084 -0.22072482 -0.008126534 0.28921232 -0.08639415 0.06438055 0.4556657 0.032038916 -0.49979532 -0.18988451 0.09714293 -0.20298733 0.08961304 0.11693314 0.1366488 -0.27469218 -0.18718117 0.295016 -0.110000975 -0.023838183 -0.46023127 -0.2755872 0.061528858 -0.07845753 -0.20592329 -0.08702622 0.060533397 -0.31483138 -0.09945442 -0.043360844 0.2544465 0.44651303 0.27467665 -0.11681825 0.10462116 0.13829352
3.747158e-05 -0.082921885 0.13254327 0.07725235 0.093636915 0.016999684 -0.05789534 0.028177455 -0.093293734 -0.36421102 -0.0451581 -0.1967705 0.012795749 0.5568472 0.09831297 0.27957118 0.1297353 -0.08651035 -0.06830317 0.028047834 0.11325753 0.09910827 -0.23248528 0.0035947026 0.19599329 -0.058407947 -0.019515222 0.0052387645 0.29039836 0.035329968 -0.2971657 0.045668807 -0.07515226 -0.049135305 -0.051717494 0.10974303 0.18089612 0.050348878 -0.043699685 0.033225413 0.007756652 0.1193706 0.10523325 0.13264878 0.12798007 -0.08085647 0.21310626 0.11450632 0.006910996 0.012658235 -0.18730472 0.16413993 0.14742562 0.054416016 0.07210331 -0.13823506 0.2390997 -0.016289666 -0.022251345 0.15496588 -0.15013729 -0.12294851 0.1759538 0.17339477 0.0736082 0.034946907 -0.17368528 0.1577391 0.10892599 0.04239664 0.021637337 -0.289887 0.3407089 0.02463139 -0.3556818 0.12732986 -0.29074034 -0.08847387 0.037528396 0.03249032 0.061096236 0.17018048 -0.125957 -0.05346649 0.2259767 -0.034553178 0.00039068208 0.113571264 0.045808583 0.14037484 0.038843453 -0.124964364 -0.16766116 0.14004482 -0.14679913 -0.22322428 -0.12756959 -0.20077255 0.29811406 0.07404776 0.008824512 -0.12563372 -0.013778473 -0.0066597923 0.118674785 -0.15155053 0.2338105 0.19497442 -0.068067186 0.22927824 0.0794669 -0.12144909 -0.07018608 -0.20827667 -0.06031093 -0.074385695 -0.1868417 0.07412615 0.26143283 0.09385021 -0.06941886 0.027062772 0.041564632 0.09285753 0.050531212 -0.12561221 -0.106859 -0.18292864
-0.037333854 -0.14568636 0.0341556 0.1209745 0.078920476 -0.07709782 0.15358272 -2.214856 0.6410102 -0.008602009 0.16779521 -0.00129539 -0.016210902 0.25965032 -0.06481371 -0.24973556 -0.055939842 -0.037345603 0.081165954 -0.23461449 0.08845327 0.0879867 0.15610056 0.0793962 -0.073114574 0.0025201093 -1.0691564 0.041799292 -0.87064075 0.021121275 -0.099710666 0.15007952 0.05227493 0.16115436 -0.034689445 -0.0319861 -0.010872444 -0.036161922 -0.072484 0.0810897 0.15255025 0.5332125 0.09752048 -0.15247254 0.03915065 0.1836183 -0.22651641 -0.43712717 0.4855276 -0.13070078 0.07192279 -0.06168198 -0.14331369 -0.029022904 -0.05093528 0.15946837 0.09384547 -0.1141048 -0.07590151 0.22486377 -0.27541834 -1.0875202 0.07599331 -0.60610205 -0.20278396 0.015994035 -0.7882324 -0.5318291 -0.17540483 -0.030742735 -0.788195 -0.01470634 -0.161269 -0.030281557 -0.3230004 -0.35115904 0.31371492 -0.11657574 -0.084105596 -0.14361602 -0.11324727 0.44454217 0.1304815 0.2670179 -0.12691197 0.013581468 -0.20484637 -0.2791836 0.0098147765 -0.24578518 0.16879725 -0.10513763 -0.07219619 -0.3192851 0.21235453 0.94764227 -0.66535443 0.15657037 -0.31375548 -0.24315026 0.3644756 0.18902496 0.65839005 -0.37720004 0.07825504 -0.18675049 -0.10551057 0.14519335 -1.5877539 0.5237601 0.0059639364 -0.042346925 0.2794964 -0.45475027 0.085202254 0.008355996 -0.002490873 0.20843396 0.1712392 0.28888062 -0.6067461 0.15051888 0.046759125 0.19784233 -1.0271448 -0.17231329 -0.08245549 0.06641084
-0.1465833 0.16112185 0.31611848 0.3061982 -0.045703106 0.017739126 -0.1752925 -1.0398109 -0.070866965 -0.111727096 0.12924057 -0.024511833 -0.07734867 0.22970074 -0.013336507 0.43358257 -0.092413224 0.0110755 0.038927477 0.27495545 0.12844218 0.11698205 -0.22714722 -0.33529833 -0.19215769 -0.0070812637 0.06767602 -0.017233837 0.2425163 0.25224686 0.072744325 -0.20176232 0.06383096 0.26515326 0.079053745 0.01059218 0.22511049 -0.054971945 -0.062607214 -0.044521794 -0.1326238 -0.072162285 -0.20949166 -0.018584494 -0.38622388 0.0040816455 -0.5909045 -0.12171494 0.14222227 0.08875146 -0.047137026 0.17019977 -0.0028581019 0.07522376 -0.25106135 0.123039685 0.0299831 -0.12989527 -0.007495843 0.20845231 0.31344143 -0.41874325 0.14014752 -0.061825644 -0.09874534 0.14643693 -0.05833766 0.12624054 0.1319294 0.16607317 0.1875111 0.12573779 -0.05936363 -0.07129168 0.06114416 -0.2583708 0.08745534 0.1987851 -0.002386097 0.26587975 -0.21661325 -0.24943107 0.1765471 -0.14192715 0.08466943 -0.38865036 -0.22493069 0.24277955 0.25393856 -0.017120332 -0.013156906 0.059946083 -0.15320447 0.6070621 0.15182887 -0.60158616 0.091298155 0.18715538 0.39761806 -0.25712585 -0.05879202 -0.08227922 0.20662577 0.029332481 -0.14826374 0.08882724 0.112293966 0.12554905 -0.40531015 -0.21499781 -0.10264336 -0.008275098 0.035951834 0.27925882 -0.07518981 0.22297345 -0.21967645 -0.25503838 0.026511325 0.04660394 -0.23707053 -0.16281785 0.09397554 0.20202649 0.44025865 0.22131133 0.080522105 0.24888922
0.010215986 -0.1315042 -0.032268878 -0.073156156 -0.0044365516 -0.1537178 0.032658145 0.075485125 0.13772583 -0.044954848 -0.14470798 -0.19968061 -0.104610965 0.00026239172 0.10615229 0.09336114 -0.16544984 -0.2990366 0.18403623 0.06456414 -0.038861476 -0.08366832 -0.00041027242 -0.054701492 0.06406197 0.0242545 -0.10603968 -0.033462312 -0.09189482 -0.08521603 0.066217 0.10211196 -0.14249547 -0.09091661 0.025324421 0.07253388 -0.04326796 0.015751302 0.15984917 0.15256631 -0.061912112 -0.03896824 0.08870597 -0.08239599 -0.019122446 -0.0772309 0.07902873 -0.04562641 -0.030065067 -0.095666215 -0.18059164 0.120085225 0.03930469 -0.19232199 -0.032474894 -0.008647591 0.08639002 0.07680537 0.041803975 0.047906116 -0.07131617 -0.11815201 -0.013947308 0.11541746 -0.043354824 -0.08650593 -0.20406374 -0.071412556 0.045241103 -0.04517016 0.04888756 -0.092392705 -0.00038033765 -0.005437408 -0.12559895 0.16754112 0.13279244 -0.060829997 -0.033962034 -0.15165816 0.005138564 0.03867227 -0.12286839 -0.1877634 -0.16366255 0.14734514 -0.12156947 -0.16889338 -0.0048575047 -0.22068541 -0.0065943245 -0.07321644 0.137547 -0.2015128 0.076711625 -0.061181627 0.057853684 0.055270478 0.051157445 0.07053118 0.01621798 -0.0012683552 -0.0025887988 -0.03387889 -0.06536641 -0.1230968 0.07262211 -0.12466049 -0.114699796 0.016656734 0.073077574 -0.061779138 0.002086798 0.017921368 0.010361063 0.24245857 0.11931062 -0.068791166 -0.15364078 -0.19415964 0.09410794 0.05359565 -0.030616857 0.22349575 -0.22801842 0.071069025 0.08788774 0.111971125
-0.0308313 -0.102048144 -0.005472363 0.1708711 -0.050079186 -0.0212899 -0.020778902 -0.023141187 0.002201954 -0.05065887 0.13341193 -0.0651752 0.033873197 0.30539644 -0.021214783 0.16187519 -0.024669547 0.056454107 -0.22327897 -0.09070596 -0.22929196 -0.12536374 -0.11910838 0.06546583 0.08458845 -0.030300971 -0.014924667 0.15219441 0.3849944 0.11467522 -0.026364556 0.15305395 0.047288984 0.14668894 -0.09720187 -0.12817037 0.008152717 0.0003426209 -0.0537307 -0.020515295 0.08907567 -0.10756165 0.06904603 0.12957117 -0.040604882 0.15156317 0.22558966 0.10913511 0.040104996 0.020167971 0.109906316 0.10564872 0.11797766 0.06988471 -0.11698038 0.050305057 0.23197833 0.14068589 0.1429499 -0.06308297 -0.1332758 0.020632654 0.15404026 0.053475022 0.16930293 0.19241196 -0.085827895 0.26002786 0.33745638 0.20018685 0.17707632 0.09768512 0.067401364 0.016031753 0.018351987 0.015264834 -0.05263714 -0.101159 0.02007147 -0.33450034 0.022042362 0.026743477 -0.01534017 -0.34853026 0.04764911 0.15887068 -0.1629828 0.16555491 0.1647681 -0.24766482 0.01803885 -0.18436567 -0.03515811 0.008574604 0.11246167 -0.4257152 0.19292346 -0.006068651 0.25557584 0.29790574 0.26356557 -0.13485219 -0.1296324 -0.057563096 -0.1697958 0.046966795 0.027095636 -0.025655875 0.044900272 0.101096906 0.25500607 0.02349927 0.108161986 0.08742726 -0.26319715 -0.027602462 -0.2320243 -0.19856676 0.30974978 -0.17201905 0.04946719 0.08393231 -0.12599288 -0.09551023 0.0814461 0.08737025 0.047989115 0.06167295
0.29273972 -0.028057842 0.0333972 -0.1610286 0.02081378 0.025040273 -0.044234734 0.20085447 0.15301014 -0.022470383 -0.15553978 0.085728906 0.17006397 -0.09587974 0.10042169 0.15164044 0.015146102 0.09100227 -0.026288917 -0.038000546 -0.08531551 0.07762171 0.080779605 0.33242893 0.03171625 -0.0014029754 0.09697685 0.16983081 0.0024155339 0.05015226 -0.099601306 0.07552262 0.10761425 0.09186866 -0.06408828 -0.12281203 0.030590383 0.15087305 0.041995563 -0.054723203 0.15030694 -0.015692715 0.21538329 0.012537643 0.018288603 0.12852061 0.21073051 -0.0140644405 -0.016723 0.056967605 -0.0737994 0.06372481 -0.013206366 0.07148219 -0.14260738 0.09456231 -0.055166107 -0.037277065 -0.14799292 -0.19245131 -0.22310238 0.006350461 0.11502991 0.02471304 -0.0069489954 0.06354294 -0.12501895 0.15626273 -0.12768783 -0.04948314 0.23401359 0.018796673 0.17190228 0.12294232 0.05294672 -0.174793 -0.06375663 -0.05355876 0.2146457 -0.2671011 0.06858478 -0.4637035 0.18123086 0.1304877 0.20356907 0.2936342 0.13486184 0.037875973 0.19276722 0.09384961 -0.1344513 0.08367628 -0.033627555 -0.057871204 0.012211694 -0.034249872 0.0066371784 -0.07415513 0.0025023983 0.21491645 0.32810038 -0.11104326 0.056425426 -0.18052036 0.21367711 0.07712551 -0.009251658 -0.074777864 0.021304209 0.22870736 0.11968556 0.26859564 0.16764562 0.024731668 -0.095669284 0.1045577 -0.09718262 -0.0920565 0.17513262 0.11171341 0.03655566 -0.048532423 -0.08461023 0.03267571 0.0687831 -0.038623326 -0.0623171 -0.031039836
0.04177722 -0.019913457 0.1272045 -0.027458848 -0.014746744 -0.12382578 0.08943237 -0.055306762 -0.15609328 -0.054697126 -0.0462432 -0.002466798 0.14512902 0.16448589 0.066592775 0.014609158 -0.022055047 -0.15359047 -0.083765045 -0.1287432 0.009373971 0.055170473 3.5817975e-05 -0.00910872 -0.11982372 -0.0946766 0.022550832 0.067143336 0.13181283 -0.020594507 0.013702813 0.22259778 0.10147192 0.031269 0.073159784 0.020044552 -0.11823735 -0.12132701 -0.03201721 -0.10960668 0.08237682 0.05422218 -0.110494405 -0.10644104 0.10098879 0.06445195 -0.010397514 -0.06770099 0.026347384 0.020564595 0.15083227 0.037853613 0.032997232 -0.122352555 0.006472995 -0.015497395 -0.06576402 -0.114239946 0.011710884 -0.045139 -7.8521987e-25 0.123766795 -0.00484927 -0.058284096 0.02917242 -0.029053034 -0.08513189 -0.101077214 -0.06573269 -0.05957299 0.040705442 -0.021122811 -0.017615292 -0.06463862 0.17707257 -0.080626406 0.078476906 -0.04493686 -0.04902385 0.090721846 -0.037716396 0.05104525 0.015552274 -0.019904785 -0.28358406 -0.054516528 -0.10710392 0.019407991 -0.03501862 0.03313227 -0.13348658 -0.11752968 0.023193382 -0.02021568 -0.06274129 -0.047891576 -0.06991685 -0.120797396 -0.11181652 -0.208463 0.005198503 -0.08437423 -0.1536089 0.0060094986 -0.09903291 -0.11971687 -0.08908928 -0.17167896 -0.09637994 -0.06597103 0.039566252 -0.15286583 -0.004961787 -0.14764343 -0.2048707 -0.0939832 -0.21343291 0.11089694 0.031667408 -0.0111490525 0.0072989166 -0.04660899 -0.23990183 0.0077483715 -0.01741083 -0.18478532 -0.0033175952 0.015085651
-0.12028491 -0.2884639 0.13431706 -0.16931176 -0.20309898 -0.14985569 -0.07619299 -0.25740042 -0.19783568 -0.3153745 -0.1561758 0.07695926 -0.061994758 0.33972308 0.26146266 0.18752052 -0.15292951 0.25460893 -0.22182365 -0.057067238 -0.04759466 0.001630834 0.031872436 -0.032505844 -0.20277885 0.11785737 0.35554057 -0.0633639 0.40057707 0.11065213 -0.22681774 0.15937452 0.11952046 0.26792592 -0.12243112 -0.11116727 0.11415195 0.013329405 0.07377218 0.081671506 0.11940504 -0.12469389 0.011668125 0.03011196 0.18780388 0.09119209 -0.029025698 0.10761579 0.24690557 0.15265852 -0.16066204 0.040252764 0.2838453 -0.1262792 -0.13816208 -0.10749652 0.17038584 -0.08599051 -0.24892865 -0.43681407 -0.22857118 0.08740315 0.13909017 -0.14697984 0.077594064 0.19315025 -0.2113868 0.21254182 0.65740323 0.11028713 0.21431488 -0.012387856 0.07188003 0.03058438 0.042580266 -0.011521374 0.24922743 -0.18196161 0.12763658 -0.31662926 0.08938613 0.06340495 0.11691779 -0.27587804 0.011056784 0.22074836 -0.17023063 0.14741667 0.109270245 -0.14945194 -0.08245238 -0.23420702 0.23866965 0.23453449 -0.15392761 -0.2892669 -0.3259897 -0.10207417 0.28468093 0.21342595 0.18045807 -0.115139194 0.10760938 -0.30470443 -0.06452121 0.055320583 0.28191996 0.14330623 -0.21307701 0.36424384 0.19580796 0.03352876 -0.12229232 0.223968 0.14039369 0.08987038 -0.15326415 -0.42850623 0.13747983 -0.07505764 0.14710401 0.11573967 -0.23203571 -0.08598863 0.30421954 0.14507218 -0.06747594 0.05698169
-0.032503083 -0.026011463 0.21242861 -0.0131816985 -0.036325842 -0.027364444 0.047907084 -0.0062217196 -0.018949857 -0.13120109 0.07204881 0.087048605 -0.037046652 0.21532224 0.16559884 0.07975453 -0.0006252938 0.20131022 -0.50948083 -0.0826001 0.132175 0.14415789 -0.057246212 0.012357498 0.022484781 0.20601098 0.28435355 0.13499495 0.5086292 0.09058445 -0.32810655 -0.0663145 0.21918677 -0.0016786731 -0.13589223 -0.092742145 0.22163951 0.04936297 0.044082813 -0.038353447 0.17797318 -0.2846741 0.24731039 0.10806757 0.3974217 0.18217954 0.0884301 -0.0068018483 0.38151303 -0.0039839083 0.007933195 0.21158378 0.30517495 -0.31325775 -0.32328966 -0.2801036 0.21243666 0.1570301 0.13398558 -0.43008563 -0.7865997 -0.12380861 0.19911127 -0.15886997 0.20765074 0.2040947 -0.20543353 0.1960397 0.759363 0.30783522 0.1852286 -0.106481686 0.20223683 0.087748 -0.068656094 -0.397637 -0.4508102 0.049155157 0.12025926 -0.401972 -0.122371845 0.24047129 0.040762804 -0.2897838 0.040714774 0.24649622 -0.18363482 0.14904858 0.100887574 0.09214558 0.030270105 -0.14781651 -0.062136557 0.71788675 0.08057037 -0.5454741 0.11625728 -0.07651396 0.38071382 0.20263197 0.20229442 -0.11427466 0.11855684 0.055034325 -0.14608845 0.14505607 0.34459254 -0.07684697 -0.844397 0.44224945 0.074256994 -0.0066954354 0.04690724 0.10708315 0.10341976 -0.07503602 -0.225828 -0.3164547 0.009952568 -0.09249179 0.027282996 0.26382163 -0.23174351 -0.32816535 0.22975555 0.2111352 -0.11389447 -0.026933607
-0.12166365 -0.14793621 0.04773547 -0.0117183905 -0.076793045 0.054204077 -0.07508398 -0.03485499 -0.15353747 -0.12872662 -0.22189996 0.0062381662 0.12984864 0.022287259 0.22693938 0.203188 -0.10826873 -0.025247896 -0.1914255 -0.21025416 0.102141805 0.116384044 0.15142839 -0.12613921 -0.07110454 -0.0982366 0.083626166 0.004960067 -0.019841505 -0.04022641 0.0077058524 -0.14958756 -0.19635661 0.097402476 0.16599968 -0.10188119 -0.042809233 0.033847783 0.054208253 -0.0401839 0.12356361 -0.08865195 0.021217009 -0.0438733 0.109529 0.24920493 -0.17039889 -0.028286424 -0.07051992 0.12584563 0.056577932 0.07864108 -0.011064735 0.12362717 0.05721708 -0.12119196 0.06646515 -0.039306194 -0.08035755 -0.077104226 0.3487272 -0.15740742 0.2811977 -0.3138446 0.08585533 0.038400076 0.044050653 -0.12753153 0.15384383 -0.07004117 -0.14822876 -0.09326604 -0.107729726 -0.09194634 -0.01565636 0.15365711 0.23899172 0.034373164 0.07393377 -0.101424165 -0.1125564 -0.78829044 -0.09078543 0.15081461 -0.012119538 -0.07350895 -0.12953818 -0.08242763 -0.08074762 -0.032418747 -0.1839707 -0.16858703 -0.0323685 0.22547624 0.022210285 -0.8040927 -0.0898066 -0.13350391 0.061475694 0.051119834 -0.0332096 -0.09467065 -0.03978321 -0.0055276724 0.027205037 -0.09612389 0.03210965 -0.09674697 0.04043733 0.051423814 -0.06578924 0.18624568 -0.04700691 -0.11525105 0.28332606 0.13076308 -0.14294413 -0.05973473 -0.3712328 -0.14721172 -0.07247818 0.010951092 -0.10257607 -0.08369189 -0.10700167 -0.09725769 -0.15955488 0.06985219
0.07487484 -0.07081159 0.23512653 -0.22041722 0.002562647 0.025551138 -0.029977178 -0.0006871731 0.06665836 -0.26244757 -0.06621427 0.1454755 0.025077196 0.3686023 0.08807251 0.1257373 0.21751504 0.16923259 -0.024649171 -0.07488381 -0.0038191585 -0.010193794 -0.13540214 -0.30042917 -0.04301266 -0.071314536 0.077574566 -0.049486946 0.42292446 -0.056225624 -0.05013964 0.13397066 0.013775115 0.17902845 0.20958497 0.020148804 -0.005376239 -0.095735505 -0.12895651 0.050914053 0.46184567 -0.04037934 0.045898795 0.0403633 0.0955943 -0.19773537 0.032719824 -0.070803456 0.23005688 0.15480834 -0.124021016 0.2069799 0.18401858 -0.14679918 -0.37507913 -0.00070631615 0.17888714 -0.12457941 -0.15829642 -0.16758874 -0.14759217 -0.05164005 -0.09326032 -0.1434321 0.29968795 0.15400282 -0.12165675 0.17830813 0.21883488 0.114271335 0.04843092 -0.022784729 -0.18964282 -0.003973465 -0.26819873 -0.054003283 0.14285196 -0.36705685 0.075428255 -0.2015991 -0.03802052 0.3109102 0.05800367 -0.2787193 -0.03846605 0.09907314 -0.25093395 0.21264902 0.047328364 -0.009313298 0.21401024 -0.064859584 0.14662418 0.10260845 -0.16125584 -0.034766197 0.011185561 -0.086627476 0.19370104 -0.061670654 0.079854056 0.022219993 -0.14007254 -0.2972154 -0.0319132 -0.13720769 0.058955655 0.11402243 -0.34838253 0.105633594 0.084679924 0.084601864 -0.1339326 0.042004123 -0.0645714 0.02125909 -0.2475403 -0.34201452 0.17525323 -0.05338681 0.12658246 -0.062910885 -0.08180969 -0.09718067 0.19392084 0.047233872 0.017330185 0.056140654
